{"learner":{"attributes":{"best_iteration":"99","best_ntree_limit":"100","scikit_learn":"{\"use_label_encoder\": null, \"n_estimators\": 100, \"objective\": \"binary:logistic\", \"max_depth\": null, \"max_leaves\": null, \"max_bin\": null, \"grow_policy\": null, \"learning_rate\": null, \"verbosity\": null, \"booster\": null, \"tree_method\": null, \"gamma\": null, \"min_child_weight\": null, \"max_delta_step\": null, \"subsample\": null, \"sampling_method\": null, \"colsample_bytree\": null, \"colsample_bylevel\": null, \"colsample_bynode\": null, \"reg_alpha\": null, \"reg_lambda\": null, \"scale_pos_weight\": null, \"base_score\": null, \"missing\": NaN, \"num_parallel_tree\": null, \"random_state\": null, \"n_jobs\": null, \"monotone_constraints\": null, \"interaction_constraints\": null, \"importance_type\": null, \"gpu_id\": null, \"validate_parameters\": null, \"predictor\": null, \"enable_categorical\": false, \"feature_types\": null, \"max_cat_to_onehot\": null, \"max_cat_threshold\": null, \"eval_metric\": null, \"early_stopping_rounds\": null, \"callbacks\": null, \"classes_\": [0, 1], \"n_classes_\": 2, \"_estimator_type\": \"classifier\"}"},"feature_names":["Sex","Diabetes status","Smoking status","HDL","Cholesterol","BMI","Age","Ventricular rate","P duration","PP interval","PQ interval","QRS number","QRS duration","QT interval","QTC interval","RR interval","P axis","R axis","T axis","Max carotid IMT 120 deg","Max carotid IMT 150 deg","Max carotid IMT 210 deg","Max carotid IMT 240 deg","Mean carotid IMT 120 deg","Mean carotid IMT 150 deg","Mean carotid IMT 210 deg","Mean carotid IMT 240 deg","Min carotid IMT 120 deg","Min carotid IMT 150 deg","Min carotid IMT 210 deg","Min carotid IMT 240 deg","Position of pulse wave notch","Position of pulse wave peak","Position of the shoulder on the pulse waveform","Pulse rate","Pulse wave Arterial Stiffness index","Pulse wave peak to peak time","Pulse wave reflection index","Average heart rate","Cardiac index","Cardiac output","LV ejection fraction","LV end diastolic volume","LV end systolic volume","LV stroke volume","Augmentation index for PWA","Central augmentation pressure during PWA","Central pulse pressure during PWA","Central systolic blood pressure during PWA","Diastolic blood pressure during PWA","End systolic blood pressure during PWA","End systolic pressure index during PWA","Mean arterial pressure during PWA","Number of beats in waveform average for PWA","Peripheral pulse pressure during PWA","Stroke volume during PWA","Systolic brachial blood pressure during PWA"],"feature_types":["float","float","float","float","float","float","float","float","float","float","float","float","float","float","float","float","float","float","float","float","float","float","float","float","float","float","float","float","float","float","float","float","float","float","float","float","float","float","float","float","float","float","float","float","float","float","float","float","float","float","float","float","float","float","float","float","float"],"gradient_booster":{"model":{"gbtree_model_param":{"num_parallel_tree":"1","num_trees":"100","size_leaf_vector":"0"},"tree_info":[0,0,0,0,0,0,0,0,0,0,0,0,0,0,0,0,0,0,0,0,0,0,0,0,0,0,0,0,0,0,0,0,0,0,0,0,0,0,0,0,0,0,0,0,0,0,0,0,0,0,0,0,0,0,0,0,0,0,0,0,0,0,0,0,0,0,0,0,0,0,0,0,0,0,0,0,0,0,0,0,0,0,0,0,0,0,0,0,0,0,0,0,0,0,0,0,0,0,0,0],"trees":[{"base_weights":[-0E0,-6.466685E-1,3.7882742E-1,-1.051079E0,-7.537248E-2,-1.3253393E-2,7.805088E-1,-1.2991014E0,-3.941276E-1,-5.735294E-1,2.0163488E-1,-4.6182153E-1,3.6451676E-1,1.2131562E0,5.56391E-1,-1.0637988E0,-1.6299741E0,-6.2786597E-1,2.1840874E-2,-7.2369313E-1,7.97546E-1,1.047669E-3,5.7225996E-1,6.2240665E-3,-8.333333E-1,5.3781513E-2,6.2935054E-1,1.5241158E0,1.0810568E0,2.9499322E-1,7.997473E-1,-7.298297E-1,-1.3839542E0,-1.1957104E0,-1.7292465E0,-8.9439374E-1,-7.008086E-2,-5.300353E-1,4.5303866E-1,-9.022186E-1,1.2307692E-1,1.2786885E0,-5.777778E-1,-1.3112818E-1,1.0181818E0,8.150289E-1,7.580175E-2,5.271523E-1,-3.279524E-1,-4.713151E-1,-1.1474904E0,1.351474E-1,-9.497207E-1,9.523132E-1,3.001443E-1,1.5392896E0,-1E0,9.585799E-1,1.451554E0,-5.2307695E-1,4.4311377E-1,7.1903753E-1,1.4534883E0,2.1383648E-1,-8.528428E-1,-0E0,-1.4482758E0,-1.3571428E0,2.4390244E-1,-1.7774799E0,-7.1794873E-1,-1.201613E0,-3.272727E-1,5.217391E-1,-6.3874346E-1,-2.3474178E-1,-1.3513514E0,-2.8125E-1,8.4033614E-1,-6.010929E-1,-1.3456032E0,-9.3670887E-1,5.7297295E-1,-5E-1,1.4909091E0,-1.7037038E0,9.0909094E-1,-4.972973E-1,1.5256009E-1,-7.058824E-1,1.3052632E0,1.1098901E0,4.8192772E-1,-7.6666665E-1,5.198238E-1,-5.7575756E-1,7.5598085E-1,1.9387755E-1,-5.855513E-1,-1.2223667E-1,-1.1956521E0,-1.2114924E0,6.956522E-1,-3.3579584E-2,4.8333332E-1,-1.7117118E0,2.777778E-1,5.3291535E-1,1.0715597E0,4.4334974E-2,6.574395E-1,-2.2222222E-1,1.5497836E0,1.0055522E0,-1.369863E-1,-1E0,1.4769797E0,-1.0655738E0,1.0232558E-1,1.9480519E-1,6.8128425E-1,9.798658E-1,5.6519306E-1,-1.2E0,1.5147929E0],"categories":[],"categories_nodes":[],"categories_segments":[],"categories_sizes":[],"default_left":[1,1,1,1,1,1,1,1,1,1,1,1,1,1,1,1,1,1,1,1,1,1,1,1,1,1,1,1,1,1,1,1,1,1,1,1,1,1,1,1,1,1,1,1,1,1,1,1,1,1,1,1,1,1,1,1,0,1,1,1,1,1,1,0,0,0,0,0,0,0,0,0,0,0,0,0,0,0,0,0,0,0,0,0,0,0,0,0,0,0,0,0,0,0,0,0,0,0,0,0,0,0,0,0,0,0,0,0,0,0,0,0,0,0,0,0,0,0,0,0,0,0,0,0,0],"id":0,"left_children":[1,3,5,7,9,11,13,15,17,19,21,23,25,27,29,31,33,35,37,39,41,43,45,47,49,51,53,55,57,59,61,63,65,67,69,71,73,75,77,79,81,83,85,87,89,91,93,95,97,99,101,103,105,107,109,111,-1,113,115,117,119,121,123,-1,-1,-1,-1,-1,-1,-1,-1,-1,-1,-1,-1,-1,-1,-1,-1,-1,-1,-1,-1,-1,-1,-1,-1,-1,-1,-1,-1,-1,-1,-1,-1,-1,-1,-1,-1,-1,-1,-1,-1,-1,-1,-1,-1,-1,-1,-1,-1,-1,-1,-1,-1,-1,-1,-1,-1,-1,-1,-1,-1,-1,-1],"loss_changes":[1.8238445E3,6.353335E2,7.3939386E2,2.6185986E2,1.5756581E2,4.0292206E2,2.2418457E2,8.923999E1,4.3061317E1,8.457858E1,5.4566906E1,1.8901761E2,1.061861E2,3.0824097E1,9.7059875E1,7.2311646E1,1.8786865E1,4.20839E1,3.837447E1,5.577939E1,2.7704159E1,6.4295265E1,3.1003448E1,8.40804E1,6.837988E1,4.87106E1,7.379355E1,1.0472839E1,2.394043E1,8.977863E1,4.071704E1,3.9389496E1,3.1067383E1,2.200232E1,1.7820557E1,3.301544E1,3.1547888E1,1.684173E1,2.5973473E1,3.9812958E1,3.1528282E1,1.2258423E1,2.038249E1,4.404218E1,2.8143425E1,1.6456932E1,3.2475426E1,4.807147E1,3.9667442E1,7.147374E1,3.9033936E1,3.2401264E1,4.233206E1,1.6995544E1,3.1640755E1,4.6375732E0,0E0,2.1880096E1,1.0000977E1,3.870201E1,3.6903557E1,2.7795898E1,1.5807449E1,0E0,0E0,0E0,0E0,0E0,0E0,0E0,0E0,0E0,0E0,0E0,0E0,0E0,0E0,0E0,0E0,0E0,0E0,0E0,0E0,0E0,0E0,0E0,0E0,0E0,0E0,0E0,0E0,0E0,0E0,0E0,0E0,0E0,0E0,0E0,0E0,0E0,0E0,0E0,0E0,0E0,0E0,0E0,0E0,0E0,0E0,0E0,0E0,0E0,0E0,0E0,0E0,0E0,0E0,0E0,0E0,0E0,0E0,0E0,0E0,0E0,0E0],"parents":[2147483647,0,0,1,1,2,2,3,3,4,4,5,5,6,6,7,7,8,8,9,9,10,10,11,11,12,12,13,13,14,14,15,15,16,16,17,17,18,18,19,19,20,20,21,21,22,22,23,23,24,24,25,25,26,26,27,27,28,28,29,29,30,30,31,31,32,32,33,33,34,34,35,35,36,36,37,37,38,38,39,39,40,40,41,41,42,42,43,43,44,44,45,45,46,46,47,47,48,48,49,49,50,50,51,51,52,52,53,53,54,54,55,55,57,57,58,58,59,59,60,60,61,61,62,62],"right_children":[2,4,6,8,10,12,14,16,18,20,22,24,26,28,30,32,34,36,38,40,42,44,46,48,50,52,54,56,58,60,62,64,66,68,70,72,74,76,78,80,82,84,86,88,90,92,94,96,98,100,102,104,106,108,110,112,-1,114,116,118,120,122,124,-1,-1,-1,-1,-1,-1,-1,-1,-1,-1,-1,-1,-1,-1,-1,-1,-1,-1,-1,-1,-1,-1,-1,-1,-1,-1,-1,-1,-1,-1,-1,-1,-1,-1,-1,-1,-1,-1,-1,-1,-1,-1,-1,-1,-1,-1,-1,-1,-1,-1,-1,-1,-1,-1,-1,-1,-1,-1,-1,-1,-1,-1],"split_conditions":[6.25E1,2.7407001E1,2.6381649E1,1.1975E2,9.458333E1,1.405E2,5.0705E0,5.15E1,7.99E2,5E-1,1.0825E2,1.4065E0,6.95E1,4.054E0,2.89972E1,1.4195E0,1.525E2,1.05E2,6.85E1,6.05E1,5.4969997E0,5E-1,1.1575E2,4.9595003E0,1.0016667E2,6.85E1,5.707E0,1.9416668E1,1.5358334E2,1.2525E2,5E-1,4.5E0,3.65E1,1.505E2,6.8500004E0,5E-1,9.66E2,1.4E2,2.447165E1,1.021E3,6.15E1,2.88445E1,2.65E1,2.99987E1,8.9E1,1.2185E0,6.105E2,2.27501E1,1.1324999E0,4.95E1,6.65E1,7.69E2,2.39251E1,1.225E1,5E-1,4.25E1,-3E-1,2.85E1,9.05E1,2.275E1,7.335E2,1.2395E0,3.875E2,6.4150944E-2,-2.5585285E-1,-0E0,-4.3448275E-1,-4.0714285E-1,7.317074E-2,-5.33244E-1,-2.1538463E-1,-3.6048388E-1,-9.818182E-2,1.5652174E-1,-1.9162305E-1,-7.042254E-2,-4.0540543E-1,-8.4375E-2,2.5210086E-1,-1.8032786E-1,-4.0368098E-1,-2.8101268E-1,1.718919E-1,-1.5E-1,4.4727275E-1,-5.1111114E-1,2.7272728E-1,-1.4918919E-1,4.5768026E-2,-2.1176472E-1,3.9157897E-1,3.3296704E-1,1.4457832E-1,-2.3E-1,1.5594715E-1,-1.7272727E-1,2.2679426E-1,5.8163267E-2,-1.7566541E-1,-3.6671E-2,-3.5869566E-1,-3.6344773E-1,2.0869567E-1,-1.0073876E-2,1.45E-1,-5.1351357E-1,8.333334E-2,1.5987462E-1,3.214679E-1,1.3300492E-2,1.9723184E-1,-6.666667E-2,4.649351E-1,3.0166566E-1,-4.109589E-2,-3E-1,4.4309393E-1,-3.1967217E-1,3.0697675E-2,5.844156E-2,2.0438528E-1,2.9395974E-1,1.6955793E-1,-3.6E-1,4.5443788E-1],"split_indices":[6,5,5,50,52,56,4,17,19,1,52,3,6,4,5,3,36,8,34,6,4,1,52,4,55,17,4,53,48,48,1,18,43,36,40,2,15,55,5,15,49,5,33,5,8,3,24,5,3,17,41,26,5,46,0,7,0,33,36,45,26,3,30,0,0,0,0,0,0,0,0,0,0,0,0,0,0,0,0,0,0,0,0,0,0,0,0,0,0,0,0,0,0,0,0,0,0,0,0,0,0,0,0,0,0,0,0,0,0,0,0,0,0,0,0,0,0,0,0,0,0,0,0,0,0],"split_type":[0,0,0,0,0,0,0,0,0,0,0,0,0,0,0,0,0,0,0,0,0,0,0,0,0,0,0,0,0,0,0,0,0,0,0,0,0,0,0,0,0,0,0,0,0,0,0,0,0,0,0,0,0,0,0,0,0,0,0,0,0,0,0,0,0,0,0,0,0,0,0,0,0,0,0,0,0,0,0,0,0,0,0,0,0,0,0,0,0,0,0,0,0,0,0,0,0,0,0,0,0,0,0,0,0,0,0,0,0,0,0,0,0,0,0,0,0,0,0,0,0,0,0,0,0],"sum_hessian":[7.443E3,2.74925E3,4.69375E3,1.60925E3,1.14E3,2.37575E3,2.318E3,1.1675E3,4.4175E2,4.07E2,7.33E2,1.086E3,1.28975E3,7.895E2,1.5285E3,6.8475E2,4.8275E2,2.825E2,1.5925E2,3.6725E2,3.975E1,4.7625E2,2.5675E2,4.81E2,6.05E2,5.94E2,6.9575E2,2.3225E2,5.5725E2,7.38E2,7.905E2,3.3675E2,3.48E2,9.225E1,3.905E2,1.9075E2,9.175E1,6.975E1,8.95E1,3.0325E2,6.4E1,2.95E1,1.025E1,4.2225E2,5.4E1,1.72E2,8.475E1,1.8775E2,2.9325E2,2.8225E2,3.2275E2,5.5025E2,4.375E1,3.5025E2,3.455E2,2.3125E2,1E0,4.215E2,1.3575E2,1.1275E2,6.2525E2,7.055E2,8.5E1,3.875E1,2.98E2,1.55E1,3.325E2,8.3E1,9.25E0,3.72E2,1.85E1,1.23E2,6.775E1,4.5E1,4.675E1,5.225E1,1.75E1,3.1E1,5.85E1,1.82E2,1.2125E2,1.875E1,4.525E1,3E0,2.65E1,5.75E0,4.5E0,1.84E2,2.3825E2,7.5E0,4.65E1,9E1,8.2E1,2.9E1,5.575E1,3.2E1,1.5575E2,9.7E1,1.9625E2,1.9125E2,9.1E1,3.1225E2,1.05E1,3.7125E2,1.79E2,2.675E1,1.7E1,7.875E1,2.715E2,2.02E2,1.435E2,1.25E0,2.3E2,4.0425E2,1.725E1,1E0,1.3475E2,6E1,5.275E1,3.07E2,3.1825E2,2.5975E2,4.4575E2,1.5E0,8.35E1],"tree_param":{"num_deleted":"0","num_feature":"57","num_nodes":"125","size_leaf_vector":"0"}},{"base_weights":[-8.1308244E-4,-5.172961E-1,2.521878E-1,-7.71896E-1,7.7274065E-3,1.1601675E-2,5.988121E-1,-9.8728937E-1,-2.7515236E-1,-1.1001465E-1,7.7965266E-1,-3.7179762E-1,2.599215E-1,8.572264E-1,4.0537763E-1,-1.189642E0,-7.3956585E-1,-5.0162935E-1,5.6299403E-2,-8.1875706E-1,-2.1483418E-2,9.204796E-1,-9.8712456E-1,-6.419844E-1,6.1978795E-2,7.5478834E-1,1.4889929E-1,7.5943494E-1,1.1979678E0,3.3885655E-1,8.8900626E-1,-1.3822856E0,-7.4380225E-1,-8.232637E-1,4.5040193E-1,-1.255874E0,-3.259833E-1,-4.4567716E-1,2.7755275E-1,-1.362745E0,-4.3168205E-1,-3.2712555E-1,1.6817866E-1,7.0715433E-1,1.804581E0,-1.6827211E0,6.0899353E-1,-9.224626E-1,-3.2353625E-1,2.872801E-1,-7.8278685E-1,1.755341E-1,8.720516E-1,-1.3768272E-1,3.0688667E-1,6.061077E-1,1.0000615E0,-1.3725628E0,1.2215549E0,1.2652087E-1,5.517795E-1,1.0856595E0,3.0811667E-1,-1.397182E0,1.264559E0,-9.122621E-1,7.8387785E-1,-1.1292425E0,-4.745384E-1,-1.0612378E0,8.571566E-1,-1.5226871E0,4.6589273E-1,-1.348424E-1,-1.1312181E0,-6.2776744E-2,-1.6580461E0,-1.0789102E0,4.370261E-1,-1.6099344E0,-2.1172996E-1,-9.77238E-1,2.7392057E-1,-1.0954869E0,-1.0656405E-1,-1.2190709E0,2.3363939E-1,-6.747273E-1,9.157792E-1,1.8663719E0,5.2128404E-1,-1.0855454E0,-9.258216E-2,-1.2775988E-2,-6.8072206E-1,1.2403592E0,1.13443874E-1,-9.622173E-1,1.3137426E0,6.714879E-1,-6.730669E-1,6.548612E-1,1.1616586E0,-3.95276E-1,1.6509846E-1,2.5858802E-1,1.2428689E0,6.5565807E-1,-3.9587548E-1,-1.2930906E0,1.0158652E0,1.2485864E0,-3.7323555E-1,-5.4275936E-1,2.2611779E-1,6.904427E-1,8.131295E-2,1.1785676E0,-5.5374587E-1,-7.548839E-1,9.4148374E-1],"categories":[],"categories_nodes":[],"categories_segments":[],"categories_sizes":[],"default_left":[1,1,1,1,1,1,1,1,1,1,1,1,1,1,1,1,1,1,1,1,1,1,1,1,1,1,1,1,1,1,1,1,1,1,1,1,1,1,1,1,1,1,1,1,1,0,0,1,1,1,1,1,1,1,1,1,1,0,1,1,1,1,1,0,0,0,0,0,0,0,0,0,0,0,0,0,0,0,0,0,0,0,0,0,0,0,0,0,0,0,0,0,0,0,0,0,0,0,0,0,0,0,0,0,0,0,0,0,0,0,0,0,0,0,0,0,0,0,0,0,0],"id":1,"left_children":[1,3,5,7,9,11,13,15,17,19,21,23,25,27,29,31,33,35,37,39,41,43,45,47,49,51,53,55,57,59,61,63,65,67,69,71,73,75,77,79,81,83,85,87,89,-1,-1,91,93,95,97,99,101,103,105,107,109,-1,111,113,115,117,119,-1,-1,-1,-1,-1,-1,-1,-1,-1,-1,-1,-1,-1,-1,-1,-1,-1,-1,-1,-1,-1,-1,-1,-1,-1,-1,-1,-1,-1,-1,-1,-1,-1,-1,-1,-1,-1,-1,-1,-1,-1,-1,-1,-1,-1,-1,-1,-1,-1,-1,-1,-1,-1,-1,-1,-1,-1,-1],"loss_changes":[9.539467E2,3.2085846E2,4.0862497E2,1.72682E2,7.141982E1,2.7557263E2,1.00004456E2,5.5621704E1,3.683334E1,4.276638E1,2.6783504E1,1.3339055E2,9.640201E1,2.7698303E1,3.669751E1,5.2115112E1,5.110681E1,3.8192276E1,2.2328129E1,1.5349041E1,3.5252052E1,1.698703E1,1.0084248E1,6.2330322E1,8.351348E1,2.169484E1,6.5060814E1,2.410672E1,1.31796875E1,4.5711266E1,1.5480186E1,1.8756348E1,4.9317245E1,5.0285187E1,2.1889977E1,2.5832245E1,3.643108E1,2.8466358E1,3.0621977E1,8.479988E0,1.7854277E1,3.93426E1,3.4369083E1,2.3582245E1,4.6860886E-1,0E0,0E0,5.0283813E1,3.6610905E1,5.721792E1,3.602565E1,2.3769392E1,1.6048843E1,3.992178E1,4.1540916E1,2.0698181E1,1.0705505E1,0E0,8.593292E0,3.4005096E1,3.2908203E1,1.634571E1,2.5224705E1,0E0,0E0,0E0,0E0,0E0,0E0,0E0,0E0,0E0,0E0,0E0,0E0,0E0,0E0,0E0,0E0,0E0,0E0,0E0,0E0,0E0,0E0,0E0,0E0,0E0,0E0,0E0,0E0,0E0,0E0,0E0,0E0,0E0,0E0,0E0,0E0,0E0,0E0,0E0,0E0,0E0,0E0,0E0,0E0,0E0,0E0,0E0,0E0,0E0,0E0,0E0,0E0,0E0,0E0,0E0,0E0,0E0,0E0],"parents":[2147483647,0,0,1,1,2,2,3,3,4,4,5,5,6,6,7,7,8,8,9,9,10,10,11,11,12,12,13,13,14,14,15,15,16,16,17,17,18,18,19,19,20,20,21,21,22,22,23,23,24,24,25,25,26,26,27,27,28,28,29,29,30,30,31,31,32,32,33,33,34,34,35,35,36,36,37,37,38,38,39,39,40,40,41,41,42,42,43,43,44,44,47,47,48,48,49,49,50,50,51,51,52,52,53,53,54,54,55,55,56,56,58,58,59,59,60,60,61,61,62,62],"right_children":[2,4,6,8,10,12,14,16,18,20,22,24,26,28,30,32,34,36,38,40,42,44,46,48,50,52,54,56,58,60,62,64,66,68,70,72,74,76,78,80,82,84,86,88,90,-1,-1,92,94,96,98,100,102,104,106,108,110,-1,112,114,116,118,120,-1,-1,-1,-1,-1,-1,-1,-1,-1,-1,-1,-1,-1,-1,-1,-1,-1,-1,-1,-1,-1,-1,-1,-1,-1,-1,-1,-1,-1,-1,-1,-1,-1,-1,-1,-1,-1,-1,-1,-1,-1,-1,-1,-1,-1,-1,-1,-1,-1,-1,-1,-1,-1,-1,-1,-1,-1,-1],"split_conditions":[6.15E1,2.8710152E1,2.7212101E1,1.0041667E2,9.95E2,1.3375E2,5.37E0,5E-1,1.0983333E2,5.35E1,2.205E2,6.95E1,4.7655E0,5E-1,1.6425E2,2.4416668E1,2.17E2,2.05E1,7.075E-1,6.255E2,8.5E1,6.05E1,6E1,2.440495E1,1.7314999E0,6.55E1,6.75E1,7.05E1,3.755E2,2.9825699E1,1.019E3,1.225E2,6.72E2,5.65E1,5.755E2,8.341667E1,7.375E1,2.375E1,1.37E2,1.85E2,3.65E1,2.98042E1,4.95E1,1.625E1,8.05E1,-5.0481635E-1,1.8269807E-1,8.15E1,5.7545004E0,4.1235E0,4.645E2,1.3E2,6.57E2,7.55E1,5E-1,5.95E1,3.63E2,-4.1176885E-1,1.875E1,1.2325E2,1.5455E0,7.825E-1,5.5E1,-4.191546E-1,3.7936774E-1,-2.7367863E-1,2.3516336E-1,-3.3877277E-1,-1.4236152E-1,-3.1837136E-1,2.5714698E-1,-4.5680615E-1,1.3976783E-1,-4.045272E-2,-3.3936542E-1,-1.8833024E-2,-4.9741384E-1,-3.2367307E-1,1.3110784E-1,-4.8298034E-1,-6.351899E-2,-2.931714E-1,8.217617E-2,-3.2864606E-1,-3.1969216E-2,-3.657213E-1,7.009182E-2,-2.0241821E-1,2.7473375E-1,5.599116E-1,1.5638521E-1,-3.2566363E-1,-2.7774649E-2,-3.8327966E-3,-2.0421663E-1,3.7210777E-1,3.4033164E-2,-2.886652E-1,3.941228E-1,2.0144638E-1,-2.0192008E-1,1.9645837E-1,3.484976E-1,-1.1858281E-1,4.952954E-2,7.757641E-2,3.7286067E-1,1.9669743E-1,-1.1876265E-1,-3.879272E-1,3.0475956E-1,3.7457594E-1,-1.1197067E-1,-1.6282782E-1,6.783534E-2,2.0713282E-1,2.4393884E-2,3.535703E-1,-1.6612376E-1,-2.2646518E-1,2.8244513E-1],"split_indices":[6,5,5,52,20,48,4,0,52,38,36,6,4,1,48,45,10,32,51,25,12,18,16,5,3,6,6,6,14,5,15,47,27,6,25,47,47,45,10,10,18,5,6,45,7,0,0,34,4,4,14,55,29,49,1,17,27,0,53,48,3,51,16,0,0,0,0,0,0,0,0,0,0,0,0,0,0,0,0,0,0,0,0,0,0,0,0,0,0,0,0,0,0,0,0,0,0,0,0,0,0,0,0,0,0,0,0,0,0,0,0,0,0,0,0,0,0,0,0,0,0],"split_type":[0,0,0,0,0,0,0,0,0,0,0,0,0,0,0,0,0,0,0,0,0,0,0,0,0,0,0,0,0,0,0,0,0,0,0,0,0,0,0,0,0,0,0,0,0,0,0,0,0,0,0,0,0,0,0,0,0,0,0,0,0,0,0,0,0,0,0,0,0,0,0,0,0,0,0,0,0,0,0,0,0,0,0,0,0,0,0,0,0,0,0,0,0,0,0,0,0,0,0,0,0,0,0,0,0,0,0,0,0,0,0,0,0,0,0,0,0,0,0,0,0],"sum_hessian":[7.298391E3,2.3993162E3,4.899075E3,1.6154601E3,7.8385614E2,2.892484E3,2.0065912E3,1.1261582E3,4.8930185E2,6.808615E2,1.0299459E2,1.1367988E3,1.7556849E3,8.575438E2,1.1490474E3,6.1774884E2,5.0840936E2,2.9037717E2,1.9892467E2,7.4688644E1,6.061729E2,9.583477E1,7.1598268E0,7.0019055E2,4.3660834E2,3.206466E2,1.4350383E3,6.68823E2,1.8872084E2,1.01160583E3,1.3744145E2,4.2989456E2,1.8785426E2,4.752876E2,3.3121765E1,5.3687366E1,2.366898E2,6.054551E1,1.3837917E2,3.0002737E1,4.4685905E1,2.3183841E2,3.7433447E2,7.865575E1,1.7179024E1,4.9488387E0,2.210988E0,3.7128165E2,3.2890887E2,3.4520197E2,9.140639E1,5.4403343E1,2.662433E2,5.100177E2,9.250206E2,4.1066577E2,2.5815723E2,1.1959398E0,1.875249E2,5.0729962E2,5.043062E2,1.02031075E2,3.5410374E1,4.2795816E2,1.9364076E0,1.6955951E2,1.8294764E1,2.5196771E2,2.2331989E2,6.681602E0,2.644016E1,4.65841E1,7.103266E0,1.9222765E2,4.446217E1,4.681256E1,1.373295E1,1.3950688E1,1.2442847E2,2.4370312E1,5.6324234E0,2.4983929E1,1.9701977E1,5.082268E1,1.8101573E2,1.6073816E1,3.5826065E2,1.0024127E1,6.8631615E1,1.59563675E1,1.2226566E0,3.100454E2,6.123624E1,1.764387E2,1.5247017E2,5.230392E1,2.9289804E2,8.469855E1,6.70784E0,3.4467796E1,1.9935545E1,1.5400708E2,1.122362E2,2.7540738E2,2.3461032E2,8.808435E2,4.4177094E1,3.9164374E2,1.902202E1,1.2137713E0,2.5694345E2,1.8461281E2,2.9120898E0,6.513696E1,4.4216266E2,3.891441E2,1.1516211E2,9.682493E1,5.206145E0,1.3149419E1,2.2260954E1],"tree_param":{"num_deleted":"0","num_feature":"57","num_nodes":"121","size_leaf_vector":"0"}},{"base_weights":[-2.0476729E-3,-2.7872822E-1,2.6868448E-1,-6.089496E-1,-3.8485195E-2,-2.2413352E-1,3.5206056E-1,-8.0998594E-1,-2.2989596E-1,-1.1862292E-1,7.8251135E-1,-4.720956E-1,2.487536E-1,6.5052915E-1,2.1760684E-1,-1.0648408E0,-5.154508E-1,-6.5562785E-1,-3.614232E-2,-4.842272E-1,2.5333373E-2,8.656257E-1,-2.3556328E-1,-8.515194E-1,4.085269E-2,-1.1419469E-1,7.475534E-1,5.338486E-1,8.545453E-1,-1.2232003E-1,3.5014015E-1,-1.1005074E0,3.3724508E-1,-2.8462458E-1,-8.7667555E-1,7.9681724E-2,-9.3513286E-1,-1.0128357E0,5.9766613E-2,-6.839011E-1,-3.808413E-2,-9.825067E-2,4.175088E-1,1.0503678E0,4.581355E-1,1.0117533E0,-1.1695617E0,4.552818E-1,-1.010194E0,2.0163229E-1,-1.250446E0,8.697955E-1,-3.2363516E-1,1.1142876E0,9.576762E-2,3.9478678E-1,9.293945E-1,3.3632445E-1,9.302703E-1,3.729166E-2,-7.0990026E-1,3.259112E-1,1.2979435E0,1.362359E0,-1.1158025E0,1.6099602E0,-8.378889E-1,-5.984044E-1,1.2907715E-1,-2.936389E-1,-1.2249838E0,1.3036834E0,-3.193517E-1,-7.178027E-1,-1.6673007E0,-1.3159208E0,6.1443985E-1,1.1657634E-1,-1.5939453E0,1.0716503E0,-7.438504E-1,-4.1026413E-1,5.610749E-1,6.5286174E-2,-4.1692165E-1,-2.0972012E-1,5.576815E-1,-1.0150356E0,1.0854151E0,-9.4985245E-3,1.2361248E0,-1.3438468E-2,1.4104402E0,-1.5114722E0,5.468097E-1,1.5135372E0,-5.0569624E-1,-1.5842719E-2,-1.148008E0,-1.2398853E0,3.133494E-1,-1.1142653E-1,-1.9264756E0,-1.4202229E0,1.2622278E0,-7.649889E-1,3.3362177E-1,-1.3079778E0,1.2034615E0,6.90034E-1,-1.6965526E0,-3.5104193E-2,5.363795E-1,9.545951E-1,-1.286927E0,-1.2566718E-1,1.1777711E0,-5.436164E-1,9.5838344E-1,-1.0170751E0,1.2335895E-1,-1.14348E0,-1.9763692E-1,3.7607622E-1,-1.4725415E-1,1.4046636E0,-2.7431554E-1],"categories":[],"categories_nodes":[],"categories_segments":[],"categories_sizes":[],"default_left":[1,1,1,1,1,1,1,1,1,1,1,1,1,1,1,1,1,1,1,1,1,1,1,1,1,1,1,1,1,1,1,1,1,1,1,1,1,1,1,1,1,1,1,1,1,1,1,1,1,1,1,1,1,1,1,1,1,1,1,1,1,1,1,0,0,0,0,0,0,0,0,0,0,0,0,0,0,0,0,0,0,0,0,0,0,0,0,0,0,0,0,0,0,0,0,0,0,0,0,0,0,0,0,0,0,0,0,0,0,0,0,0,0,0,0,0,0,0,0,0,0,0,0,0,0,0,0],"id":2,"left_children":[1,3,5,7,9,11,13,15,17,19,21,23,25,27,29,31,33,35,37,39,41,43,45,47,49,51,53,55,57,59,61,63,65,67,69,71,73,75,77,79,81,83,85,87,89,91,93,95,97,99,101,103,105,107,109,111,113,115,117,119,121,123,125,-1,-1,-1,-1,-1,-1,-1,-1,-1,-1,-1,-1,-1,-1,-1,-1,-1,-1,-1,-1,-1,-1,-1,-1,-1,-1,-1,-1,-1,-1,-1,-1,-1,-1,-1,-1,-1,-1,-1,-1,-1,-1,-1,-1,-1,-1,-1,-1,-1,-1,-1,-1,-1,-1,-1,-1,-1,-1,-1,-1,-1,-1,-1,-1],"loss_changes":[5.2940155E2,2.7727484E2,1.4685623E2,1.1198175E2,1.3328392E2,6.0799362E1,1.2248242E2,7.1619995E1,4.2169838E1,9.712923E1,1.5448555E1,6.617553E1,3.243157E1,2.2122528E1,9.501862E1,2.6100037E1,3.7099403E1,3.294303E1,3.308895E1,4.6417427E1,6.425403E1,1.2073875E1,1.7940676E1,4.097505E1,3.044926E1,2.177352E1,1.7912552E1,3.2969986E1,1.31642E1,5.5557793E1,3.441472E1,2.0429321E1,2.158264E1,3.5746395E1,3.5007736E1,2.238007E1,1.725457E1,1.6385536E1,3.0437384E1,3.869557E1,3.6411148E1,5.2570885E1,2.8045311E1,9.352318E0,1.9584372E1,2.7554793E0,5.925544E0,2.2980993E1,2.3900528E1,2.1356962E1,1.2292952E1,1.848359E1,2.5409225E1,1.1973995E1,3.1246693E1,2.7419533E1,9.992401E0,1.7778233E1,1.2913513E1,4.2465984E1,2.7878265E1,3.51985E1,6.673916E0,0E0,0E0,0E0,0E0,0E0,0E0,0E0,0E0,0E0,0E0,0E0,0E0,0E0,0E0,0E0,0E0,0E0,0E0,0E0,0E0,0E0,0E0,0E0,0E0,0E0,0E0,0E0,0E0,0E0,0E0,0E0,0E0,0E0,0E0,0E0,0E0,0E0,0E0,0E0,0E0,0E0,0E0,0E0,0E0,0E0,0E0,0E0,0E0,0E0,0E0,0E0,0E0,0E0,0E0,0E0,0E0,0E0,0E0,0E0,0E0,0E0,0E0,0E0,0E0],"parents":[2147483647,0,0,1,1,2,2,3,3,4,4,5,5,6,6,7,7,8,8,9,9,10,10,11,11,12,12,13,13,14,14,15,15,16,16,17,17,18,18,19,19,20,20,21,21,22,22,23,23,24,24,25,25,26,26,27,27,28,28,29,29,30,30,31,31,32,32,33,33,34,34,35,35,36,36,37,37,38,38,39,39,40,40,41,41,42,42,43,43,44,44,45,45,46,46,47,47,48,48,49,49,50,50,51,51,52,52,53,53,54,54,55,55,56,56,57,57,58,58,59,59,60,60,61,61,62,62],"right_children":[2,4,6,8,10,12,14,16,18,20,22,24,26,28,30,32,34,36,38,40,42,44,46,48,50,52,54,56,58,60,62,64,66,68,70,72,74,76,78,80,82,84,86,88,90,92,94,96,98,100,102,104,106,108,110,112,114,116,118,120,122,124,126,-1,-1,-1,-1,-1,-1,-1,-1,-1,-1,-1,-1,-1,-1,-1,-1,-1,-1,-1,-1,-1,-1,-1,-1,-1,-1,-1,-1,-1,-1,-1,-1,-1,-1,-1,-1,-1,-1,-1,-1,-1,-1,-1,-1,-1,-1,-1,-1,-1,-1,-1,-1,-1,-1,-1,-1,-1,-1,-1,-1,-1,-1,-1,-1],"split_conditions":[6.55E1,2.57647E1,2.2691849E1,1.3658334E2,5E-1,7.745E2,5.0664997E0,5E-1,2.282345E1,5.55E1,6.948E0,1.1825E2,1.75E2,4.335E2,9.341667E1,1.23E2,5.15E1,1.575E1,5.15E1,3.103125E1,1.0825E2,7.325E-1,1.175E1,4.401E0,6.35E2,6.445E2,5.8435E0,8.355E2,3.85E1,1.7265E0,4.805E2,2.3E1,5.45E1,9.875E1,1.465E2,5.175E2,2.227615E1,7.05E1,7.35E1,5.075E-1,8.335E2,1.4505E0,6.825E-1,3.8E2,9.43E2,3.357925E1,5.95E0,2.05E1,2.35E1,5.685E2,7.89E2,1.5745E0,6.65E1,8.57E2,6.8E1,1.2725E2,9E1,2.625E1,2.75E0,1.025E1,4.295E2,7.4005003E0,6E1,4.0870774E-1,-3.3474076E-1,4.829881E-1,-2.5136667E-1,-1.7952132E-1,3.872315E-2,-8.809168E-2,-3.6749515E-1,3.9110503E-1,-9.580552E-2,-2.1534082E-1,-5.0019026E-1,-3.9477625E-1,1.8433195E-1,3.4972902E-2,-4.781836E-1,3.214951E-1,-2.2315513E-1,-1.2307925E-1,1.6832247E-1,1.9585853E-2,-1.250765E-1,-6.291604E-2,1.6730446E-1,-3.045107E-1,3.2562456E-1,-2.8495574E-3,3.7083745E-1,-4.0315404E-3,4.231321E-1,-4.5344168E-1,1.640429E-1,4.5406118E-1,-1.5170887E-1,-4.7528157E-3,-3.444024E-1,-3.7196562E-1,9.4004825E-2,-3.342796E-2,-5.779427E-1,-4.2606688E-1,3.7866834E-1,-2.2949667E-1,1.0008653E-1,-3.9239335E-1,3.6103848E-1,2.070102E-1,-5.089658E-1,-1.0531258E-2,1.6091385E-1,2.8637853E-1,-3.8607812E-1,-3.7700158E-2,3.5333133E-1,-1.6308492E-1,2.8751504E-1,-3.0512252E-1,3.7007686E-2,-3.4304398E-1,-5.9291076E-2,1.1282287E-1,-4.4176247E-2,4.213991E-1,-8.2294665E-2],"split_indices":[6,5,5,48,1,26,4,0,5,6,4,50,10,14,52,8,17,45,41,5,52,51,53,4,30,23,4,24,31,3,14,43,41,55,42,24,5,16,17,51,22,3,51,14,22,5,40,33,18,23,19,3,38,15,16,48,34,45,46,45,14,4,17,0,0,0,0,0,0,0,0,0,0,0,0,0,0,0,0,0,0,0,0,0,0,0,0,0,0,0,0,0,0,0,0,0,0,0,0,0,0,0,0,0,0,0,0,0,0,0,0,0,0,0,0,0,0,0,0,0,0,0,0,0,0,0,0],"split_type":[0,0,0,0,0,0,0,0,0,0,0,0,0,0,0,0,0,0,0,0,0,0,0,0,0,0,0,0,0,0,0,0,0,0,0,0,0,0,0,0,0,0,0,0,0,0,0,0,0,0,0,0,0,0,0,0,0,0,0,0,0,0,0,0,0,0,0,0,0,0,0,0,0,0,0,0,0,0,0,0,0,0,0,0,0,0,0,0,0,0,0,0,0,0,0,0,0,0,0,0,0,0,0,0,0,0,0,0,0,0,0,0,0,0,0,0,0,0,0,0,0,0,0,0,0,0,0],"sum_hessian":[7.0655146E3,3.4943542E3,3.5711602E3,1.4709517E3,2.0234026E3,5.165074E2,3.0546526E3,9.604349E2,5.1051678E2,1.8442412E3,1.7916144E2,3.3883716E2,1.7767026E2,9.4749866E2,2.107154E3,5.134995E2,4.469354E2,1.5892642E2,3.5159036E2,5.2035004E2,1.3238912E3,1.6577733E2,1.3384108E1,1.9438907E2,1.4444809E2,1.0328597E2,7.438428E1,6.050666E2,3.4243207E2,5.9111505E2,1.516039E3,5.0097083E2,1.2528701E1,2.737771E2,1.731583E2,4.3969173E1,1.14957245E2,3.058331E1,3.2100705E2,3.590999E2,1.612501E2,1.007236E3,3.1665515E2,1.12978905E2,5.2798424E1,5.69518E0,7.6889277E0,2.0845106E1,1.7354396E2,1.2920467E2,1.5243421E1,1.7572792E1,8.571318E1,4.7146954E1,2.7237322E1,4.4915543E2,1.5591116E2,4.4352077E1,2.9808E2,4.6558026E2,1.255348E2,1.4795604E3,3.6478584E1,2.5484016E0,4.9842242E2,5.8369923E0,6.691709E0,1.5543674E2,1.1834036E2,6.544773E1,1.0771056E2,1.0252717E1,3.3716457E1,9.017182E1,2.4785423E1,2.594273E1,4.640578E0,3.1124442E2,9.762629E0,1.1300527E1,3.4779938E2,9.96597E1,6.1590412E1,6.661656E2,3.410704E2,5.7749226E1,2.5890594E2,1.4185641E0,1.1156034E2,3.3593704E1,1.9204723E1,1.8652167E0,3.8299632E0,6.5112343E0,1.1776935E0,9.646794E0,1.1198311E1,2.126054E1,1.5228342E2,8.56677E0,1.206379E2,6.111383E0,9.132038E0,2.187679E0,1.5385113E1,5.118087E1,3.453231E1,1.1887524E0,4.5958202E1,2.0917025E1,6.3202977E0,1.1147061E2,3.376848E2,1.547212E2,1.1899636E0,2.9181042E1,1.5171037E1,5.235981E0,2.92844E2,3.432047E1,4.312598E2,6.7321594E1,5.82132E1,1.3379192E3,1.4164116E2,3.4259735E1,2.2188492E0],"tree_param":{"num_deleted":"0","num_feature":"57","num_nodes":"127","size_leaf_vector":"0"}},{"base_weights":[-3.0800444E-3,-3.3813062E-1,1.296273E-1,-5.6476814E-1,-5.6387484E-2,7.309055E-2,7.796132E-1,-6.2408876E-1,5.291186E-1,-3.7237263E-1,1.1637109E-1,-5.639223E-2,3.299815E-1,-1.4371352E0,7.9100865E-1,2.6389557E-1,-6.6842914E-1,-1.2495244E0,6.2774664E-1,-1.886146E-1,-7.458123E-1,5.5121374E-1,-5.4319788E-2,-2.611389E-1,1.3198432E-1,5.939541E-1,2.3148195E-1,8.103417E-1,-6.033266E-1,-1.0479144E0,8.1357384E-1,-4.867262E-1,-8.913275E-1,1.1132271E0,2.2166224E-1,-6.6784215E-1,3.462666E-2,-8.3660233E-1,1.1113671E0,2.2296138E-2,7.8579944E-1,-1.4162056E-1,7.1008426E-1,-3.6124927E-1,2.9352206E-1,7.2623473E-1,7.1475334E-2,1.0910414E0,5.138388E-1,-1.08781025E-1,2.9912803E-1,3.3706784E-1,8.6632216E-1,-1.8407849E0,7.1474016E-1,-1.3389643E0,7.761925E-1,2.2072001E-1,2.0307858E0,-1.0863372E0,-4.0331474E-1,-9.2347616E-1,7.0872146E-1,1.3079058E0,-5.6341565E-1,7.476802E-1,-4.9602184E-1,-1.3560334E0,-2.3710008E-1,2.661314E-1,-5.664183E-1,-9.171161E-1,1.1050096E0,-1.5838476E0,2.8976667E-1,2.958313E-2,1.0126987E0,-2.879332E-1,3.6854807E-1,-1.4203962E0,9.6052545E-1,-5.945034E-1,-1.5036793E-1,4.3393582E-1,-4.982191E-1,-3.6894867E-1,8.339298E-1,4.9817443E-1,5.8686985E-3,1.1359934E0,-2.4141346E-1,-1.3465302E0,5.316735E-1,-1.8875927E-1,1.10522E0,1.8132807E-1,5.663E-1,-1.1489278E0,5.892675E-1,9.0538204E-1,3.645603E-2,2.0945111E-1,8.3349234E-1],"categories":[],"categories_nodes":[],"categories_segments":[],"categories_sizes":[],"default_left":[1,1,1,1,1,1,1,1,1,1,1,1,1,0,1,1,1,0,1,1,1,1,1,1,1,1,1,1,1,1,1,1,1,1,1,1,1,1,0,1,1,1,1,1,1,1,1,1,1,1,1,1,1,0,1,0,0,0,0,0,0,0,0,0,0,0,0,0,0,0,0,0,0,0,0,0,0,0,0,0,0,0,0,0,0,0,0,0,0,0,0,0,0,0,0,0,0,0,0,0,0,0,0],"id":3,"left_children":[1,3,5,7,9,11,13,15,17,19,21,23,25,-1,27,29,31,-1,33,35,37,39,41,43,45,47,49,51,53,55,57,59,61,63,65,67,69,71,-1,73,75,77,79,81,83,85,87,89,91,93,95,97,99,-1,101,-1,-1,-1,-1,-1,-1,-1,-1,-1,-1,-1,-1,-1,-1,-1,-1,-1,-1,-1,-1,-1,-1,-1,-1,-1,-1,-1,-1,-1,-1,-1,-1,-1,-1,-1,-1,-1,-1,-1,-1,-1,-1,-1,-1,-1,-1,-1,-1],"loss_changes":[3.0368057E2,1.2369678E2,1.7972124E2,7.00061E1,4.725965E1,1.4976195E2,1.102327E1,4.029721E1,1.0568604E1,2.0855942E1,4.1592766E1,1.1551147E2,3.9093216E1,0E0,1.1002502E1,3.6313866E1,3.8884796E1,0E0,1.0302526E1,2.2104965E1,1.788689E1,1.9578648E1,2.6996067E1,7.978769E1,5.6041832E1,1.5742249E1,2.5361752E1,9.911163E0,1.0950352E1,8.9811E0,2.4967203E1,2.642086E1,2.3019073E1,8.611052E0,1.184211E1,1.9137428E1,1.9876015E1,1.6091324E1,0E0,2.1747559E1,1.8738205E1,2.7168615E1,2.3495045E1,5.9726562E1,2.4668772E1,1.7298592E1,3.966342E1,3.6242447E0,1.2475899E1,1.7998632E1,2.8796005E1,1.6556267E1,1.1109131E1,0E0,4.027891E-2,0E0,0E0,0E0,0E0,0E0,0E0,0E0,0E0,0E0,0E0,0E0,0E0,0E0,0E0,0E0,0E0,0E0,0E0,0E0,0E0,0E0,0E0,0E0,0E0,0E0,0E0,0E0,0E0,0E0,0E0,0E0,0E0,0E0,0E0,0E0,0E0,0E0,0E0,0E0,0E0,0E0,0E0,0E0,0E0,0E0,0E0,0E0,0E0],"parents":[2147483647,0,0,1,1,2,2,3,3,4,4,5,5,6,6,7,7,8,8,9,9,10,10,11,11,12,12,14,14,15,15,16,16,18,18,19,19,20,20,21,21,22,22,23,23,24,24,25,25,26,26,27,27,28,28,29,29,30,30,31,31,32,32,33,33,34,34,35,35,36,36,37,37,39,39,40,40,41,41,42,42,43,43,44,44,45,45,46,46,47,47,48,48,49,49,50,50,51,51,52,52,54,54],"right_children":[2,4,6,8,10,12,14,16,18,20,22,24,26,-1,28,30,32,-1,34,36,38,40,42,44,46,48,50,52,54,56,58,60,62,64,66,68,70,72,-1,74,76,78,80,82,84,86,88,90,92,94,96,98,100,-1,102,-1,-1,-1,-1,-1,-1,-1,-1,-1,-1,-1,-1,-1,-1,-1,-1,-1,-1,-1,-1,-1,-1,-1,-1,-1,-1,-1,-1,-1,-1,-1,-1,-1,-1,-1,-1,-1,-1,-1,-1,-1,-1,-1,-1,-1,-1,-1,-1],"split_conditions":[6.05E1,9.783333E1,5E-1,5E-1,6.85E1,2.7776798E1,5E-1,9.45E1,4.965E2,1.4745E0,1.1145E0,1.1683333E2,5.035E0,-4.3114057E-1,1.251E3,8.5819E0,1.4325E0,-3.748573E-1,4.76E2,1.1145E0,7.75E1,8.5E1,3.65E0,7.35E1,4.65E1,3.7085E0,1.45E2,5.685E2,1.245E2,1.99E2,1.785E2,1.45E1,3.375E1,5.965E2,5.55E1,5.195E2,4.15E1,1.235E2,3.3341014E-1,7.9E1,5.35E1,3.19916E1,1.2904999E0,5E-1,6.5745E0,5.845E2,9.65E1,1.097E3,-3.2E1,1.04E3,1.3025E2,4.215E2,7.092E0,-5.522355E-1,1.82E2,-4.0168932E-1,2.3285775E-1,6.621601E-2,6.0923576E-1,-3.2590118E-1,-1.2099443E-1,-2.7704287E-1,2.1261644E-1,3.9237174E-1,-1.690247E-1,2.2430407E-1,-1.4880656E-1,-4.0681005E-1,-7.113003E-2,7.983942E-2,-1.699255E-1,-2.7513483E-1,3.3150288E-1,-4.751543E-1,8.693001E-2,8.87494E-3,3.038096E-1,-8.637996E-2,1.10564426E-1,-4.2611888E-1,2.8815764E-1,-1.7835103E-1,-4.5110382E-2,1.3018075E-1,-1.4946574E-1,-1.106846E-1,2.5017893E-1,1.4945233E-1,1.7606096E-3,3.4079802E-1,-7.242404E-2,-4.0395907E-1,1.5950206E-1,-5.6627784E-2,3.31566E-1,5.4398425E-2,1.6989E-1,-3.4467834E-1,1.7678025E-1,2.716146E-1,1.093681E-2,6.2835336E-2,2.500477E-1],"split_indices":[6,52,1,1,34,5,45,56,25,3,3,50,4,0,20,35,3,0,28,3,38,12,39,6,41,4,10,25,55,10,36,33,46,29,41,28,18,43,0,55,6,5,3,0,4,24,42,19,18,24,50,30,4,0,10,0,0,0,0,0,0,0,0,0,0,0,0,0,0,0,0,0,0,0,0,0,0,0,0,0,0,0,0,0,0,0,0,0,0,0,0,0,0,0,0,0,0,0,0,0,0,0,0],"split_type":[0,0,0,0,0,0,0,0,0,0,0,0,0,0,0,0,0,0,0,0,0,0,0,0,0,0,0,0,0,0,0,0,0,0,0,0,0,0,0,0,0,0,0,0,0,0,0,0,0,0,0,0,0,0,0,0,0,0,0,0,0,0,0,0,0,0,0,0,0,0,0,0,0,0,0,0,0,0,0,0,0,0,0,0,0,0,0,0,0,0,0,0,0,0,0,0,0,0,0,0,0,0,0],"sum_hessian":[6.8278726E3,1.9366927E3,4.8911797E3,1.0727529E3,8.6393976E2,4.500805E3,3.9037433E2,1.0179783E3,5.4774677E1,3.049725E2,5.589673E2,2.9930002E3,1.5078052E3,1.356629E0,3.890177E2,4.81785E1,9.6979974E2,2.2646825E0,5.2509995E1,2.0540443E2,9.9568054E1,1.5693614E2,4.0203116E2,1.433999E3,1.5590011E3,4.0836975E2,1.0994354E3,3.841107E2,4.907025E0,1.3958961E1,3.4219543E1,5.360249E2,4.3377484E2,2.3123775E1,2.9386219E1,6.464365E1,1.407608E2,9.545135E1,4.1167026E0,4.8554947E1,1.083812E2,3.6155368E2,4.0477463E1,1.215045E3,2.1895396E2,1.4305693E2,1.4159442E3,5.492998E1,3.5343976E2,1.8222528E2,9.1721014E2,4.13709E1,3.4273978E2,2.326359E0,2.580666E0,1.2267544E1,1.6914167E0,2.380597E1,1.0413574E1,6.399159E1,4.7203336E2,4.2564548E2,8.129354E0,2.0915194E1,2.2085829E0,1.6933336E1,1.2452882E1,2.4058132E1,4.058551E1,1.0202212E2,3.873868E1,9.215746E1,3.2938864E0,6.2289453E0,4.2326E1,2.5274843E1,8.310635E1,2.8131128E2,8.024242E1,3.766302E0,3.671116E1,5.760556E2,6.3898944E2,1.8635602E2,3.259795E1,1.259086E1,1.3046608E2,1.8781573E2,1.2281284E3,5.3279964E1,1.6500177E0,2.6486945E0,3.5079108E2,1.7175462E2,1.0470659E1,6.3771234E2,2.7949777E2,5.486724E0,3.5884174E1,3.2724606E2,1.5493713E1,1.0170211E0,1.563645E0],"tree_param":{"num_deleted":"0","num_feature":"57","num_nodes":"103","size_leaf_vector":"0"}},{"base_weights":[-2.7919053E-3,-1.4611037E-1,2.0446353E-1,-4.2587006E-1,-3.6553945E-2,6.299273E-2,3.6051157E-1,-5.4222214E-1,-6.4893006E-3,-1.569986E-1,1.1712214E-1,-4.6480455E-2,3.253366E-1,2.746795E-1,5.8740234E-1,-6.7532295E-1,-2.6959556E-1,-7.5980745E-2,1.8575554E0,-2.9943764E-1,1.5117179E-1,1.1518262E-3,4.0486974E-1,5.3419735E-2,-4.383584E-1,1.3128859E0,2.7825096E-1,2.0438899E-1,7.2191733E-1,-1.891965E0,6.069775E-1,-7.2668475E-1,5.9788716E-1,3.6296228E-1,-4.0582517E-1,1.7107238E-1,-5.105514E-1,2.5585897E-2,2.3137617E0,-6.5139645E-1,-1.9225578E-1,2.3341287E-2,5.7969147E-1,7.8995544E-1,-3.5327025E-2,9.933585E-2,6.314369E-1,-6.378966E-2,3.6934203E-1,-1.2320446E0,-2.0732184E-1,1.6250107E0,-4.826576E-3,4.880696E-1,5.1925927E-2,1.4131309E-1,6.648898E-1,7.63806E-1,-1.4352245E0,-5.054802E-1,6.4242023E-1,-3.8325867E-1,-8.313243E-1,-8.813004E-1,1.1289781E0,-1.18539E0,6.8020016E-1,-1.0174111E0,-2.2601902E-1,-1.2533306E-1,5.881695E-1,-7.309607E-1,3.4808353E-1,-9.4816613E-1,-3.2051647E-1,-5.2699707E-2,-6.1896646E-1,7.454233E-2,-1.2244093E0,7.3698103E-1,-6.860359E-1,1.6272122E0,3.4497492E-2,-5.820247E-1,1.8434392E-2,-6.21337E-1,3.1185478E-1,-1.6887093E0,6.6717243E-1,-1.220919E0,-1.0890098E-2,-6.289704E-1,4.5891488E-1,4.5875114E-1,-1.4066212E0,-7.253835E-2,-1.5297059E0,2.582059E-1,1.720908E0,1.3184696E0,-1.2725095E0,2.12185E-2,6.0816216E-1,1.3631158E-1,-1.8577145E0,-6.656476E-2,2.6969716E-1,-2.4481115E-1,8.0015457E-1,-9.020294E-2,8.5445935E-1,-1.2265432E0,1.2940047E0,5.4992795E-1,1.048022E0],"categories":[],"categories_nodes":[],"categories_segments":[],"categories_sizes":[],"default_left":[1,1,1,1,1,1,1,1,1,1,1,1,1,1,1,1,1,1,1,1,1,1,1,1,1,1,1,1,1,0,1,1,1,1,1,1,1,0,0,1,1,1,1,1,1,1,1,1,1,1,1,1,1,1,1,1,1,1,0,1,1,0,0,0,0,0,0,0,0,0,0,0,0,0,0,0,0,0,0,0,0,0,0,0,0,0,0,0,0,0,0,0,0,0,0,0,0,0,0,0,0,0,0,0,0,0,0,0,0,0,0,0,0,0,0],"id":4,"left_children":[1,3,5,7,9,11,13,15,17,19,21,23,25,27,29,31,33,35,37,39,41,43,45,47,49,51,53,55,57,-1,59,61,63,65,67,69,71,-1,-1,73,75,77,79,81,83,85,87,89,91,93,95,97,99,101,103,105,107,109,-1,111,113,-1,-1,-1,-1,-1,-1,-1,-1,-1,-1,-1,-1,-1,-1,-1,-1,-1,-1,-1,-1,-1,-1,-1,-1,-1,-1,-1,-1,-1,-1,-1,-1,-1,-1,-1,-1,-1,-1,-1,-1,-1,-1,-1,-1,-1,-1,-1,-1,-1,-1,-1,-1,-1,-1],"loss_changes":[1.9658908E2,1.1990657E2,5.970829E1,5.3719147E1,5.2080513E1,4.0806454E1,2.488948E1,3.1091553E1,3.1245611E1,6.928096E1,4.1259937E1,3.9290356E1,1.908582E1,2.9250694E1,1.8241089E1,3.826169E1,2.465464E1,2.504412E1,7.186266E0,4.057988E1,2.7334282E1,2.5414976E1,2.4523773E1,2.9652647E1,3.7127037E1,7.7269783E0,1.8995237E1,2.3420403E1,1.2537415E1,0E0,1.4131729E1,1.967868E1,1.904657E1,2.5819544E1,2.5554375E1,1.8488487E1,1.6246834E1,0E0,0E0,2.4389389E1,4.930844E1,2.4724516E1,2.3334484E1,2.4637575E1,2.4823736E1,2.3537666E1,1.8020294E1,3.5763706E1,1.9664293E1,1.4152756E1,2.8246641E1,1.5449257E0,9.379681E0,1.1633617E1,3.1485008E1,1.905426E1,1.2163357E1,9.743507E0,0E0,1.6342497E1,1.2171478E1,0E0,0E0,0E0,0E0,0E0,0E0,0E0,0E0,0E0,0E0,0E0,0E0,0E0,0E0,0E0,0E0,0E0,0E0,0E0,0E0,0E0,0E0,0E0,0E0,0E0,0E0,0E0,0E0,0E0,0E0,0E0,0E0,0E0,0E0,0E0,0E0,0E0,0E0,0E0,0E0,0E0,0E0,0E0,0E0,0E0,0E0,0E0,0E0,0E0,0E0,0E0,0E0,0E0,0E0],"parents":[2147483647,0,0,1,1,2,2,3,3,4,4,5,5,6,6,7,7,8,8,9,9,10,10,11,11,12,12,13,13,14,14,15,15,16,16,17,17,18,18,19,19,20,20,21,21,22,22,23,23,24,24,25,25,26,26,27,27,28,28,30,30,31,31,32,32,33,33,34,34,35,35,36,36,39,39,40,40,41,41,42,42,43,43,44,44,45,45,46,46,47,47,48,48,49,49,50,50,51,51,52,52,53,53,54,54,55,55,56,56,57,57,59,59,60,60],"right_children":[2,4,6,8,10,12,14,16,18,20,22,24,26,28,30,32,34,36,38,40,42,44,46,48,50,52,54,56,58,-1,60,62,64,66,68,70,72,-1,-1,74,76,78,80,82,84,86,88,90,92,94,96,98,100,102,104,106,108,110,-1,112,114,-1,-1,-1,-1,-1,-1,-1,-1,-1,-1,-1,-1,-1,-1,-1,-1,-1,-1,-1,-1,-1,-1,-1,-1,-1,-1,-1,-1,-1,-1,-1,-1,-1,-1,-1,-1,-1,-1,-1,-1,-1,-1,-1,-1,-1,-1,-1,-1,-1,-1,-1,-1,-1,-1],"split_conditions":[6.75E1,2.44584E1,2.638035E1,8.65E2,1.0016667E2,7.35E1,5.95E1,1.1875E2,8.95E1,2.98373E1,1.15E1,5.65E1,5.305E2,1.09E2,3.25E1,8.45E1,4.6514997E0,5.15E1,5.58E2,5.55E1,2.875E1,2.467625E1,6.475E2,4.365E2,1.2525E2,1.11E2,5.645E0,5E-1,8.475E-1,-5.675895E-1,5.05E1,6.15E1,6.25E1,1.1525E2,5.75E1,1.0275E2,7.85E1,7.6757693E-3,6.941285E-1,6E2,6.355E0,8.225E-1,1.13E2,1.235E2,7.7E1,1.475E1,6.05E1,4.55E2,8.625E1,1.05E1,7.89E2,8.9E1,8.5E0,4.065E2,2.600615E1,5.5E0,1.2725E2,4.195E2,-4.3056738E-1,7.5E1,1.605E2,-1.14977606E-1,-2.493973E-1,-2.6439014E-1,3.3869344E-1,-3.5561702E-1,2.0406006E-1,-3.0522335E-1,-6.780571E-2,-3.7599918E-2,1.7645086E-1,-2.1928823E-1,1.04425065E-1,-2.8444985E-1,-9.615494E-2,-1.5809912E-2,-1.8568994E-1,2.23627E-2,-3.673228E-1,2.2109433E-1,-2.0581077E-1,4.8816368E-1,1.0349248E-2,-1.7460741E-1,5.530318E-3,-1.864011E-1,9.3556434E-2,-5.066128E-1,2.0015174E-1,-3.6627573E-1,-3.2670295E-3,-1.8869112E-1,1.3767447E-1,1.3762535E-1,-4.2198637E-1,-2.1761507E-2,-4.5891178E-1,7.746177E-2,5.162724E-1,3.9554092E-1,-3.8175285E-1,6.36555E-3,1.8244866E-1,4.0893473E-2,-5.573144E-1,-1.996943E-2,8.090915E-2,-7.3443346E-2,2.4004638E-1,-2.7060883E-2,2.5633782E-1,-3.6796296E-1,3.8820142E-1,1.6497838E-1,3.1440663E-1],"split_indices":[6,5,5,22,52,6,41,50,16,5,11,17,24,12,31,38,4,17,27,6,45,5,26,14,48,8,4,1,51,0,49,44,6,55,6,52,34,0,0,23,4,51,8,42,12,45,38,29,52,33,30,42,11,14,5,17,48,14,0,18,42,0,0,0,0,0,0,0,0,0,0,0,0,0,0,0,0,0,0,0,0,0,0,0,0,0,0,0,0,0,0,0,0,0,0,0,0,0,0,0,0,0,0,0,0,0,0,0,0,0,0,0,0,0,0],"split_type":[0,0,0,0,0,0,0,0,0,0,0,0,0,0,0,0,0,0,0,0,0,0,0,0,0,0,0,0,0,0,0,0,0,0,0,0,0,0,0,0,0,0,0,0,0,0,0,0,0,0,0,0,0,0,0,0,0,0,0,0,0,0,0,0,0,0,0,0,0,0,0,0,0,0,0,0,0,0,0,0,0,0,0,0,0,0,0,0,0,0,0,0,0,0,0,0,0,0,0,0,0,0,0,0,0,0,0,0,0,0,0,0,0,0,0],"sum_hessian":[6.616368E3,3.9116985E3,2.7046694E3,1.0999683E3,2.8117302E3,1.41933E3,1.2853396E3,8.6084454E2,2.3912376E2,1.5762849E3,1.2354453E3,1.0020207E3,4.173093E2,9.341603E2,3.5117926E2,5.774478E2,2.833967E2,2.314544E2,7.669364E0,1.0780358E3,4.9824915E2,8.812721E2,3.5417325E2,7.9915765E2,2.0286302E2,1.7768078E1,3.9954123E2,8.0854205E2,1.2561821E2,2.0016527E0,3.491776E2,5.5546924E2,2.1978598E1,4.992314E1,2.3347356E2,1.479508E2,8.350359E1,1.7396407E0,5.9297233E0,2.5047151E2,8.275642E2,3.8458047E2,1.1366866E2,3.8040688E1,8.432314E2,1.5141847E2,2.0275478E2,5.834804E2,2.1567726E2,4.4761147E1,1.5810188E2,1.41768265E1,3.5912516E0,2.0673105E2,1.9281018E2,7.122855E2,9.625658E1,1.2385896E2,1.7592466E0,1.0371768E1,3.3880582E2,1.3081104E2,4.2465817E2,5.6322675E0,1.634633E1,8.023927E0,4.189921E1,5.1987343E1,1.8148622E2,8.6897545E1,6.105326E1,6.6565186E1,1.693841E1,1.3105835E2,1.19413155E2,6.244582E2,2.0310603E2,3.703246E2,1.425589E1,1.0147615E2,1.219251E1,1.7496159E1,2.054453E1,7.461799E1,7.686134E2,3.4044952E1,1.1737351E2,2.3738773E0,2.003809E2,2.4543083E1,5.589373E2,1.7262325E1,1.9841493E2,4.0367684E0,4.072438E1,1.4443523E2,1.3666652E1,1.1715461E0,1.300528E1,1.7374825E0,1.853769E0,4.2539307E1,1.6419174E2,1.8553992E2,7.270257E0,2.7213287E2,4.4015262E2,1.2355025E1,8.390155E1,1.1886451E1,1.1197251E2,7.631984E0,2.7397838E0,2.7781055E2,6.0995293E1],"tree_param":{"num_deleted":"0","num_feature":"57","num_nodes":"115","size_leaf_vector":"0"}},{"base_weights":[-3.1577556E-3,-4.1382078E-2,5.152017E-1,7.8642815E-2,-2.1122082E-1,3.6191213E-1,7.340316E-1,-1.5820353E-1,1.53092E-1,-3.26955E-1,1.326694E-1,2.0651633E-1,7.217935E-1,-1.0675774E0,7.67292E-1,-2.0155238E-1,8.8520414E-1,-3.3643255E-1,1.8957876E-1,-4.998994E-1,-1.5288958E-1,-1.1908622E0,1.8795213E-1,-1.15454644E-1,5.5838287E-1,2.0810835E-1,9.4294894E-1,4.1671842E-1,-2.0696712E0,9.154186E-1,3.3609155E-1,-3.0183566E-1,1.7525703E-1,1.2833868E0,-1.21815935E-1,-9.83866E-1,-1.0503109E-2,4.9169987E-1,1.3281494E-1,-7.563628E-1,-3.6627612E-1,9.96985E-1,-1.9492237E-1,-1.5181177E0,8.483036E-1,-6.163757E-1,2.3565046E-1,-9.857987E-1,1.2861079E-1,8.857086E-1,1.20119564E-1,6.8979126E-1,-1.2399403E0,1.1743895E0,5.947221E-1,-1.09501E0,9.45638E-1,5.2581187E-2,1.0263157E0,-3.7314495E-1,3.7161732E-1,7.060412E-1,-2.156089E-1,1.510753E0,-9.847887E-2,-1.804028E0,7.270963E-1,-1.1649872E0,2.4811577E-2,-4.0705952E-1,5.259072E-1,-6.5877795E-2,6.1670655E-1,7.6590306E-1,1.0800057E-1,-8.4662753E-1,-5.1751286E-2,-1.3272743E-1,-5.9440726E-1,-9.724049E-1,1.3175541E0,-2.8362313E-1,4.223856E-1,-1.7012446E0,1.5472041E-1,2.5896046E-1,1.130092E0,-1.0410948E0,6.530701E-1,6.276826E-1,1.3815352E-1,2.6087052E-1,-1.4832026E0,-6.831176E-1,4.141226E-1,1.0502748E0,-7.305519E-2,-1.7691624E0,3.2911947E-1,-1.0881618E0,9.069286E-1,8.5020196E-1,-2.0082822E0,1.2053779E0,1.7849821E-1,7.93634E-1,-1.0181428E0,1.5794438E0,8.365595E-1,3.9784756E-1,-8.36136E-1,1.1958458E0,2.8935355E-1],"categories":[],"categories_nodes":[],"categories_segments":[],"categories_sizes":[],"default_left":[1,1,1,1,1,1,1,1,1,1,1,1,1,1,1,1,1,1,1,1,1,1,1,1,1,1,1,0,0,1,1,1,1,1,1,1,1,1,1,1,1,1,1,1,1,1,1,1,1,1,1,1,1,1,1,0,1,1,1,0,0,0,0,0,0,0,0,0,0,0,0,0,0,0,0,0,0,0,0,0,0,0,0,0,0,0,0,0,0,0,0,0,0,0,0,0,0,0,0,0,0,0,0,0,0,0,0,0,0,0,0,0,0],"id":5,"left_children":[1,3,5,7,9,11,13,15,17,19,21,23,25,27,29,31,33,35,37,39,41,43,45,47,49,51,53,-1,-1,55,57,59,61,63,65,67,69,71,73,75,77,79,81,83,85,87,89,91,93,95,97,99,101,103,105,-1,107,109,111,-1,-1,-1,-1,-1,-1,-1,-1,-1,-1,-1,-1,-1,-1,-1,-1,-1,-1,-1,-1,-1,-1,-1,-1,-1,-1,-1,-1,-1,-1,-1,-1,-1,-1,-1,-1,-1,-1,-1,-1,-1,-1,-1,-1,-1,-1,-1,-1,-1,-1,-1,-1,-1,-1],"loss_changes":[1.27405174E2,1.2208951E2,1.4547424E1,6.190717E1,9.874351E1,1.4483997E1,1.1661301E1,3.816388E1,4.7765133E1,5.578853E1,4.596561E1,2.0926949E1,8.722813E0,6.362877E0,1.1076881E1,3.0552658E1,1.3663046E1,3.915699E1,4.256951E1,3.1608475E1,4.4965668E1,1.8105576E1,2.3200966E1,2.0729183E1,1.2540766E1,1.823092E1,3.7018623E0,0E0,0E0,9.060196E0,9.173333E0,3.0770187E1,3.5481453E1,7.7603874E0,1.6246584E1,1.1381626E1,2.6691078E1,2.742218E1,3.2816803E1,2.0167435E1,3.2616486E1,2.200785E1,4.909823E1,7.0256844E0,3.926704E-1,1.8967827E1,2.1624731E1,1.3630205E1,1.8042934E1,8.014843E0,1.5922574E1,8.451618E0,1.2267477E1,7.6540375E-1,8.451588E0,0E0,7.7122345E0,1.0912184E1,1.3625154E0,0E0,0E0,0E0,0E0,0E0,0E0,0E0,0E0,0E0,0E0,0E0,0E0,0E0,0E0,0E0,0E0,0E0,0E0,0E0,0E0,0E0,0E0,0E0,0E0,0E0,0E0,0E0,0E0,0E0,0E0,0E0,0E0,0E0,0E0,0E0,0E0,0E0,0E0,0E0,0E0,0E0,0E0,0E0,0E0,0E0,0E0,0E0,0E0,0E0,0E0,0E0,0E0,0E0,0E0],"parents":[2147483647,0,0,1,1,2,2,3,3,4,4,5,5,6,6,7,7,8,8,9,9,10,10,11,11,12,12,13,13,14,14,15,15,16,16,17,17,18,18,19,19,20,20,21,21,22,22,23,23,24,24,25,25,26,26,29,29,30,30,31,31,32,32,33,33,34,34,35,35,36,36,37,37,38,38,39,39,40,40,41,41,42,42,43,43,44,44,45,45,46,46,47,47,48,48,49,49,50,50,51,51,52,52,53,53,54,54,56,56,57,57,58,58],"right_children":[2,4,6,8,10,12,14,16,18,20,22,24,26,28,30,32,34,36,38,40,42,44,46,48,50,52,54,-1,-1,56,58,60,62,64,66,68,70,72,74,76,78,80,82,84,86,88,90,92,94,96,98,100,102,104,106,-1,108,110,112,-1,-1,-1,-1,-1,-1,-1,-1,-1,-1,-1,-1,-1,-1,-1,-1,-1,-1,-1,-1,-1,-1,-1,-1,-1,-1,-1,-1,-1,-1,-1,-1,-1,-1,-1,-1,-1,-1,-1,-1,-1,-1,-1,-1,-1,-1,-1,-1,-1,-1,-1,-1,-1,-1],"split_conditions":[5E-1,3.25E1,9.1E1,8.1E1,1.2683333E2,9.61E2,3.19E0,1.255E3,5.35E1,5E-1,2.07925E1,1.525E1,5.65E1,5.65E1,7.95E2,6.15E1,6.95E1,4.095E2,4.6499996E0,2.31815E1,4.85E1,6.6E1,6.13E2,6.65E1,6.55E2,1.2865E0,1.435E2,1.2501553E-1,-6.2090135E-1,3.25E0,4.465E2,1.685E2,6.965E2,6.6809998E0,1.447E0,1.425E1,7.65E1,1.0675E2,5.04644E0,1.6625E2,1.185E2,1.65E1,2.99303E1,7.7E1,5E-1,9.35E1,6.6796246E0,5.1E1,6.735E2,1.135E2,1.36E2,6.15E1,4.7980003E0,1.4785999E1,2.65E1,-3.28503E-1,2.396325E1,7.45E1,1.59E2,-1.1194349E-1,1.114852E-1,2.1181238E-1,-6.468267E-2,4.5322594E-1,-2.9543662E-2,-5.4120845E-1,2.181289E-1,-3.494962E-1,7.443473E-3,-1.2211786E-1,1.5777217E-1,-1.976334E-2,1.8501197E-1,2.2977093E-1,3.2400172E-2,-2.5398827E-1,-1.5525387E-2,-3.981823E-2,-1.7832218E-1,-2.917215E-1,3.9526626E-1,-8.508694E-2,1.2671569E-1,-5.103734E-1,4.6416126E-2,7.768814E-2,3.390276E-1,-3.1232846E-1,1.9592103E-1,1.883048E-1,4.144606E-2,7.826116E-2,-4.449608E-1,-2.049353E-1,1.24236785E-1,3.1508246E-1,-2.1916559E-2,-5.307487E-1,9.873585E-2,-3.2644856E-1,2.720786E-1,2.550606E-1,-6.024847E-1,3.616134E-1,5.3549465E-2,2.380902E-1,-3.0544287E-1,4.7383317E-1,2.5096786E-1,1.1935427E-1,-2.508408E-1,3.5875377E-1,8.680607E-2],"split_indices":[1,17,12,12,50,22,4,21,6,0,5,46,43,43,25,41,6,14,4,5,49,41,21,34,26,3,42,0,0,45,14,56,21,4,3,53,49,50,35,55,42,33,5,6,2,44,35,38,21,52,10,34,4,35,33,0,5,49,42,0,0,0,0,0,0,0,0,0,0,0,0,0,0,0,0,0,0,0,0,0,0,0,0,0,0,0,0,0,0,0,0,0,0,0,0,0,0,0,0,0,0,0,0,0,0,0,0,0,0,0,0,0,0],"split_type":[0,0,0,0,0,0,0,0,0,0,0,0,0,0,0,0,0,0,0,0,0,0,0,0,0,0,0,0,0,0,0,0,0,0,0,0,0,0,0,0,0,0,0,0,0,0,0,0,0,0,0,0,0,0,0,0,0,0,0,0,0,0,0,0,0,0,0,0,0,0,0,0,0,0,0,0,0,0,0,0,0,0,0,0,0,0,0,0,0,0,0,0,0,0,0,0,0,0,0,0,0,0,0,0,0,0,0,0,0,0,0,0,0],"sum_hessian":[6.428002E3,5.987405E3,4.405968E2,3.508493E3,2.478912E3,2.6065958E2,1.7993723E2,8.388192E2,2.6696738E3,1.8547548E3,6.241572E2,1.8314981E2,7.7509766E1,2.6979916E0,1.7723924E2,8.061348E2,3.2684414E1,1.8461163E2,2.485062E3,9.2943427E2,9.2532056E2,2.420162E1,5.999556E2,9.598857E1,8.716123E1,2.3911272E1,5.359849E1,1.3228081E0,1.3751835E0,1.3108557E2,4.6153667E1,6.3684515E2,1.6928966E2,2.3226181E1,9.458232E0,6.1141052E1,1.2347057E2,3.9184332E2,2.0932188E3,3.1677914E2,6.126551E2,3.1830372E1,8.934902E2,2.107493E1,3.1266894E0,3.291942E1,5.670362E2,2.0356754E1,7.563182E1,4.9311214E1,3.7850018E1,1.8335682E1,5.575591E0,3.077329E1,2.2825201E1,1.4194176E0,1.2966615E2,3.3478508E1,1.2675157E1,5.762719E2,6.0573257E1,7.145269E1,9.783697E1,1.9864494E1,3.3616881E0,2.794842E0,6.663389E0,5.170227E1,9.438784E0,7.11282E1,5.2342377E1,7.184776E1,3.1999557E2,7.782435E1,2.0153944E3,2.806276E2,3.6151546E1,3.0351462E2,3.091405E2,4.171253E0,2.7659119E1,7.8170746E2,1.1178272E2,1.8980175E1,2.0947561E0,1.6321459E0,1.4945437E0,2.4801464E1,8.117956E0,1.1185057E2,4.551856E2,5.9413E0,1.4415454E1,1.9317713E1,5.6314106E1,4.2005726E1,7.305488E0,3.026518E0,3.48235E1,1.558995E0,1.6776686E1,1.470045E0,4.105546E0,2.964063E1,1.1326596E0,2.0771431E1,2.05377E0,1.7059755E1,1.126064E2,2.4509075E1,8.969434E0,9.798458E0,2.8766987E0],"tree_param":{"num_deleted":"0","num_feature":"57","num_nodes":"113","size_leaf_vector":"0"}},{"base_weights":[-2.2779484E-3,-9.76541E-2,1.3434747E-1,-2.3375636E-1,3.0356206E-2,1.0379237E-1,5.4444915E-1,-2.8869152E-1,1.844658E-1,-1.2887494E-1,1.8593961E-1,6.657966E-2,4.8715052E-1,6.0845405E-1,-2.7022365E-1,5.4328775E-1,-3.2172522E-1,-3.1693545E-1,4.3805546E-1,4.352438E-1,-1.9857396E-1,-1.2915559E-1,3.0126974E-1,-9.3171E-2,1.6574104E-1,-1.474493E-1,6.252847E-1,7.1782386E-1,1.6899623E-2,-1.4162418E0,8.2027316E-1,-4.6708825E-1,9.352178E-1,-4.495475E-1,-5.738589E-2,-5.0331527E-1,1.1816989E0,5.9290045E-1,-2.923065E-1,-1.3252821E0,5.4817516E-1,-2.2679284E-1,9.2280346E-1,1.122369E-1,-4.984743E-1,1.1330507E0,2.6189667E-1,-2.2783257E-1,2.0416525E-1,2.0836776E-1,-3.05799E-1,-1.3183796E0,5.867585E-1,9.676873E-1,3.570102E-1,7.535841E-1,-8.3656484E-1,-1.5543569E0,6.9679314E-1,-2.4535954E0,8.930258E-1,1.1372019E0,-4.993387E-1,-9.0734977E-1,1.1339166E0,4.038769E-2,1.3632939E0,-1.6550003E-1,-6.1504376E-1,3.4060672E-1,-2.2973245E-1,-1.1450772E-1,-1.348993E0,1.1076458E-1,1.5471195E0,4.072267E-1,1.2994566E0,-1.5795547E0,2.4549882E-1,6.8580407E-1,-8.017941E-1,-7.265371E-1,-1.6536322E-1,2.3350935E0,-1.17272586E-1,-1.0409164E0,2.2451201E-1,5.440725E-1,-7.264273E-1,1.3675234E0,-6.015455E-1,3.482412E-1,-1.5056378E-1,-2.9194275E-1,5.072819E-1,-5.4109365E-2,5.575388E-1,6.652572E-1,1.6853511E-1,-4.4904816E-1,1.1868255E0,1.0538694E0,-1.6770267E0,-1.1149333E0,9.5883334E-1,-1.222123E0,1.0196818E0,-1.3601774E0,4.7372913E-1,-2.588395E-1,8.1012034E-1,8.013937E-1,-1.8763878E0,-2.866192E-1,-2.5817292E0,-4.7709095E-1,9.7438574E-1],"categories":[],"categories_nodes":[],"categories_segments":[],"categories_sizes":[],"default_left":[1,1,1,1,1,1,1,1,1,1,1,1,1,1,1,1,1,1,1,1,1,1,1,1,1,1,1,1,1,1,1,1,1,1,1,1,1,1,1,0,1,1,1,1,1,1,1,1,1,1,1,1,1,1,1,1,1,1,1,0,0,0,0,0,0,0,0,0,0,0,0,0,0,0,0,0,0,0,0,0,0,0,0,0,0,0,0,0,0,0,0,0,0,0,0,0,0,0,0,0,0,0,0,0,0,0,0,0,0,0,0,0,0,0,0,0,0],"id":6,"left_children":[1,3,5,7,9,11,13,15,17,19,21,23,25,27,29,31,33,35,37,39,41,43,45,47,49,51,53,55,57,59,61,63,65,67,69,71,73,75,77,-1,79,81,83,85,87,89,91,93,95,97,99,101,103,105,107,109,111,113,115,-1,-1,-1,-1,-1,-1,-1,-1,-1,-1,-1,-1,-1,-1,-1,-1,-1,-1,-1,-1,-1,-1,-1,-1,-1,-1,-1,-1,-1,-1,-1,-1,-1,-1,-1,-1,-1,-1,-1,-1,-1,-1,-1,-1,-1,-1,-1,-1,-1,-1,-1,-1,-1,-1,-1,-1,-1,-1],"loss_changes":[8.1885216E1,6.448092E1,3.231474E1,4.1264366E1,4.7289246E1,3.428339E1,9.4924965E0,4.375952E1,2.669646E1,3.7182556E1,3.5121605E1,3.4767345E1,1.8735748E1,1.0738808E1,1.8312386E1,2.456642E1,5.153293E1,2.0352343E1,1.5908194E1,2.1416471E1,2.6803322E1,2.317936E1,2.2858276E1,3.3713634E1,2.7278183E1,3.4154236E1,1.5716095E1,8.424469E0,2.9876392E1,1.909919E1,3.7736683E0,1.350298E1,1.6889984E1,4.8242783E1,3.4272476E1,2.0761847E1,3.0074234E0,1.4573936E1,1.770023E1,0E0,1.885048E1,2.507111E1,3.086596E1,2.0647175E1,2.4803305E1,1.3697018E1,2.4140602E1,2.7445246E1,2.4000021E1,2.2496407E1,2.4620068E1,1.4760475E1,1.6617058E1,9.925484E0,2.0611664E1,8.085182E0,7.6815414E0,1.0265404E1,6.820138E0,0E0,0E0,0E0,0E0,0E0,0E0,0E0,0E0,0E0,0E0,0E0,0E0,0E0,0E0,0E0,0E0,0E0,0E0,0E0,0E0,0E0,0E0,0E0,0E0,0E0,0E0,0E0,0E0,0E0,0E0,0E0,0E0,0E0,0E0,0E0,0E0,0E0,0E0,0E0,0E0,0E0,0E0,0E0,0E0,0E0,0E0,0E0,0E0,0E0,0E0,0E0,0E0,0E0,0E0,0E0,0E0,0E0,0E0],"parents":[2147483647,0,0,1,1,2,2,3,3,4,4,5,5,6,6,7,7,8,8,9,9,10,10,11,11,12,12,13,13,14,14,15,15,16,16,17,17,18,18,19,19,20,20,21,21,22,22,23,23,24,24,25,25,26,26,27,27,28,28,29,29,30,30,31,31,32,32,33,33,34,34,35,35,36,36,37,37,38,38,40,40,41,41,42,42,43,43,44,44,45,45,46,46,47,47,48,48,49,49,50,50,51,51,52,52,53,53,54,54,55,55,56,56,57,57,58,58],"right_children":[2,4,6,8,10,12,14,16,18,20,22,24,26,28,30,32,34,36,38,40,42,44,46,48,50,52,54,56,58,60,62,64,66,68,70,72,74,76,78,-1,80,82,84,86,88,90,92,94,96,98,100,102,104,106,108,110,112,114,116,-1,-1,-1,-1,-1,-1,-1,-1,-1,-1,-1,-1,-1,-1,-1,-1,-1,-1,-1,-1,-1,-1,-1,-1,-1,-1,-1,-1,-1,-1,-1,-1,-1,-1,-1,-1,-1,-1,-1,-1,-1,-1,-1,-1,-1,-1,-1,-1,-1,-1,-1,-1,-1,-1,-1,-1,-1,-1],"split_conditions":[6.75E1,5E-1,3.260165E1,2.575E1,4.125E2,6.35E1,1.415065E1,9.45E1,6.405E2,4.2705E0,1.375E1,1.61E2,2.334475E1,8.515E2,1.07E2,5.4E1,1.0316667E2,7.6E1,1.4475E2,5.015E2,2.0195E0,1.0166666E1,3.63E2,4.375E2,7.173E0,1.675E1,1.3725E0,6.8E1,6.735E2,1.94E2,1.427E0,9.1E1,7.05E1,1.4165001E0,1.085E2,6.735E2,5.4335003E0,4.51E2,1.595E2,-3.9758465E-1,6.75E1,5.25E1,1.0325E2,1.185E2,1.45E1,1.1125E2,5.05E1,5.95E0,5E-1,1.75E0,9.15E1,4.013E0,1.0225E2,7.25E0,1.37E2,-3.1E1,1.56E2,1.715E2,3.4E1,-7.360786E-1,2.6790777E-1,3.411606E-1,-1.4980161E-1,-2.7220494E-1,3.40175E-1,1.2116307E-2,4.0898818E-1,-4.965001E-2,-1.8451314E-1,1.0218202E-1,-6.891974E-2,-3.4352317E-2,-4.046979E-1,3.3229373E-2,4.6413586E-1,1.2216802E-1,3.89837E-1,-4.7386643E-1,7.364965E-2,2.0574123E-1,-2.4053824E-1,-2.1796115E-1,-4.960897E-2,7.005281E-1,-3.5181776E-2,-3.1227493E-1,6.7353606E-2,1.6322176E-1,-2.179282E-1,4.1025704E-1,-1.8046366E-1,1.0447237E-1,-4.5169134E-2,-8.758283E-2,1.5218458E-1,-1.623281E-2,1.6726165E-1,1.9957717E-1,5.0560538E-2,-1.3471445E-1,3.5604766E-1,3.1616083E-1,-5.03108E-1,-3.3448E-1,2.8765002E-1,-3.6663693E-1,3.0590457E-1,-4.0805325E-1,1.4211875E-1,-7.765185E-2,2.430361E-1,2.4041812E-1,-5.629164E-1,-8.598576E-2,-7.745188E-1,-1.4312729E-1,2.9231572E-1],"split_indices":[6,0,5,46,14,41,35,56,26,4,45,10,5,23,8,52,52,43,50,25,3,45,13,14,4,46,3,17,29,10,3,44,34,3,42,22,4,13,36,0,16,6,50,56,33,52,17,40,0,39,34,4,52,45,10,17,10,36,16,0,0,0,0,0,0,0,0,0,0,0,0,0,0,0,0,0,0,0,0,0,0,0,0,0,0,0,0,0,0,0,0,0,0,0,0,0,0,0,0,0,0,0,0,0,0,0,0,0,0,0,0,0,0,0,0,0,0],"split_type":[0,0,0,0,0,0,0,0,0,0,0,0,0,0,0,0,0,0,0,0,0,0,0,0,0,0,0,0,0,0,0,0,0,0,0,0,0,0,0,0,0,0,0,0,0,0,0,0,0,0,0,0,0,0,0,0,0,0,0,0,0,0,0,0,0,0,0,0,0,0,0,0,0,0,0,0,0,0,0,0,0,0,0,0,0,0,0,0,0,0,0,0,0,0,0,0,0,0,0,0,0,0,0,0,0,0,0,0,0,0,0,0,0,0,0,0,0],"sum_hessian":[6.281965E3,3.6996086E3,2.582356E3,1.7927291E3,1.9068796E3,2.404462E3,1.7789409E2,1.584861E3,2.0786816E2,9.4247723E2,9.6440247E2,2.1927815E3,2.1168037E2,1.6517058E2,1.2723518E1,5.993382E1,1.5249271E3,6.973577E1,1.381324E2,1.0306463E2,8.394126E2,2.5837427E2,7.060282E2,8.398421E2,1.3529395E3,3.782799E1,1.7385237E2,1.3921777E2,2.5952795E1,6.058181E0,6.6653376E0,1.6697285E1,4.3236534E1,1.0274156E3,4.9751144E2,6.261297E1,7.1228013E0,1.1412485E2,2.4007551E1,5.5655828E0,9.749905E1,8.195859E2,1.9826706E1,1.5666904E2,1.0170524E2,3.065454E1,6.7537366E2,5.782089E2,2.6163315E2,1.2412866E3,1.116529E2,1.4271633E1,2.3556358E1,7.522919E1,9.8623184E1,1.3659056E2,2.6272101E0,7.449825E0,1.850297E1,4.137197E0,1.9209833E0,5.4860044E0,1.1793333E0,1.3435822E1,3.2614639E0,1.4344924E1,2.8891607E1,3.789719E2,6.484438E2,1.5004428E2,3.4746716E2,4.367049E1,1.8942478E1,2.143623E0,4.979178E0,9.162369E1,2.2501162E1,6.503721E0,1.750383E1,8.892515E1,8.5739E0,8.853181E1,7.310541E2,7.8806596E0,1.1946046E1,1.3166601E1,1.4350243E2,1.7999134E1,8.37061E1,2.7190678E1,3.4638615E0,5.585933E2,1.1678033E2,5.3238214E2,4.5826805E1,1.5164519E2,1.0998795E2,9.828092E1,1.1430056E3,1.0251369E2,9.139217E0,1.6197093E0,1.2651924E1,3.8682613E0,1.9688097E1,1.2228425E0,7.400635E1,5.5988326E0,9.302435E1,7.034892E0,1.2955568E2,1.1092252E0,1.517985E0,3.9073224E0,3.5425024E0,3.4012182E0,1.5101752E1],"tree_param":{"num_deleted":"0","num_feature":"57","num_nodes":"117","size_leaf_vector":"0"}},{"base_weights":[-1.7984534E-3,-2.7580984E-2,3.7252423E-1,-8.683779E-2,1.4768705E-1,-1.1350092E0,3.8832492E-1,-2.2464047E-1,1.813418E-2,-1.5050478E-1,2.2231366E-1,4.7417793E-1,-2.0016828E0,-3.3916724E-1,4.2318684E-1,4.3591204E-1,-2.558939E-1,-1.23871E-1,1.2885024E-1,-3.1746128E-1,2.2407018E-1,-1.4625225E0,2.3139355E-1,-1.5245227E0,3.761131E-1,4.668424E-1,-1.14153616E-1,-5.2296434E-2,9.140759E-1,-6.1453396E-1,-1.8671247E-1,-5.198437E-2,-4.909825E-1,-4.0068988E-2,2.7397636E-1,1.32408E-1,-5.490958E-1,-7.270939E-1,4.389925E-1,3.180461E-1,-1.8924251E0,2.122643E-1,9.8142916E-1,-3.525427E-1,-1.7029556E0,1.0929142E0,-3.5171402E-1,5.664129E-1,2.2206128E-1,-1.451778E0,2.0077851E-1,3.1288996E-1,-1.1466701E0,-6.8724555E-1,1.0825522E0,-7.6745105E-1,2.8532746E-1,4.586043E-1,-2.2369452E-1,-4.4127396E-1,4.852311E-2,-6.861293E-1,5.349184E-1,3.704097E-1,-1.7821366E-1,-1.18787065E-1,3.4547922E-1,7.5856686E-1,-2.6116577E-1,-3.1834617E-1,-1.1225255E0,1.027989E0,-1.3056947E0,-1.5015559E0,5.1754963E-1,-7.087959E-1,2.2720434E-1,-4.1855222E-1,1.2183732E0,7.592811E-1,-8.3482575E-1,5.9676087E-1,-7.522791E-1,5.6451184E-1,-5.508563E-2,-1.2386727E0,4.5032543E-1],"categories":[],"categories_nodes":[],"categories_segments":[],"categories_sizes":[],"default_left":[1,1,1,1,1,1,1,1,1,1,1,0,0,1,1,1,1,1,1,1,1,1,1,1,1,1,1,1,1,1,1,1,1,1,1,1,1,1,1,0,0,1,1,0,0,0,1,1,1,0,1,0,0,0,0,0,0,0,0,0,0,0,0,0,0,0,0,0,0,0,0,0,0,0,0,0,0,0,0,0,0,0,0,0,0,0,0],"id":7,"left_children":[1,3,5,7,9,11,13,15,17,19,21,-1,-1,23,25,27,29,31,33,35,37,39,41,43,45,47,49,51,53,55,57,59,61,63,65,67,69,71,73,-1,-1,75,77,-1,-1,-1,79,81,83,-1,85,-1,-1,-1,-1,-1,-1,-1,-1,-1,-1,-1,-1,-1,-1,-1,-1,-1,-1,-1,-1,-1,-1,-1,-1,-1,-1,-1,-1,-1,-1,-1,-1,-1,-1,-1,-1],"loss_changes":[5.9373886E1,5.9789497E1,9.883923E0,6.2233986E1,3.2403275E1,7.039467E0,1.0112511E1,3.8514145E1,3.8422203E1,1.831755E1,1.8143242E1,0E0,0E0,1.6284252E1,8.862701E0,1.9751986E1,4.3969254E1,2.823036E1,3.367215E1,2.1145868E1,1.8827776E1,5.481923E0,1.6413136E1,8.993187E-1,6.831949E0,8.344315E0,1.2517059E1,1.7428053E1,1.2262733E1,3.9694794E1,3.5683044E1,3.5097523E1,3.544395E1,3.609725E1,2.0786388E1,1.7335594E1,1.7331963E1,1.8670406E1,1.2130444E1,0E0,0E0,1.5723618E1,9.975719E0,0E0,0E0,0E0,4.3312497E0,1.030928E1,9.724305E0,0E0,9.311482E0,0E0,0E0,0E0,0E0,0E0,0E0,0E0,0E0,0E0,0E0,0E0,0E0,0E0,0E0,0E0,0E0,0E0,0E0,0E0,0E0,0E0,0E0,0E0,0E0,0E0,0E0,0E0,0E0,0E0,0E0,0E0,0E0,0E0,0E0,0E0,0E0],"parents":[2147483647,0,0,1,1,2,2,3,3,4,4,5,5,6,6,7,7,8,8,9,9,10,10,13,13,14,14,15,15,16,16,17,17,18,18,19,19,20,20,21,21,22,22,23,23,24,24,25,25,26,26,27,27,28,28,29,29,30,30,31,31,32,32,33,33,34,34,35,35,36,36,37,37,38,38,41,41,42,42,46,46,47,47,48,48,50,50],"right_children":[2,4,6,8,10,12,14,16,18,20,22,-1,-1,24,26,28,30,32,34,36,38,40,42,44,46,48,50,52,54,56,58,60,62,64,66,68,70,72,74,-1,-1,76,78,-1,-1,-1,80,82,84,-1,86,-1,-1,-1,-1,-1,-1,-1,-1,-1,-1,-1,-1,-1,-1,-1,-1,-1,-1,-1,-1,-1,-1,-1,-1,-1,-1,-1,-1,-1,-1,-1,-1,-1,-1,-1,-1],"split_conditions":[5E-1,1.535E2,9.75E1,5E-1,1.47E2,6.35E2,5.35E1,9.325E1,5.6416664E1,4.85E1,8.425E1,1.4225338E-1,-6.005049E-1,3.35E1,6.9715E0,1.55E1,8.441667E1,6.85E1,4.135E2,1.475E1,2.33072E1,1.205E2,1.29E2,8.6E1,3.2E1,7.3583335E-1,5.625E1,1.05E1,2.30812E1,9.5E1,3.25E1,9.1E1,8.45E1,8.9E1,6.7E2,8.5E0,2.65E1,6.35E2,3.61E2,9.5413834E-2,-5.6772757E-1,1.05E1,1.75E2,-1.0576282E-1,-5.108867E-1,3.2787427E-1,5.58E2,3.05E1,1.1775E2,-4.3553343E-1,-2.1E1,9.3867E-2,-3.4400105E-1,-2.0617367E-1,3.2476568E-1,-2.3023532E-1,8.5598245E-2,1.375813E-1,-6.7108355E-2,-1.323822E-1,1.4556933E-2,-2.0583878E-1,1.6047554E-1,1.1112291E-1,-5.34641E-2,-3.563612E-2,1.0364377E-1,2.2757007E-1,-7.834973E-2,-9.550386E-2,-3.3675766E-1,3.0839673E-1,-3.9170843E-1,-4.5046678E-1,1.552649E-1,-2.1263878E-1,6.81613E-2,-1.2556568E-1,3.6551195E-1,2.2778434E-1,-2.5044775E-1,1.7902827E-1,-2.2568373E-1,1.6935356E-1,-1.652569E-2,-3.7160182E-1,1.3509764E-1],"split_indices":[1,56,36,0,10,21,6,48,47,31,55,0,0,18,4,54,52,16,14,46,5,36,8,8,16,51,47,54,5,12,43,8,34,8,22,17,32,19,13,0,0,33,10,0,0,0,19,33,50,0,17,0,0,0,0,0,0,0,0,0,0,0,0,0,0,0,0,0,0,0,0,0,0,0,0,0,0,0,0,0,0,0,0,0,0,0,0],"split_type":[0,0,0,0,0,0,0,0,0,0,0,0,0,0,0,0,0,0,0,0,0,0,0,0,0,0,0,0,0,0,0,0,0,0,0,0,0,0,0,0,0,0,0,0,0,0,0,0,0,0,0,0,0,0,0,0,0,0,0,0,0,0,0,0,0,0,0,0,0,0,0,0,0,0,0,0,0,0,0,0,0,0,0,0,0,0,0],"sum_hessian":[6.15004E3,5.754602E3,3.954381E2,4.300978E3,1.4536239E3,3.3669424E0,3.9207117E2,1.859183E3,2.4417952E3,2.9076657E2,1.1628573E3,1.3371251E0,2.029817E0,1.7529984E1,3.745412E2,8.3406586E1,1.7757764E3,1.0696876E3,1.3721077E3,2.0122745E2,8.953913E1,5.3752174E0,1.157482E3,6.1714134E0,1.1358569E1,3.465198E2,2.802138E1,4.171051E1,4.169608E1,2.8587946E2,1.489897E3,8.954793E2,1.7420836E2,6.3441064E2,7.3769696E2,6.854027E1,1.3268718E2,1.6063807E1,7.347533E1,1.0959997E0,4.2792177E0,1.1299464E3,2.7535654E1,1.2086368E0,4.9627767E0,5.4699106E0,5.8886585E0,2.4538832E2,1.0113149E2,4.6521773E0,2.3369202E1,3.1809837E1,9.900674E0,3.676145E0,3.801993E1,2.4448096E2,4.139848E1,8.013762E1,1.4097593E3,1.8305867E2,7.124206E2,1.4664479E2,2.7563562E1,1.5932275E2,4.750879E2,1.135128E2,6.2418414E2,2.609572E1,4.2444542E1,9.572311E1,3.6964073E1,3.790207E0,1.22736E1,2.1539307E0,7.1321396E1,1.7294418E1,1.112652E3,3.874826E0,2.3660828E1,1.6113791E0,4.2772794E0,2.4040323E2,4.985092E0,4.477248E1,5.6359013E1,2.8671353E0,2.0502068E1],"tree_param":{"num_deleted":"0","num_feature":"57","num_nodes":"87","size_leaf_vector":"0"}},{"base_weights":[-1.7059488E-3,-4.807955E-2,1.5758882E-1,2.757416E-1,-7.5223364E-2,1.2903258E-1,9.1472054E-1,-1.5615475E-1,3.6627975E-1,-2.76525E-1,-3.0751413E-2,3.9063838E-1,6.047056E-2,-8.941873E-1,1.0071154E0,1.0835719E0,-3.8558686E-1,4.9992582E-1,7.619223E-2,-1.4010443E-1,-6.585226E-1,-7.653474E-2,1.18394196E-1,8.9560413E-1,2.1136242E-1,1.5897525E-2,5.315682E-1,1.2818394E0,5.1548296E-1,-8.4270966E-1,1.3976884E0,-6.29299E-1,7.111551E-1,5.813559E-1,-2.6734868E-1,-5.0272423E-1,4.7301045E-1,-2.108541E-1,8.5433024E-1,-7.6161456E-1,5.044309E-1,-1.1033833E-1,2.782447E-1,5.7424605E-1,3.4448434E-2,-1.2763437E0,9.835536E-1,4.222286E-1,-2.748669E-1,2.7876535E-1,-8.209327E-2,-1.247452E0,6.199733E-1,-2.3500645E-1,1.3434936E0,-5.872672E-1,1.1342586E0,6.282265E-2,1.6620202E0,-9.134704E-1,7.0829064E-1,1.3003606E0,-1.2050948E0,7.116834E-1,6.295814E-2,-1.4073207E0,2.8414753E-1,9.082191E-1,-8.375882E-1,-3.822164E-1,7.4260503E-1,-3.492988E-1,2.4842367E-1,-5.795677E-1,1.1638018E0,1.0841446E0,-8.1790537E-1,1.8346674E0,-6.879223E-1,-1.5312187E-1,1.7068249E-1,2.2701357E-1,1.8653201E0,7.624156E-1,6.0075782E-2,-5.5606365E-1,8.526226E-2,1.1915191E0,1.2993334E-1,4.7171015E-1,-2.1078746E0,4.8450068E-1,-7.757114E-1,8.979027E-2,8.282406E-1,-5.19013E-1,1.0753229E-3,7.173599E-1,-7.504673E-1,3.7811454E-2,1.4051267E0,-1.3657781E0,9.0314066E-1,1.2371838E-1,1.3405603E0],"categories":[],"categories_nodes":[],"categories_segments":[],"categories_sizes":[],"default_left":[1,1,1,1,1,1,1,1,1,1,1,1,1,0,1,1,1,1,1,1,1,1,1,1,1,1,1,1,1,0,1,1,1,1,1,1,1,1,1,1,1,1,1,1,1,0,1,1,1,1,1,0,1,0,1,1,1,0,0,0,0,0,0,0,0,0,0,0,0,0,0,0,0,0,0,0,0,0,0,0,0,0,0,0,0,0,0,0,0,0,0,0,0,0,0,0,0,0,0,0,0,0,0,0,0],"id":8,"left_children":[1,3,5,7,9,11,13,15,17,19,21,23,25,-1,27,29,31,33,35,37,39,41,43,45,47,49,51,53,55,-1,57,59,61,63,65,67,69,71,73,75,77,79,81,83,85,-1,87,89,91,93,95,-1,97,-1,99,101,103,-1,-1,-1,-1,-1,-1,-1,-1,-1,-1,-1,-1,-1,-1,-1,-1,-1,-1,-1,-1,-1,-1,-1,-1,-1,-1,-1,-1,-1,-1,-1,-1,-1,-1,-1,-1,-1,-1,-1,-1,-1,-1,-1,-1,-1,-1,-1,-1],"loss_changes":[4.464273E1,4.1162796E1,2.934348E1,1.4221176E1,3.866057E1,2.3549652E1,9.150562E0,1.8471981E1,1.1582821E1,4.063192E1,2.41747E1,2.4501213E1,2.1883162E1,0E0,5.745735E0,7.334469E0,1.4961148E1,1.2965343E1,2.2227121E1,4.078237E1,2.5006401E1,3.2511997E1,3.180307E1,1.4846607E1,2.0887264E1,2.458273E1,1.4941227E1,3.0985794E0,1.3410169E1,0E0,3.1151466E0,1.7735563E1,1.3243608E1,1.2499348E1,1.3197858E1,1.9382324E1,1.3496895E1,3.439502E1,1.7771698E1,2.0528557E1,2.8740902E1,2.9765224E1,1.8756422E1,1.246043E1,2.1152025E1,0E0,1.208477E1,1.8734325E1,2.3913029E1,2.6833866E1,2.5267166E1,0E0,1.2081127E1,0E0,2.2599373E0,9.7870655E0,2.3993864E0,0E0,0E0,0E0,0E0,0E0,0E0,0E0,0E0,0E0,0E0,0E0,0E0,0E0,0E0,0E0,0E0,0E0,0E0,0E0,0E0,0E0,0E0,0E0,0E0,0E0,0E0,0E0,0E0,0E0,0E0,0E0,0E0,0E0,0E0,0E0,0E0,0E0,0E0,0E0,0E0,0E0,0E0,0E0,0E0,0E0,0E0,0E0,0E0],"parents":[2147483647,0,0,1,1,2,2,3,3,4,4,5,5,6,6,7,7,8,8,9,9,10,10,11,11,12,12,14,14,15,15,16,16,17,17,18,18,19,19,20,20,21,21,22,22,23,23,24,24,25,25,26,26,27,27,28,28,30,30,31,31,32,32,33,33,34,34,35,35,36,36,37,37,38,38,39,39,40,40,41,41,42,42,43,43,44,44,46,46,47,47,48,48,49,49,50,50,52,52,54,54,55,55,56,56],"right_children":[2,4,6,8,10,12,14,16,18,20,22,24,26,-1,28,30,32,34,36,38,40,42,44,46,48,50,52,54,56,-1,58,60,62,64,66,68,70,72,74,76,78,80,82,84,86,-1,88,90,92,94,96,-1,98,-1,100,102,104,-1,-1,-1,-1,-1,-1,-1,-1,-1,-1,-1,-1,-1,-1,-1,-1,-1,-1,-1,-1,-1,-1,-1,-1,-1,-1,-1,-1,-1,-1,-1,-1,-1,-1,-1,-1,-1,-1,-1,-1,-1,-1,-1,-1,-1,-1,-1,-1],"split_conditions":[7.835E2,4.197E0,3.75E0,5.55E1,1.2058333E2,6.65E2,5.85E1,7.925E2,5.95E1,5.15E1,6.05E1,1.1166666E1,6.35E1,-2.682562E-1,5.732E0,1.45E1,1.0975E2,2.75E1,6.65E1,2.11E2,8.85E1,1.07E2,1.1175001E0,9.05E1,3.25E1,2.25E1,1.35E2,3.8955E0,1.8E1,-2.5281292E-1,6.3E1,4.146E0,1.325E1,2.75E0,6.65E1,8.5E0,4.05E2,2.9839699E1,5.15E1,7.38E2,6.05E1,4.465E2,4.575E1,9.35E1,1.2625E2,-3.8290313E-1,1.5125E2,2.19E2,1.234E0,6.45E1,6.915E2,-3.7423563E-1,7.3415E0,-7.050194E-2,1.065E2,7.25E1,8.85E1,1.8846795E-2,4.986061E-1,-2.7404112E-1,2.124872E-1,3.901082E-1,-3.6152846E-1,2.1350503E-1,1.8887443E-2,-4.2219624E-1,8.524426E-2,2.7246574E-1,-2.5127646E-1,-1.1466492E-1,2.2278152E-1,-1.04789644E-1,7.45271E-2,-1.7387031E-1,3.4914055E-1,3.2524338E-1,-2.4537162E-1,5.5040026E-1,-2.063767E-1,-4.5936562E-2,5.120475E-2,6.810407E-2,5.5959606E-1,2.2872469E-1,1.8022735E-2,-1.668191E-1,2.557868E-2,3.5745576E-1,3.8980003E-2,1.4151305E-1,-6.323624E-1,1.453502E-1,-2.3271343E-1,2.6937082E-2,2.4847218E-1,-1.557039E-1,3.2259687E-4,2.1520798E-1,-2.251402E-1,1.1343436E-2,4.2153803E-1,-4.0973344E-1,2.709422E-1,3.7115514E-2,4.0216812E-1],"split_indices":[24,4,39,6,48,28,54,9,16,17,41,53,41,0,4,17,52,32,6,10,34,12,3,50,17,18,10,4,46,0,49,4,53,39,54,45,13,5,41,15,7,14,45,44,48,0,48,10,3,16,25,0,4,0,55,6,54,0,0,0,0,0,0,0,0,0,0,0,0,0,0,0,0,0,0,0,0,0,0,0,0,0,0,0,0,0,0,0,0,0,0,0,0,0,0,0,0,0,0,0,0,0,0,0,0],"split_type":[0,0,0,0,0,0,0,0,0,0,0,0,0,0,0,0,0,0,0,0,0,0,0,0,0,0,0,0,0,0,0,0,0,0,0,0,0,0,0,0,0,0,0,0,0,0,0,0,0,0,0,0,0,0,0,0,0,0,0,0,0,0,0,0,0,0,0,0,0,0,0,0,0,0,0,0,0,0,0,0,0,0,0,0,0,0,0,0,0,0,0,0,0,0,0,0,0,0,0,0,0,0,0,0,0],"sum_hessian":[6.0413345E3,4.67969E3,1.3616447E3,3.6122134E2,4.3184683E3,1.3132828E3,4.836179E1,6.247423E1,2.987471E2,7.804691E2,3.5379993E3,2.7173834E2,1.0415444E3,1.9284593E0,4.643333E1,9.174948E0,5.3299286E1,2.040267E2,9.47204E1,5.7609753E2,2.0437154E2,2.7073953E3,8.3060406E2,7.015038E1,2.0158795E2,9.524609E2,8.9083595E1,2.875675E1,1.7676579E1,1.0504423E0,8.124505E0,4.3957497E1,9.341788E0,1.8467014E2,1.935656E1,3.841298E1,5.6307423E1,5.385687E2,3.752884E1,1.880469E2,1.6324627E1,2.4725027E3,2.348925E2,1.2826176E2,7.023423E2,2.2042112E0,6.7946175E1,1.4070091E2,6.0887043E1,2.5813882E2,6.94322E2,3.5966055E0,8.5486984E1,1.0133818E0,2.7743368E1,6.371874E0,1.1304706E1,1.547476E0,6.577029E0,3.6516605E1,7.44089E0,7.390709E0,1.9510796E0,1.4727237E2,3.7397766E1,5.805161E0,1.3551399E1,7.0395894E0,3.1373388E1,1.3395507E1,4.2911915E1,4.1400922E2,1.2455949E2,6.5069466E0,3.1021894E1,5.02482E0,1.830221E2,7.461541E0,8.863086E0,2.1462114E3,3.262913E2,2.2865451E2,6.237978E0,9.3544655E1,3.47171E1,5.4860485E1,6.474818E2,5.431716E1,1.3629013E1,1.3879994E2,1.900967E0,2.421123E1,3.667581E1,1.9294481E2,6.5194016E1,1.1019272E2,5.8412933E2,8.026007E1,5.2269135E0,1.3232882E0,2.642008E1,4.240487E0,2.1313868E0,2.1877947E0,9.116911E0],"tree_param":{"num_deleted":"0","num_feature":"57","num_nodes":"105","size_leaf_vector":"0"}},{"base_weights":[-1.0337755E-3,-2.0119236E-1,2.6967548E-2,-2.9933143E-1,2.6864043E-1,2.0229535E-3,2.9968628E-1,-6.9560844E-1,-1.602369E-1,-5.6147426E-1,5.1823676E-1,-2.4236383E-2,2.2572967E-1,4.6670514E-1,-2.0242715E-1,-9.283345E-1,-1.3325343E-1,-1.24951E0,-1.0328483E-1,1.0316188E0,-8.2946974E-1,3.5622075E0,4.453034E-1,-3.6895312E-2,4.384799E-1,8.4352803E-1,1.6883506E-1,-8.620465E-2,5.763261E-1,4.5588887E-1,-4.416688E-1,-9.843931E-1,6.181067E-1,-1.1630796E0,1.7864548E-1,-1.4062502E0,8.5164183E-1,1.3334558E0,-1.40901E-1,2.0584846E-1,1.235377E0,6.614543E-2,-1.2155015E0,8.060423E-1,-2.9788232E-1,-7.53022E-2,1.1801261E-1,4.9243963E-1,-1.4002782E0,1.0794668E0,-1.798133E-2,1.8904944E-1,-1.6081783E0,-9.1704166E-1,2.2427146E-1,9.5191145E-1,4.2762214E-1,-3.406541E-1,1.2302555E0,4.098249E-1,-6.766026E-1,-1.0355253E0,7.82916E-1,-9.961798E-1,1.3910064E0,3.7605152E-1,-1.375391E0,-7.8362435E-2,-1.4709296E0,-6.374674E-1,1.633724E0,-4.9316633E-1,-1.8344723E-2,-9.860963E-1,1.037824E0,-1.2937603E0,-1.2508516E-1,4.1770634E-1,1.4362757E0,1.0551178E0,-6.9417304E-1,-1.1011743E-2,-2.108916E-1,5.0376073E-2,5.9648085E-1,-7.498574E-1,5.5941844E-1,-4.5309994E-1,-1.7102531E0,-5.508817E-1,1.1599584E0,6.731962E-1,-1.427456E0,1.0023475E-1,5.8667564E-1,-1.6002162E0,-1.3144231E-1,8.3180165E-1,-1.920848E-1,1.0983894E0,-5.3239936E-1,1.1309798E0,2.9805282E-1,-1.5866466E0,5.952803E-1,-3.3411583E-1,1.4456819E0,-8.9824086E-1,1.0193251E0,-8.23848E-1,7.147937E-1],"categories":[],"categories_nodes":[],"categories_segments":[],"categories_sizes":[],"default_left":[1,1,1,1,1,1,1,1,1,1,1,1,1,1,1,1,1,1,1,1,1,0,1,1,1,1,1,1,1,1,1,1,1,0,1,1,0,1,1,0,0,1,1,1,1,1,1,1,1,1,1,1,0,1,1,1,1,1,1,1,1,0,0,0,0,0,0,0,0,0,0,0,0,0,0,0,0,0,0,0,0,0,0,0,0,0,0,0,0,0,0,0,0,0,0,0,0,0,0,0,0,0,0,0,0,0,0,0,0,0,0],"id":9,"left_children":[1,3,5,7,9,11,13,15,17,19,21,23,25,27,29,31,33,35,37,39,41,-1,43,45,47,49,51,53,55,57,59,61,63,-1,65,67,-1,69,71,-1,-1,73,75,77,79,81,83,85,87,89,91,93,-1,95,97,99,101,103,105,107,109,-1,-1,-1,-1,-1,-1,-1,-1,-1,-1,-1,-1,-1,-1,-1,-1,-1,-1,-1,-1,-1,-1,-1,-1,-1,-1,-1,-1,-1,-1,-1,-1,-1,-1,-1,-1,-1,-1,-1,-1,-1,-1,-1,-1,-1,-1,-1,-1,-1,-1],"loss_changes":[3.3329357E1,3.3731445E1,3.548917E1,3.319117E1,2.6528072E1,2.8089262E1,3.6757095E1,2.038089E1,2.7694939E1,1.355857E1,2.0143269E1,2.508271E1,1.7513784E1,1.9951569E1,1.7497442E1,1.0200569E1,1.5312954E1,8.507183E0,2.3282051E1,5.415783E-1,9.077503E0,0E0,2.6173101E1,2.4796785E1,1.2003994E1,8.578564E0,1.6871254E1,1.4444566E1,1.4904945E1,1.8778013E1,1.6491869E1,1.0494522E1,6.9814434E0,0E0,1.185627E1,1.6910553E0,0E0,7.550091E0,1.8007551E1,0E0,0E0,1.0007097E1,1.3943768E0,1.54039345E1,1.807229E1,2.9105995E1,2.677026E1,9.69911E0,2.5598383E-1,4.9790306E0,1.0738479E1,1.6077257E1,0E0,7.9542646E0,1.0527296E1,1.7313766E1,1.7726875E1,1.8967682E1,5.6422405E0,1.5386322E1,1.3681406E1,0E0,0E0,0E0,0E0,0E0,0E0,0E0,0E0,0E0,0E0,0E0,0E0,0E0,0E0,0E0,0E0,0E0,0E0,0E0,0E0,0E0,0E0,0E0,0E0,0E0,0E0,0E0,0E0,0E0,0E0,0E0,0E0,0E0,0E0,0E0,0E0,0E0,0E0,0E0,0E0,0E0,0E0,0E0,0E0,0E0,0E0,0E0,0E0,0E0,0E0],"parents":[2147483647,0,0,1,1,2,2,3,3,4,4,5,5,6,6,7,7,8,8,9,9,10,10,11,11,12,12,13,13,14,14,15,15,16,16,17,17,18,18,19,19,20,20,22,22,23,23,24,24,25,25,26,26,27,27,28,28,29,29,30,30,31,31,32,32,34,34,35,35,37,37,38,38,41,41,42,42,43,43,44,44,45,45,46,46,47,47,48,48,49,49,50,50,51,51,53,53,54,54,55,55,56,56,57,57,58,58,59,59,60,60],"right_children":[2,4,6,8,10,12,14,16,18,20,22,24,26,28,30,32,34,36,38,40,42,-1,44,46,48,50,52,54,56,58,60,62,64,-1,66,68,-1,70,72,-1,-1,74,76,78,80,82,84,86,88,90,92,94,-1,96,98,100,102,104,106,108,110,-1,-1,-1,-1,-1,-1,-1,-1,-1,-1,-1,-1,-1,-1,-1,-1,-1,-1,-1,-1,-1,-1,-1,-1,-1,-1,-1,-1,-1,-1,-1,-1,-1,-1,-1,-1,-1,-1,-1,-1,-1,-1,-1,-1,-1,-1,-1,-1,-1,-1],"split_conditions":[2.26189E1,2.705E2,6.85E1,1.1583334E1,6.035E2,7.35E1,5.95E1,4.255E2,4.65E1,4.775E2,4.25E1,3.77518E1,1.105E2,-1.65E1,1.143E0,5E-1,6.45E1,1.3585E3,1.875E1,1.44E2,3.95E1,1.0686623E0,5.9425E0,8.05E1,9.75E1,1.0475E2,8.2865E0,6.75E1,5.55E1,7.55E1,1.65E1,2.5805001E0,3.925E2,-3.489239E-1,8.25E1,1.89108E1,2.5549257E-1,5.8E2,1.305E2,6.175454E-2,3.706131E-1,5.35E1,7.305E2,5.4845E0,3.945E2,1.5125E0,1.8725E0,5.875E-1,1.01E2,4.415E2,5.5E1,4.475E2,-4.824535E-1,5E0,1.34E2,7.89E2,5.505E2,1.0805E0,6.6E1,6.88E2,1.075E2,-3.1065762E-1,2.3487481E-1,-2.9885396E-1,4.1730192E-1,1.1281546E-1,-4.1261733E-1,-2.3508731E-2,-4.412789E-1,-1.9124022E-1,4.9011722E-1,-1.479499E-1,-5.503417E-3,-2.958289E-1,3.1134722E-1,-3.881281E-1,-3.752555E-2,1.2531191E-1,4.3088272E-1,3.1653535E-1,-2.0825192E-1,-3.303523E-3,-6.3267484E-2,1.5112822E-2,1.7894426E-1,-2.2495724E-1,1.6782553E-1,-1.3592999E-1,-5.1307595E-1,-1.6526452E-1,3.4798753E-1,2.0195886E-1,-4.282368E-1,3.0070426E-2,1.760027E-1,-4.8006487E-1,-3.9432693E-2,2.4954051E-1,-5.7625443E-2,3.2951683E-1,-1.5971981E-1,3.3929396E-1,8.941585E-2,-4.75994E-1,1.785841E-1,-1.00234754E-1,4.3370458E-1,-2.6947227E-1,3.0579755E-1,-2.4715441E-1,2.1443811E-1],"split_indices":[5,36,18,53,24,6,17,14,37,23,34,5,36,17,3,1,6,20,55,48,31,0,4,34,34,52,4,6,38,34,33,3,14,0,37,5,0,24,56,0,0,7,20,4,14,3,3,51,8,29,16,14,0,40,48,30,23,3,54,24,54,0,0,0,0,0,0,0,0,0,0,0,0,0,0,0,0,0,0,0,0,0,0,0,0,0,0,0,0,0,0,0,0,0,0,0,0,0,0,0,0,0,0,0,0,0,0,0,0,0,0],"split_type":[0,0,0,0,0,0,0,0,0,0,0,0,0,0,0,0,0,0,0,0,0,0,0,0,0,0,0,0,0,0,0,0,0,0,0,0,0,0,0,0,0,0,0,0,0,0,0,0,0,0,0,0,0,0,0,0,0,0,0,0,0,0,0,0,0,0,0,0,0,0,0,0,0,0,0,0,0,0,0,0,0,0,0,0,0,0,0,0,0,0,0,0,0,0,0,0,0,0,0,0,0,0,0,0,0,0,0,0,0,0,0],"sum_hessian":[5.944707E3,7.288155E2,5.2158916E3,6.0318463E2,1.2563082E2,4.779716E3,4.3617587E2,1.5567354E2,4.475111E2,2.8753172E1,9.6877655E1,4.278397E3,5.0131885E2,3.2735706E2,1.0881882E2,1.09646454E2,4.602708E1,2.1194899E1,4.2631622E2,3.7301276E0,2.5023045E1,1.1474011E0,9.573025E1,4.165362E3,1.13035126E2,4.1108635E1,4.602102E2,5.4199154E1,2.731579E2,2.8763998E1,8.005482E1,1.0616153E2,3.4849198E0,1.0065113E1,3.5961967E1,2.003134E1,1.1635591E0,9.997948E0,4.1631827E2,1.1361026E0,2.594025E0,7.786526E0,1.7236519E1,6.439072E1,3.1339533E1,3.338219E3,8.271429E2,1.105239E2,2.5112183E0,3.2072144E1,9.03649E0,4.5591754E2,4.292665E0,1.4212557E1,3.99866E1,7.594365E1,1.9721423E2,1.445506E1,1.4308937E1,1.7150423E1,6.2904396E1,1.03578835E2,2.5826998E0,1.0347803E0,2.4501395E0,3.2581253E1,3.3807135E0,1.0330977E0,1.8998241E1,1.173334E0,8.824615E0,1.06675446E2,3.0964282E2,3.7311661E0,4.0553603E0,1.5908303E1,1.328215E0,4.087019E1,2.352053E1,6.7231464E0,2.4616386E1,2.2652295E3,1.0729896E3,7.256674E2,1.01475464E2,5.1325145E0,1.0539139E2,1.2261748E0,1.2850435E0,1.2339828E0,3.0838161E1,6.4137144E0,2.6227763E0,3.736993E2,8.221825E1,7.04721E0,7.1653466E0,1.5854517E1,2.413208E1,6.935902E1,6.584633E0,2.947618E1,1.6773807E2,5.9022493E0,8.552812E0,1.6652639E0,1.2643673E1,5.300702E0,1.1849721E1,5.7253414E1,5.6509814E0],"tree_param":{"num_deleted":"0","num_feature":"57","num_nodes":"111","size_leaf_vector":"0"}},{"base_weights":[-1.1327352E-3,-1.420889E-1,3.3628248E-2,-1.7766452E-1,4.356341E-1,4.1076973E-1,1.9197458E-2,-3.1729445E-1,-1.0257351E-2,6.375471E-1,-7.0022273E-1,4.7080883E-1,-1.058682E0,8.887067E-3,5.0896555E-1,-2.6155904E-1,-1.0264099E0,7.136494E-2,-5.260724E-1,-1.2009721E0,7.4326384E-1,8.057164E-1,-1.3160084E0,6.0584173E-2,6.7771703E-1,9.33466E-1,-1.9328117E0,-3.130166E-2,1.476753E-1,9.8608124E-1,4.9596716E-2,1.6358475E-1,-3.599692E-1,5.602892E-1,-1.205331E0,1.23228386E-1,-7.7340055E-1,9.871157E-1,-7.1641785E-1,8.622103E-1,-6.356835E-1,1.7103797E0,-8.225873E-1,-1.6898848E0,6.053472E-1,-1.1721604E0,4.4323266E-1,-1.213558E0,7.3202246E-1,-4.7248E-1,-2.1973128E0,8.54109E-3,-2.3314919E-1,1.2512408E-1,8.885804E-1,1.2669113E0,-2.3347963E-1,4.86421E-1,-5.433276E-1,6.723748E-1,-9.344843E-2,-5.8264893E-1,-1.1883201E-1,-8.2581043E-1,1.1478949E0,1.0833681E0,-1.3526711E0,3.086691E-1,-6.383462E-2,-1.161947E0,1.2130356E0,1.7241426E-2,1.5220717E0,-9.830814E-1,2.6557294E-1,1.3432138E-1,1.079186E0,-1.4577323E0,7.424675E-1,-1.4917382E0,4.6369526E-1,6.510219E-1,-1.4362153E0,7.942203E-1,-6.4657617E-1,-7.502865E-2,8.821337E-2,-1.1379893E0,-1.6341032E-1,1.3546748E-1,-1.37334E0,1.0992068E0,-1.5388875E-1,1.3884377E0,-7.230119E-1,9.167286E-1,-1.1787058E0,-9.700039E-1,6.722045E-1,-9.5063347E-1,8.723084E-1],"categories":[],"categories_nodes":[],"categories_segments":[],"categories_sizes":[],"default_left":[1,1,1,1,1,1,1,1,1,1,1,1,1,1,1,1,1,1,1,0,1,1,1,1,1,0,1,1,1,1,1,1,1,1,1,1,1,1,1,1,1,0,0,0,0,1,1,0,1,0,0,1,1,1,1,1,1,1,1,0,0,0,0,0,0,0,0,0,0,0,0,0,0,0,0,0,0,0,0,0,0,0,0,0,0,0,0,0,0,0,0,0,0,0,0,0,0,0,0,0,0],"id":10,"left_children":[1,3,5,7,9,11,13,15,17,19,21,23,25,27,29,31,33,35,37,-1,39,41,43,45,47,-1,49,51,53,55,57,59,61,63,65,67,69,71,73,75,77,-1,-1,-1,-1,79,81,-1,83,-1,-1,85,87,89,91,93,95,97,99,-1,-1,-1,-1,-1,-1,-1,-1,-1,-1,-1,-1,-1,-1,-1,-1,-1,-1,-1,-1,-1,-1,-1,-1,-1,-1,-1,-1,-1,-1,-1,-1,-1,-1,-1,-1,-1,-1,-1,-1,-1,-1],"loss_changes":[2.879293E1,2.3969759E1,2.5647375E1,2.561024E1,1.5978053E1,1.5820854E1,2.2927397E1,2.3343025E1,2.1061115E1,1.2170292E1,1.0980981E1,1.418037E1,1.4212212E1,2.4817854E1,2.0468126E1,2.3288506E1,1.2937321E1,1.9022621E1,2.0391275E1,0E0,9.649054E0,6.8942947E0,6.750284E0,2.7535734E1,1.23172E1,0E0,1.0004826E0,2.7751707E1,1.6582119E1,1.6004345E1,1.288961E1,1.3800861E1,2.4157032E1,5.0688806E0,1.4661621E1,1.4168753E1,2.0802252E1,4.1538706E0,1.6309011E1,7.989418E0,6.7261877E0,0E0,0E0,0E0,0E0,7.927576E0,1.828704E1,0E0,9.84219E0,0E0,0E0,1.9200012E1,3.5710342E1,1.5231971E1,6.613117E0,1.0057106E1,1.1331986E1,8.389318E0,1.3024578E1,0E0,0E0,0E0,0E0,0E0,0E0,0E0,0E0,0E0,0E0,0E0,0E0,0E0,0E0,0E0,0E0,0E0,0E0,0E0,0E0,0E0,0E0,0E0,0E0,0E0,0E0,0E0,0E0,0E0,0E0,0E0,0E0,0E0,0E0,0E0,0E0,0E0,0E0,0E0,0E0,0E0,0E0],"parents":[2147483647,0,0,1,1,2,2,3,3,4,4,5,5,6,6,7,7,8,8,9,9,10,10,11,11,12,12,13,13,14,14,15,15,16,16,17,17,18,18,20,20,21,21,22,22,23,23,24,24,26,26,27,27,28,28,29,29,30,30,31,31,32,32,33,33,34,34,35,35,36,36,37,37,38,38,39,39,40,40,45,45,46,46,48,48,51,51,52,52,53,53,54,54,55,55,56,56,57,57,58,58],"right_children":[2,4,6,8,10,12,14,16,18,20,22,24,26,28,30,32,34,36,38,-1,40,42,44,46,48,-1,50,52,54,56,58,60,62,64,66,68,70,72,74,76,78,-1,-1,-1,-1,80,82,-1,84,-1,-1,86,88,90,92,94,96,98,100,-1,-1,-1,-1,-1,-1,-1,-1,-1,-1,-1,-1,-1,-1,-1,-1,-1,-1,-1,-1,-1,-1,-1,-1,-1,-1,-1,-1,-1,-1,-1,-1,-1,-1,-1,-1,-1,-1,-1,-1,-1,-1],"split_conditions":[1.45E2,6.8500004E0,5.04644E0,7.95E2,1.07E2,1.4575E2,1.69356E1,6.795E2,1.595E2,5.29E2,8.1321E0,7.505E2,3.55E1,1.555E2,1.2016667E2,1.1235E0,-2.25E1,1.45189E1,3.9E1,-3.6029163E-1,9.15E1,1.3E1,6.735E2,6.775E-1,6.52E2,2.8003982E-1,7.75E1,1.7405E0,1.178E3,1.895335E1,1.3355E0,1.495E2,1.3675E2,2.45E1,3.15E1,7.15E1,1.1525E3,5.85E1,1.079E3,5.55E1,1.005E2,5.131139E-1,-2.4677621E-1,-5.0696546E-1,1.8160418E-1,7.2974997E0,7.38E2,-3.640674E-1,7.52E0,-1.41744E-1,-6.591939E-1,2.69504E1,3.935E2,1.328E3,7.25E1,3.425E1,9.925E1,2.47456E1,7.2860003E0,2.0171244E-1,-2.803453E-2,-1.7479469E-1,-3.5649605E-2,-2.4774314E-1,3.4436846E-1,3.2501042E-1,-4.0580136E-1,9.260073E-2,-1.9150387E-2,-3.4858412E-1,3.6391068E-1,5.1724277E-3,4.5662153E-1,-2.9492444E-1,7.967188E-2,4.0296413E-2,3.237558E-1,-4.3731973E-1,2.2274026E-1,-4.4752148E-1,1.3910858E-1,1.9530658E-1,-4.308646E-1,2.3826611E-1,-1.9397286E-1,-2.2508595E-2,2.6464012E-2,-3.413968E-1,-4.90231E-2,4.0640246E-2,-4.1200203E-1,3.2976204E-1,-4.6166625E-2,4.1653135E-1,-2.1690358E-1,2.750186E-1,-3.5361177E-1,-2.9100117E-1,2.0166136E-1,-2.8519005E-1,2.6169252E-1],"split_indices":[10,40,35,20,8,50,35,24,42,23,35,21,31,56,50,3,17,35,41,0,38,45,30,51,19,0,49,3,26,35,3,36,48,45,31,54,21,18,22,6,38,0,0,0,0,4,24,0,4,0,0,5,14,20,43,45,50,5,4,0,0,0,0,0,0,0,0,0,0,0,0,0,0,0,0,0,0,0,0,0,0,0,0,0,0,0,0,0,0,0,0,0,0,0,0,0,0,0,0,0,0],"split_type":[0,0,0,0,0,0,0,0,0,0,0,0,0,0,0,0,0,0,0,0,0,0,0,0,0,0,0,0,0,0,0,0,0,0,0,0,0,0,0,0,0,0,0,0,0,0,0,0,0,0,0,0,0,0,0,0,0,0,0,0,0,0,0,0,0,0,0,0,0,0,0,0,0,0,0,0,0,0,0,0,0,0,0,0,0,0,0,0,0,0,0,0,0,0,0,0,0,0,0,0,0],"sum_hessian":[5.8744023E3,1.1614841E3,4.7129185E3,1.0947622E3,6.67219E1,1.7267514E2,4.540243E3,5.9641376E2,4.9834848E2,5.7023888E1,9.698012E0,1.6654982E2,6.1253166E0,4.447632E3,9.261153E1,5.542216E2,4.219214E1,4.3100772E2,6.7340775E1,2.5373075E0,5.448658E1,2.7251256E0,6.9728866E0,5.6273155E1,1.10276665E2,1.8473386E0,4.277978E0,3.4495303E3,9.9810144E2,4.4865807E1,4.774572E1,1.0405013E2,4.5017148E2,4.0595927E0,3.813255E1,4.0688177E2,2.4125933E1,7.05665E0,6.0284122E1,5.050482E1,3.981756E0,1.7194287E0,1.0056969E0,5.9379034E0,1.0349828E0,1.284104E1,4.3432117E1,2.4822273E0,1.0779443E2,1.0832995E0,3.1946788E0,2.8816736E3,5.6785675E2,9.6975354E2,2.8347895E1,3.643666E1,8.429146E0,2.7595184E1,2.0150536E1,3.437999E1,6.967014E1,2.3330664E2,2.1686482E2,1.0879207E0,2.9716718E0,1.9221476E0,3.62104E1,2.0400044E2,2.0288133E2,2.0526093E1,3.5998402E0,2.875537E0,4.1811132E0,4.7408928E1,1.2875195E1,1.1969562E1,3.853526E1,2.4579039E0,1.523852E0,1.081612E1,2.024919E0,3.969689E1,3.735225E0,1.03546646E2,4.2477927E0,1.4064647E3,1.4752089E3,3.9538548E1,5.2831824E2,9.640089E2,5.7446427E0,2.3537766E1,4.81013E0,3.4624382E1,1.8122782E0,3.8158898E0,4.613256E0,2.644311E0,2.4950874E1,1.5903319E1,4.2472167E0],"tree_param":{"num_deleted":"0","num_feature":"57","num_nodes":"101","size_leaf_vector":"0"}},{"base_weights":[-1.2465029E-3,-5.3578313E-2,7.794239E-2,-3.7632443E-2,-4.3130755E-1,-3.8866684E-1,1.1470882E-1,1.7659129E-1,-6.613305E-2,5.1839536E-1,-6.262338E-1,9.366083E-1,-4.7848046E-1,7.313769E-1,9.844937E-2,3.3679926E-1,-1.00888915E-1,3.505472E-1,-8.3218366E-2,8.663415E-1,-9.189322E-1,5.57341E-1,-7.54682E-1,-1.1788917E0,1.3117206E0,-1.00821204E-1,-7.913692E-1,-1.6400257E-1,1.1105587E0,-9.7424634E-2,1.4831841E-1,9.884268E-1,2.1529047E-1,-2.425429E-1,1.0540574E0,1.8714207E-1,1.0581743E0,1.5818795E-2,-1.5993321E-1,-8.64136E-1,1.1239071E0,-1.6644789E0,7.2636604E-1,-9.3333864E-1,1.1129282E0,-9.7283405E-1,3.9526224E-1,1.5886512E0,3.9778617E-3,-3.1448454E-1,8.559508E-1,-4.3638995E-1,-1.489042E0,-8.855575E-1,5.674467E-1,-1.0833063E0,1.238147E0,1.2804391E0,-1.3221715E-1,2.2488114E-1,-7.694502E-3,1.8135089E0,4.8985666E-1,6.904428E-1,2.1979965E-2,-6.7351586E-1,8.41811E-2,2.4861245E0,-5.183392E-2,2.8679156E-1,-1.3353486E0,1.2825183E0,-1.2318678E0,-2.4160637E-1,1.2609203E-1,-2.1094184E-1,1.7020902E-1,-1.3817017E0,1.2202095E-1,4.773324E-3,1.440734E0,1.4269944E0,-7.187432E-1,-1.0371344E0,9.4103533E-1,-1.0837702E0,9.027526E-1,3.1564876E-1,1.7262409E0,-4.613835E-1,1.1861488E0,1.1515696E0,-1.1606728E0,-6.7322236E-1,6.8318E-1,1.0437791E0,-1.683915E0,-1.5456356E0,2.3607041E-1,-1.164729E0,1.1362382E0,1.3384658E0,-8.3122677E-1,-6.554115E-1,1.5857166E0,-2.9503658E-1,2.0994379E-1,9.466049E-2,3.806989E-1,-8.315768E-2,5.8211607E-1],"categories":[],"categories_nodes":[],"categories_segments":[],"categories_sizes":[],"default_left":[1,1,1,1,1,1,1,1,1,1,1,1,1,1,1,1,1,1,1,1,1,1,1,0,1,1,1,1,1,1,1,1,1,1,1,1,1,1,1,1,1,0,0,0,1,1,1,1,0,1,1,1,1,1,1,0,1,1,1,1,1,0,0,0,0,0,0,0,0,0,0,0,0,0,0,0,0,0,0,0,0,0,0,0,0,0,0,0,0,0,0,0,0,0,0,0,0,0,0,0,0,0,0,0,0,0,0,0,0,0,0],"id":11,"left_children":[1,3,5,7,9,11,13,15,17,19,21,23,25,27,29,31,33,35,37,39,41,43,45,-1,47,49,51,53,55,57,59,61,63,65,67,69,71,73,75,77,79,-1,-1,-1,81,83,85,87,-1,89,91,93,95,97,99,-1,101,103,105,107,109,-1,-1,-1,-1,-1,-1,-1,-1,-1,-1,-1,-1,-1,-1,-1,-1,-1,-1,-1,-1,-1,-1,-1,-1,-1,-1,-1,-1,-1,-1,-1,-1,-1,-1,-1,-1,-1,-1,-1,-1,-1,-1,-1,-1,-1,-1,-1,-1,-1,-1],"loss_changes":[2.406265E1,2.1041452E1,3.968069E1,2.049913E1,2.6521961E1,2.0561277E1,2.140932E1,1.7561615E1,2.1118032E1,1.3122082E1,1.833976E1,1.0325377E1,1.8698524E1,1.8815067E1,2.041536E1,1.959708E1,2.3992687E1,1.331581E1,2.1628517E1,1.0044823E1,7.6965127E0,1.1072016E1,2.716484E1,0E0,3.5681705E0,1.5223226E1,2.083826E1,9.579592E0,1.2169109E1,2.0516361E1,1.9890995E1,1.5172298E1,1.9471218E1,1.8369125E1,2.5528625E1,1.4972126E1,1.2733654E1,3.5325737E1,2.7048435E1,1.8033142E0,6.4302998E0,0E0,0E0,0E0,6.364914E0,1.2053986E1,1.4289078E1,8.813286E-1,0E0,1.3890274E1,9.457628E0,1.6082617E1,1.5994667E1,7.0639577E0,1.0338617E1,0E0,8.798553E0,7.2722893E0,2.3175442E1,2.2628483E1,2.448873E1,0E0,0E0,0E0,0E0,0E0,0E0,0E0,0E0,0E0,0E0,0E0,0E0,0E0,0E0,0E0,0E0,0E0,0E0,0E0,0E0,0E0,0E0,0E0,0E0,0E0,0E0,0E0,0E0,0E0,0E0,0E0,0E0,0E0,0E0,0E0,0E0,0E0,0E0,0E0,0E0,0E0,0E0,0E0,0E0,0E0,0E0,0E0,0E0,0E0,0E0],"parents":[2147483647,0,0,1,1,2,2,3,3,4,4,5,5,6,6,7,7,8,8,9,9,10,10,11,11,12,12,13,13,14,14,15,15,16,16,17,17,18,18,19,19,20,20,21,21,22,22,24,24,25,25,26,26,27,27,28,28,29,29,30,30,31,31,32,32,33,33,34,34,35,35,36,36,37,37,38,38,39,39,40,40,44,44,45,45,46,46,47,47,49,49,50,50,51,51,52,52,53,53,54,54,56,56,57,57,58,58,59,59,60,60],"right_children":[2,4,6,8,10,12,14,16,18,20,22,24,26,28,30,32,34,36,38,40,42,44,46,-1,48,50,52,54,56,58,60,62,64,66,68,70,72,74,76,78,80,-1,-1,-1,82,84,86,88,-1,90,92,94,96,98,100,-1,102,104,106,108,110,-1,-1,-1,-1,-1,-1,-1,-1,-1,-1,-1,-1,-1,-1,-1,-1,-1,-1,-1,-1,-1,-1,-1,-1,-1,-1,-1,-1,-1,-1,-1,-1,-1,-1,-1,-1,-1,-1,-1,-1,-1,-1,-1,-1,-1,-1,-1,-1,-1,-1],"split_conditions":[5E-1,8.4583336E-1,7.5E1,4.45E2,-1.55E1,3.95E1,3.6E2,3.45E1,5.0690804E0,7.8E1,7.475E1,4.145E2,5.6184998E0,9.9E1,5.975E2,5.25E1,2.85E1,6.75E1,7.15E1,1.121E0,1.3752501E1,7.505E2,5.05E1,-3.536675E-1,6.875E1,9.76E2,1.0125E2,2.55E0,1.55E1,3.43E2,1.5095E0,6.3E1,2.5692799E1,5.76E2,9.5E1,6.35E1,3.05E0,6.675E-1,3.207455E1,4.56E2,1.265E2,-4.993437E-1,2.1790983E-1,-2.800016E-1,1.05E2,7.9500003E0,2.45E1,7.5E0,1.1933586E-3,5.566E0,6.05E1,7.2845E0,2.75E0,7.375E-1,3.945E2,-3.249919E-1,4.56E2,1.205E2,6.2375E0,1.019E3,1.35351E1,5.4405266E-1,1.4695701E-1,2.0713285E-1,6.5939897E-3,-2.0205477E-1,2.5254332E-2,7.458374E-1,-1.5550177E-2,8.603747E-2,-4.006046E-1,3.847555E-1,-3.6956036E-1,-7.2481915E-2,3.782761E-2,-6.328256E-2,5.1062707E-2,-4.1451052E-1,3.6606286E-2,1.4319972E-3,4.3222022E-1,4.2809835E-1,-2.1562298E-1,-3.1114033E-1,2.823106E-1,-3.2513106E-1,2.7082577E-1,9.469464E-2,5.178723E-1,-1.3841505E-1,3.5584465E-1,3.454709E-1,-3.4820184E-1,-2.0196672E-1,2.04954E-1,3.1313375E-1,-5.051745E-1,-4.636907E-1,7.082113E-2,-3.494187E-1,3.4087148E-1,4.0153977E-1,-2.4936804E-1,-1.9662346E-1,4.75715E-1,-8.8510975E-2,6.298314E-2,2.8398149E-2,1.14209674E-1,-2.4947306E-2,1.7463483E-1],"split_indices":[2,51,12,27,17,44,30,17,35,54,52,14,4,8,26,38,33,18,44,3,35,22,31,0,47,20,52,39,33,28,3,37,5,26,8,17,39,51,5,13,48,0,0,0,8,40,32,17,0,4,41,4,40,51,14,0,14,48,4,15,35,0,0,0,0,0,0,0,0,0,0,0,0,0,0,0,0,0,0,0,0,0,0,0,0,0,0,0,0,0,0,0,0,0,0,0,0,0,0,0,0,0,0,0,0,0,0,0,0,0,0],"split_type":[0,0,0,0,0,0,0,0,0,0,0,0,0,0,0,0,0,0,0,0,0,0,0,0,0,0,0,0,0,0,0,0,0,0,0,0,0,0,0,0,0,0,0,0,0,0,0,0,0,0,0,0,0,0,0,0,0,0,0,0,0,0,0,0,0,0,0,0,0,0,0,0,0,0,0,0,0,0,0,0,0,0,0,0,0,0,0,0,0,0,0,0,0,0,0,0,0,0,0,0,0,0,0,0,0,0,0,0,0,0,0],"sum_hessian":[5.804478E3,3.4950833E3,2.3093948E3,3.3545696E3,1.405138E2,1.6797852E2,2.1414163E3,3.9328223E2,2.9612874E3,2.36464E1,1.1686739E2,1.0062945E1,1.5791557E2,5.388157E1,2.087535E3,2.4919276E2,1.4408948E2,1.15871506E2,2.8454158E3,1.9357597E1,4.2888026E0,1.1114521E1,1.0575288E2,1.1928612E0,8.870084E0,7.215098E1,8.5764595E1,1.6198587E1,3.7682983E1,4.2343335E2,1.6641014E3,3.8042698E1,2.1115005E2,1.2905135E2,1.5038132E1,9.516133E1,2.0710175E1,1.2423558E3,1.6030599E3,2.2028098E0,1.7154787E1,2.9433858E0,1.3454168E0,2.8331273E0,8.281394E0,8.901933E1,1.6733541E1,7.1427207E0,1.7273632E0,5.9528553E1,1.2622424E1,5.792008E1,2.7844515E1,8.048385E0,8.150203E0,1.6593871E0,3.6023594E1,9.547028E0,4.1388632E2,1.1159915E3,5.481099E2,1.333584E1,2.4706856E1,6.0318073E1,1.5083199E2,5.519011E1,7.386124E1,6.0088863E0,9.029245E0,9.0077255E1,5.0840735E0,1.9263031E1,1.4471447E0,3.7222696E2,8.7012885E2,1.3888385E3,2.1422145E2,1.1815817E0,1.0212281E0,4.008954E0,1.3145834E1,7.257863E0,1.0235313E0,8.656896E1,2.4503655E0,3.9847672E0,1.27487755E1,1.0180146E0,6.1247063E0,5.48516E1,4.6769543E0,1.1382773E1,1.2396502E0,4.8136105E1,9.783972E0,1.6780617E0,2.6166452E1,4.8286786E0,3.2197065E0,1.7557088E0,6.394494E0,3.4694866E1,1.3287294E0,1.1442266E0,8.4028015E0,2.8053143E2,1.333549E2,6.0880554E2,5.0718597E2,4.8669843E2,6.1411507E1],"tree_param":{"num_deleted":"0","num_feature":"57","num_nodes":"111","size_leaf_vector":"0"}},{"base_weights":[-8.229567E-4,2.4043301E-1,-1.6254038E-2,-1.0778024E0,2.9293904E-1,-2.0775941E-1,1.8438643E-2,-1.4682992E0,7.022745E-1,3.273189E-1,-1.3587612E0,-1.5696557E-1,-9.079149E-1,1.89271E-3,3.0565625E-1,-4.287045E-1,-1.6421716E0,-6.165733E-1,3.7653306E-1,-1.6078104E0,-1.8710326E-1,1.7294228E-1,-2.3617995E-1,-1.0872955E0,7.769023E-1,2.8232504E-2,-1.8142013E-1,-5.8510923E-1,4.1447312E-1,-3.8336045E-1,-1.7848982E0,1.2128619E0,-1.1664573E0,4.4897527E-1,-1.8016332E-1,-3.3664796E-1,3.2574153E-1,-1.3198372E0,-1.991255E-1,-1.2556952E0,7.204124E-1,-6.490955E-1,1.1975708E0,-6.919239E-2,8.8274166E-2,3.351639E-1,-2.7258757E-1,-9.2608E-1,5.693042E-1,1.06753066E-1,7.3163086E-1,2.754886E-1,-1.4498281E0,-2.4229524E-1,5.348961E-1,7.169368E-1,-1.0793906E0,2.1370377E-2,-1.9818769E0,4.5584092E-1,-5.7634E-1,1.2908113E-1,-1.9141096E0,-3.5713726E-1,1.1355869E-2,-7.975893E-1,-1.6582944E0,1.2124081E0,-4.854336E-2,1.4670516E0,3.9942527E-1,-1.5817572E-1,1.1580165E-1,7.105481E-2,6.305469E-1,4.8405254E-1,-9.577691E-1,6.5498537E-1,-3.379241E-1,-1.2039121E0,3.5042334E-1,1.3414003E0,-9.445455E-1,-8.277719E-1,3.1731734E-1,-1.2263154E0,7.784816E-1],"categories":[],"categories_nodes":[],"categories_segments":[],"categories_sizes":[],"default_left":[1,1,1,1,1,1,1,1,0,1,1,1,1,1,1,0,1,1,1,0,0,1,1,1,1,1,1,1,1,0,0,0,1,1,1,1,1,1,1,1,1,0,1,1,1,1,1,1,1,1,1,0,0,0,0,0,0,0,0,0,0,0,0,0,0,0,0,0,0,0,0,0,0,0,0,0,0,0,0,0,0,0,0,0,0,0,0],"id":12,"left_children":[1,3,5,7,9,11,13,15,-1,17,19,21,23,25,27,-1,29,31,33,-1,-1,35,37,39,41,43,45,47,49,-1,-1,-1,51,53,55,57,59,61,63,65,67,-1,69,71,73,75,77,79,81,83,85,-1,-1,-1,-1,-1,-1,-1,-1,-1,-1,-1,-1,-1,-1,-1,-1,-1,-1,-1,-1,-1,-1,-1,-1,-1,-1,-1,-1,-1,-1,-1,-1,-1,-1,-1,-1],"loss_changes":[2.1439323E1,2.4278198E1,3.5964317E1,1.0397751E1,1.939551E1,2.9383438E1,2.1780945E1,1.3519688E0,0E0,1.5456062E1,1.7414732E0,2.0301651E1,1.7753315E1,2.0935036E1,2.4441114E1,0E0,1.0030193E0,1.8134052E1,1.2667671E1,0E0,0E0,1.1842964E1,2.4857536E1,1.6424E1,4.356613E0,2.2181763E1,2.574579E1,1.1388047E1,2.169136E1,0E0,0E0,0E0,5.829239E0,1.6549618E1,3.0340363E1,2.0806707E1,1.392762E1,1.7904305E1,2.016166E1,7.3458405E0,1.9428632E0,0E0,4.806304E-1,2.3822487E1,2.1860615E1,1.6280106E1,2.8315594E1,8.111254E0,9.344513E0,2.277087E1,1.1015144E1,0E0,0E0,0E0,0E0,0E0,0E0,0E0,0E0,0E0,0E0,0E0,0E0,0E0,0E0,0E0,0E0,0E0,0E0,0E0,0E0,0E0,0E0,0E0,0E0,0E0,0E0,0E0,0E0,0E0,0E0,0E0,0E0,0E0,0E0,0E0,0E0],"parents":[2147483647,0,0,1,1,2,2,3,3,4,4,5,5,6,6,7,7,9,9,10,10,11,11,12,12,13,13,14,14,16,16,17,17,18,18,21,21,22,22,23,23,24,24,25,25,26,26,27,27,28,28,32,32,33,33,34,34,35,35,36,36,37,37,38,38,39,39,40,40,42,42,43,43,44,44,45,45,46,46,47,47,48,48,49,49,50,50],"right_children":[2,4,6,8,10,12,14,16,-1,18,20,22,24,26,28,-1,30,32,34,-1,-1,36,38,40,42,44,46,48,50,-1,-1,-1,52,54,56,58,60,62,64,66,68,-1,70,72,74,76,78,80,82,84,86,-1,-1,-1,-1,-1,-1,-1,-1,-1,-1,-1,-1,-1,-1,-1,-1,-1,-1,-1,-1,-1,-1,-1,-1,-1,-1,-1,-1,-1,-1,-1,-1,-1,-1,-1,-1],"split_conditions":[4.55E1,7.25E0,5.15E1,1.605E2,7.75E1,6.55E1,1.105E2,6.28E2,2.1068236E-1,7.5E1,1.2725E2,4.6475E0,4.63E2,7.15E1,1.1875E2,-1.2861136E-1,4.015E2,3.785E2,8.45E1,-4.8234314E-1,-5.613098E-2,1.85E1,4.7895E0,1.740695E1,6.35E1,8.3E1,4.5E0,7.115E2,6.25E1,-1.1500814E-1,-5.354695E-1,3.6385858E-1,3.57E2,1.95E1,6.9E1,1.132E3,1.22241E1,5.75E1,7.055E2,6.45E1,5.066E0,-1.9472866E-1,4.5E1,1.0458333E2,2.0225E2,1.3375E2,6.5E1,2.8E2,4.6E1,5.675E1,2.65E0,8.264658E-2,-4.3494847E-1,-7.268857E-2,1.6046883E-1,2.1508105E-1,-3.238172E-1,6.4111133E-3,-5.9456307E-1,1.3675228E-1,-1.7290202E-1,3.872434E-2,-5.742329E-1,-1.0714118E-1,3.4067607E-3,-2.392768E-1,-4.9748835E-1,3.6372244E-1,-1.4563008E-2,4.401155E-1,1.1982758E-1,-4.7452718E-2,3.4740496E-2,2.1316443E-2,1.8916409E-1,1.4521576E-1,-2.8733075E-1,1.9649562E-1,-1.01377234E-1,-3.6117366E-1,1.0512701E-1,4.024201E-1,-2.8336367E-1,-2.4833158E-1,9.5195204E-2,-3.6789462E-1,2.3354448E-1],"split_indices":[41,45,41,56,17,17,44,19,0,12,55,4,13,43,48,0,14,14,49,0,0,18,4,35,6,12,18,27,34,0,0,0,13,32,37,15,35,44,24,6,4,0,31,52,55,50,8,36,16,47,39,0,0,0,0,0,0,0,0,0,0,0,0,0,0,0,0,0,0,0,0,0,0,0,0,0,0,0,0,0,0,0,0,0,0,0,0],"split_type":[0,0,0,0,0,0,0,0,0,0,0,0,0,0,0,0,0,0,0,0,0,0,0,0,0,0,0,0,0,0,0,0,0,0,0,0,0,0,0,0,0,0,0,0,0,0,0,0,0,0,0,0,0,0,0,0,0,0,0,0,0,0,0,0,0,0,0,0,0,0,0,0,0,0,0,0,0,0,0,0,0,0,0,0,0,0,0],"sum_hessian":[5.756812E3,3.452018E2,5.4116104E3,1.2474914E1,3.327269E2,8.2923E2,4.5823804E3,1.0374255E1,2.1006584E0,3.2672794E2,5.9989605E0,7.7428265E2,5.494731E1,4.333731E3,2.4864948E2,1.9830571E0,8.391198E0,1.5619959E1,3.1110797E2,4.6403494E0,1.3586113E0,1.4968776E2,6.245949E2,4.9980583E1,4.9667273E0,3.7900005E3,5.4373035E2,2.6592072E1,2.220574E2,1.2298872E0,7.16131E0,3.3312838E0,1.2288675E1,2.7545667E2,3.565132E1,3.425225E1,1.1543552E2,1.9506573E1,6.050883E2,4.6000687E1,3.979896E0,1.0077177E0,3.9590094E0,1.445061E3,2.3449395E3,8.1162315E1,4.6256802E2,2.068136E1,5.9107122E0,1.1338399E2,1.0867342E2,2.0228953E0,1.02657795E1,3.025135E1,2.452053E2,1.7948248E1,1.7703072E1,2.8941334E1,5.3109145E0,1.0131798E2,1.4117532E1,5.9012647E0,1.3605308E1,3.4522534E2,2.59863E2,2.2911482E1,2.3089207E1,2.0753467E0,1.9045494E0,2.3331752E0,1.6258341E0,9.758269E2,4.692341E2,2.2738662E3,7.107342E1,7.334216E1,7.8201537E0,2.9844547E1,4.3272348E2,1.703134E1,3.6500196E0,3.989762E0,1.9209503E0,2.0310564E1,9.307342E1,1.9513043E0,1.0672212E2],"tree_param":{"num_deleted":"0","num_feature":"57","num_nodes":"87","size_leaf_vector":"0"}},{"base_weights":[-1.0318991E-3,-1.6048463E-2,2.295922E-1,-3.7447754E-2,1.4173174E-1,3.59892E-1,6.524264E-2,-7.938662E-2,6.2611334E-2,1.0381893E0,9.718525E-2,-4.6415496E-1,4.2035365E-1,5.887159E-1,-7.0682675E-2,-1.6135433E-1,1.8532801E-2,3.205577E-2,4.7669435E-1,-9.766473E-2,1.25882E0,1.19901545E-1,-1.2303388E0,1.1379626E0,-1.0013306E0,7.67356E-1,3.3676246E-1,-7.011045E-1,7.761848E-1,-7.195644E-1,4.6579886E-2,-5.908543E-1,-1.299846E-1,-1.09416306E-1,1.4930601E-1,3.9888814E-1,-1.18819885E-2,-1.5471207E0,5.505898E-1,1.1673424E0,-1.1590128E0,4.2330068E-1,1.5497149E0,6.5084827E-1,5.684181E-2,1.683927E-1,-2.0001202E0,1.4508005E0,2.4502935E-1,8.851363E-3,-1.7255975E0,-1.2798867E-1,8.833195E-1,1.6384644E-2,4.9364042E-1,-1.5126991E0,6.769374E-1,1.012875E0,-3.5998434E-1,-1.2880032E0,5.00379E-1,1.070362E-1,-1.2571725E0,-6.9788945E-1,1.1480758E0,-1.8248539E-1,1.16834626E-1,-8.208008E-2,-1.5403477E0,-6.526198E-1,1.7626324E-1,-1.571337E-1,6.94816E-1,-1.279647E-1,1.09978706E-1,6.1212593E-1,-1.5590801E0,9.415464E-1,-9.242679E-1,1.6652445E0,5.06779E-1,7.4466157E-1,-1.6119958E0,-1.5849065E-2,5.0703174E-1,6.7085564E-1,-7.712453E-1,6.2906927E-1,-7.081518E-1,-2.782652E-1,-1.9918047E0,7.7789927E-1,-1.4058518E0,9.995188E-1,1.2649292E-1,4.082199E-1,-6.3679326E-1,-1.0990335E0,5.3428155E-1,1.2609853E-1,1.1763868E0,7.066353E-1,-1.2047431E0,1.6092357E-1,-2.0020225E0,-5.054834E-1,8.114753E-1,-2.2877944E-1,4.3353036E-1,-2.130192E0,6.172747E-1],"categories":[],"categories_nodes":[],"categories_segments":[],"categories_sizes":[],"default_left":[1,1,1,1,1,1,1,1,1,1,1,1,1,1,1,1,1,1,1,1,1,1,1,1,1,1,1,1,1,1,1,1,1,1,1,1,1,0,1,0,0,1,1,1,1,1,0,0,0,1,1,1,1,1,1,0,0,1,1,1,1,1,1,0,0,0,0,0,0,0,0,0,0,0,0,0,0,0,0,0,0,0,0,0,0,0,0,0,0,0,0,0,0,0,0,0,0,0,0,0,0,0,0,0,0,0,0,0,0,0,0],"id":13,"left_children":[1,3,5,7,9,11,13,15,17,19,21,23,25,27,29,31,33,35,37,39,41,43,45,47,49,51,53,55,57,59,61,63,65,67,69,71,73,-1,75,-1,-1,77,79,81,83,85,-1,-1,-1,87,89,91,93,95,97,-1,-1,99,101,103,105,107,109,-1,-1,-1,-1,-1,-1,-1,-1,-1,-1,-1,-1,-1,-1,-1,-1,-1,-1,-1,-1,-1,-1,-1,-1,-1,-1,-1,-1,-1,-1,-1,-1,-1,-1,-1,-1,-1,-1,-1,-1,-1,-1,-1,-1,-1,-1,-1,-1],"loss_changes":[1.9772974E1,1.8104029E1,7.450981E0,1.9815962E1,2.5472721E1,9.883865E0,1.1111003E1,2.670701E1,1.763369E1,7.6943626E0,1.857864E1,1.2988447E1,5.011879E0,8.324353E0,9.49869E0,2.432558E1,2.5398026E1,2.0959646E1,1.5176559E1,9.196584E0,5.5102844E0,2.0112503E1,1.15037565E1,7.4098873E-1,7.9482927E0,3.6940937E0,7.440695E0,6.178257E0,8.046949E0,1.3889747E1,8.512744E0,2.3694351E1,2.1909912E1,2.9888233E1,1.634143E1,2.2996092E1,1.6451859E1,0E0,1.3046967E1,0E0,0E0,6.4067326E0,1.378273E0,1.4742615E1,1.7647293E1,2.6910768E0,0E0,0E0,0E0,2.901364E0,1.8808517E0,6.682902E0,2.5700665E0,1.2992963E1,7.0246563E0,0E0,0E0,3.3177528E0,5.95387E0,1.4091108E1,2.5352921E0,1.133813E1,9.151831E0,0E0,0E0,0E0,0E0,0E0,0E0,0E0,0E0,0E0,0E0,0E0,0E0,0E0,0E0,0E0,0E0,0E0,0E0,0E0,0E0,0E0,0E0,0E0,0E0,0E0,0E0,0E0,0E0,0E0,0E0,0E0,0E0,0E0,0E0,0E0,0E0,0E0,0E0,0E0,0E0,0E0,0E0,0E0,0E0,0E0,0E0,0E0,0E0],"parents":[2147483647,0,0,1,1,2,2,3,3,4,4,5,5,6,6,7,7,8,8,9,9,10,10,11,11,12,12,13,13,14,14,15,15,16,16,17,17,18,18,19,19,20,20,21,21,22,22,23,23,24,24,25,25,26,26,27,27,28,28,29,29,30,30,31,31,32,32,33,33,34,34,35,35,36,36,38,38,41,41,42,42,43,43,44,44,45,45,49,49,50,50,51,51,52,52,53,53,54,54,57,57,58,58,59,59,60,60,61,61,62,62],"right_children":[2,4,6,8,10,12,14,16,18,20,22,24,26,28,30,32,34,36,38,40,42,44,46,48,50,52,54,56,58,60,62,64,66,68,70,72,74,-1,76,-1,-1,78,80,82,84,86,-1,-1,-1,88,90,92,94,96,98,-1,-1,100,102,104,106,108,110,-1,-1,-1,-1,-1,-1,-1,-1,-1,-1,-1,-1,-1,-1,-1,-1,-1,-1,-1,-1,-1,-1,-1,-1,-1,-1,-1,-1,-1,-1,-1,-1,-1,-1,-1,-1,-1,-1,-1,-1,-1,-1,-1,-1,-1,-1,-1,-1],"split_conditions":[5E-1,1.97E2,7.125E-1,5.95E1,8.325E1,8.425E1,5.64E2,4.235E2,8.09E2,4.065E2,1.3095E3,6.35E2,7.7E1,5.395E2,3.85E2,1.35E1,1.01E2,6.13E2,4.95E1,1.65E1,2.05E2,5E-1,4.829E0,2.369455E1,1.0764999E0,6.35E2,8.7E1,7.0345E0,6.1375E0,3.18127E1,2.07E2,6.65E1,2.925E1,1.26E3,8.75E1,8.54121E0,6.55E1,-4.641362E-1,1.201E3,3.5020274E-1,-3.4770384E-1,4.19E2,1.13E2,1.0185E3,2.705E2,9.55E1,-6.000361E-1,4.3524018E-1,7.350881E-2,3.1E1,8.3E1,5.55E2,1.635E2,5.65E1,4.8E1,-4.5380977E-1,2.0308124E-1,1.43E2,6.55E1,1.2625E2,5.85E1,1.67E2,4.29E2,-2.0936684E-1,3.4442276E-1,-5.474562E-2,3.505039E-2,-2.4624025E-2,-4.6210432E-1,-1.9578594E-1,5.2878976E-2,-4.714011E-2,2.084448E-1,-3.8389415E-2,3.2993615E-2,1.8363778E-1,-4.6772406E-1,2.8246394E-1,-2.772804E-1,4.9957335E-1,1.5203372E-1,2.2339848E-1,-4.8359877E-1,-4.75472E-3,1.5210953E-1,2.012567E-1,-2.313736E-1,1.8872079E-1,-2.1244556E-1,-8.347957E-2,-5.9754145E-1,2.3336978E-1,-4.2175558E-1,2.9985565E-1,3.794788E-2,1.22465976E-1,-1.9103798E-1,-3.2971007E-1,1.6028447E-1,3.782956E-2,3.5291606E-1,2.119906E-1,-3.6142296E-1,4.8277073E-2,-6.006068E-1,-1.5164502E-1,2.434426E-1,-6.863383E-2,1.3005911E-1,-6.3905764E-1,1.8518242E-1],"split_indices":[1,10,51,41,50,52,24,14,27,14,21,20,12,26,13,33,8,22,49,33,10,18,4,5,3,21,12,4,4,5,10,31,45,22,42,35,6,0,24,0,0,13,8,26,36,52,0,0,0,16,8,26,56,41,44,0,0,10,44,48,6,10,14,0,0,0,0,0,0,0,0,0,0,0,0,0,0,0,0,0,0,0,0,0,0,0,0,0,0,0,0,0,0,0,0,0,0,0,0,0,0,0,0,0,0,0,0,0,0,0,0],"split_type":[0,0,0,0,0,0,0,0,0,0,0,0,0,0,0,0,0,0,0,0,0,0,0,0,0,0,0,0,0,0,0,0,0,0,0,0,0,0,0,0,0,0,0,0,0,0,0,0,0,0,0,0,0,0,0,0,0,0,0,0,0,0,0,0,0,0,0,0,0,0,0,0,0,0,0,0,0,0,0,0,0,0,0,0,0,0,0,0,0,0,0,0,0,0,0,0,0,0,0,0,0,0,0,0,0,0,0,0,0,0,0],"sum_hessian":[5.7074185E3,5.359385E3,3.4803375E2,4.7199883E3,6.393963E2,1.9346266E2,1.5457108E2,3.326093E3,1.3938954E3,2.921265E1,6.1018365E2,1.2767968E1,1.806947E2,3.117588E1,1.23395195E2,1.8101666E3,1.5159265E3,1.2991102E3,9.478512E1,4.842055E0,2.4370596E1,6.008124E2,9.37129E0,2.9251974E0,9.842771E0,3.349033E1,1.4720438E2,3.60855E0,2.7567331E1,1.810016E1,1.0529504E2,1.2199753E2,1.6881691E3,7.663194E2,7.4960706E2,1.3809438E2,1.1610159E3,2.636666E0,9.214845E1,2.1635177E0,2.678537E0,6.9277163E0,1.744288E1,6.279272E1,5.3801965E2,3.6039598E0,5.76733E0,1.7035891E0,1.2216084E0,4.5225935E0,5.3201766E0,3.8283403E0,2.966199E1,4.8750343E1,9.8454025E1,2.209534E0,1.3990161E0,2.2904346E1,4.662986E0,1.2308952E1,5.791208E0,1.01506E2,3.7890346E0,1.1548766E2,6.5098667E0,1.3922789E3,2.9589026E2,7.5299176E2,1.3327641E1,2.362417E1,7.259829E2,4.8130497E1,8.9963875E1,5.945788E2,5.6643713E2,9.0226524E1,1.9219341E0,5.221096E0,1.7066205E0,1.51661825E1,2.2766979E0,6.0937294E1,1.855428E0,4.6405484E2,7.39648E1,2.5346353E0,1.0693245E0,2.4907236E0,2.0318701E0,1.1442645E0,4.1759124E0,2.469173E0,1.3591673E0,2.5436005E1,4.225986E0,3.0705456E1,1.8044888E1,1.8017887E0,9.665224E1,3.8415568E0,1.9062788E1,2.1331315E0,2.529854E0,4.319075E0,7.989877E0,1.220415E0,4.570793E0,5.0186226E1,5.131977E1,2.4919682E0,1.2970663E0],"tree_param":{"num_deleted":"0","num_feature":"57","num_nodes":"111","size_leaf_vector":"0"}},{"base_weights":[-5.9867196E-4,3.7788653E-1,-8.541099E-3,5.5643506E-2,8.2150996E-1,-1.3717616E0,-6.185035E-3,-4.0329778E-1,3.8248944E-1,9.16536E-1,-3.3103937E-1,-1.5480556E0,-3.4136586E-2,-6.3166454E-2,4.3788053E-2,-1.3423091E0,-4.303982E-2,1.1333091E0,1.8100627E-1,1.9030062E0,7.546028E-1,-1.6802735E0,9.184399E-1,6.5878046E-1,-7.578163E-2,5.588574E-1,2.4859441E-2,-1.7946813E0,4.0148214E-1,-3.9497724E-1,9.7630227E-1,3.4879807E-1,-9.638735E-1,4.0901172E-1,2.3481255E0,-2.3590066E-1,9.411085E-1,-8.532423E-1,8.57161E-1,-9.624596E-2,3.4278828E-1,-4.85358E-1,7.620279E-1,-5.550832E-2,1.1921869E-1,-1.0855312E0,3.9745829E-1,4.7999855E-2,1.3946128E0,5.686136E-1,-3.395295E-1,-2.003693E0,5.179168E-1,6.86233E-1,-1.8478485E0,9.9306786E-1,-3.2385227E-1,-1.370823E0,6.8559504E-1,1.0050266E0,-1.1683775E0,-1.4866076E-1,5.616079E-2,6.466486E-1,-3.2488528E-1,8.1076616E-1,-1.1319667E0,8.7482727E-1,-7.505767E-1,1.0334224E-1,-1.2875412E-1,-1.1101304E0,1.3464852E-1],"categories":[],"categories_nodes":[],"categories_segments":[],"categories_sizes":[],"default_left":[1,1,1,1,1,1,1,1,1,1,1,0,0,1,1,1,1,0,1,1,1,0,0,1,1,1,1,0,0,1,1,1,1,0,0,1,1,1,1,1,1,1,1,1,1,0,0,0,0,0,0,0,0,0,0,0,0,0,0,0,0,0,0,0,0,0,0,0,0,0,0,0,0],"id":14,"left_children":[1,3,5,7,9,11,13,15,17,19,21,-1,-1,23,25,27,29,-1,31,33,35,-1,-1,37,39,41,43,-1,-1,45,47,49,51,-1,-1,53,55,57,59,61,63,65,67,69,71,-1,-1,-1,-1,-1,-1,-1,-1,-1,-1,-1,-1,-1,-1,-1,-1,-1,-1,-1,-1,-1,-1,-1,-1,-1,-1,-1,-1],"loss_changes":[1.6995792E1,1.6566309E1,1.7777063E1,1.0412013E1,5.650421E0,2.1990662E0,1.5746676E1,9.729099E0,5.914479E0,5.8111725E0,9.050779E0,0E0,0E0,2.3581326E1,2.8710367E1,7.0223656E0,8.257199E0,0E0,6.6917114E0,2.856804E0,7.727379E0,0E0,0E0,1.4072107E1,2.1792282E1,2.251614E1,2.1565031E1,0E0,0E0,9.746546E0,2.2316852E0,4.6700983E0,7.963136E0,0E0,0E0,1.2025889E1,2.5819721E0,5.447578E0,1.3099453E1,1.9361294E1,2.427697E1,1.5679193E1,1.5632782E1,1.7883915E1,2.495874E1,0E0,0E0,0E0,0E0,0E0,0E0,0E0,0E0,0E0,0E0,0E0,0E0,0E0,0E0,0E0,0E0,0E0,0E0,0E0,0E0,0E0,0E0,0E0,0E0,0E0,0E0,0E0,0E0],"parents":[2147483647,0,0,1,1,2,2,3,3,4,4,5,5,6,6,7,7,8,8,9,9,10,10,13,13,14,14,15,15,16,16,18,18,19,19,20,20,23,23,24,24,25,25,26,26,29,29,30,30,31,31,32,32,35,35,36,36,37,37,38,38,39,39,40,40,41,41,42,42,43,43,44,44],"right_children":[2,4,6,8,10,12,14,16,18,20,22,-1,-1,24,26,28,30,-1,32,34,36,-1,-1,38,40,42,44,-1,-1,46,48,50,52,-1,-1,54,56,58,60,62,64,66,68,70,72,-1,-1,-1,-1,-1,-1,-1,-1,-1,-1,-1,-1,-1,-1,-1,-1,-1,-1,-1,-1,-1,-1,-1,-1,-1,-1,-1,-1],"split_conditions":[3.587E0,2.475E1,-3.75E0,2.630825E1,8.4416664E-1,1.2125E3,5E-1,3.2345E0,-3E0,5.425E2,1.92E2,-4.644167E-1,-1.0240976E-2,-1.35E1,4.845E2,8.44E2,1.226015E1,3.3999276E-1,1.025E2,1.1165E0,6.915E2,-5.040821E-1,2.7553198E-1,1.125E1,9.615E2,4.855E2,1.2975E0,-5.384044E-1,1.2044465E-1,1.1775E2,4.215E2,6.62E2,3.41945E1,1.2270352E-1,7.044377E-1,9.468855E0,1.19E2,3.733345E1,7.12E2,1.0775E2,1.0475E2,5.1E2,6E1,5.95E1,5.05E1,-3.256594E-1,1.1923749E-1,1.4399957E-2,4.1838387E-1,1.7058408E-1,-1.0185886E-1,-6.0110795E-1,1.5537505E-1,