{"learner":{"attributes":{"best_iteration":"99","best_ntree_limit":"100","scikit_learn":"{\"use_label_encoder\": null, \"n_estimators\": 100, \"objective\": \"binary:logistic\", \"max_depth\": null, \"max_leaves\": null, \"max_bin\": null, \"grow_policy\": null, \"learning_rate\": null, \"verbosity\": null, \"booster\": null, \"tree_method\": null, \"gamma\": null, \"min_child_weight\": null, \"max_delta_step\": null, \"subsample\": null, \"sampling_method\": null, \"colsample_bytree\": null, \"colsample_bylevel\": null, \"colsample_bynode\": null, \"reg_alpha\": null, \"reg_lambda\": null, \"scale_pos_weight\": null, \"base_score\": null, \"missing\": NaN, \"num_parallel_tree\": null, \"random_state\": null, \"n_jobs\": null, \"monotone_constraints\": null, \"interaction_constraints\": null, \"importance_type\": null, \"gpu_id\": null, \"validate_parameters\": null, \"predictor\": null, \"enable_categorical\": false, \"feature_types\": null, \"max_cat_to_onehot\": null, \"max_cat_threshold\": null, \"eval_metric\": null, \"early_stopping_rounds\": null, \"callbacks\": null, \"classes_\": [0, 1], \"n_classes_\": 2, \"_estimator_type\": \"classifier\"}"},"feature_names":["Diabetes status","Smoking status","HDL","Cholesterol","BMI","Age","End systolic blood pressure during PWA"],"feature_types":["float","float","float","float","float","float","float"],"gradient_booster":{"model":{"gbtree_model_param":{"num_parallel_tree":"1","num_trees":"100","size_leaf_vector":"0"},"tree_info":[0,0,0,0,0,0,0,0,0,0,0,0,0,0,0,0,0,0,0,0,0,0,0,0,0,0,0,0,0,0,0,0,0,0,0,0,0,0,0,0,0,0,0,0,0,0,0,0,0,0,0,0,0,0,0,0,0,0,0,0,0,0,0,0,0,0,0,0,0,0,0,0,0,0,0,0,0,0,0,0,0,0,0,0,0,0,0,0,0,0,0,0,0,0,0,0,0,0,0,0],"trees":[{"base_weights":[-0E0,-6.858847E-1,3.3923304E-1,-9.969472E-1,-2.7319884E-1,1.1481156E0,2.0717245E-1,-1.36E0,-8.3531624E-1,-4.921659E-1,9.174312E-2,4.3333334E-1,1.2273171E0,-1.6666668E-2,6.2464184E-1,-1.483871E0,-3.809524E-1,-8.9033943E-1,4.347826E-1,-8.25E-1,-2.2660099E-1,4.6060607E-1,-2.804878E-1,-2.4691358E-2,1.255814E0,1.1145834E0,1.5402299E0,-3.245033E-1,1.8604651E-1,3.2684824E-1,8.3861876E-1,-1.6126629E0,-6.2068963E-1,3.6734694E-1,-1.2820513E0,-1.0306627E0,-6.1333334E-1,1.3333334E0,1.0909091E-1,-8.9624727E-1,3.2258064E-1,-5.168986E-2,-1.0181818E0,-9.5652175E-1,5.5948555E-1,4.7368422E-1,-5E-1,-1E0,2.769231E-1,1.4444444E0,1.8181819E-1,1.2489796E0,8.652482E-1,1.5662651E0,7.5E-1,-6.952224E-1,-1.3730356E-1,5.894207E-1,2.2426097E-2,1.5423514E-1,8.879668E-1,1.0473684E0,5.942685E-1,-9.0909094E-1,-1.6619718E0,-8.051948E-1,5.714286E-1,1.0588236E0,-9.4736844E-1,-0E0,-1.6129032E0,-1.0700507E0,4E-1,7.826087E-1,-6.7193675E-1,1.4285715E0,-3.1111112E-1,-1.007595E0,-1.2903225E-1,1.2941177E0,-6.666667E-1,-4.691358E-1,1.4492753E-1,-1.3888888E0,-2.857143E-1,-1.5555556E0,6.666667E-1,1.04E0,4E-1,-4.516129E-1,1.0204082E0,-7.173913E-1,5.263158E-2,-1.4666667E0,2.2222222E-1,-8.5714287E-1,5.4545456E-1,4E-1,1.2931035E0,-2.5641027E-1,1.0283401E0,1.2E0,-0E0,-7.787307E-1,1.1428572E0,1.1E0,-1.7902814E-1,-9.62963E-1,6.407263E-1,-1.429773E-1,2.7541828E-1,-5.691057E-2,4.950495E-1,4.4210526E-1,1.1466666E0,1.065073E0,-5.4545456E-1,2.0979021E-1,6.946565E-1],"categories":[],"categories_nodes":[],"categories_segments":[],"categories_sizes":[],"default_left":[1,1,1,1,1,1,1,1,1,1,1,1,1,1,1,1,1,1,1,1,1,1,1,1,1,1,1,1,1,1,1,1,1,1,1,1,1,0,1,1,1,1,1,1,1,1,1,1,1,0,0,1,1,0,1,1,1,1,1,1,1,1,1,0,0,0,0,0,0,0,0,0,0,0,0,0,0,0,0,0,0,0,0,0,0,0,0,0,0,0,0,0,0,0,0,0,0,0,0,0,0,0,0,0,0,0,0,0,0,0,0,0,0,0,0,0,0,0,0],"id":0,"left_children":[1,3,5,7,9,11,13,15,17,19,21,23,25,27,29,31,33,35,37,39,41,43,45,47,49,51,53,55,57,59,61,63,65,67,69,71,73,-1,75,77,79,81,83,85,87,89,91,93,95,-1,-1,97,99,-1,101,103,105,107,109,111,113,115,117,-1,-1,-1,-1,-1,-1,-1,-1,-1,-1,-1,-1,-1,-1,-1,-1,-1,-1,-1,-1,-1,-1,-1,-1,-1,-1,-1,-1,-1,-1,-1,-1,-1,-1,-1,-1,-1,-1,-1,-1,-1,-1,-1,-1,-1,-1,-1,-1,-1,-1,-1,-1,-1,-1,-1,-1],"loss_changes":[7.0733124E2,1.2886902E2,2.1703708E2,3.2502563E1,3.470623E1,1.5616669E1,1.6351752E2,2.0657928E1,2.8288635E1,2.378859E1,2.2578104E1,1.1332502E1,7.3227234E0,7.119928E1,3.864348E1,1.623053E1,1.4631083E1,1.42552185E1,4.9027667E0,1.010054E1,2.102734E1,1.2095459E1,1.3811937E1,6.233808E0,1.9151993E0,5.353195E0,1.6773987E-1,3.1342072E1,4.5394955E1,2.4755142E1,1.7472687E1,3.1465454E0,5.244066E0,1.2139508E1,4.1356506E0,1.4670746E1,1.1263031E1,0E0,8.0681095E0,9.54467E0,8.311195E0,1.038919E1,7.0702744E0,6.62802E0,5.5423813E0,1.007259E1,7.7265453E0,3.1777773E0,5.4161835E0,0E0,0E0,4.07164E0,1.3160484E1,0E0,1.3499999E0,2.418283E1,1.580088E1,1.6426743E1,2.0564726E1,1.4258558E1,6.442547E0,5.9390106E0,6.2517242E0,0E0,0E0,0E0,0E0,0E0,0E0,0E0,0E0,0E0,0E0,0E0,0E0,0E0,0E0,0E0,0E0,0E0,0E0,0E0,0E0,0E0,0E0,0E0,0E0,0E0,0E0,0E0,0E0,0E0,0E0,0E0,0E0,0E0,0E0,0E0,0E0,0E0,0E0,0E0,0E0,0E0,0E0,0E0,0E0,0E0,0E0,0E0,0E0,0E0,0E0,0E0,0E0,0E0,0E0,0E0,0E0],"parents":[2147483647,0,0,1,1,2,2,3,3,4,4,5,5,6,6,7,7,8,8,9,9,10,10,11,11,12,12,13,13,14,14,15,15,16,16,17,17,18,18,19,19,20,20,21,21,22,22,23,23,24,24,25,25,26,26,27,27,28,28,29,29,30,30,31,31,32,32,33,33,34,34,35,35,36,36,38,38,39,39,40,40,41,41,42,42,43,43,44,44,45,45,46,46,47,47,48,48,51,51,52,52,54,54,55,55,56,56,57,57,58,58,59,59,60,60,61,61,62,62],"right_children":[2,4,6,8,10,12,14,16,18,20,22,24,26,28,30,32,34,36,38,40,42,44,46,48,50,52,54,56,58,60,62,64,66,68,70,72,74,-1,76,78,80,82,84,86,88,90,92,94,96,-1,-1,98,100,-1,102,104,106,108,110,112,114,116,118,-1,-1,-1,-1,-1,-1,-1,-1,-1,-1,-1,-1,-1,-1,-1,-1,-1,-1,-1,-1,-1,-1,-1,-1,-1,-1,-1,-1,-1,-1,-1,-1,-1,-1,-1,-1,-1,-1,-1,-1,-1,-1,-1,-1,-1,-1,-1,-1,-1,-1,-1,-1,-1,-1,-1,-1],"split_conditions":[6.15E1,2.7396301E1,4.2825003E0,5.35E1,3.0727749E1,2.3250252E1,2.762495E1,1.2575E2,5E-1,5.55E1,5.499E0,1.1725E2,7.35E1,6.75E1,6.75E1,6.671E0,1.3125E2,1.1525E2,5.55E1,5E-1,1.459E0,4.95E1,1.0055E0,1.1435E0,4.071E0,3.9885E0,1.4685E0,1.0775E2,1.1815E0,3.285865E1,5.6555E0,9.1050005E-1,8.1005E0,1.3234999E0,2.2823502E1,2.1175E0,2.02775E1,4.0000004E-1,8.33E-1,1.2825E2,5.15E1,1.1025E2,2.9286E1,5.3345003E0,8.8699996E-1,1.1475E2,1.368E0,5E-1,3.742E0,4.3333334E-1,5.454546E-2,2.9785E0,2.539135E1,4.6987954E-1,3.974E0,7.751E0,8.725E-1,8.9E1,1.2075E2,1.2375E2,6.45E1,1.55E2,2.845905E1,-2.7272728E-1,-4.9859157E-1,-2.4155845E-1,1.7142859E-1,3.176471E-1,-2.8421053E-1,-0E0,-4.8387098E-1,-3.2101524E-1,1.20000005E-1,2.3478262E-1,-2.0158103E-1,4.2857146E-1,-9.333334E-2,-3.022785E-1,-3.8709678E-2,3.8823533E-1,-2.0000002E-1,-1.4074074E-1,4.347826E-2,-4.1666666E-1,-8.5714296E-2,-4.666667E-1,2.0000002E-1,3.12E-1,1.20000005E-1,-1.3548388E-1,3.0612245E-1,-2.152174E-1,1.5789475E-2,-4.4000003E-1,6.666667E-2,-2.5714287E-1,1.6363637E-1,1.20000005E-1,3.8793105E-1,-7.692309E-2,3.0850205E-1,3.6E-1,-0E0,-2.3361921E-1,3.4285718E-1,3.3E-1,-5.3708445E-2,-2.888889E-1,1.922179E-1,-4.289319E-2,8.2625486E-2,-1.7073171E-2,1.4851485E-1,1.3263159E-1,3.44E-1,3.195219E-1,-1.6363637E-1,6.2937066E-2,2.0839696E-1],"split_indices":[5,4,3,5,4,4,4,6,0,5,3,6,5,5,5,3,6,6,5,0,2,5,2,2,3,3,2,6,2,4,3,2,3,2,4,2,4,0,2,6,5,6,4,3,2,6,2,0,3,0,0,3,4,0,3,3,2,6,6,6,5,6,4,0,0,0,0,0,0,0,0,0,0,0,0,0,0,0,0,0,0,0,0,0,0,0,0,0,0,0,0,0,0,0,0,0,0,0,0,0,0,0,0,0,0,0,0,0,0,0,0,0,0,0,0,0,0,0,0],"split_type":[0,0,0,0,0,0,0,0,0,0,0,0,0,0,0,0,0,0,0,0,0,0,0,0,0,0,0,0,0,0,0,0,0,0,0,0,0,0,0,0,0,0,0,0,0,0,0,0,0,0,0,0,0,0,0,0,0,0,0,0,0,0,0,0,0,0,0,0,0,0,0,0,0,0,0,0,0,0,0,0,0,0,0,0,0,0,0,0,0,0,0,0,0,0,0,0,0,0,0,0,0,0,0,0,0,0,0,0,0,0,0,0,0,0,0,0,0,0,0],"sum_hessian":[3.038E3,1.005E3,2.033E3,5.7225E2,4.3275E2,2.8425E2,1.74875E3,1.74E2,3.9825E2,2.7025E2,1.625E2,2.9E1,2.5525E2,1.139E3,6.0975E2,1.54E2,2E1,3.82E2,1.625E1,1.19E2,1.5125E2,8.15E1,8.1E1,1.925E1,9.75E0,1.91E2,6.425E1,4.52E2,6.87E2,2.56E2,3.5375E2,1.3325E2,2.075E1,1.125E1,8.75E0,2.5175E2,1.3025E2,3.5E0,1.275E1,1.1225E2,6.75E0,1.2475E2,2.65E1,4.75E0,7.675E1,1.8E1,6.3E1,4E0,1.525E1,8E0,1.75E0,1.215E2,6.95E1,6.125E1,3E0,1.5075E2,3.0125E2,1.975E2,4.895E2,1.9675E2,5.925E1,1.89E2,1.6475E2,1E1,1.2325E2,1.825E1,2.5E0,7.5E0,3.75E0,2E0,6.75E0,2.4525E2,6.5E0,4.75E0,1.255E2,2.5E0,1.025E1,9.775E1,1.45E1,3.25E0,3.5E0,3.95E1,8.525E1,1.7E1,9.5E0,3.5E0,1.25E0,1.775E1,5.9E1,6.75E0,1.125E1,4.5E1,1.8E1,2.75E0,1.25E0,2.5E0,1.275E1,6.5E0,1.15E2,8.75E0,6.075E1,1.5E0,1.5E0,1.4475E2,6E0,9E0,2.9225E2,5.75E0,1.9175E2,2.9625E2,1.9325E2,1.22E2,7.475E1,2.275E1,3.65E1,1.8725E2,1.75E0,3.475E1,1.3E2],"tree_param":{"num_deleted":"0","num_feature":"7","num_nodes":"119","size_leaf_vector":"0"}},{"base_weights":[4.23735E-4,-3.8539654E-1,3.11376E-1,-5.6205684E-1,-4.8622686E-2,8.0050015E-1,1.7890625E-1,-6.089216E-1,5.2309155E-1,-4.3468297E-1,1.46516E-1,1.7585889E-1,8.749225E-1,1.985342E-2,4.702218E-1,-1.0711894E0,-5.1666766E-1,6.607813E-1,-1.2579229E0,-7.0464087E-1,-1.3300347E-1,9.2684346E-1,3.9162535E-2,3.7135813E-1,-1.3144343E0,9.4384915E-1,4.0531853E-1,-1.2303775E-2,7.2727484E-1,6.619323E-1,3.0554616E-1,-1.4073888E0,-8.5689896E-1,-7.037186E-1,-3.46478E-1,2.4602793E-1,1.2084168E0,-7.7004343E-1,4.783005E-1,-6.390663E-1,1.2775376E-1,-2.3884195E-1,1.0438303E0,2.0375882E-1,-2.5729144E-1,-9.804565E-2,9.7290057E-1,-6.5840386E-2,9.60362E-1,-3.9944008E-1,7.5961304E-1,-1.0451497E-1,1.8817201E-1,8.9850944E-1,-8.0097765E-1,5.9621584E-1,1.0915014E0,1.6875482E-1,6.7114884E-1,-1.4587464E0,2.5017664E-1,8.9012116E-1,-9.0077436E-1,-7.4110836E-1,2.8412375E-1,-4.3581355E-1,1.4161891E-1,9.1845727E-1,-5.726809E-1,-1.1916381E-1,1.5823196E0,-1.1678361E0,-5.7578087E-1,1.0203731E0,-6.2599665E-1,1.3847071E-1,-1.186405E0,4.3509626E-1,-4.376508E-1,-1.2395421E0,7.6502913E-1,8.3843714E-1,1.5318938E0,1.1497407E-2,5.697497E-1,-2.9698545E-1,1.2169667E0,1.2515634E-1,-1.1513704E0,1.3236808E0,-1.0686886E-1,5.670533E-1,-1.2129428E0,8.8019085E-1,1.1666439E0,-9.7703606E-1,7.15759E-1,1.0645146E0,-8.349012E-3,4.484005E-1,-1.5128317E-1,-3.4079534E-1,2.5129896E-1,-7.001234E-1,9.943491E-1,-1.3227608E0,2.4852803E-1,6.677281E-1,1.12645E-1,1.269368E0,4.174962E-1,-2.1130036E-1,3.2538307E-1,7.6074916E-1,-4.4090676E-1],"categories":[],"categories_nodes":[],"categories_segments":[],"categories_sizes":[],"default_left":[1,1,1,1,1,1,1,1,1,1,1,1,1,1,1,1,1,1,0,1,1,1,1,1,0,1,1,1,1,1,1,1,1,1,1,1,1,1,1,1,1,1,1,1,1,1,1,1,1,1,1,1,1,1,1,1,1,1,1,0,0,0,0,0,0,0,0,0,0,0,0,0,0,0,0,0,0,0,0,0,0,0,0,0,0,0,0,0,0,0,0,0,0,0,0,0,0,0,0,0,0,0,0,0,0,0,0,0,0,0,0,0,0,0,0],"id":1,"left_children":[1,3,5,7,9,11,13,15,17,19,21,23,25,27,29,31,33,35,-1,37,39,41,43,45,-1,47,49,51,53,55,57,59,61,63,65,67,69,71,73,75,77,79,81,83,85,87,89,91,93,95,97,99,101,103,105,107,109,111,113,-1,-1,-1,-1,-1,-1,-1,-1,-1,-1,-1,-1,-1,-1,-1,-1,-1,-1,-1,-1,-1,-1,-1,-1,-1,-1,-1,-1,-1,-1,-1,-1,-1,-1,-1,-1,-1,-1,-1,-1,-1,-1,-1,-1,-1,-1,-1,-1,-1,-1,-1,-1,-1,-1,-1,-1],"loss_changes":[3.594922E2,7.953195E1,1.0736467E2,4.4920624E1,3.4809166E1,1.6270737E1,6.054567E1,3.532019E1,9.867099E0,1.2538118E1,2.5690277E1,1.18116045E1,9.827972E0,1.9263493E1,1.4367516E1,8.80925E0,2.2141312E1,7.620206E0,0E0,6.6832886E0,9.910174E0,5.3081436E0,1.3276422E1,1.0017157E1,0E0,4.6369476E0,1.2314726E1,1.5004209E1,1.0354727E1,5.344963E0,1.2395296E1,4.8391495E0,7.5054855E0,1.2547852E1,1.620208E1,1.21372795E1,7.5186863E0,5.3342667E0,3.5678718E0,1.1013926E1,8.876872E0,5.164677E0,2.1138268E0,1.2294591E1,6.049101E0,4.9978647E0,6.009532E0,4.571878E0,3.4378815E0,9.416117E0,6.9385033E0,1.4441529E1,8.62507E0,5.8410625E0,2.6497579E0,6.371208E0,2.7041473E0,1.0983074E1,7.0875664E0,0E0,0E0,0E0,0E0,0E0,0E0,0E0,0E0,0E0,0E0,0E0,0E0,0E0,0E0,0E0,0E0,0E0,0E0,0E0,0E0,0E0,0E0,0E0,0E0,0E0,0E0,0E0,0E0,0E0,0E0,0E0,0E0,0E0,0E0,0E0,0E0,0E0,0E0,0E0,0E0,0E0,0E0,0E0,0E0,0E0,0E0,0E0,0E0,0E0,0E0,0E0,0E0,0E0,0E0,0E0,0E0],"parents":[2147483647,0,0,1,1,2,2,3,3,4,4,5,5,6,6,7,7,8,8,9,9,10,10,11,11,12,12,13,13,14,14,15,15,16,16,17,17,19,19,20,20,21,21,22,22,23,23,25,25,26,26,27,27,28,28,29,29,30,30,31,31,32,32,33,33,34,34,35,35,36,36,37,37,38,38,39,39,40,40,41,41,42,42,43,43,44,44,45,45,46,46,47,47,48,48,49,49,50,50,51,51,52,52,53,53,54,54,55,55,56,56,57,57,58,58],"right_children":[2,4,6,8,10,12,14,16,18,20,22,24,26,28,30,32,34,36,-1,38,40,42,44,46,-1,48,50,52,54,56,58,60,62,64,66,68,70,72,74,76,78,80,82,84,86,88,90,92,94,96,98,100,102,104,106,108,110,112,114,-1,-1,-1,-1,-1,-1,-1,-1,-1,-1,-1,-1,-1,-1,-1,-1,-1,-1,-1,-1,-1,-1,-1,-1,-1,-1,-1,-1,-1,-1,-1,-1,-1,-1,-1,-1,-1,-1,-1,-1,-1,-1,-1,-1,-1,-1,-1,-1,-1,-1,-1,-1,-1,-1,-1,-1],"split_conditions":[6.45E1,2.8279652E1,4.5684996E0,5E-1,5.55E1,2.315625E1,2.7511848E1,5.25E1,6.9305E0,3.0748001E1,4.2775E0,4.4495E0,1.4005E0,5E-1,5.6514997E0,1.0325E2,2.50496E1,2.6570751E1,-3.7737688E-1,5E-1,1.1175E2,1.0275E2,1.2555001E0,1.4384999E0,-3.943303E-1,8.45E1,6.85E1,1.2275E2,6.9975E0,5.547E0,3.13816E1,2.0895E0,1.0375E2,2.0904999E0,1.2725E2,2.4524601E1,5.55E1,5.2235003E0,2.925435E1,9.775E1,5.9115E0,1.088E0,1.1654999E0,6.156E0,8.810499E0,2.2811749E1,1.6630001E0,6.9E1,7.35E1,1.34E2,4.4449997E0,9.975E-1,2.25555E1,6.65E1,1.1325E2,5.443E0,1.2804999E0,6.75E1,1.6315E0,-4.3762395E-1,7.505299E-2,2.6703635E-1,-2.7023232E-1,-2.2233252E-1,8.523713E-2,-1.3074407E-1,4.2485673E-2,2.755372E-1,-1.7180428E-1,-3.5749145E-2,4.746959E-1,-3.5035083E-1,-1.7273426E-1,3.0611193E-1,-1.87799E-1,4.1541215E-2,-3.559215E-1,1.3052888E-1,-1.3129525E-1,-3.7186265E-1,2.2950874E-1,2.5153115E-1,4.5956817E-1,3.4492223E-3,1.7092492E-1,-8.909564E-2,3.6509004E-1,3.7546903E-2,-3.4541112E-1,3.9710423E-1,-3.206066E-2,1.70116E-1,-3.6388287E-1,2.6405728E-1,3.4999317E-1,-2.9311082E-1,2.147277E-1,3.1935441E-1,-2.5047036E-3,1.3452016E-1,-4.5384955E-2,-1.022386E-1,7.538969E-2,-2.1003704E-1,2.9830474E-1,-3.9682826E-1,7.4558415E-2,2.0031844E-1,3.37935E-2,3.8081044E-1,1.2524886E-1,-6.339011E-2,9.761492E-2,2.2822475E-1,-1.3227203E-1],"split_indices":[5,4,3,0,5,4,4,5,3,4,3,3,2,0,3,6,4,4,0,0,6,6,2,2,0,6,5,6,3,3,4,2,6,2,6,4,5,3,4,6,3,2,2,3,3,4,2,6,5,6,3,2,4,5,6,3,2,5,2,0,0,0,0,0,0,0,0,0,0,0,0,0,0,0,0,0,0,0,0,0,0,0,0,0,0,0,0,0,0,0,0,0,0,0,0,0,0,0,0,0,0,0,0,0,0,0,0,0,0,0,0,0,0,0,0],"split_type":[0,0,0,0,0,0,0,0,0,0,0,0,0,0,0,0,0,0,0,0,0,0,0,0,0,0,0,0,0,0,0,0,0,0,0,0,0,0,0,0,0,0,0,0,0,0,0,0,0,0,0,0,0,0,0,0,0,0,0,0,0,0,0,0,0,0,0,0,0,0,0,0,0,0,0,0,0,0,0,0,0,0,0,0,0,0,0,0,0,0,0,0,0,0,0,0,0,0,0,0,0,0,0,0,0,0,0,0,0,0,0,0,0,0,0],"sum_hessian":[2.9944746E3,1.3362528E3,1.6582219E3,8.760416E2,4.6021112E2,3.52314E2,1.305908E3,8.401947E2,3.584696E1,1.5410463E2,3.061065E2,3.7865395E1,3.144486E2,8.454023E2,4.6050565E2,1.3801505E2,7.021797E2,3.385836E1,1.9885952E0,8.0623215E1,7.348141E1,3.609642E1,2.7001007E2,3.4137936E1,3.7274582E0,2.7332162E2,4.112697E1,8.095837E2,3.581857E1,2.1139093E2,2.491147E2,5.1558094E1,8.645695E1,3.3302536E2,3.691543E2,2.0091362E1,1.3766999E1,7.673E1,3.8932123E0,2.4494015E1,4.8987396E1,3.1971931E0,3.2899227E1,1.7381674E2,9.619333E1,1.9645164E1,1.4492772E1,4.35001E0,2.6897162E2,1.2532569E1,2.8594398E1,5.5485175E2,2.5473195E2,3.258016E1,3.2384098E0,1.8541383E2,2.5977104E1,1.8234961E2,6.676509E1,5.0124977E1,1.4331152E0,1.6455928E0,8.4811356E1,3.2112073E2,1.1904615E1,3.1213235E2,5.7021946E1,1.096426E1,9.127102E0,3.1750286E0,1.0591971E1,2.3531916E1,5.3198086E1,2.6623347E0,1.2308776E0,1.0427688E1,1.4066327E1,3.1885532E1,1.7101862E1,1.4835585E0,1.7136346E0,2.5067772E1,7.831455E0,1.1463066E2,5.918608E1,9.4448875E1,1.7444593E0,1.6937292E1,2.7078722E0,1.0768546E1,3.7242258E0,3.1291957E0,1.2208142E0,1.9748595E2,7.148567E1,8.337969E0,4.1946E0,2.0191624E1,8.402775E0,4.26021E1,5.1224963E2,2.6689644E1,2.280423E2,1.4861183E0,3.1094042E1,1.989115E0,1.2492949E0,1.6119489E2,2.4218943E1,1.985432E1,6.1227837E0,5.311591E1,1.292337E2,6.2079166E1,4.6859207E0],"tree_param":{"num_deleted":"0","num_feature":"7","num_nodes":"115","size_leaf_vector":"0"}},{"base_weights":[7.199875E-4,-3.8027948E-1,1.8472591E-1,-5.632182E-1,-1.4786123E-1,5.622359E-1,9.185918E-2,-8.111667E-1,-4.610342E-1,-2.596753E-1,2.2765611E-1,-6.10818E-3,6.355562E-1,-6.8589384E-3,3.3906716E-1,-8.726668E-1,3.2853448E-1,-8.943781E-2,-5.311249E-1,-3.2973582E-1,4.2511022E-1,3.8447878E-1,-9.373178E-1,4.605576E-1,-3.7957397E-1,6.913661E-1,2.2074433E-1,-1.5544869E-1,1.2490802E-1,1.7550257E-1,4.6672642E-1,-9.737634E-1,-1.3915431E-1,-1.1673863E0,1.1571696E0,-2.9049546E-1,6.128898E-1,-6.048199E-1,-1.2815887E-1,-3.477963E-1,1.3305184E0,7.144781E-1,-5.136531E-1,1.2786732E0,2.9006705E-1,-8.044289E-2,-1.4412054E0,-6.456282E-2,9.4293034E-1,-1.2380365E0,-2.9788079E-2,6.246928E-1,9.135202E-1,1.0290833E0,-4.182055E-2,-6.6204655E-1,-7.7416405E-2,2.461536E-1,-2.3602296E-2,8.7047346E-2,7.394384E-1,3.8509417E-1,7.854577E-1,-7.416299E-1,-1.187788E0,5.3863084E-1,-8.160961E-1,1.0018223E-3,1.4384673E0,-1.4241586E0,-8.629075E-2,-3.8826782E-1,9.319263E-1,-7.702139E-1,-3.8401896E-1,-7.807192E-1,5.478111E-1,2.3166697E-1,-3.878377E-1,-4.2175823E-1,9.603415E-1,-1.171583E0,2.6226947E-1,1.6720971E0,-5.005646E-1,8.288759E-2,5.9130895E-1,6.006575E-1,-1.1308072E0,-4.9465394E-1,6.327574E-1,4.077099E-1,1.1792003E0,-3.752713E-1,-1.3778007E0,8.990026E-1,-4.2818084E-1,4.029163E-1,7.1276253E-1,9.4104713E-1,-5.2247014E-2,1.152189E0,2.8156346E-1,-6.513715E-1,3.6260134E-1,-9.657962E-1,-8.6205535E-2,-1.8667392E-2,-6.130711E-1,1.5048112E-1,8.9661646E-1,-5.55403E-1,1.0677726E-1,-1.1608848E-1,2.552717E-1,-7.141768E-1,9.7738725E-1,-2.5135282E-1,4.3695596E-1,8.7912756E-1,-3.2541433E-1],"categories":[],"categories_nodes":[],"categories_segments":[],"categories_sizes":[],"default_left":[1,1,1,1,1,1,1,1,1,1,1,1,1,1,1,1,1,1,1,1,1,1,1,1,1,1,1,1,1,1,1,1,1,0,1,1,1,1,1,1,0,1,1,1,1,1,0,1,1,1,1,1,1,1,1,1,1,1,1,1,1,1,1,0,0,0,0,0,0,0,0,0,0,0,0,0,0,0,0,0,0,0,0,0,0,0,0,0,0,0,0,0,0,0,0,0,0,0,0,0,0,0,0,0,0,0,0,0,0,0,0,0,0,0,0,0,0,0,0,0,0],"id":2,"left_children":[1,3,5,7,9,11,13,15,17,19,21,23,25,27,29,31,33,35,37,39,41,43,45,47,49,51,53,55,57,59,61,63,65,-1,67,69,71,73,75,77,-1,79,81,83,85,87,-1,89,91,93,95,97,99,101,103,105,107,109,111,113,115,117,119,-1,-1,-1,-1,-1,-1,-1,-1,-1,-1,-1,-1,-1,-1,-1,-1,-1,-1,-1,-1,-1,-1,-1,-1,-1,-1,-1,-1,-1,-1,-1,-1,-1,-1,-1,-1,-1,-1,-1,-1,-1,-1,-1,-1,-1,-1,-1,-1,-1,-1,-1,-1,-1,-1,-1,-1,-1,-1],"loss_changes":[2.0511755E2,4.043042E1,6.911655E1,1.3125885E1,1.7737305E1,1.6227577E1,3.867351E1,1.1093788E1,9.840401E0,1.5727425E1,1.8106247E1,8.100757E0,7.8308563E0,2.2210499E1,9.360924E0,1.0733086E1,1.2036703E1,8.854877E0,9.401436E0,9.317394E0,8.67715E0,6.916359E0,4.98551E0,5.2961373E0,7.7130957E0,3.9244843E0,9.03441E0,2.1024323E1,1.08322115E1,9.904282E0,6.2904434E0,5.5104446E0,9.120541E0,0E0,1.9661188E0,1.109321E1,4.8326354E0,9.548874E0,2.2755981E1,6.8862762E0,0E0,7.054329E0,4.2839093E0,6.4019785E0,4.9044952E0,4.5669246E0,0E0,3.561456E0,8.8957405E-1,3.8094902E-1,7.5494127E0,4.3338776E0,1.8541031E0,6.3501644E-1,8.355934E0,1.2340252E1,1.45623455E1,2.0470028E1,1.8860218E1,5.971466E0,1.0023865E1,6.833006E0,5.5620346E0,0E0,0E0,0E0,0E0,0E0,0E0,0E0,0E0,0E0,0E0,0E0,0E0,0E0,0E0,0E0,0E0,0E0,0E0,0E0,0E0,0E0,0E0,0E0,0E0,0E0,0E0,0E0,0E0,0E0,0E0,0E0,0E0,0E0,0E0,0E0,0E0,0E0,0E0,0E0,0E0,0E0,0E0,0E0,0E0,0E0,0E0,0E0,0E0,0E0,0E0,0E0,0E0,0E0,0E0,0E0,0E0,0E0,0E0],"parents":[2147483647,0,0,1,1,2,2,3,3,4,4,5,5,6,6,7,7,8,8,9,9,10,10,11,11,12,12,13,13,14,14,15,15,16,16,17,17,18,18,19,19,20,20,21,21,22,22,23,23,24,24,25,25,26,26,27,27,28,28,29,29,30,30,31,31,32,32,34,34,35,35,36,36,37,37,38,38,39,39,41,41,42,42,43,43,44,44,45,45,47,47,48,48,49,49,50,50,51,51,52,52,53,53,54,54,55,55,56,56,57,57,58,58,59,59,60,60,61,61,62,62],"right_children":[2,4,6,8,10,12,14,16,18,20,22,24,26,28,30,32,34,36,38,40,42,44,46,48,50,52,54,56,58,60,62,64,66,-1,68,70,72,74,76,78,-1,80,82,84,86,88,-1,90,92,94,96,98,100,102,104,106,108,110,112,114,116,118,120,-1,-1,-1,-1,-1,-1,-1,-1,-1,-1,-1,-1,-1,-1,-1,-1,-1,-1,-1,-1,-1,-1,-1,-1,-1,-1,-1,-1,-1,-1,-1,-1,-1,-1,-1,-1,-1,-1,-1,-1,-1,-1,-1,-1,-1,-1,-1,-1,-1,-1,-1,-1,-1,-1,-1,-1,-1,-1],"split_conditions":[6.15E1,2.7396301E1,4.5684996E0,5.35E1,1.2616667E2,2.315625E1,2.826345E1,7.4814997E0,4.5565E0,5E-1,6.947E0,4.0994997E0,1.4085E0,6.85E1,6.75E1,1.2575E2,2.5399601E1,1.2E2,1.6784999E0,8.681E0,1.1775E2,2.77836E1,1.3075E2,1.3285E0,1.0275E2,7.35E1,3.8705E0,2.2708199E1,1.3815E0,3.47007E1,1.4955001E0,1.2645E0,1.3025E2,-3.502159E-1,9.65E1,2.1960999E1,3.9635E0,1.1325E2,6.1495E0,4.198E0,3.9915553E-1,1.02E2,5.95E1,1.595E0,3.17747E1,5.8E1,-4.3236163E-1,1.1675E2,1.04E2,2.0497551E1,1.0975E2,2.6039349E1,4.531E0,5E-1,6.85E1,1.633E0,7.115E0,1.3345001E0,1.0525E2,1.1775E2,5.132E0,4.8075E0,7.4484997E0,-2.2248898E-1,-3.563364E-1,1.6158926E-1,-2.4482885E-1,3.005467E-4,4.315402E-1,-4.2724758E-1,-2.5887225E-2,-1.1648035E-1,2.795779E-1,-2.3106419E-1,-1.1520569E-1,-2.3421578E-1,1.6434333E-1,6.9500096E-2,-1.16351314E-1,-1.2652747E-1,2.8810248E-1,-3.5147494E-1,7.868084E-2,5.016292E-1,-1.5016937E-1,2.4866277E-2,1.7739269E-1,1.8019727E-1,-3.3924216E-1,-1.483962E-1,1.8982723E-1,1.2231297E-1,3.537601E-1,-1.12581395E-1,-4.1334024E-1,2.697008E-1,-1.2845425E-1,1.208749E-1,2.1382877E-1,2.8231415E-1,-1.5674105E-2,3.4565672E-1,8.446904E-2,-1.9541146E-1,1.0878041E-1,-2.8973886E-1,-2.5861662E-2,-5.6002177E-3,-1.8392134E-1,4.514434E-2,2.6898494E-1,-1.6662091E-1,3.203318E-2,-3.4826547E-2,7.6581515E-2,-2.1425304E-1,2.932162E-1,-7.540585E-2,1.310868E-1,2.6373827E-1,-9.76243E-2],"split_indices":[5,4,3,5,6,4,4,3,3,0,3,3,2,5,5,6,4,6,2,3,6,4,6,2,6,5,3,4,2,4,2,2,6,0,6,4,3,6,3,3,0,6,5,2,4,5,0,6,6,4,6,4,3,0,5,2,3,2,6,6,3,3,3,0,0,0,0,0,0,0,0,0,0,0,0,0,0,0,0,0,0,0,0,0,0,0,0,0,0,0,0,0,0,0,0,0,0,0,0,0,0,0,0,0,0,0,0,0,0,0,0,0,0,0,0,0,0,0,0,0,0],"split_type":[0,0,0,0,0,0,0,0,0,0,0,0,0,0,0,0,0,0,0,0,0,0,0,0,0,0,0,0,0,0,0,0,0,0,0,0,0,0,0,0,0,0,0,0,0,0,0,0,0,0,0,0,0,0,0,0,0,0,0,0,0,0,0,0,0,0,0,0,0,0,0,0,0,0,0,0,0,0,0,0,0,0,0,0,0,0,0,0,0,0,0,0,0,0,0,0,0,0,0,0,0,0,0,0,0,0,0,0,0,0,0,0,0,0,0,0,0,0,0,0,0],"sum_hessian":[2.9238115E3,9.518535E2,1.9719579E3,5.3182526E2,4.2002826E2,3.8832687E2,1.5836311E3,1.5318498E2,3.786403E2,3.2389404E2,9.6134224E1,4.447723E1,3.4384967E2,1.1323997E3,4.5123145E2,1.455644E2,7.620584E0,6.0447052E1,3.181932E2,2.943024E2,2.9591642E1,8.5319E1,1.0815227E1,1.966791E1,2.4809322E1,3.0248575E2,4.1363903E1,5.321405E2,6.002591E2,1.988403E2,2.5239113E2,1.2764424E2,1.7920156E1,2.5707843E0,5.0498E0,4.7449818E1,1.2997234E1,2.6857492E2,4.9618294E1,2.919174E2,2.3850024E0,2.2801989E1,6.7896533E0,6.950041E0,7.836896E1,4.434271E0,6.380956E0,9.831405E0,9.836505E0,6.4471006E0,1.836222E1,2.355916E2,6.689416E1,9.42586E0,3.1938042E1,7.0027405E1,4.6211313E2,3.3010223E2,2.7015686E2,1.7287814E2,2.596216E1,2.0268773E2,4.9703407E1,6.3373627E1,6.4270615E1,9.056596E0,8.863562E0,1.1845825E0,3.8652172E0,6.330612E0,4.1119205E1,3.0884554E0,9.908779E0,1.5213089E2,1.1644403E2,2.5167454E1,2.4450838E1,1.8558632E1,2.7335876E2,3.9290075E0,1.8872982E1,3.3982468E0,3.3914065E0,5.7408457E0,1.2091949E0,4.718949E1,3.1179468E1,2.9497027E0,1.484568E0,6.2606287E0,3.570776E0,3.8471644E0,5.989341E0,1.4125361E0,5.034565E0,5.134758E0,1.3227463E1,6.854844E1,1.6704315E2,6.506522E1,1.8289353E0,7.6282477E0,1.7976121E0,1.24949045E1,1.9443138E1,4.540146E1,2.4625944E1,4.173719E2,4.4741253E1,2.8884866E2,4.1253582E1,5.2550507E1,2.1760634E2,7.845335E1,9.44248E1,3.3705127E0,2.2591646E1,1.4982021E1,1.877057E2,4.603067E1,3.6727378E0],"tree_param":{"num_deleted":"0","num_feature":"7","num_nodes":"121","size_leaf_vector":"0"}},{"base_weights":[1.9509534E-4,-2.8237438E-1,1.3406563E-1,-5.2905846E-1,-1.693241E-1,5.093572E-1,7.850385E-2,-1.10936E0,-4.693885E-1,-4.922808E-1,-9.158121E-2,5.3003067E-1,-3.691316E-1,4.189215E-2,5.795646E-1,-2.1834935E-1,-1.171514E0,-5.0068134E-1,3.4256545E-1,-6.588585E-1,-2.309766E-1,5.707349E-1,-1.2426921E-1,6.354969E-1,3.7381676E-1,-1.0156875E0,3.9194354E-1,-7.5282514E-2,1.7519425E-1,6.683039E-1,-2.444969E-1,-5.3244257E-1,-1.2875959E0,-5.719314E-1,-1.22045375E-1,9.930541E-1,-4.661297E-1,-8.02138E-1,-1.3887271E-1,3.7994474E-2,-1.0909965E0,-3.8731077E-1,7.998208E-1,-1.1034611E0,-9.359655E-2,4.8699287E-1,7.898848E-1,-7.6100945E-1,4.329258E-1,-1.7889966E-1,-1.2665628E0,9.8087555E-1,-4.3717563E-1,-4.1089618E-1,3.704365E-2,3.1167075E-1,6.319282E-2,-4.2464885E-1,7.148824E-1,-1.4138099E0,3.6808494E-1,-1.0256227E0,7.321313E-1,8.675842E-1,-5.938839E-1,8.122735E-1,-6.177262E-1,1.4491568E0,1.05529144E-1,4.9460056E-1,-1.0161082E0,-1.2710149E0,-5.516623E-1,4.1597223E-1,-6.677495E-1,1.3903928E0,-1.2633814E-1,6.292149E-2,-1.2236354E0,9.562789E-1,-1.000824E0,1.8254163E0,3.1866428E-1,-1.2125043E0,1.2871991E-1,-1.8400963E-1,2.0982479E-1,6.6349834E-1,1.5790126E-1,-3.191621E-1,8.305646E-1,-1.4937378E0,2.879468E-1,-4.9619034E-2,5.8412415E-1,-4.8176393E-1,5.7750195E-1,-6.98706E-2,1.8281253E-1,-1.1388573E-1,3.694646E-1,3.6102378E-1,-1.939945E-2,-1.2075571E0,4.9743736E-1,1.1104947E0,5.920451E-1,1.19763E0,-8.391745E-1],"categories":[],"categories_nodes":[],"categories_segments":[],"categories_sizes":[],"default_left":[1,1,1,1,1,1,1,1,1,1,1,1,1,1,1,0,1,1,1,1,1,1,1,1,1,1,1,1,1,1,1,1,0,1,1,1,1,1,1,1,1,1,1,1,1,1,1,1,1,0,0,0,0,1,1,1,1,1,1,0,1,0,0,0,0,0,0,0,0,0,0,0,0,0,0,0,0,0,0,0,0,0,0,0,0,0,0,0,0,0,0,0,0,0,0,0,0,0,0,0,0,0,0,0,0,0,0,0,0],"id":3,"left_children":[1,3,5,7,9,11,13,15,17,19,21,23,25,27,29,-1,31,33,35,37,39,41,43,45,47,49,51,53,55,57,59,61,-1,63,65,67,69,71,73,75,77,79,81,83,85,87,89,91,93,-1,-1,-1,-1,95,97,99,101,103,105,-1,107,-1,-1,-1,-1,-1,-1,-1,-1,-1,-1,-1,-1,-1,-1,-1,-1,-1,-1,-1,-1,-1,-1,-1,-1,-1,-1,-1,-1,-1,-1,-1,-1,-1,-1,-1,-1,-1,-1,-1,-1,-1,-1,-1,-1,-1,-1,-1,-1],"loss_changes":[1.0783617E2,2.546682E1,4.0294052E1,9.435066E0,1.5769808E1,4.7226105E0,3.0905788E1,1.1881981E0,6.8397865E0,5.1573105E0,1.1088601E1,3.7814484E0,3.5082648E0,2.4572254E1,8.553238E0,0E0,1.1056137E0,6.7585907E0,5.8985596E0,5.398323E0,1.138256E1,5.6021976E0,1.448716E1,2.9213524E0,7.087309E0,5.49268E-1,2.1987367E0,3.158664E1,1.1228075E1,5.5900955E0,9.034221E0,4.129045E0,0E0,7.2384567E0,1.9655386E1,2.2945604E0,3.296074E0,6.083229E0,5.3205357E0,8.69061E0,1.8698788E0,5.348273E0,9.182581E0,2.1261063E0,1.2990625E1,4.315983E0,3.382122E0,4.542345E0,7.0619755E0,0E0,0E0,0E0,0E0,1.49941025E1,9.806056E0,8.193359E0,9.979639E0,4.117824E0,4.2007904E0,0E0,9.610842E0,0E0,0E0,0E0,0E0,0E0,0E0,0E0,0E0,0E0,0E0,0E0,0E0,0E0,0E0,0E0,0E0,0E0,0E0,0E0,0E0,0E0,0E0,0E0,0E0,0E0,0E0,0E0,0E0,0E0,0E0,0E0,0E0,0E0,0E0,0E0,0E0,0E0,0E0,0E0,0E0,0E0,0E0,0E0,0E0,0E0,0E0,0E0,0E0],"parents":[2147483647,0,0,1,1,2,2,3,3,4,4,5,5,6,6,7,7,8,8,9,9,10,10,11,11,12,12,13,13,14,14,16,16,17,17,18,18,19,19,20,20,21,21,22,22,23,23,24,24,25,25,26,26,27,27,28,28,29,29,30,30,31,31,33,33,34,34,35,35,36,36,37,37,38,38,39,39,40,40,41,41,42,42,43,43,44,44,45,45,46,46,47,47,48,48,53,53,54,54,55,55,56,56,57,57,58,58,60,60],"right_children":[2,4,6,8,10,12,14,16,18,20,22,24,26,28,30,-1,32,34,36,38,40,42,44,46,48,50,52,54,56,58,60,62,-1,64,66,68,70,72,74,76,78,80,82,84,86,88,90,92,94,-1,-1,-1,-1,96,98,100,102,104,106,-1,108,-1,-1,-1,-1,-1,-1,-1,-1,-1,-1,-1,-1,-1,-1,-1,-1,-1,-1,-1,-1,-1,-1,-1,-1,-1,-1,-1,-1,-1,-1,-1,-1,-1,-1,-1,-1,-1,-1,-1,-1,-1,-1,-1,-1,-1,-1,-1,-1],"split_conditions":[6.15E1,2.527615E1,4.2995E0,5.05E1,1.0225E2,1.6689999E0,5E-1,3.8725E0,2.1175E0,5.65E1,1.0375E2,3.9885E0,1.777E0,2.63897E1,6.969E0,-6.550481E-2,2.208135E1,1.2425E2,1.0525E2,3.05845E1,1.3889999E0,4.884E0,1.0475E2,7.05E1,4.0030003E0,3.888E0,1.8594999E0,1.0541667E2,5.6219997E0,2.2277351E1,1.13E2,2.18279E1,-3.8627878E-1,6.9E1,4.9309998E0,2.2E0,5.7195E0,1.1010001E0,3.1638851E1,2.555155E1,2.5511349E1,3.916E0,5.1619997E0,1.6815E0,3.132355E1,2.80037E1,9.675E1,1.2625E2,2.5154148E1,-5.36699E-2,-3.7996885E-1,2.9426268E-1,-1.3115269E-1,7.4744997E0,5E-1,6.35E1,1.0864999E0,1.4224999E0,2.4604149E1,-4.24143E-1,1.2216667E2,-3.0768684E-1,2.196394E-1,2.6027527E-1,-1.7816517E-1,2.4368206E-1,-1.8531787E-1,4.3474704E-1,3.1658746E-2,1.4838018E-1,-3.0483246E-1,-3.813045E-1,-1.654987E-1,1.24791674E-1,-2.0032486E-1,4.1711786E-1,-3.7901442E-2,1.8876446E-2,-3.6709064E-1,2.8688368E-1,-3.002472E-1,5.4762495E-1,9.5599286E-2,-3.637513E-1,3.8615976E-2,-5.520289E-2,6.294744E-2,1.9904952E-1,4.7370378E-2,-9.574863E-2,2.491694E-1,-4.4812137E-1,8.638404E-2,-1.4885711E-2,1.7523725E-1,-1.4452918E-1,1.7325059E-1,-2.096118E-2,5.484376E-2,-3.416572E-2,1.1083939E-1,1.0830714E-1,-5.819835E-3,-3.6226714E-1,1.4923121E-1,3.3314842E-1,1.7761354E-1,3.5928902E-1,-2.5175238E-1],"split_indices":[5,4,3,5,6,2,0,3,2,5,6,3,2,4,3,0,4,6,6,4,2,3,6,5,3,3,2,6,3,4,6,4,0,6,3,2,3,2,4,4,4,3,3,2,4,4,6,6,4,0,0,0,0,3,1,5,2,2,4,0,6,0,0,0,0,0,0,0,0,0,0,0,0,0,0,0,0,0,0,0,0,0,0,0,0,0,0,0,0,0,0,0,0,0,0,0,0,0,0,0,0,0,0,0,0,0,0,0,0],"split_type":[0,0,0,0,0,0,0,0,0,0,0,0,0,0,0,0,0,0,0,0,0,0,0,0,0,0,0,0,0,0,0,0,0,0,0,0,0,0,0,0,0,0,0,0,0,0,0,0,0,0,0,0,0,0,0,0,0,0,0,0,0,0,0,0,0,0,0,0,0,0,0,0,0,0,0,0,0,0,0,0,0,0,0,0,0,0,0,0,0,0,0,0,0,0,0,0,0,0,0,0,0,0,0,0,0,0,0,0,0],"sum_hessian":[2.8487166E3,9.154037E2,1.933313E3,2.8651874E2,6.2888495E2,2.4826202E2,1.685051E3,2.5074356E1,2.6144437E2,1.20980385E2,5.0790454E2,2.4294153E2,5.320492E0,1.5713207E3,1.13730255E2,1.9293401E0,2.3145016E1,2.5211133E2,9.333046E0,7.295269E1,4.8027695E1,2.311402E1,4.8479053E2,1.4319606E2,9.974546E1,2.6957927E0,2.6246989E0,8.364783E2,7.3484247E2,1.0284443E2,1.0885828E1,4.4166384E0,1.8728378E1,2.1175389E2,4.0357445E1,5.046129E0,4.2869167E0,5.6767944E1,1.6184744E1,3.731367E1,1.0714024E1,4.3271284E0,1.878689E1,1.3662255E1,4.7112827E2,7.510638E1,6.808969E1,4.3502836E0,9.539518E1,1.0169351E0,1.6788576E0,1.4276154E0,1.1970835E0,2.0909018E2,6.2738806E2,3.3042667E2,4.0441577E2,3.8720005E0,9.897243E1,3.292693E0,7.5931354E0,3.3133855E0,1.1032526E0,2.602097E0,2.091518E2,1.3767708E1,2.6589737E1,2.915193E0,2.1309361E0,1.5973232E0,2.6895938E0,1.8347677E1,3.8420265E1,8.002645E0,8.182098E0,3.2344518E0,3.407922E1,1.1587634E0,9.55526E0,1.1813302E0,3.1457982E0,5.1071277E0,1.3679763E1,1.2566168E1,1.0960871E0,3.6327396E2,1.07854324E2,4.82251E1,2.6881275E1,2.1669443E0,6.5922745E1,2.3115625E0,2.038721E0,2.2919653E1,7.2475525E1,1.9557977E2,1.3510407E1,3.622306E2,2.651575E2,3.9392834E1,2.9103384E2,8.70693E1,3.1734647E2,1.9266031E0,1.9453974E0,2.1544708E1,7.742772E1,4.505348E0,3.0877874E0],"tree_param":{"num_deleted":"0","num_feature":"7","num_nodes":"109","size_leaf_vector":"0"}},{"base_weights":[-3.0364405E-4,-1.2364668E-1,1.7541763E-1,-1.8409607E-1,1.2165806E-1,3.461705E-1,6.675382E-2,-4.70712E-1,-1.365328E-1,9.508399E-2,1.1792868E0,3.8645968E-1,-3.4372917E-1,-7.086528E-2,1.4980666E-1,-9.1088545E-1,-3.566698E-1,-1.5939605E-1,2.7352032E-1,-1.708376E-1,1.8982774E-1,1.3592172E0,3.0108264E-1,-4.8325825E-1,4.1514063E-1,-6.1263466E-1,6.823529E-1,3.3335272E-2,-3.640748E-1,4.1547298E-1,4.2030722E-2,-9.714745E-1,5.595988E-1,-5.3771645E-1,-1.4497551E-1,-2.4676444E-1,-4.453239E-2,4.1072074E-1,-8.9378023E-1,-7.779175E-3,-5.8989674E-1,5.364337E-1,1.0576738E-1,4.0261596E-1,-8.807049E-1,3.9157367E-1,1.380195E0,-1.3271945E0,3.033704E-1,-3.1755853E-1,1.0629616E0,-5.94806E-2,5.643127E-1,-5.611561E-1,2.5690705E-1,-1.4751141E-1,5.6987315E-1,-5.0390482E-2,5.711661E-1,2.2982696E-1,-1.0627599E0,-8.7659144E-1,-2.582145E-1,1.103929E0,-4.571538E-1,-4.8402226E-1,-1.633245E-1,5.6864077E-1,-9.4556324E-2,6.110813E-1,-3.0578142E-1,-1.2997266E0,4.977239E-1,-2.9947278E-1,3.2704476E-1,-1.1981676E0,-1.5036388E-1,3.756306E-1,1.1086977E0,-7.569657E-2,4.133574E-1,-3.3425644E-1,8.0312234E-1,-1.1745754E0,4.8545015E-1,2.720646E-1,5.255585E-1,1.484073E0,4.9747163E-1,5.673557E-1,-1.6500044E0,1.0828129E0,-1.8480468E-1,8.677076E-1,-1.2390158E-1,6.591241E-2,1.3186306E0,-6.556102E-1,1.1248916E0,-8.401157E-1,9.841292E-1,4.606839E-1,-8.876373E-1,1.5853271E-1,6.955446E-1,-1.8116675E-1,1.8995368E-1,6.8483657E-1,-1.323013E0],"categories":[],"categories_nodes":[],"categories_segments":[],"categories_sizes":[],"default_left":[1,1,1,1,1,1,1,1,1,1,1,1,1,1,1,1,1,1,1,1,1,0,0,1,1,1,1,1,1,1,1,1,0,1,1,1,1,1,1,1,1,1,1,1,1,1,1,1,1,0,0,1,1,1,1,1,1,1,1,0,0,0,0,0,0,0,0,0,0,0,0,0,0,0,0,0,0,0,0,0,0,0,0,0,0,0,0,0,0,0,0,0,0,0,0,0,0,0,0,0,0,0,0,0,0,0,0,0,0],"id":4,"left_children":[1,3,5,7,9,11,13,15,17,19,21,23,25,27,29,31,33,35,37,39,41,-1,-1,43,45,47,49,51,53,55,57,59,-1,61,63,65,67,69,71,73,75,77,79,81,83,85,87,89,91,-1,-1,93,95,97,99,101,103,105,107,-1,-1,-1,-1,-1,-1,-1,-1,-1,-1,-1,-1,-1,-1,-1,-1,-1,-1,-1,-1,-1,-1,-1,-1,-1,-1,-1,-1,-1,-1,-1,-1,-1,-1,-1,-1,-1,-1,-1,-1,-1,-1,-1,-1,-1,-1,-1,-1,-1,-1],"loss_changes":[6.0385685E1,2.429701E1,2.1297436E1,1.784557E1,9.001104E0,1.2547073E1,8.050686E0,9.041054E0,1.0620567E1,8.028913E0,8.3272934E-1,1.073848E1,7.3636227E0,8.12164E0,1.2552509E1,3.9069061E0,5.6644936E0,1.0719339E1,9.968409E0,5.7285504E0,6.7752876E0,0E0,0E0,5.2657757E0,8.773132E0,1.3802624E1,2.5069025E0,9.729968E0,8.671724E0,1.1087606E1,1.5356298E1,4.260132E0,0E0,7.3880424E0,2.7967052E1,1.1939312E1,1.4260258E1,7.986458E0,4.38645E0,6.09596E0,6.0996666E0,3.7726984E0,1.0634491E1,1.745897E0,4.561856E0,6.2802353E0,1.2051773E-1,8.083576E0,3.9235425E0,0E0,0E0,1.0164836E1,1.095486E1,9.210823E0,1.4765912E1,1.30305195E1,5.035721E0,8.4498205E0,1.0957937E1,0E0,0E0,0E0,0E0,0E0,0E0,0E0,0E0,0E0,0E0,0E0,0E0,0E0,0E0,0E0,0E0,0E0,0E0,0E0,0E0,0E0,0E0,0E0,0E0,0E0,0E0,0E0,0E0,0E0,0E0,0E0,0E0,0E0,0E0,0E0,0E0,0E0,0E0,0E0,0E0,0E0,0E0,0E0,0E0,0E0,0E0,0E0,0E0,0E0,0E0],"parents":[2147483647,0,0,1,1,2,2,3,3,4,4,5,5,6,6,7,7,8,8,9,9,10,10,11,11,12,12,13,13,14,14,15,15,16,16,17,17,18,18,19,19,20,20,23,23,24,24,25,25,26,26,27,27,28,28,29,29,30,30,31,31,33,33,34,34,35,35,36,36,37,37,38,38,39,39,40,40,41,41,42,42,43,43,44,44,45,45,46,46,47,47,48,48,51,51,52,52,53,53,54,54,55,55,56,56,57,57,58,58],"right_children":[2,4,6,8,10,12,14,16,18,20,22,24,26,28,30,32,34,36,38,40,42,-1,-1,44,46,48,50,52,54,56,58,60,-1,62,64,66,68,70,72,74,76,78,80,82,84,86,88,90,92,-1,-1,94,96,98,100,102,104,106,108,-1,-1,-1,-1,-1,-1,-1,-1,-1,-1,-1,-1,-1,-1,-1,-1,-1,-1,-1,-1,-1,-1,-1,-1,-1,-1,-1,-1,-1,-1,-1,-1,-1,-1,-1,-1,-1,-1,-1,-1,-1,-1,-1,-1,-1,-1,-1,-1,-1,-1],"split_conditions":[6.75E1,3.0171299E1,5.1835003E0,5.35E1,4.2618E1,1.6545E0,1.1325E2,9.875E1,5E-1,5.55E1,4.7309547E1,9.025E1,7.55E1,1.5255E0,1.1745E0,2.0895E0,5.663E0,1.1641667E2,6.942E0,3.3556297E1,4.645E0,4.0776518E-1,9.03248E-2,6.9E1,1.6285E0,2.507645E1,1.7544999E0,1.4445E0,1.919E0,9.695E-1,1.8425E0,9.1050005E-1,1.6787964E-1,1.1554999E0,1.037E0,2.391425E1,4.2355003E0,6.55E1,8.483999E0,1.1695E0,5.4405003E0,4.4960003E0,6.226E0,4.2200003E0,5.053E0,5E-1,2.691655E1,9.125E1,2.5941349E1,-9.5267564E-2,3.188885E-1,2.178685E1,7.35E1,7.95E1,6.542E0,5.6275E0,5.5480003E0,7.25E1,7.448E0,6.894809E-2,-3.18828E-1,-2.6297745E-1,-7.746436E-2,3.3117872E-1,-1.3714615E-1,-1.4520669E-1,-4.8997354E-2,1.7059223E-1,-2.83669E-2,1.833244E-1,-9.173443E-2,-3.89918E-1,1.4931718E-1,-8.9841835E-2,9.811343E-2,-3.5945028E-1,-4.5109164E-2,1.1268918E-1,3.326093E-1,-2.2708973E-2,1.24007225E-1,-1.0027694E-1,2.4093671E-1,-3.5237265E-1,1.4563505E-1,8.161938E-2,1.5766755E-1,4.4522193E-1,1.4924149E-1,1.7020671E-1,-4.9500135E-1,3.2484388E-1,-5.5441406E-2,2.603123E-1,-3.7170477E-2,1.9773724E-2,3.955892E-1,-1.9668306E-1,3.374675E-1,-2.5203472E-1,2.9523876E-1,1.3820519E-1,-2.662912E-1,4.7559816E-2,2.0866339E-1,-5.435003E-2,5.698611E-2,2.0545098E-1,-3.969039E-1],"split_indices":[5,4,3,5,4,2,6,6,0,5,4,6,5,2,2,2,3,6,3,4,3,0,0,6,2,4,2,2,2,2,2,2,0,2,2,4,3,5,3,2,3,3,3,3,3,1,4,6,4,0,0,4,5,5,3,3,3,5,3,0,0,0,0,0,0,0,0,0,0,0,0,0,0,0,0,0,0,0,0,0,0,0,0,0,0,0,0,0,0,0,0,0,0,0,0,0,0,0,0,0,0,0,0,0,0,0,0,0,0],"split_type":[0,0,0,0,0,0,0,0,0,0,0,0,0,0,0,0,0,0,0,0,0,0,0,0,0,0,0,0,0,0,0,0,0,0,0,0,0,0,0,0,0,0,0,0,0,0,0,0,0,0,0,0,0,0,0,0,0,0,0,0,0,0,0,0,0,0,0,0,0,0,0,0,0,0,0,0,0,0,0,0,0,0,0,0,0,0,0,0,0,0,0,0,0,0,0,0,0,0,0,0,0,0,0,0,0,0,0,0,0],"sum_hessian":[2.7840886E3,1.6360216E3,1.148067E3,1.3127706E3,3.2325095E2,4.4562772E2,7.024393E2,1.8557864E2,1.127192E3,3.1639117E2,6.8597674E0,4.2145514E2,2.417256E1,2.6442767E2,4.380116E2,3.674915E1,1.488295E2,1.0682416E3,5.895047E1,8.290231E1,2.3348888E2,5.2387137E0,1.6210536E0,1.2948766E1,4.0850638E2,1.947237E1,4.7001896E0,1.9574889E2,6.8678764E1,1.255868E2,3.124248E2,3.56208E1,1.1283504E0,7.93916E1,6.943789E1,6.060871E2,4.6215442E2,5.3330353E1,5.6201177E0,6.041359E1,2.2488726E1,4.452353E1,1.8896535E2,4.0062265E0,8.942539E0,4.0014056E2,8.365827E0,1.0686849E1,8.785521E0,1.3415114E0,3.358678E0,1.6737875E2,2.8370146E1,5.2206352E1,1.6472416E1,2.703921E1,9.854759E1,2.6673962E2,4.568519E1,2.4084382E0,3.3212364E1,3.491886E1,4.4472736E1,1.33786955E1,5.6059196E1,1.5644412E2,4.4964297E2,3.4077602E1,4.280768E2,4.1791134E1,1.1539218E1,4.401899E0,1.2182192E0,3.2342697E1,2.8070892E1,8.709552E0,1.3779174E1,3.6050053E1,8.473477E0,1.1932374E2,6.96416E1,1.4689647E0,2.537262E0,7.4748693E0,1.4676696E0,2.1309708E2,1.8704347E2,6.8754835E0,1.4903437E0,1.4455366E0,9.241312E0,2.9143126E0,5.871208E0,1.0063861E1,1.5731488E2,1.77377E1,1.0632446E1,5.0015583E1,2.190768E0,6.5047255E0,9.96769E0,1.5049724E1,1.1989487E1,2.359133E1,7.495626E1,1.7290475E2,9.383486E1,4.370112E1,1.9840693E0],"tree_param":{"num_deleted":"0","num_feature":"7","num_nodes":"109","size_leaf_vector":"0"}},{"base_weights":[4.006422E-4,-1.6667517E-1,7.763782E-2,-1.98273E-1,3.01216E-1,3.6633742E-1,4.9291793E-2,-3.5764822E-1,-1.2457842E-1,3.893061E-1,-7.8308755E-1,4.602613E-1,1.4163035E-1,6.2526814E-3,2.688709E-1,-9.08171E-1,-3.1031138E-1,-1.8294603E-1,1.1552225E-1,9.043357E-2,8.2047534E-1,-1.2063254E0,1.3278876E-1,2.7754655E-1,7.441235E-1,-9.156939E-1,2.6521376E-1,2.3257313E-2,-6.0049385E-1,5.394649E-1,1.9184594E-1,5.9532225E-2,-9.8908675E-1,-1.2374026E0,-2.8045505E-1,-1.9840574E-1,1.4866679E0,2.2501707E-1,-7.208663E-1,2.2607552E-1,-1.2143093E0,-1.0552933E0,1.0151675E0,-1.7523002E-2,5.2957207E-1,9.656007E-1,1.8771464E-1,-8.583808E-2,-1.7705628E0,-7.592497E-1,3.892671E-1,7.2409964E-1,1.3578726E-2,-9.056028E-1,3.5874194E-1,6.910414E-2,8.397931E-1,7.068386E-1,1.1516395E-1,-3.393009E-1,-1.1277143E0,8.4301895E-1,-3.2262424E-1,1.5643226E-1,-2.4101523E-1,1.7321668E0,4.0994436E-1,2.811998E-1,-9.255418E-1,6.1300542E-2,-1.2383782E0,9.108043E-1,-4.794923E-2,1.1480545E0,-4.337024E-1,3.2901028E-1,-6.758428E-1,6.02713E-1,-9.88735E-1,7.4315536E-1,-5.7437557E-1,-9.49331E-1,7.4393773E-1,-1.4708849E0,7.4649864E-1,1.0378498E0,2.3334771E-1,-7.501391E-1,9.2992365E-1,-5.8841098E-2,1.05648845E-1,-1.4589301E0,-4.699854E-1,6.298199E-1,-8.013813E-1,-3.6580768E-1,7.521137E-1,4.5079812E-1,1.0284665E0,9.630958E-1,2.3039252E-1,-3.4860843E-1,1.8656297E-1],"categories":[],"categories_nodes":[],"categories_segments":[],"categories_sizes":[],"default_left":[1,1,1,1,1,1,1,1,1,1,1,1,1,1,1,1,1,1,1,1,1,0,0,1,1,1,1,1,1,1,1,0,1,0,1,1,1,1,1,1,0,0,1,1,1,0,1,1,0,1,1,1,1,1,1,1,1,1,1,0,0,0,0,0,0,0,0,0,0,0,0,0,0,0,0,0,0,0,0,0,0,0,0,0,0,0,0,0,0,0,0,0,0,0,0,0,0,0,0,0,0,0,0],"id":5,"left_children":[1,3,5,7,9,11,13,15,17,19,21,23,25,27,29,31,33,35,37,39,41,-1,-1,43,45,47,49,51,53,55,57,-1,59,-1,61,63,65,67,69,71,-1,-1,73,75,77,-1,79,81,-1,83,85,87,89,91,93,95,97,99,101,-1,-1,-1,-1,-1,-1,-1,-1,-1,-1,-1,-1,-1,-1,-1,-1,-1,-1,-1,-1,-1,-1,-1,-1,-1,-1,-1,-1,-1,-1,-1,-1,-1,-1,-1,-1,-1,-1,-1,-1,-1,-1,-1,-1],"loss_changes":[3.524352E1,1.2824755E1,1.5266183E1,9.461899E0,5.559875E0,3.4557972E0,1.608177E1,6.373646E0,7.799074E0,6.5689044E0,1.891304E0,5.8725433E0,6.857412E0,1.4705866E1,5.709179E0,1.6015987E0,6.20438E0,1.1829193E1,1.0158075E1,5.8617816E0,8.733375E0,0E0,0E0,5.430734E0,5.401699E0,3.7655334E0,6.154191E0,9.392452E0,1.1697393E1,8.593348E0,8.552935E0,0E0,1.2602596E0,0E0,1.11967125E1,6.745329E0,4.0472698E-1,6.548324E0,5.2866054E0,5.5676527E0,0E0,0E0,4.255724E0,8.104622E0,4.965932E0,0E0,6.4123654E0,3.4669542E0,0E0,6.796665E0,3.9829783E0,6.421055E0,9.129355E0,6.4886856E0,3.6789055E0,7.6881094E0,2.2730331E0,3.214016E0,6.4061794E0,0E0,0E0,0E0,0E0,0E0,0E0,0E0,0E0,0E0,0E0,0E0,0E0,0E0,0E0,0E0,0E0,0E0,0E0,0E0,0E0,0E0,0E0,0E0,0E0,0E0,0E0,0E0,0E0,0E0,0E0,0E0,0E0,0E0,0E0,0E0,0E0,0E0,0E0,0E0,0E0,0E0,0E0,0E0,0E0],"parents":[2147483647,0,0,1,1,2,2,3,3,4,4,5,5,6,6,7,7,8,8,9,9,10,10,11,11,12,12,13,13,14,14,15,15,16,16,17,17,18,18,19,19,20,20,23,23,24,24,25,25,26,26,27,27,28,28,29,29,30,30,32,32,34,34,35,35,36,36,37,37,38,38,39,39,42,42,43,43,44,44,46,46,47,47,49,49,50,50,51,51,52,52,53,53,54,54,55,55,56,56,57,57,58,58],"right_children":[2,4,6,8,10,12,14,16,18,20,22,24,26,28,30,32,34,36,38,40,42,-1,-1,44,46,48,50,52,54,56,58,-1,60,-1,62,64,66,68,70,72,-1,-1,74,76,78,-1,80,82,-1,84,86,88,90,92,94,96,98,100,102,-1,-1,-1,-1,-1,-1,-1,-1,-1,-1,-1,-1,-1,-1,-1,-1,-1,-1,-1,-1,-1,-1,-1,-1,-1,-1,-1,-1,-1,-1,-1,-1,-1,-1,-1,-1,-1,-1,-1,-1,-1,-1,-1,-1],"split_conditions":[6.15E1,5E-1,4.1204996E0,2.53512E1,7.269E0,2.871265E1,2.9973751E1,5.05E1,1.2675E2,5.3785E0,5E-1,2.6303349E1,2.93139E1,2.95817E1,3.059745E1,3.8725E0,8.7899995E-1,8.695E0,6.9465E0,6.05E1,1.02E2,-3.6189765E-1,3.983663E-2,1.1845E0,1.1755E0,1.0929999E0,9.925E1,8.155E-1,7.35E1,1.1705E0,1.0125E2,1.7859668E-2,2.208135E1,-3.7122077E-1,9.47E-1,2.58673E1,1.1333333E2,1.724E0,1.3075E2,3.75E0,-3.642928E-1,-3.16588E-1,1.371E0,2.516225E1,4.0994997E0,2.8968024E-1,1.1175E2,1.0205E0,-5.311689E-1,4.0994997E0,8.335E-1,1.0475E2,5E-1,5E-1,6.183E0,3.038265E1,3.01907E1,5E-1,1.0925E2,-1.0179027E-1,-3.383143E-1,2.529057E-1,-9.6787274E-2,4.692968E-2,-7.230457E-2,5.1965004E-1,1.22983314E-1,8.4359944E-2,-2.7766255E-1,1.8390164E-2,-3.7151346E-1,2.7324128E-1,-1.4384769E-2,3.4441635E-1,-1.3011073E-1,9.870309E-2,-2.0275286E-1,1.8081391E-1,-2.9662052E-1,2.2294661E-1,-1.7231268E-1,-2.847993E-1,2.2318132E-1,-4.412655E-1,2.239496E-1,3.1135494E-1,7.0004314E-2,-2.2504175E-1,2.789771E-1,-1.765233E-2,3.1694654E-2,-4.3767905E-1,-1.4099562E-1,1.88946E-1,-2.404144E-1,-1.09742306E-1,2.2563411E-1,1.3523944E-1,3.0853996E-1,2.8892875E-1,6.9117755E-2,-1.0458253E-1,5.596889E-2],"split_indices":[5,0,3,4,3,4,4,5,6,3,1,4,4,4,4,3,2,3,3,5,6,0,0,2,2,2,6,2,5,2,6,0,4,0,2,4,6,2,6,3,0,0,2,4,3,0,6,2,0,3,2,6,1,1,3,4,4,1,6,0,0,0,0,0,0,0,0,0,0,0,0,0,0,0,0,0,0,0,0,0,0,0,0,0,0,0,0,0,0,0,0,0,0,0,0,0,0,0,0,0,0,0,0],"split_type":[0,0,0,0,0,0,0,0,0,0,0,0,0,0,0,0,0,0,0,0,0,0,0,0,0,0,0,0,0,0,0,0,0,0,0,0,0,0,0,0,0,0,0,0,0,0,0,0,0,0,0,0,0,0,0,0,0,0,0,0,0,0,0,0,0,0,0,0,0,0,0,0,0,0,0,0,0,0,0,0,0,0,0,0,0,0,0,0,0,0,0,0,0,0,0,0,0,0,0,0,0,0,0],"sum_hessian":[2.7291082E3,8.624149E2,1.8666931E3,8.083981E2,5.401687E1,1.6582893E2,1.7008643E3,2.5438992E2,5.540081E2,5.0551006E1,3.465862E0,1.1620773E2,4.96212E1,1.4229785E3,2.7788574E2,1.8702015E1,2.356879E2,4.4585938E2,1.08148766E2,3.0570362E1,1.9980644E1,2.1535518E0,1.3123102E0,7.190324E1,4.4304493E1,4.522154E0,4.5099045E1,1.3851208E3,3.7857624E1,6.0243248E1,2.176425E2,1.4635165E0,1.7238499E1,6.091486E0,2.2959642E2,4.426419E2,3.2174573E0,9.627589E1,1.1872879E1,2.8440407E1,2.1299558E0,1.4631876E0,1.8517456E1,3.3551674E1,3.8351566E1,3.1164232E1,1.3140262E1,2.8530216E0,1.6691325E0,4.3181696E0,4.0780876E1,1.7862377E1,1.3672584E3,2.8764322E1,9.093301E0,2.395542E1,3.6287827E1,2.7141779E1,1.9050072E2,3.637253E0,1.3601245E1,7.6190076E0,2.219774E2,4.7168297E1,3.954736E2,2.1243541E0,1.0931033E0,9.2513954E1,3.7619343E0,5.0786138E0,6.794265E0,7.4644794E0,2.0975927E1,1.7151941E1,1.365516E0,2.2308773E1,1.1242898E1,3.71643E1,1.187268E0,7.6150007E0,5.5252604E0,1.3274994E0,1.5255222E0,2.948042E0,1.3701274E0,6.807437E0,3.397344E1,1.8643298E0,1.5998047E1,7.6549896E2,6.017595E2,1.1635563E1,1.712876E1,7.7415066E0,1.3517946E0,1.4919638E1,9.035782E0,1.2959024E1,2.3328804E1,1.6984972E1,1.0156807E1,2.4897358E1,1.6560336E2],"tree_param":{"num_deleted":"0","num_feature":"7","num_nodes":"103","size_leaf_vector":"0"}},{"base_weights":[4.133012E-4,-9.12214E-2,8.694317E-2,-1.1523521E-1,2.544996E-1,2.2532614E-1,2.4329336E-2,-3.7081948E-1,-8.858469E-2,3.2125795E-1,-5.07042E-1,2.02302E-1,1.3413888E0,-6.0082078E-2,1.4634468E-1,-4.977092E-1,2.196026E-1,-9.430241E-2,1.0746901E0,1.6095874E-1,5.824159E-1,-1.050918E0,2.2121716E-1,2.1448047E-1,-1.6894065E0,-4.860001E-2,-1.4484063E0,-4.330552E-1,1.7540997E-1,-3.1631017E-1,-9.401868E-1,1.1822084E0,-4.6795404E-1,-1.4882235E-1,4.199945E-3,1.1747553E0,3.2389188E-1,6.94006E-1,1.7336523E-2,-7.1674156E-1,6.840585E-1,-6.566685E-1,7.589681E-1,1.9406575E-1,1.1430037E0,1.010453E0,-6.2019642E-2,-9.640414E-1,3.9405015E-1,3.4474778E-1,8.852939E-2,1.5193498E-1,-5.1511794E-1,-1.0939859E0,1.9492689E-1,1.7035564E0,-8.4864485E-1,-8.7808716E-1,8.434594E-1,-1.577778E-1,1.378416E0,-1.394595E-2,1.5289558E0,-5.4732406E-1,9.502361E-1,-9.471263E-1,1.181609E-1,8.5456073E-1,-1.6112851E-2,2.1051991E-1,-8.037373E-1,1.3088853E0,2.6239735E-1,1.4884167E0,-1.6385585E-1,4.9666867E-2,-1.7726354E-1,3.5712126E-1,-1.3709519E0,5.8870213E-3,9.612743E-1,5.5046326E-1,8.537549E-2,3.143656E-2,5.7837296E-1],"categories":[],"categories_nodes":[],"categories_segments":[],"categories_sizes":[],"default_left":[1,1,1,1,1,1,1,1,1,1,1,1,0,1,1,1,1,1,1,1,1,0,1,1,0,1,0,1,1,1,1,1,1,1,1,0,0,1,1,0,1,0,0,1,1,1,1,1,1,1,1,0,0,0,0,0,0,0,0,0,0,0,0,0,0,0,0,0,0,0,0,0,0,0,0,0,0,0,0,0,0,0,0,0,0],"id":6,"left_children":[1,3,5,7,9,11,13,15,17,19,21,23,-1,25,27,29,31,33,35,37,39,-1,41,43,-1,45,-1,47,49,51,53,55,57,59,61,-1,-1,63,65,-1,67,-1,-1,69,71,73,75,77,79,81,83,-1,-1,-1,-1,-1,-1,-1,-1,-1,-1,-1,-1,-1,-1,-1,-1,-1,-1,-1,-1,-1,-1,-1,-1,-1,-1,-1,-1,-1,-1,-1,-1,-1,-1],"loss_changes":[2.134137E1,1.0881791E1,1.1989154E1,8.297468E0,4.495035E0,1.0806734E1,9.836534E0,8.73757E0,7.4763975E0,3.2116585E0,3.1063437E0,1.0120804E1,0E0,8.931692E0,6.6517887E0,7.3359737E0,1.4496178E1,5.9311666E0,3.302002E-2,3.839412E0,4.405431E0,0E0,2.3528028E0,7.7728043E0,0E0,8.037379E0,0E0,8.698307E0,5.4503174E0,6.49753E0,4.952196E0,1.1039606E1,7.735699E0,9.940365E0,1.0934319E1,0E0,0E0,3.9081802E0,4.0653324E0,0E0,3.3575392E0,0E0,0E0,6.9644175E0,9.520807E-1,4.21718E0,7.1528554E0,6.846899E0,1.7811309E0,6.6747723E0,6.9052234E0,0E0,0E0,0E0,0E0,0E0,0E0,0E0,0E0,0E0,0E0,0E0,0E0,0E0,0E0,0E0,0E0,0E0,0E0,0E0,0E0,0E0,0E0,0E0,0E0,0E0,0E0,0E0,0E0,0E0,0E0,0E0,0E0,0E0,0E0],"parents":[2147483647,0,0,1,1,2,2,3,3,4,4,5,5,6,6,7,7,8,8,9,9,10,10,11,11,13,13,14,14,15,15,16,16,17,17,18,18,19,19,20,20,22,22,23,23,25,25,27,27,28,28,29,29,30,30,31,31,32,32,33,33,34,34,37,37,38,38,40,40,43,43,44,44,45,45,46,46,47,47,48,48,49,49,50,50],"right_children":[2,4,6,8,10,12,14,16,18,20,22,24,-1,26,28,30,32,34,36,38,40,-1,42,44,-1,46,-1,48,50,52,54,56,58,60,62,-1,-1,64,66,-1,68,-1,-1,70,72,74,76,78,80,82,84,-1,-1,-1,-1,-1,-1,-1,-1,-1,-1,-1,-1,-1,-1,-1,-1,-1,-1,-1,-1,-1,-1,-1,-1,-1,-1,-1,-1,-1,-1,-1,-1,-1,-1],"split_conditions":[6.55E1,5E-1,5.0135E0,9.458333E1,6.9305E0,5.0035E0,2.687595E1,1.5764999E0,4.2618E1,5.3785E0,5E-1,4.9965E0,4.0241668E-1,8.3925E0,9.375E1,1.3305E0,1.659E0,5E-1,1.1819999E0,8.55E-1,9.825E1,-3.152754E-1,2.8850101E1,4.9855003E0,-5.06822E-1,6.075E1,-4.345219E-1,2.9882149E1,5.6514997E0,8.175E1,9.375E1,5E-1,2.1335E0,8.750999E0,1.5425E2,3.5242662E-1,9.716757E-2,5.35E1,9.015E-1,-2.1502247E-1,3.182405E1,-1.9700055E-1,2.2769044E-1,4.9665003E0,1.2625E2,6.95E1,2.4550049E1,1.0075E0,3.290255E1,2.92533E1,7.5585E0,4.5580495E-2,-1.5453538E-1,-3.2819578E-1,5.847807E-2,5.11067E-1,-2.5459346E-1,-2.6342615E-1,2.5303784E-1,-4.733334E-2,4.135248E-1,-4.183785E-3,4.5868677E-1,-1.6419722E-1,2.8507084E-1,-2.841379E-1,3.544827E-2,2.5636822E-1,-4.8338557E-3,6.315598E-2,-2.4112119E-1,3.9266562E-1,7.8719206E-2,4.46525E-1,-4.915676E-2,1.490006E-2,-5.3179067E-2,1.0713638E-1,-4.1128558E-1,1.7661065E-3,2.8838232E-1,1.6513899E-1,2.5612647E-2,9.430968E-3,1.735119E-1],"split_indices":[5,0,3,6,3,3,4,2,4,3,1,3,0,3,6,2,2,1,2,2,6,0,4,3,0,6,0,4,3,6,6,1,2,3,6,0,0,5,2,0,4,0,0,3,6,5,4,2,4,4,3,0,0,0,0,0,0,0,0,0,0,0,0,0,0,0,0,0,0,0,0,0,0,0,0,0,0,0,0,0,0,0,0,0,0],"split_type":[0,0,0,0,0,0,0,0,0,0,0,0,0,0,0,0,0,0,0,0,0,0,0,0,0,0,0,0,0,0,0,0,0,0,0,0,0,0,0,0,0,0,0,0,0,0,0,0,0,0,0,0,0,0,0,0,0,0,0,0,0,0,0,0,0,0,0,0,0,0,0,0,0,0,0,0,0,0,0,0,0,0,0,0,0],"sum_hessian":[2.6895112E3,1.3061989E3,1.3833123E3,1.2219863E3,8.421257E1,4.301152E2,9.531971E2,1.1416877E2,1.1078175E3,7.7956856E1,6.255715E0,4.2257877E2,7.536445E0,5.6371857E2,3.894785E2,9.4102E1,2.006677E1,1.1033135E3,4.504062E0,4.9307903E1,2.8648954E1,3.327573E0,2.9281416E0,4.2075662E2,1.8221333E0,5.6012115E2,3.5974479E0,1.7940748E1,3.7153775E2,6.795705E1,2.6144955E1,8.06126E0,1.200551E1,7.098877E2,3.9342575E2,3.476098E0,1.0279644E0,9.652165E0,3.9655735E1,1.6396741E0,2.7009281E1,1.0282961E0,1.8998456E0,4.128878E2,7.868838E0,6.0790243E0,5.540421E2,1.0825451E1,7.115298E0,1.24977554E2,2.465602E2,2.0324118E1,4.7632927E1,2.3057127E1,3.0878282E0,6.5427966E0,1.5184634E0,9.397081E0,2.6084282E0,7.0664075E2,3.24692E0,3.8977792E2,3.6478362E0,1.4570909E0,8.195075E0,2.9587915E0,3.6696945E1,2.1542786E1,5.4664946E0,4.069658E2,5.922007E0,6.2122736E0,1.6565644E0,4.1303983E0,1.948626E0,2.8165265E2,2.7238947E2,2.5778875E0,8.247562E0,4.824305E0,2.2909923E0,6.907218E1,5.5905373E1,2.2177571E2,2.478449E1],"tree_param":{"num_deleted":"0","num_feature":"7","num_nodes":"85","size_leaf_vector":"0"}},{"base_weights":[7.5385574E-4,-1.684994E-1,3.209625E-2,-2.5117397E-1,7.926147E-2,1.3403623E-2,2.5451195E-1,-3.1342605E-1,8.7554656E-2,1.3268012E-1,-1.125777E0,2.1711594E-1,-7.4587883E-3,8.134301E-1,1.9542888E-1,-3.7811357E-1,5.2485177E-3,2.5192901E-1,-4.3612114E-1,-8.993052E-3,8.727549E-1,-6.8396854E-1,2.568011E-1,-4.556369E-2,8.9759454E-2,-2.9928663E-1,1.0564189E0,-1.1537629E0,2.408587E-1,-3.3259344E-1,-1.4734031E0,-1.813968E-1,1.3686742E0,-9.577293E-1,3.348997E-1,-1.2837645E0,1.524953E-1,2.4732707E-1,-5.7320756E-1,3.4575266E-1,1.4244657E0,-1.280895E0,1.5449755E-1,2.1186303E-1,8.3832395E-1,-3.9787486E-2,-1.4441435E0,-4.587365E-1,1.0868153E-1,-1.1233664E0,4.592798E-1,1.194308E0,-2.9624261E-2,-1.4099891E-1,-2.1556547E0,-4.7595907E-2,4.028412E-1,-2.6061022E-1,-8.6845773E-1,1.9372537E0,-3.26736E-1,1.8093003E0,2.8340334E-1,-6.196042E-1,4.3953532E-1,-4.2932585E-1,1.050012E0,4.3700263E-1,-4.3876377E-1,7.250613E-1,-7.275387E-1,6.0996944E-1,-8.2096696E-1,1.7733297E0,6.0247654E-1,-6.378581E-1,7.1817005E-1,4.730616E-1,1.328231E-1,1.123643E0,8.447566E-2,-4.7612247E-1,-2.8402342E-2,-1.706581E0,-3.9966497E-1,-7.4324197E-1,7.2689146E-1,8.5269773E-1,8.029409E-2,-1.2526937E0,7.634146E-1,-3.6131424E-1,1.8120845E-1,4.39261E-1,-1.3088405E0],"categories":[],"categories_nodes":[],"categories_segments":[],"categories_sizes":[],"default_left":[1,1,1,1,1,1,1,1,1,1,0,1,1,1,1,1,1,1,1,1,1,1,1,1,1,1,1,1,1,1,0,1,1,0,1,0,1,1,1,1,1,0,1,1,1,1,1,1,1,0,0,0,0,1,0,1,1,0,0,0,0,0,0,0,0,0,0,0,0,0,0,0,0,0,0,0,0,0,0,0,0,0,0,0,0,0,0,0,0,0,0,0,0,0,0],"id":7,"left_children":[1,3,5,7,9,11,13,15,17,19,-1,21,23,25,27,29,31,33,35,37,39,41,43,45,47,49,51,53,55,57,-1,59,61,-1,63,-1,65,67,69,71,73,-1,75,77,79,81,83,85,87,-1,-1,-1,-1,89,-1,91,93,-1,-1,-1,-1,-1,-1,-1,-1,-1,-1,-1,-1,-1,-1,-1,-1,-1,-1,-1,-1,-1,-1,-1,-1,-1,-1,-1,-1,-1,-1,-1,-1,-1,-1,-1,-1,-1,-1],"loss_changes":[1.41040745E1,8.529164E0,9.323175E0,6.60058E0,6.888914E0,8.800825E0,5.582428E0,5.434782E0,4.342912E0,1.061309E1,0E0,7.054781E0,6.965067E0,4.7248554E0,9.996414E0,1.0433247E1,1.1815858E1,4.1408796E0,6.240043E0,1.2562569E1,4.235697E0,4.396064E0,4.6564703E0,1.0853441E1,5.5448704E0,2.8299866E0,2.07261E0,5.112115E0,7.225009E0,7.9372616E0,0E0,1.3216505E1,2.1605864E0,0E0,3.9037776E0,0E0,4.651002E0,7.967987E0,5.9635E0,3.4717634E0,1.1179485E0,0E0,2.4145865E0,3.509849E0,2.68643E0,6.6734743E0,8.328991E-1,6.560544E0,1.0758108E1,0E0,0E0,0E0,0E0,4.7009907E0,0E0,4.110528E0,6.7381306E0,0E0,0E0,0E0,0E0,0E0,0E0,0E0,0E0,0E0,0E0,0E0,0E0,0E0,0E0,0E0,0E0,0E0,0E0,0E0,0E0,0E0,0E0,0E0,0E0,0E0,0E0,0E0,0E0,0E0,0E0,0E0,0E0,0E0,0E0,0E0,0E0,0E0,0E0],"parents":[2147483647,0,0,1,1,2,2,3,3,4,4,5,5,6,6,7,7,8,8,9,9,11,11,12,12,13,13,14,14,15,15,16,16,17,17,18,18,19,19,20,20,21,21,22,22,23,23,24,24,25,25,26,26,27,27,28,28,29,29,31,31,32,32,34,34,36,36,37,37,38,38,39,39,40,40,42,42,43,43,44,44,45,45,46,46,47,47,48,48,53,53,55,55,56,56],"right_children":[2,4,6,8,10,12,14,16,18,20,-1,22,24,26,28,30,32,34,36,38,40,42,44,46,48,50,52,54,56,58,-1,60,62,-1,64,-1,66,68,70,72,74,-1,76,78,80,82,84,86,88,-1,-1,-1,-1,90,-1,92,94,-1,-1,-1,-1,-1,-1,-1,-1,-1,-1,-1,-1,-1,-1,-1,-1,-1,-1,-1,-1,-1,-1,-1,-1,-1,-1,-1,-1,-1,-1,-1,-1,-1,-1,-1,-1,-1,-1],"split_conditions":[5.65E1,1.2241667E2,5E-1,3.1167099E1,1.803E0,4.2815E0,8.265E-1,1.5755E0,1.254E0,1.4975E0,-3.3773312E-1,2.136325E1,2.827845E1,7.4249995E-1,3.1755E0,3.062985E1,2.944685E1,4.85E1,1.1175E2,1.3125E2,1.3325E2,6.85E1,4.258E0,2.823955E1,4.4434996E0,3.167235E1,7.55E1,2.808585E1,1.0815E0,1.4445E0,-4.4202095E-1,1.5785E0,5.9615E0,-2.873188E-1,8.2299995E-1,-3.8512936E-1,7.0535E0,1.314E0,3.736E0,5E-1,1.395E2,-3.8426852E-1,1.368E0,3.5975E0,4.2714996E0,8.475E1,2.8264198E1,7.35E1,4.5545E0,-3.370099E-1,1.3778394E-1,3.5829243E-1,-8.887279E-3,2.588665E1,-6.4669645E-1,2.836045E1,1.525E2,-7.818307E-2,-2.6053733E-1,5.8117616E-1,-9.802081E-2,5.427901E-1,8.5021004E-2,-1.8588126E-1,1.318606E-1,-1.2879775E-1,3.150036E-1,1.3110079E-1,-1.3162914E-1,2.175184E-1,-2.1826161E-1,1.8299083E-1,-2.462901E-1,5.3199893E-1,1.8074296E-1,-1.9135743E-1,2.1545102E-1,1.4191848E-1,3.984693E-2,3.3709294E-1,2.53427E-2,-1.4283675E-1,-8.520703E-3,-5.1197433E-1,-1.198995E-1,-2.229726E-1,2.1806745E-1,2.5580934E-1,2.4088228E-2,-3.7580812E-1,2.290244E-1,-1.0839427E-1,5.4362535E-2,1.317783E-1,-3.9265218E-1],"split_indices":[5,6,0,4,2,3,2,2,2,2,0,4,4,2,3,4,4,5,6,6,6,5,3,4,3,4,5,4,2,2,0,2,3,0,2,0,3,2,3,1,6,0,2,3,3,6,4,5,3,0,0,0,0,4,0,4,6,0,0,0,0,0,0,0,0,0,0,0,0,0,0,0,0,0,0,0,0,0,0,0,0,0,0,0,0,0,0,0,0,0,0,0,0,0,0],"split_type":[0,0,0,0,0,0,0,0,0,0,0,0,0,0,0,0,0,0,0,0,0,0,0,0,0,0,0,0,0,0,0,0,0,0,0,0,0,0,0,0,0,0,0,0,0,0,0,0,0,0,0,0,0,0,0,0,0,0,0,0,0,0,0,0,0,0,0,0,0,0,0,0,0,0,0,0,0,0,0,0,0,0,0,0,0,0,0,0,0,0,0,0,0,0,0],"sum_hessian":[2.6567175E3,4.144194E2,2.242298E3,3.107218E2,1.0369761E2,2.0694353E3,1.7286266E2,2.625455E2,4.8176304E1,1.00148E2,3.549607E0,1.913713E2,1.8780641E3,1.5305648E1,1.57557E2,2.180892E2,4.4456303E1,3.7061996E1,1.1114309E1,8.488604E1,1.5261961E1,7.387905E0,1.839834E2,1.349612E3,5.284521E2,2.701769E0,1.2603878E1,4.3377028E0,1.532193E2,2.1063873E2,7.4504685E0,3.986585E1,4.5904555E0,1.7021903E0,3.5359806E1,4.0709324E0,7.0433764E0,5.875538E1,2.6130663E1,8.637749E0,6.6242127E0,4.0073214E0,3.380584E0,1.7205214E2,1.1931269E1,1.3450852E3,4.526822E0,1.6847534E1,5.1160452E2,1.0644649E0,1.6373041E0,1.1095459E1,1.5084193E0,2.724435E0,1.6132674E0,5.5353416E1,9.786588E1,1.8700455E2,2.3634184E1,1.7677449E0,3.8098103E1,2.790397E0,1.8000586E0,3.0070891E0,3.2352715E1,4.589715E0,2.4536617E0,4.6314423E1,1.2440955E1,2.3833437E0,2.3747318E1,7.4319034E0,1.2058451E0,3.8379622E0,2.7862508E0,1.3505299E0,2.030054E0,3.8810913E1,1.3324123E2,8.299502E0,3.6317668E0,3.316637E1,1.3119188E3,3.111192E0,1.4156303E0,1.3888054E1,2.9594793E0,1.7735329E1,4.938692E2,1.0494158E0,1.6750194E0,2.3100588E1,3.2252827E1,9.655484E1,1.3110417E0],"tree_param":{"num_deleted":"0","num_feature":"7","num_nodes":"95","size_leaf_vector":"0"}},{"base_weights":[7.86334E-5,-4.1583654E-2,9.374908E-2,-1.4119026E-1,1.0726357E-2,6.474459E-2,3.8780972E-1,-2.6352578E-1,-1.8003106E-2,9.0247625E-1,-1.9749603E-3,-4.2881265E-1,7.96218E-2,5.5401564E-1,7.924541E-2,-2.1320058E-1,-1.043794E0,6.413471E-1,-8.763359E-2,-9.3542486E-1,1.1191072E0,-9.0075886E-1,4.9961596E-3,3.711155E-1,-8.667766E-1,5.373408E-1,5.2704748E-2,4.0789267E-1,1.1853995E0,-7.8580046E-1,3.5659564E-1,-2.6096374E-1,6.948093E-1,-2.396058E-1,-1.3795755E0,8.747531E-1,-5.695314E-1,-1.971757E-2,-3.5208607E-1,-4.214228E-1,1.2974005E0,2.022716E-1,-1.3747131E0,1.392206E-1,-2.7900755E-2,-7.8767437E-1,1.1835126E0,6.143071E-1,-1.200355E0,8.0271685E-1,5.0159637E-2,-6.291E-1,8.066423E-2,8.7805696E-2,5.772374E-1,-1.6993049E0,7.029276E-1,-2.5436532E-1,7.1115196E-1,8.456065E-1,-2.9960093E-1,1.1690358E0,-2.3982348E-1,-9.9295574E-1,3.0811563E-1,2.9582578E-1,1.784481E0,5.545527E-1,-1.1803699E0,-1.17573656E-1,3.344867E-1,-7.310226E-2,-8.0993515E-1,6.221062E-1,1.7896136E0,-1.6981812E-1,5.247921E-1,7.365658E-2,1.0355741E0,3.5436517E-1,-4.92248E-2,4.59119E-2,-1.2273558E0,3.431527E-2,1.4831067E0,5.376905E-2,8.769753E-1,9.03422E-1,-1.5050895E0,1.0105743E0,1.0694435E-1,-1.3618422E0,3.662812E-1,-8.0149204E-1,1.1892703E0,3.9088544E-1,3.7205588E-2,7.323963E-1,-6.06186E-1,3.5385552E-1,8.7871706E-1,-9.1508955E-2,-2.205535E0,2.3331577E-1,-1.5701796E0,9.7091633E-1,-1.4989802E-1],"categories":[],"categories_nodes":[],"categories_segments":[],"categories_sizes":[],"default_left":[1,1,1,1,1,1,1,1,1,1,1,1,1,1,1,1,1,1,1,0,1,1,1,1,1,1,1,1,0,1,1,1,1,1,0,1,1,1,1,0,1,1,0,1,1,1,1,1,1,1,1,1,1,1,1,1,0,1,1,0,0,0,0,0,0,0,0,0,0,0,0,0,0,0,0,0,0,0,0,0,0,0,0,0,0,0,0,0,0,0,0,0,0,0,0,0,0,0,0,0,0,0,0,0,0,0,0],"id":8,"left_children":[1,3,5,7,9,11,13,15,17,19,21,23,25,27,29,31,33,35,37,-1,39,41,43,45,47,49,51,53,-1,55,57,59,61,63,-1,65,67,69,71,-1,73,75,-1,77,79,81,83,85,87,89,91,93,95,97,99,101,-1,103,105,-1,-1,-1,-1,-1,-1,-1,-1,-1,-1,-1,-1,-1,-1,-1,-1,-1,-1,-1,-1,-1,-1,-1,-1,-1,-1,-1,-1,-1,-1,-1,-1,-1,-1,-1,-1,-1,-1,-1,-1,-1,-1,-1,-1,-1,-1,-1,-1],"loss_changes":[1.025417E1,9.477576E0,6.8740654E0,9.433722E0,1.3518397E1,5.449264E0,3.67027E0,1.2113771E1,1.4432632E1,7.7201138E0,7.382862E0,7.936593E0,8.802267E0,3.843629E0,6.6429386E0,1.3035378E1,4.740183E0,8.985576E0,5.095786E0,0E0,4.790041E0,5.019198E0,5.1680818E0,8.830825E0,7.8248997E0,5.0923576E0,1.2976215E1,2.0964737E0,0E0,1.0375149E1,4.67997E0,1.2323046E1,6.966184E0,3.0876195E0,0E0,1.2939812E1,4.4027567E0,7.9112782E0,7.3486423E0,0E0,3.5705414E0,5.2082676E-1,0E0,1.3463112E1,7.681099E0,1.5437853E0,1.7848582E0,4.3850625E-1,9.082981E0,3.5990982E0,7.223758E0,9.361635E0,8.778542E0,7.1027164E0,1.4216204E0,3.4414148E0,0E0,5.733175E0,3.1440492E0,0E0,0E0,0E0,0E0,0E0,0E0,0E0,0E0,0E0,0E0,0E0,0E0,0E0,0E0,0E0,0E0,0E0,0E0,0E0,0E0,0E0,0E0,0E0,0E0,0E0,0E0,0E0,0E0,0E0,0E0,0E0,0E0,0E0,0E0,0E0,0E0,0E0,0E0,0E0,0E0,0E0,0E0,0E0,0E0,0E0,0E0,0E0,0E0],"parents":[2147483647,0,0,1,1,2,2,3,3,4,4,5,5,6,6,7,7,8,8,9,9,10,10,11,11,12,12,13,13,14,14,15,15,16,16,17,17,18,18,20,20,21,21,22,22,23,23,24,24,25,25,26,26,27,27,29,29,30,30,31,31,32,32,33,33,35,35,36,36,37,37,38,38,40,40,41,41,43,43,44,44,45,45,46,46,47,47,48,48,49,49,50,50,51,51,52,52,53,53,54,54,55,55,57,57,58,58],"right_children":[2,4,6,8,10,12,14,16,18,20,22,24,26,28,30,32,34,36,38,-1,40,42,44,46,48,50,52,54,-1,56,58,60,62,64,-1,66,68,70,72,-1,74,76,-1,78,80,82,84,86,88,90,92,94,96,98,100,102,-1,104,106,-1,-1,-1,-1,-1,-1,-1,-1,-1,-1,-1,-1,-1,-1,-1,-1,-1,-1,-1,-1,-1,-1,-1,-1,-1,-1,-1,-1,-1,-1,-1,-1,-1,-1,-1,-1,-1,-1,-1,-1,-1,-1,-1,-1,-1,-1,-1,-1],"split_conditions":[6.95E1,2.53892E1,5E-1,1.1175E2,2.5440449E1,2.08959E1,5.281E0,2.5160099E1,2.147015E1,9.63E-1,2.54898E1,1.965815E1,2.197645E1,5.0705E0,5.5585003E0,2.5057999E1,5.0605E0,1.2975E2,2.481925E1,-2.8062746E-1,5.75E1,9.815E-1,1.0375E2,1.1625E2,1.0635E0,1.1475E2,2.2536E1,1.0815E0,3.5561988E-1,1.416E0,1.1275E2,7.375E1,1.2325E0,2.524165E1,-4.1387266E-1,1.2083333E2,4.4385E0,2.4400501E1,1.2475E2,-1.2642685E-1,2.542075E1,9.46E-1,-4.1241392E-1,1.0341667E2,8.6450005E-1,4.6239996E0,1.5785E0,2.03603E1,9.025E1,5E-1,1.1825E2,1.985E0,2.357605E1,9.125E-1,1.225E2,1.0525E2,2.1087828E-1,1.08E2,1.322E0,2.5368196E-1,-8.988028E-2,3.5071075E-1,-7.1947046E-2,-2.9788673E-1,9.243469E-2,8.874774E-2,5.3534436E-1,1.663658E-1,-3.5411096E-1,-3.52721E-2,1.00346014E-1,-2.1930678E-2,-2.4298055E-1,1.8663186E-1,5.368841E-1,-5.094544E-2,1.5743762E-1,2.2096975E-2,3.1067222E-1,1.06309555E-1,-1.4767441E-2,1.3773571E-2,-3.6820677E-1,1.0294581E-2,4.4493204E-1,1.6130716E-2,2.630926E-1,2.710266E-1,-4.5152688E-1,3.0317232E-1,3.2083306E-2,-4.0855268E-1,1.0988437E-1,-2.4044763E-1,3.567811E-1,1.17265634E-1,1.1161677E-2,2.197189E-1,-1.818558E-1,1.0615666E-1,2.6361513E-1,-2.7452687E-2,-6.616605E-1,6.999473E-2,-4.710539E-1,2.912749E-1,-4.496941E-2],"split_indices":[5,4,0,6,4,4,3,4,4,2,4,4,4,3,3,4,3,6,4,0,5,2,6,6,2,6,4,2,0,2,6,6,2,4,0,6,3,4,6,0,4,2,0,6,2,3,2,4,6,1,6,2,4,2,6,6,0,6,2,0,0,0,0,0,0,0,0,0,0,0,0,0,0,0,0,0,0,0,0,0,0,0,0,0,0,0,0,0,0,0,0,0,0,0,0,0,0,0,0,0,0,0,0,0,0,0,0],"split_type":[0,0,0,0,0,0,0,0,0,0,0,0,0,0,0,0,0,0,0,0,0,0,0,0,0,0,0,0,0,0,0,0,0,0,0,0,0,0,0,0,0,0,0,0,0,0,0,0,0,0,0,0,0,0,0,0,0,0,0,0,0,0,0,0,0,0,0,0,0,0,0,0,0,0,0,0,0,0,0,0,0,0,0,0,0,0,0,0,0,0,0,0,0,0,0,0,0,0,0,0,0,0,0,0,0,0,0],"sum_hessian":[2.6255742E3,1.8176741E3,8.079002E2,6.253014E2,1.1923727E3,7.3647833E2,7.1421906E1,3.1316357E2,3.121378E2,1.576086E1,1.1766118E3,2.0735817E1,7.157425E2,4.5901783E1,2.552012E1,2.9538525E2,1.7778316E1,2.903038E1,2.8310742E2,1.3119755E0,1.4448885E1,8.068975E0,1.1685428E3,7.3902955E0,1.3345522E1,3.8699665E1,6.7704285E2,3.861178E1,7.2900047E0,5.7506857E0,1.9769436E1,2.8130087E2,1.40844E1,5.741395E0,1.2036921E1,2.4571606E1,4.4587746E0,2.2611237E2,5.6995045E1,1.3573297E0,1.3091555E1,2.5973666E0,5.4716086E0,2.2938501E2,9.3915784E2,3.0583484E0,4.331947E0,2.298527E0,1.1046995E1,2.4633625E1,1.406604E1,2.5823544E1,6.512193E2,1.3885189E1,2.472659E1,3.4761958E0,2.27449E0,7.3634825E0,1.2405952E1,8.785918E0,2.7251495E2,9.177169E0,4.907232E0,2.0747907E0,3.6666043E0,1.5825712E1,8.7458935E0,1.602306E0,2.8564684E0,1.7768999E2,4.8422386E1,3.6135845E1,2.08592E1,6.473752E0,6.617803E0,1.4258446E0,1.171522E0,2.147586E2,1.4626401E1,4.879607E1,8.903618E2,1.3653599E0,1.6929886E0,1.1262738E0,3.2056732E0,1.1178088E0,1.1807182E0,1.1491381E0,9.897857E0,1.86189E1,6.0147247E0,1.9679488E0,1.2098091E1,2.4098127E1,1.7254171E0,7.903668E1,5.721826E2,7.170124E0,6.715065E0,1.5451501E1,9.275088E0,1.1151677E0,2.361028E0,5.972554E0,1.3909283E0,9.432676E0,2.973276E0],"tree_param":{"num_deleted":"0","num_feature":"7","num_nodes":"107","size_leaf_vector":"0"}},{"base_weights":[3.824016E-4,-4.643711E-2,6.598817E-2,-5.9463996E-2,5.74211E-1,-1.3331119E0,7.137842E-2,-5.3701594E-2,-1.220947E0,3.5790092E-1,1.4188585E0,1.9394537E-2,2.0877601E-1,-3.4486745E-2,-3.116449E-1,-1.4718401E0,-3.5002816E-1,-7.229915E-1,5.9161687E-1,1.18521646E-1,-2.0926051E-1,5.9658915E-1,4.617394E-2,-5.193502E-2,4.3021232E-1,6.6054726E-1,-4.705881E-1,-1.4312617E0,6.433014E-1,9.431126E-1,2.1214049E-1,-2.9164058E-1,1.5418409E-1,3.5810238E-1,-3.0924442E-1,6.678971E-1,-5.92337E-1,5.945737E-1,-8.0215245E-2,-2.3513131E-1,-1.916795E-2,5.856148E-1,-1.3341134E0,-1.1237596E0,1.0723431E0,-7.217661E-1,-8.168104E-2,4.3141253E-2,1.0878999E0,-4.25149E-1,7.3134714E-1,-9.7526956E-1,7.8780315E-4,-2.5366455E-1,1.8866651E-1,1.5326114E0,-5.0340682E-2,-2.1384677E-1,-9.576824E-1,-1.034474E0,7.067293E-1,-1.3726794E0,3.8461924E-1,-5.4780122E-2,8.8396883E-1,-3.2577994E-1,6.803181E-2],"categories":[],"categories_nodes":[],"categories_segments":[],"categories_sizes":[],"default_left":[1,1,1,1,1,0,1,1,1,1,0,1,1,1,1,0,0,1,1,1,1,1,1,1,1,1,1,0,0,1,1,1,1,1,1,1,1,1,1,0,0,0,0,0,0,0,0,0,0,0,0,0,0,0,0,0,0,0,0,0,0,0,0,0,0,0,0],"id":9,"left_children":[1,3,5,7,9,-1,11,13,15,17,-1,19,21,23,25,-1,-1,27,29,31,33,35,37,39,41,43,45,-1,-1,47,49,51,53,55,57,59,61,63,65,-1,-1,-1,-1,-1,-1,-1,-1,-1,-1,-1,-1,-1,-1,-1,-1,-1,-1,-1,-1,-1,-1,-1,-1,-1,-1,-1,-1],"loss_changes":[8.008632E0,1.2335555E1,8.283745E0,9.91438E0,5.224057E0,0E0,7.7282763E0,7.348438E0,1.0832539E0,7.075036E0,0E0,1.7852133E1,1.8704813E1,1.1235879E1,1.6198015E1,0E0,0E0,5.883218E0,2.7590795E0,8.079865E0,1.3624342E1,7.8285007E0,1.4630001E1,8.002224E0,1.4533135E1,1.212602E1,8.630211E0,0E0,0E0,1.4159908E0,4.267714E0,8.854074E0,7.164315E0,1.7421133E1,1.2356791E1,6.2299767E0,4.7139034E0,7.475914E0,6.278682E0,0E0,0E0,0E0,0E0,0E0,0E0,0E0,0E0,0E0,0E0,0E0,0E0,0E0,0E0,0E0,0E0,0E0,0E0,0E0,0E0,0E0,0E0,0E0,0E0,0E0,0E0,0E0,0E0],"parents":[2147483647,0,0,1,1,2,2,3,3,4,4,6,6,7,7,8,8,9,9,11,11,12,12,13,13,14,14,17,17,18,18,19,19,20,20,21,21,22,22,23,23,24,24,25,25,26,26,29,29,30,30,31,31,32,32,33,33,34,34,35,35,36,36,37,37,38,38],"right_children":[2,4,6,8,10,-1,12,14,16,18,-1,20,22,24,26,-1,-1,28,30,32,34,36,38,40,42,44,46,-1,-1,48,50,52,54,56,58,60,62,64,66,-1,-1,-1,-1,-1,-1,-1,-1,-1,-1,-1,-1,-1,-1,-1,-1,-1,-1,-1,-1,-1,-1,-1,-1,-1,-1,-1,-1],"split_conditions":[5E-1,7.75E1,4.375E1,1.5425E2,1.8635E0,-3.9993358E-1,6.2755003E0,7.1995E0,1.6225E2,2.248145E1,4.2565757E-1,5.6345E0,1.2025E0,6.9755E0,9.625E1,-4.4155207E-1,-1.0500845E-1,7.95E1,5.2995E0,5.45E1,1.0074999E0,7.746E0,6.4045E0,1.0041667E2,1.3275E2,7.367E0,2.81456E1,-4.293785E-1,1.9299044E-1,1.04E2,5.8795E0,1.0435E0,2.2570549E1,5.35E1,3.06199E1,2.306285E1,8.114E0,6.33E0,6.55E1,-7.053939E-2,-5.750385E-3,1.7568445E-1,-4.00234E-1,-3.371279E-1,3.2170296E-1,-2.1652985E-1,-2.4504313E-2,1.2942377E-2,3.2637E-1,-1.275447E-1,2.1940415E-1,-2.9258087E-1,2.3634096E-4,-7.6099366E-2,5.6599956E-2,4.5978343E-1,-1.5102205E-2,-6.415404E-2,-2.8730473E-1,-3.1034222E-1,2.120188E-1,-4.118038E-1,1.1538578E-1,-1.6434038E-2,2.6519066E-1,-9.773399E-2,2.0409543E-2],"split_indices":[1,5,6,6,2,0,3,3,6,4,0,3,2,3,6,0,0,5,3,5,2,3,3,6,6,3,4,0,0,6,3,2,4,5,4,4,3,3,5,0,0,0,0,0,0,0,0,0,0,0,0,0,0,0,0,0,0,0,0,0,0,0,0,0,0,0,0],"split_type":[0,0,0,0,0,0,0,0,0,0,0,0,0,0,0,0,0,0,0,0,0,0,0,0,0,0,0,0,0,0,0,0,0,0,0,0,0,0,0,0,0,0,0,0,0,0,0,0,0,0,0,0,0,0,0,0,0,0,0,0,0,0,0,0,0,0,0],"sum_hessian":[2.605293E3,1.520489E3,1.0848038E3,1.490117E3,3.0372124E1,3.217995E0,1.0815858E3,1.4838016E3,6.315269E0,2.5313251E1,5.0588713E0,7.8552606E2,2.9605978E2,1.3819875E3,1.0181406E2,4.3671904E0,1.9480791E0,4.1281004E0,2.1185152E1,5.483051E2,2.3722095E2,8.6672646E1,2.0938713E2,1.3328314E3,4.9156204E1,1.3863104E1,8.795095E1,2.6874218E0,1.4406787E0,1.0226969E1,1.0958183E1,4.32859E1,5.0501923E2,3.515438E1,2.0206657E2,8.218188E1,4.4907684E0,3.8524765E1,1.7086237E2,2.0128697E2,1.1315444E3,4.5790997E1,3.365209E0,2.2753053E0,1.1587799E1,5.291779E1,3.5033165E1,1.5971769E0,8.629792E0,5.000984E0,5.9571986E0,1.2268936E1,3.1016964E1,3.887383E1,4.661454E2,8.360579E0,2.6793802E1,1.7731058E2,2.4756E1,1.2610006E0,8.0920876E1,2.2714188E0,2.2193499E0,1.2126241E1,2.6398523E1,6.3868862E1,1.069935E2],"tree_param":{"num_deleted":"0","num_feature":"7","num_nodes":"67","size_leaf_vector":"0"}},{"base_weights":[-3.2123618E-4,-1.9336806E-1,1.1826357E-2,-3.5508463E-1,3.736262E-2,1.090566E0,1.0004762E-2,-7.609912E-1,-1.7927228E-1,9.467527E-1,-9.636343E-2,2.5406885E-1,1.3371071E0,-5.634766E-1,1.6163794E-2,-8.251511E-1,2.8316814E-1,2.052868E-1,-5.899715E-1,1.2181764E0,-3.338087E-1,8.138996E-1,-2.1569988E-1,-1.1165184E0,1.7026033E-1,1.3053001E0,1.4210769E-2,-1.0931151E0,-6.0005426E-1,-1.4678329E-1,1.2374437E0,9.203724E-1,-7.273486E-1,1.4724711E0,3.8930538E-1,2.1154847E0,6.991125E-4,-8.421249E-1,-4.6178136E-2,-5.12231E-2,-1.283056E0,-1.8767422E-1,9.5905006E-1,1.6285858E0,3.916099E-1,1.8909997E-1,4.1863597E-3,1.003164E0,-8.141685E-1,1.2234039E0,-4.739664E-1,1.6372976E0,1.218636E-2,-8.3477E-1,4.8229334E-1,-8.602002E-1,8.0396414E-1,-1.0615965E0,4.2802364E-1,1.3393795E0,-1.6579148E-1,-6.339472E-2,-1.39548145E-2,3.074911E-1,-1.231829E0,2.1302303E-2,5.425954E-1,-2.0609235E-2,9.338464E-2],"categories":[],"categories_nodes":[],"categories_segments":[],"categories_sizes":[],"default_left":[1,1,1,1,1,1,1,1,1,1,1,0,0,1,1,1,0,1,1,1,0,1,1,1,1,1,1,0,1,1,1,0,1,0,0,0,1,1,1,1,0,1,0,0,0,1,1,0,0,0,0,0,0,0,0,0,0,0,0,0,0,0,0,0,0,0,0,0,0],"id":10,"left_children":[1,3,5,7,9,11,13,15,17,19,21,-1,-1,23,25,27,-1,29,31,33,-1,35,37,39,41,43,45,-1,47,49,51,-1,53,-1,-1,-1,55,57,59,61,-1,63,-1,-1,-1,65,67,-1,-1,-1,-1,-1,-1,-1,-1,-1,-1,-1,-1,-1,-1,-1,-1,-1,-1,-1,-1,-1,-1],"loss_changes":[6.070117E0,5.7310596E0,4.7744436E0,6.299734E0,7.8803244E0,5.050192E-1,8.599739E0,2.0390825E0,1.026692E1,3.2927346E0,6.339812E0,0E0,0E0,1.0688269E1,6.0423336E0,8.909111E-1,0E0,1.2506858E1,7.168316E0,9.1620255E-1,0E0,7.181969E0,5.372682E0,2.5749378E0,3.5642772E0,4.3461752E-1,4.214972E0,0E0,6.36203E0,1.2318425E1,4.258397E0,0E0,4.2058697E0,0E0,0E0,0E0,4.271881E0,3.4637566E0,7.044287E0,5.006222E-4,0E0,5.074232E0,0E0,0E0,0E0,7.7194963E0,5.034322E0,0E0,0E0,0E0,0E0,0E0,0E0,0E0,0E0,0E0,0E0,0E0,0E0,0E0,0E0,0E0,0E0,0E0,0E0,0E0,0E0,0E0,0E0],"parents":[2147483647,0,0,1,1,2,2,3,3,4,4,5,5,6,6,7,7,8,8,9,9,10,10,13,13,14,14,15,15,17,17,18,18,19,19,21,21,22,22,23,23,24,24,25,25,26,26,28,28,29,29,30,30,32,32,36,36,37,37,38,38,39,39,41,41,45,45,46,46],"right_children":[2,4,6,8,10,12,14,16,18,20,22,-1,-1,24,26,28,-1,30,32,34,-1,36,38,40,42,44,46,-1,48,50,52,-1,54,-1,-1,-1,56,58,60,62,-1,64,-1,-1,-1,66,68,-1,-1,-1,-1,-1,-1,-1,-1,-1,-1,-1,-1,-1,-1,-1,-1,-1,-1,-1,-1,-1,-1],"split_conditions":[5.25E1,2.8482601E1,1.8001701E1,1.0325E2,2.87845E1,6.45E1,2.015305E1,2.0895E0,2.586165E1,5.05E1,8.77E-1,7.622066E-2,4.0113214E-1,1.15E2,2.0200748E1,1.138E0,8.495045E-2,2.54789E1,8.375E-1,6.0805E0,-1.0014261E-1,2.975555E1,2.978255E1,8.925E1,6.104E0,1.497E0,3.9515E0,-3.2793453E-1,1.1565E0,4.3225E0,1.12E2,2.7611175E-1,5E-1,4.4174135E-1,1.1679162E-1,6.3464546E-1,8.4749997E-1,7.15E0,2.99682E1,5.1815E0,-3.849168E-1,1.965815E1,2.8771502E-1,4.8857576E-1,1.17482975E-1,3.7814999E0,1.2775E2,3.0094922E-1,-2.4425057E-1,3.670212E-1,-1.4218992E-1,4.911893E-1,3.655908E-3,-2.5043103E-1,1.4468801E-1,-2.5806007E-1,2.4118926E-1,-3.1847897E-1,1.2840709E-1,4.018139E-1,-4.9737446E-2,-1.9018415E-2,-4.1864445E-3,9.224733E-2,-3.6954874E-1,6.3906913E-3,1.6277862E-1,-6.1827707E-3,2.8015392E-2],"split_indices":[5,4,4,6,4,5,4,2,4,5,2,0,0,6,4,2,0,4,2,3,0,4,4,6,3,2,3,0,2,3,6,0,0,0,0,0,2,3,4,3,0,4,0,0,0,3,6,0,0,0,0,0,0,0,0,0,0,0,0,0,0,0,0,0,0,0,0,0,0],"split_type":[0,0,0,0,0,0,0,0,0,0,0,0,0,0,0,0,0,0,0,0,0,0,0,0,0,0,0,0,0,0,0,0,0,0,0,0,0,0,0,0,0,0,0,0,0,0,0,0,0,0,0,0,0,0,0,0,0,0,0,0,0,0,0,0,0,0,0,0,0],"sum_hessian":[2.586501E3,1.5223875E2,2.4342625E3,8.918854E1,6.3050213E1,3.096071E0,2.4311663E3,2.5949415E1,6.3239124E1,7.3035293E0,5.574668E1,1.1670116E0,1.9290594E0,2.487113E1,2.4062952E3,2.4644825E1,1.3045896E0,3.2917194E1,3.032193E1,6.066426E0,1.2371032E0,5.786763E0,4.995992E1,1.3884351E1,1.0986779E1,2.630497E0,2.4036646E3,9.490619E0,1.5154207E1,2.5184513E1,7.7326813E0,2.0528622E0,2.8269068E1,4.048027E0,2.0183988E0,1.6093897E0,4.1773734E0,9.795491E0,4.016443E1,2.053873E0,1.1830478E1,8.081606E0,2.905173E0,1.3650739E0,1.265423E0,1.2933739E2,2.2743271E3,1.351256E0,1.3802951E1,4.3265314E0,2.085798E1,5.5765314E0,2.1561503E0,2.6248034E1,2.0210352E0,1.9821377E0,2.195236E0,8.492287E0,1.3032045E0,2.381414E0,3.7783012E1,1.0197815E0,1.0340917E0,5.960496E0,2.1211102E0,8.8424286E1,4.0913094E1,1.7802244E3,4.9410294E2],"tree_param":{"num_deleted":"0","num_feature":"7","num_nodes":"69","size_leaf_vector":"0"}},{"base_weights":[8.861492E-5,-2.0243644E-3,8.444106E-1,-3.1988285E-2,5.0730303E-2,1.0222425E0,1.2528618E-1,-4.351439E-1,-2.5000243E-2,5.579822E-1,4.0123697E-2,-9.941732E-1,5.035996E-1,1.0181947E0,-2.8920157E-2,-2.385349E-1,8.0682987E-1,-6.790571E-1,5.519785E-2,9.4070023E-1,-1.1741244E0,-3.810081E-1,1.0266874E0,1.7296613E0,-8.4904444E-1,-6.065622E-2,5.9505116E-2,-1.4961818E0,5.896494E-1,9.387037E-1,1.6583678E-1,-1.788746E-2,-1.5953417E0,6.145795E-2,-8.023965E-1,-1.2144837E0,-3.4651524E-1,-1.1040562E0,5.267582E-1,-1.9061373E-1,1.4422888E0,-8.7159747E-1,-5.1852304E-2,9.7755706E-1,1.2037379E-2,9.504191E-1,-1.4096741E-1,4.9232364E-1,1.1183958E0,4.821173E-1,-3.2755405E-1,-4.5912424E-1,8.295979E-1,-2.058278E0,2.9874358E-1,-3.0398154E-1,7.2305426E-2,3.8395724E-1,-1.2047656E0],"categories":[],"categories_nodes":[],"categories_segments":[],"categories_sizes":[],"default_left":[1,1,1,1,1,0,0,1,1,1,1,1,1,1,1,1,1,1,1,0,1,1,1,0,0,1,1,0,1,1,1,1,1,1,1,0,0,0,0,0,0,0,0,0,0,0,0,0,0,0,0,0,0,0,0,0,0,0,0],"id":11,"left_children":[1,3,5,7,9,-1,-1,11,13,15,17,19,21,23,25,27,29,31,33,-1,35,37,39,-1,-1,41,43,-1,45,47,49,51,53,55,57,-1,-1,-1,-1,-1,-1,-1,-1,-1,-1,-1,-1,-1,-1,-1,-1,-1,-1,-1,-1,-1,-1,-1,-1],"loss_changes":[4.588628E0,4.0572734E0,6.930251E-1,4.6007013E0,4.9799995E0,0E0,0E0,1.5104683E1,6.613396E0,3.9517026E0,9.92243E0,7.29451E0,5.504552E0,9.512464E0,4.5077133E0,6.3885603E0,1.085166E0,1.1357517E1,4.848938E0,0E0,1.3730812E-1,3.7554696E0,3.9250226E0,0E0,0E0,8.390831E0,1.8483042E1,0E0,1.1632373E0,4.0870667E-1,7.383131E-1,4.841395E0,7.51223E0,3.543934E0,3.5891376E0,0E0,0E0,0E0,0E0,0E0,0E0,0E0,0E0,0E0,0E0,0E0,0E0,0E0,0E0,0E0,0E0,0E0,0E0,0E0,0E0,0E0,0E0,0E0,0E0],"parents":[2147483647,0,0,1,1,2,2,3,3,4,4,7,7,8,8,9,9,10,10,11,11,12,12,13,13,14,14,15,15,16,16,17,17,18,18,20,20,21,21,22,22,25,25,26,26,28,28,29,29,30,30,31,31,32,32,33,33,34,34],"right_children":[2,4,6,8,10,-1,-1,12,14,16,18,20,22,24,26,28,30,32,34,-1,36,38,40,-1,-1,42,44,-1,46,48,50,52,54,56,58,-1,-1,-1,-1,-1,-1,-1,-1,-1,-1,-1,-1,-1,-1,-1,-1,-1,-1,-1,-1,-1,-1,-1,-1],"split_conditions":[4.2618E1,6.85E1,4.7309547E1,2.07346E1,8.1700003E-1,3.0667278E-1,3.7585855E-2,1.1425E2,2.08749E1,7.55E-1,8.8600004E-1,1.7086552E1,1.393E0,5E-1,6.31E0,1.1625E2,7.55E1,8.605E-1,1.5475E2,2.8221008E-1,2.06826E1,1.2325E2,1.967435E1,5.188984E-1,-2.5471336E-1,4.85E1,6.3395004E0,-4.4885457E-1,2.80192E1,7.25E1,2.725845E1,3.043555E1,5E-1,8.625E1,4.783E0,-3.6434513E-1,-1.03954576E-1,-3.3121687E-1,1.5802747E-1,-5.7184123E-2,4.3268666E-1,-2.6147926E-1,-1.5555692E-2,2.9326713E-1,3.6112138E-3,2.8512576E-1,-4.2290226E-2,1.4769709E-1,3.3551875E-1,1.446352E-1,-9.826622E-2,-1.3773727E-1,2.4887937E-1,-6.1748344E-1,8.962308E-2,-9.1194466E-2,2.1691628E-2,1.15187176E-1,-3.614297E-1],"split_indices":[4,5,4,4,2,0,0,6,4,2,2,4,2,1,3,6,5,2,6,0,4,6,4,0,0,5,3,0,4,5,4,4,0,6,3,0,0,0,0,0,0,0,0,0,0,0,0,0,0,0,0,0,0,0,0,0,0,0,0],"split_type":[0,0,0,0,0,0,0,0,0,0,0,0,0,0,0,0,0,0,0,0,0,0,0,0,0,0,0,0,0,0,0,0,0,0,0,0,0,0,0,0,0,0,0,0,0,0,0,0,0,0,0,0,0,0,0,0,0,0,0],"sum_hessian":[2.5700923E3,2.5646716E3,5.4206815E0,1.635898E3,9.2877374E2,4.008028E0,1.4126532E0,2.6828566E1,1.6090693E3,1.7965836E1,9.1080786E2,1.6778053E1,1.0050513E1,5.054974E0,1.6040144E3,4.2866077E0,1.3679227E1,1.7794466E1,8.930134E2,1.0679282E0,1.5710125E1,3.8356168E0,6.214896E0,3.7136545E0,1.3413194E0,1.1806058E3,4.234085E2,1.3817531E0,2.9048548E0,1.0959946E1,2.7192817E0,1.0928347E1,6.8661194E0,8.874636E2,5.549798E0,1.45339E1,1.1762242E0,2.0146706E0,1.8209463E0,1.7195805E0,4.4953156E0,1.1626983E1,1.1689789E3,1.9852682E1,4.0355585E2,1.7432259E0,1.1616287E0,4.2190523E0,6.740893E0,1.670977E0,1.0483047E0,7.488018E0,3.4403284E0,5.447902E0,1.4182174E0,2.4804483E1,8.626591E2,1.4171629E0,4.132635E0],"tree_param":{"num_deleted":"0","num_feature":"7","num_nodes":"59","size_leaf_vector":"0"}},{"base_weights":[7.719038E-5,-1.7295968E-2,8.516418E-2,-5.5353274E-3,-3.2370526E-1,6.84953E-1,5.9839845E-2,-4.599549E-2,5.3838354E-2,-7.214859E-1,4.8162628E-2,-4.2563146E-1,8.8874024E-1,6.911213E-2,-1.1950014E0,-5.792031E-2,4.2521983E-1,3.984235E-2,9.7749996E-1,-5.849724E-1,-1.6712102E0,3.1257865E-1,-5.592398E-1,-1.0705734E0,3.9800417E-1,1.8924679E-1,1.1971254E0,8.851704E-2,-3.4373218E-1,-6.261913E-2,9.171522E-1,6.5925616E-1,-9.817214E-1,5.083802E-2,-1.0341587E0,1.3705711E0,-4.9721464E-3,-7.652906E-1,9.002785E-2,8.9711934E-1,-1.1784298E-2,-1.0848659E0,3.301164E-1,-1.1723673E0,7.7983785E-1,1.3778038E0,4.2199853E-1,3.167793E-2,3.8673508E-1,-6.8690044E-1,8.495366E-1,-4.2024586E-2,-3.7773502E-1,2.2614433E-1,1.0798007E0,1.0922346E0,2.8027472E-1,9.403356E-3,-1.2985827E0,7.612805E-4,2.3030752E-1,3.5601532E-1,-1.5978094E0,-2.672709E-1,1.6707114E0,-6.610736E-1,3.8083923E-1,-1.319585E0,-2.417583E-1,6.4486575E-1,-1.1425656E0,1.3364745E0,-1.4437609E0,-3.0889395E-1,6.347344E-1,-1.3514295E0,-3.9667647E-2,-1.4847033E-1,8.5459024E-1,9.690827E-1,1.2378358E-1,8.526615E-1,-1.8526231E-1,4.5961987E-2,-1.4865505E0,5.973607E-1,-5.2852932E-2,4.4415858E-1,-9.424113E-1,1.4099146E-1,1.1113049E0],"categories":[],"categories_nodes":[],"categories_segments":[],"categories_sizes":[],"default_left":[1,1,1,1,1,1,1,1,1,1,1,1,1,1,0,1,1,1,1,1,0,1,1,0,0,1,1,1,1,1,1,1,1,1,1,1,1,1,1,1,1,1,1,0,1,0,1,1,1,1,1,0,0,0,0,0,0,0,0,0,0,0,0,0,0,0,0,0,0,0,0,0,0,0,0,0,0,0,0,0,0,0,0,0,0,0,0,0,0,0,0],"id":12,"left_children":[1,3,5,7,9,11,13,15,17,19,21,23,25,27,-1,29,31,33,35,37,-1,39,41,-1,-1,43,45,47,49,51,53,55,57,59,61,63,65,67,69,71,73,75,77,-1,79,-1,81,83,85,87,89,-1,-1,-1,-1,-1,-1,-1,-1,-1,-1,-1,-1,-1,-1,-1,-1,-1,-1,-1,-1,-1,-1,-1,-1,-1,-1,-1,-1,-1,-1,-1,-1,-1,-1,-1,-1,-1,-1,-1,-1],"loss_changes":[3.7839851E0,7.6585712E0,6.551779E0,4.922833E0,1.1655238E1,4.3362083E0,4.9409256E0,6.8724866E0,1.069805E1,3.9515953E0,6.846265E0,2.225578E0,3.0308037E0,3.3585694E0,0E0,5.507186E0,1.0590929E1,9.7267475E0,4.777999E0,4.302105E0,0E0,5.619423E0,6.415133E0,0E0,0E0,5.584882E0,8.5998917E-1,6.726925E0,8.304476E0,7.6724052E0,4.041252E-1,4.040656E0,1.4909749E0,7.29609E0,7.1107492E0,4.7861786E0,1.3976499E0,7.676527E0,6.3631616E0,1.2800543E1,4.0401173E0,2.280365E0,1.5274625E0,0E0,4.5755482E-1,0E0,1.0437734E0,7.3338046E0,5.9162474E0,4.810342E0,7.073262E-1,0E0,0E0,0E0,0E0,0E0,0E0,0E0,0E0,0E0,0E0,0E0,0E0,0E0,0E0,0E0,0E0,0E0,0E0,0E0,0E0,0E0,0E0,0E0,0E0,0E0,0E0,0E0,0E0,0E0,0E0,0E0,0E0,0E0,0E0,0E0,0E0,0E0,0E0,0E0,0E0],"parents":[2147483647,0,0,1,1,2,2,3,3,4,4,5,5,6,6,7,7,8,8,9,9,10,10,11,11,12,12,13,13,15,15,16,16,17,17,18,18,19,19,21,21,22,22,25,25,26,26,27,27,28,28,29,29,30,30,31,31,32,32,33,33,34,34,35,35,36,36,37,37,38,38,39,39,40,40,41,41,42,42,44,44,46,46,47,47,48,48,49,49,50,50],"right_children":[2,4,6,8,10,12,14,16,18,20,22,24,26,28,-1,30,32,34,36,38,-1,40,42,-1,-1,44,46,48,50,52,54,56,58,60,62,64,66,68,70,72,74,76,78,-1,80,-1,82,84,86,88,90,-1,-1,-1,-1,-1,-1,-1,-1,-1,-1,-1,-1,-1,-1,-1,-1,-1,-1,-1,-1,-1,-1,-1,-1,-1,-1,-1,-1,-1,-1,-1,-1,-1,-1,-1,-1,-1,-1,-1,-1],"split_conditions":[3.02593E1,2.9750751E1,3.03482E1,5E-1,5.689E0,1.0725E2,1.5375E2,2.0904999E0,2.9648201E1,5.4639997E0,1.2575E2,3.0295101E1,1.163E0,1.658E0,-3.5850042E-1,8.8955E0,2.309E0,2.956845E1,6.45E1,7.15E1,-5.013631E-1,5.9715004E0,1.3575E2,-3.2117206E-1,1.19401254E-1,3.0290901E1,1.265E2,1.395E0,1.31E2,7.1955004E0,2.533675E1,1.0525E2,1.0675E2,1.2775E2,1.0825E2,4.7869997E0,6.95E1,1.1159999E0,4.8269997E0,7.05E1,6.877E0,3.01637E1,1.3015001E0,-3.517102E-1,4.8485003E0,4.1334116E-1,5.1914997E0,1.3824999E0,1.523E0,5.35E1,5E-1,-1.2607376E-2,-1.1332051E-1,6.78433E-2,3.2394022E-1,3.276704E-1,8.408242E-2,2.821007E-3,-3.8957483E-1,2.2838415E-4,6.909226E-2,1.068046E-1,-4.7934285E-1,-8.018127E-2,5.0121343E-1,-1.983221E-1,1.1425177E-1,-3.958755E-1,-7.252749E-2,1.9345973E-1,-3.4276968E-1,4.009424E-1,-4.3312827E-1,-9.266819E-2,1.9042033E-1,-4.0542886E-1,-1.1900295E-2,-4.45411E-2,2.5637707E-1,2.907248E-1,3.7135076E-2,2.5579846E-1,-5.5578694E-2,1.3788597E-2,-4.4596514E-1,1.792082E-1,-1.585588E-2,1.3324758E-1,-2.827234E-1,4.229744E-2,3.333915E-1],"split_indices":[4,4,4,1,3,6,6,2,4,3,6,4,2,2,0,3,2,4,5,5,0,3,6,0,0,4,6,2,6,3,4,6,6,6,6,3,5,2,3,5,3,4,2,0,3,0,3,2,2,5,1,0,0,0,0,0,0,0,0,0,0,0,0,0,0,0,0,0,0,0,0,0,0,0,0,0,0,0,0,0,0,0,0,0,0,0,0,0,0,0,0],"split_type":[0,0,0,0,0,0,0,0,0,0,0,0,0,0,0,0,0,0,0,0,0,0,0,0,0,0,0,0,0,0,0,0,0,0,0,0,0,0,0,0,0,0,0,0,0,0,0,0,0,0,0,0,0,0,0,0,0,0,0,0,0,0,0,0,0,0,0,0,0,0,0,0,0,0,0,0,0,0,0,0,0,0,0,0,0,0,0,0,0,0,0],"sum_hessian":[2.557812E3,2.1247708E3,4.3304138E2,2.0472124E3,7.7558304E1,1.6487988E1,4.1655338E2,1.2176625E3,8.2955E2,3.7019268E1,4.053904E1,2.3876033E0,1.4100386E1,4.1443594E2,2.1174314E0,1.1884636E3,2.9198803E1,8.1819525E2,1.1354765E1,3.3779705E1,3.2395625E0,2.8582022E1,1.1957016E1,1.1709135E0,1.2166897E0,4.8081007E0,9.292285E0,3.9658105E2,1.7854897E1,1.1836953E3,4.768382E0,2.54901E1,3.7087016E0,8.1084644E2,7.3488173E0,7.8279185E0,3.526847E0,2.6552704E1,7.227001E0,9.5699835E0,1.901204E1,7.3771505E0,4.579866E0,1.1565614E0,3.6515393E0,6.905197E0,2.3870876E0,3.3402374E2,6.2557304E1,1.4196519E1,3.6583767E0,1.1121439E3,7.155132E1,1.3639715E0,3.4044106E0,1.1019045E1,1.4471056E1,1.1334997E0,2.575202E0,6.347411E2,1.7610532E2,2.2263007E0,5.1225166E0,1.2292901E0,6.598628E0,1.0417718E0,2.485075E0,1.2158861E1,1.4393843E1,5.312474E0,1.9145275E0,8.418924E0,1.1510594E0,1.3383726E1,5.6283126E0,5.6445866E0,1.7325639E0,2.7695472E0,1.8103188E0,2.463719E0,1.1878204E0,1.1601855E0,1.2269021E0,3.3187112E2,2.15264E0,4.2050285E1,2.0507019E1,2.480017E0,1.1716502E1,1.4020281E0,2.2563486E0],"tree_param":{"num_deleted":"0","num_feature":"7","num_nodes":"91","size_leaf_vector":"0"}},{"base_weights":[-6.4019994E-5,-1.0361938E-2,1.3650993E-1,8.029183E-2,-2.8408242E-2,1.8013202E-1,-4.322941E-1,5.7670422E-2,8.069317E-1,-4.047566E-1,-1.116901E-2,-4.2184148E-2,3.2174253E-1,-9.010333E-1,1.387379E-1,7.6516084E-2,-8.02091E-1,-1.4151092E0,1.2335755E0,-7.8818154E-1,-1.2715523E-1,7.4961886E-2,-3.7408337E-2,-1.3953815E-1,4.3024412E-1,1.0007484E0,2.777408E-1,-1.156226E0,8.789107E-3,-7.2564954E-1,8.2146525E-1,-1.6359343E-1,1.2152921E-1,2.7807064E-2,-1.3189318E0,3.075918E-1,1.4171302E0,-2.4023646E-1,-1.2677387E0,-7.314508E-1,2.0548013E-1,4.7588967E-2,7.708686E-1,-2.2119988E-2,-3.202925E-1,3.1874943E-1,-2.7039486E-1,6.0487735E-1,-3.7193644E-1,-6.1817795E-1,3.1787622E-1,-5.9048317E-2,-1.04804E0,6.273899E-2,-6.31265E-1,1.8708158E-1,-1.21000096E-1,-7.548181E-1,5.992966E-1,1.6302718E0,2.3486015E-1,-9.2496115E-1,5.7141453E-1,-1.5222504E0,-5.3019E-1,-1.7218698E0,-1.4963798E-1,-1.2514434E0,4.8758683E-1,9.2710696E-2,-5.9883314E-1,1.0904106E0,-4.4726482E-1,-3.198581E-2,5.9997463E-1,-1.0450302E0,-1.7989269E-1,-4.7302252E-1,7.9200155E-1,4.7916505E-1,-3.8176897E-1,9.256564E-1,2.4570684E-1,6.372287E-1,-1.2792257E0,7.565548E-1,2.115811E-1],"categories":[],"categories_nodes":[],"categories_segments":[],"categories_sizes":[],"default_left":[1,1,1,1,1,1,1,1,1,1,1,1,1,1,1,1,1,0,1,1,1,1,1,1,1,0,1,0,0,1,0,1,1,1,0,0,1,1,1,1,1,1,1,1,1,1,1,1,0,1,1,0,0,0,0,0,0,0,0,0,0,0,0,0,0,0,0,0,0,0,0,0,0,0,0,0,0,0,0,0,0,0,0,0,0,0,0],"id":13,"left_children":[1,3,5,7,9,11,13,15,17,19,21,23,25,27,29,31,33,-1,35,37,39,41,43,45,47,-1,49,-1,-1,51,-1,53,55,57,-1,-1,59,61,63,65,67,69,71,73,75,77,79,81,-1,83,85,-1,-1,-1,-1,-1,-1,-1,-1,-1,-1,-1,-1,-1,-1,-1,-1,-1,-1,-1,-1,-1,-1,-1,-1,-1,-1,-1,-1,-1,-1,-1,-1,-1,-1,-1,-1],"loss_changes":[3.5850906E0,3.8800795E0,4.512557E0,6.426331E0,1.2825795E1,5.2617955E0,3.6112552E0,6.2665772E0,1.2943655E1,9.116269E0,4.2786865E0,3.0841339E0,2.7681208E0,1.7019296E0,4.5725927E0,4.0801544E0,3.597454E0,0E0,1.3391876E0,9.200184E0,1.0485827E1,8.385308E0,6.267583E0,3.400866E0,1.8330853E0,0E0,3.6891708E0,0E0,0E0,6.9124806E-1,0E0,6.362441E0,5.061401E0,2.315335E0,0E0,0E0,1.7435837E0,1.0596459E1,2.769926E0,1.0387802E1,1.4561401E1,1.2494251E1,6.9750786E0,8.473749E0,7.3738675E0,5.146784E0,3.8174355E0,9.025638E-1,0E0,4.5532284E0,4.2057123E0,0E0,0E0,0E0,0E0,0E0,0E0,0E0,0E0,0E0,0E0,0E0,0E0,0E0,0E0,0E0,0E0,0E0,0E0,0E0,0E0,0E0,0E0,0E0,0E0,0E0,0E0,0E0,0E0,0E0,0E0,0E0,0E0,0E0,0E0,0E0,0E0],"parents":[2147483647,0,0,1,1,2,2,3,3,4,4,5,5,6,6,7,7,8,8,9,9,10,10,11,11,12,12,13,13,14,14,15,15,16,16,18,18,19,19,20,20,21,21,22,22,23,23,24,24,26,26,29,29,31,31,32,32,33,33,36,36,37,37,38,38,39,39,40,40,41,41,42,42,43,43,44,44,45,45,46,46,47,47,49,49,50,50],"right_children":[2,4,6,8,10,12,14,16,18,20,22,24,26,28,30,32,34,-1,36,38,40,42,44,46,48,-1,50,-1,-1,52,-1,54,56,58,-1,-1,60,62,64,66,68,70,72,74,76,78,80,82,-1,84,86,-1,-1,-1,-1,-1,-1,-1,-1,-1,-1,-1,-1,-1,-1,-1,-1,-1,-1,-1,-1,-1,-1,-1,-1,-1,-1,-1,-1,-1,-1,-1,-1,-1,-1,-1,-1],"split_conditions":[5E-1,4.6534996E0,6.969E0,4.6405E0,4.798E0,4.485E0,2.93453E1,4.623E0,1.0425E0,1.1275E2,1.1085E0,7.35E1,4.5690002E0,7.15E1,1.2175E0,9.425E-1,2.45239E1,-4.2453277E-1,6.05E1,1.0325E2,4.7075E0,1.4475E2,1.4025E2,5.85E1,2.969075E1,3.0022454E-1,4.6375E0,-3.4686783E-1,2.6367323E-3,1.0415E0,2.4643959E-1,8.945E-1,1.3985E0,7E1,-3.9567956E-1,9.227754E-2,7.05E1,6.75E1,1.1075E2,1.1995E0,5.75E1,1.3525E2,3.03369E1,1.3825E2,2.408215E1,5.45E1,8.3949995E-1,3.9E0,-1.1158094E-1,1.0735E0,2.42707E1,-1.7714497E-2,-3.1441203E-1,1.8821698E-2,-1.893795E-1,5.6124475E-2,-3.630003E-2,-2.2644544E-1,1.7978899E-1,4.8908156E-1,7.045805E-2,-2.7748835E-1,1.7142436E-1,-4.5667514E-1,-1.59057E-1,-5.16561E-1,-4.4891395E-2,-3.7543303E-1,1.4627606E-1,2.781321E-2,-1.7964995E-1,3.271232E-1,-1.3417946E-1,-9.595742E-3,1.799924E-1,-3.1350908E-1,-5.3967807E-2,-1.4190677E-1,2.3760048E-1,1.4374952E-1,-1.145307E-1,2.7769694E-1,7.371206E-2,1.9116862E-1,-3.8376772E-1,2.2696644E-1,6.3474335E-2],"split_indices":[0,3,3,3,3,3,4,3,2,6,2,5,3,5,2,2,4,0,5,6,3,6,6,5,4,0,3,0,0,2,0,2,2,5,0,0,5,5,6,2,5,6,4,6,4,5,2,3,0,2,4,0,0,0,0,0,0,0,0,0,0,0,0,0,0,0,0,0,0,0,0,0,0,0,0,0,0,0,0,0,0,0,0,0,0,0,0],"split_type":[0,0,0,0,0,0,0,0,0,0,0,0,0,0,0,0,0,0,0,0,0,0,0,0,0,0,0,0,0,0,0,0,0,0,0,0,0,0,0,0,0,0,0,0,0,0,0,0,0,0,0,0,0,0,0,0,0,0,0,0,0,0,0,0,0,0,0,0,0,0,0,0,0,0,0,0,0,0,0,0,0,0,0,0,0,0,0],"sum_hessian":[2.5470708E3,2.3693423E3,1.777285E2,3.927838E2,1.9765585E3,1.6570384E2,1.2024663E1,3.819718E2,1.0811998E1,8.5589165E1,1.8909694E3,6.4751595E1,1.0095224E2,6.2864466E0,5.738216E0,3.7467017E2,7.301632E0,1.3683797E0,9.443619E0,3.5171204E1,5.041796E1,4.411226E2,1.4498468E3,5.4272266E1,1.0479331E1,4.8205953E0,9.6131645E1,4.6979184E0,1.5885285E0,2.504478E0,3.233738E0,5.873436E1,3.1593582E2,3.165287E0,4.136345E0,2.004949E0,7.43867E0,1.7115675E1,1.8055529E1,1.7474054E1,3.294391E1,4.25456E2,1.5666577E1,1.376531E3,7.331581E1,1.173566E1,4.2536606E1,8.807839E0,1.6714916E0,3.504328E0,9.262732E1,1.2020916E0,1.3023863E0,4.0163055E1,1.8571302E1,2.4889224E2,6.704357E1,1.200489E0,1.9647979E0,5.9814005E0,1.4572697E0,9.208012E0,7.9076643E0,1.2632424E1,5.4231043E0,5.741247E0,1.1732807E1,4.7867827E0,2.8157125E1,3.984966E2,2.6959387E1,1.2493992E1,3.172585E0,1.3559751E3,2.0555868E1,1.0852489E1,6.2463318E1,4.390553E0,7.3451066E0,5.0755186E0,3.7461086E1,3.8194451E0,4.9883943E0,1.2211859E0,2.283142E0,1.6873426E1,7.575389E1],"tree_param":{"num_deleted":"0","num_feature":"7","num_nodes":"87","size_leaf_vector":"0"}},{"base_weights":[-5.3567975E-4,-2.2405083E-3,7.5145984E-1,-1.0392502E-3,-1.2242178E0,9.227365E-1,1.4312112E-1,8.440922E-1,-2.4833756E-3,9.946112E-1,1.915663E-1,-9.266269E-1,-4.8571586E-4,-1.0589088E0,-2.0504488E-1,-1.8133322E-3,8.3153105E-1,2.5569648E-1,-5.867735E-3,1.1261705E0,3.227454E-1],"categories":[],"categories_nodes":[],"categories_segments":[],"categories_sizes":[],"default_left":[1,1,1,1,0,0,0,1,1,0,0,1,1,0,0,1,1,0,0,0,0],"id":14,"left_children":[1,3,5,7,-1,-1,-1,9,11,-1,-1,13,15,-1,-1,17,19,-1,-1,-1,-1],"loss_changes":[3.249559E0,3.7105796E0,4.6532178E-1,3.0864606E0,0E0,0E0,0E0,2.3316741E-1,4.658924E0,0E0,0E0,3.0245972E-1,2.7844615E0,0E0,0E0,2.6287532E0,2.3855305E-1,0E0,0E0,0E0,0E0],"parents":[2147483647,0,0,1,1,2,2,3,3,7,7,8,8,11,11,12,12,15,15,16,16],"right_children":[2,4,6,8,-1,-1,-1,10,12,-1,-1,14,16,-1,-1,18,20,-1,-1,-1,-1],"split_conditions":[4.2618E1,4.16905E1,4.7309547E1,1.8001701E1,-3.6726534E-1,2.7682096E-1,4.293634E-2,4.7720003E0,1.896225E1,2.9838338E-1,5.7469893E-2,1.2075E2,4.084055E1,-3.1767267E-1,-6.1513465E-2,3.3985E0,1.15E2,7.670894E-2,-1.7603206E-3,3.3785117E-1,9.6823625E-2],"split_indices":[4,4,4,4,0,0,0,3,4,0,0,6,4,0,0,3,6,0,0,0,0],"split_type":[0,0,0,0,0,0,0,0,0,0,0,0,0,0,0,0,0,0,0,0,0],"sum_hessian":[2.5323975E3,2.527664E3,4.7333784E0,2.5261816E3,1.4824991E0,3.2902114E0,1.443167E0,3.31391E0,2.5228677E3,2.2667809E0,1.047129E0,4.443385E0,2.5184243E3,3.35995E0,1.0834348E0,2.5154084E3,3.0159173E0,3.802828E1,2.4773801E3,1.1414512E0,1.8744662E0],"tree_param":{"num_deleted":"0","num_feature":"7","num_nodes":"21","size_leaf_vector":"0"}},{"base_weights":[-1.6667618E-4,-8.836848E-3,1.2471994E-1,-2.1707963E-3,-5.12351E-1,4.8472494E-1,1.3013317E-2,-7.01808E-3,7.352427E-1,-1.1283787E0,1.6216914E-1,7.8863007E-1,-2.0182684E-1,7.7057827E-1,-2.7554128E-2,-3.9230976E-2,3.832192E-2,5.7109084E-2,1.104709E0,-1.5055751E0,-5.730309E-2,-9.8437506E-1,4.9582767E-1,-4.9362114E-1,8.889034E-1,8.5501134E-1,-5.859613E-1,-3.5177514E-2,1.0038272E0,-3.8382918E-1,1.3624373E-1,-6.865948E-2,1.1807576E-1,3.152302E-2,9.366413E-1,-9.8201793E-1,1.1556214E0,2.4087799E-1,1.1790681E0,-1.11006714E-1,-1.7105057E0,-5.238895E-1,7.60623E-1,-1.3785414E0,-2.6001249E-2,-1.0486085E0,7.2798073E-1,1.199162E-1,1.0279063E0,1.0354E0,2.0313731E-1,3.7271333E-1,-9.602558E-1,7.6163983E-1,-6.408279E-1,9.092679E-1,-1.0532451E-2,-3.408106E-2,-2.1864754E-1,5.149431E-1,2.2513023E-2,5.0025444E-2,-3.4504157E-1,1.2579722E0,-2.8161016E-1,-2.7935284E-1,-1.188248E0,-1.9222976E0,-5.4243714E-1,-8.444147E-1,1.8522339E-1,9.718916E-1,-4.5857856E-1,-4.3130976E-1,7.718839E-1,7.340184E-1,1.4611835E0,8.7125367E-1,-2.8485885E-1,-1.5669473E0,-4.867537E-2,-3.0702563E-2,9.4859177E-1,-2.568603E-1,-1.3712858E0,1.21348E-1,1.0089597E0,-6.532452E-1,1.01917595E-1],"categories":[],"categories_nodes":[],"categories_segments":[],"categories_sizes":[],"default_left":[1,1,1,1,1,1,1,1,1,1,1,1,1,1,1,1,1,1,1,1,1,1,1,0,1,1,1,0,0,1,1,1,1,1,1,1,0,0,0,0,1,1,0,0,0,0,1,1,1,0,0,1,1,1,1,1,1,0,0,0,0,0,0,0,0,0,0,0,0,0,0,0,0,0,0,0,0,0,0,0,0,0,0,0,0,0,0,0,0],"id":15,"left_children":[1,3,5,7,9,11,13,15,17,19,21,23,25,27,29,31,33,35,37,39,41,43,45,-1,47,49,51,-1,-1,53,55,57,59,61,63,65,-1,-1,-1,-1,67,69,-1,-1,-1,-1,71,73,75,-1,-1,77,79,81,83,85,87,-1,-1,-1,-1,-1,-1,-1,-1,-1,-1,-1,-1,-1,-1,-1,-1,-1,-1,-1,-1,-1,-1,-1,-1,-1,-1,-1,-1,-1,-1,-1,-1],"loss_changes":[2.7414713E0,7.9452257E0,6.603511E0,8.360633E0,1.3034889E1,8.2745285E0,3.9078765E0,3.3947272E0,3.7639446E0,6.4955025E0,6.4705195E0,3.93149E0,5.669214E0,1.249901E0,7.1137605E0,6.298216E0,5.8674564E0,8.487857E0,3.4760666E-1,3.242096E0,2.4144847E0,1.4223168E0,5.344904E0,0E0,2.607975E0,2.3655868E-1,3.9211285E0,0E0,0E0,1.1784337E1,9.498581E0,5.932259E0,8.12352E0,6.7010527E0,3.1797419E0,2.2609162E-1,0E0,0E0,0E0,0E0,1.5302887E0,1.0555308E0,0E0,0E0,0E0,0E0,3.8314323E0,2.145536E0,1.6661549E0,0E0,0E0,1.3984516E0,4.028148E0,1.1384091E0,8.590324E0,9.2673874E-1,5.2178392E0,0E0,0E0,0E0,0E0,0E0,0E0,0E0,0E0,0E0,0E0,0E0,0E0,0E0,0E0,0E0,0E0,0E0,0E0,0E0,0E0,0E0,0E0,0E0,0E0,0E0,0E0,0E0,0E0,0E0,0E0,0E0,0E0],"parents":[2147483647,0,0,1,1,2,2,3,3,4,4,5,5,6,6,7,7,8,8,9,9,10,10,11,11,12,12,13,13,14,14,15,15,16,16,17,17,18,18,19,19,20,20,21,21,22,22,24,24,25,25,26,26,29,29,30,30,31,31,32,32,33,33,34,34,35,35,40,40,41,41,46,46,47,47,48,48,51,51,52,52,53,53,54,54,55,55,56,56],"right_children":[2,4,6,8,10,12,14,16,18,20,22,24,26,28,30,32,34,36,38,40,42,44,46,-1,48,50,52,-1,-1,54,56,58,60,62,64,66,-1,-1,-1,-1,68,70,-1,-1,-1,-1,72,74,76,-1,-1,78,80,82,84,86,88,-1,-1,-1,-1,-1,-1,-1,-1,-1,-1,-1,-1,-1,-1,-1,-1,-1,-1,-1,-1,-1,-1,-1,-1,-1,-1,-1,-1,-1,-1,-1,-1],"split_conditions":[3.286915E1,3.233425E1,1.0875E2,3.219165E1,1.206E0,1.173E0,3.5180001E0,5E-1,6.35E1,7.1E1,1.0875E2,5.15E1,3.3807602E1,3.1115E0,5.1425E0,1.6085E0,1.5575E2,1.1585E0,3.9685001E0,8.2500005E-1,1.265E2,6.5135E0,3.2418602E1,-1.4808635E-1,4.4615E0,6.35E1,9.025E1,-1.0553255E-2,3.0114818E-1,3.3221397E1,5.356E0,1.4124999E0,1.6545E0,1.4075E2,7.35E1,4.949E0,3.4668642E-1,7.22634E-2,3.5372043E-1,-3.3302017E-2,1.171E0,3.264335E1,2.281869E-1,-4.1356242E-1,-7.8003746E-3,-3.145826E-1,1.521E0,1.0699999E0,1.055E2,3.1062E-1,6.0941193E-2,1.223E0,1.428E0,5.8E1,6.55E1,8.9199996E-1,3.336255E1,-1.0224318E-2,-6.559426E-2,1.5448295E-1,6.753907E-3,1.5007634E-2,-1.0351247E-1,3.773917E-1,-8.448305E-2,-8.380586E-2,-3.5647443E-1,-5.766893E-1,-1.6273114E-1,-2.5332442E-1,5.556702E-2,2.9156747E-1,-1.3757357E-1,-1.2939294E-1,2.3156518E-1,2.2020553E-1,4.383551E-1,2.613761E-1,-8.545766E-2,-4.7008422E-1,-1.4602612E-2,-9.210769E-3,2.8457755E-1,-7.705809E-2,-4.1138574E-1,3.64044E-2,3.026879E-1,-1.9597358E-1,3.057528E-2],"split_indices":[4,4,6,4,2,2,3,1,5,5,6,5,4,3,3,2,6,2,3,2,6,3,4,0,3,5,6,0,0,4,3,2,2,6,5,3,0,0,0,0,2,4,0,0,0,0,2,2,6,0,0,2,2,5,5,2,4,0,0,0,0,0,0,0,0,0,0,0,0,0,0,0,0,0,0,0,0,0,0,0,0,0,0,0,0,0,0,0,0],"split_type":[0,0,0,0,0,0,0,0,0,0,0,0,0,0,0,0,0,0,0,0,0,0,0,0,0,0,0,0,0,0,0,0,0,0,0,0,0,0,0,0,0,0,0,0,0,0,0,0,0,0,0,0,0,0,0,0,0,0,0,0,0,0,0,0,0,0,0,0,0,0,0,0,0,0,0,0,0,0,0,0,0,0,0,0,0,0,0,0,0],"sum_hessian":[2.5298447E3,2.3664824E3,1.6336226E2,2.336553E3,2.9929445E1,3.7895245E1,1.2546701E2,2.3222783E3,1.4274686E1,1.5291298E1,1.4638146E1,2.616466E1,1.1730584E1,5.462584E0,1.20004425E2,1.3577599E3,9.645185E2,5.441572E0,8.833114E0,1.1008732E1,4.2825665E0,2.8600311E0,1.1778115E1,1.6131852E0,2.4551476E1,2.8003619E0,8.9302225E0,1.4169459E0,4.045638E0,3.737252E1,8.2631905E1,1.1442587E3,2.1350114E2,9.583007E2,6.217773E0,2.8508685E0,2.5907037E0,1.0361011E0,7.7970123E0,1.6079804E0,9.400751E0,2.9558759E0,1.3266906E0,1.7158908E0,1.1441402E0,1.0795237E0,1.0698591E1,4.043706E0,2.0507769E1,1.7325746E0,1.0677872E0,2.5087712E0,6.4214516E0,6.488597E0,3.0883924E1,1.2356924E1,7.027498E1,9.308799E2,2.1337885E2,4.058114E1,1.7292001E2,9.142466E2,4.4054165E1,4.894243E0,1.3235304E0,1.181124E0,1.6697446E0,7.4112515E0,1.9894999E0,1.9043077E0,1.0515682E0,9.024432E0,1.6741593E0,2.3745337E0,1.6691725E0,1.3824708E1,6.683061E0,1.2421081E0,1.2666631E0,3.4238284E0,2.997623E0,1.3982568E0,5.09034E0,2.1129026E1,9.754898E0,1.636891E0,1.0720033E1,9.748402E0,6.052658E1],"tree_param":{"num_deleted":"0","num_feature":"7","num_nodes":"89","size_leaf_vector":"0"}},{"base_weights":[6.075558E-4,-2.579957E-3,3.0890548E-1,1.4140418E-3,-1.1880374E0,1.266743E-1,1.1593975E0,-4.5905083E-1,4.0270747E-3,-4.6467885E-2,-1.7915535E0,2.267739E-1,-7.3718584E-1,-1.3340491E0,-7.847599E-3,-3.9832126E-3,1.51007E-1,-9.798584E-1,6.253318E-1,-3.5512957E-1,3.8003907E-1,-8.4044915E-1,2.7023783E-1,1.0455647E-3,-3.9577374E-1,3.70936E-1,-3.895418E-2,-8.498246E-1,5.422352E-1,-1.9876567E-1,6.009199E-1,-3.8387522E-1,6.065014E-1,-2.7461392E-3,6.5216154E-1,-1.4863327E0,-1.8606138E-1,-1.8912053E-1,4.5004314E-1,-3.179973E-1,1.7595914E-1,-1.1273217E0,-1.2762424E-1,6.3629806E-1,-1.1497766E0,8.1013626E-1,-5.219391E-1],"categories":[],"categories_nodes":[],"categories_segments":[],"categories_sizes":[],"default_left":[1,1,1,1,1,1,0,1,1,1,0,1,0,0,1,1,1,0,0,1,1,0,1,1,1,1,1,1,0,1,1,0,0,0,0,0,0,0,0,0,0,0,0,0,0,0,0],"id":16,"left_children":[1,3,5,7,9,11,-1,13,15,17,-1,19,-1,-1,21,23,25,-1,-1,27,29,-1,31,33,35,37,39,41,-1,43,45,-1,-1,-1,-1,-1,-1,-1,-1,-1,-1,-1,-1,-1,-1,-1,-1],"loss_changes":[2.4808965E0,1.1833341E1,3.8571239E0,2.9996762E0,5.6985874E0,2.1040173E0,0E0,5.5435057E0,2.918616E0,3.0763953E0,0E0,1.9933509E0,0E0,0E0,2.609032E0,4.633085E0,5.366987E0,0E0,0E0,2.6187212E0,2.2898085E0,0E0,2.0955024E0,5.735763E0,6.5389276E0,2.7199364E0,4.232738E0,5.621834E-1,0E0,5.052168E0,3.367766E0,0E0,0E0,0E0,0E0,0E0,0E0,0E0,0E0,0E0,0E0,0E0,0E0,0E0,0E0,0E0,0E0],"parents":[2147483647,0,0,1,1,2,2,3,3,4,4,5,5,7,7,8,8,9,9,11,11,14,14,15,15,16,16,19,19,20,20,22,22,23,23,24,24,25,25,26,26,27,27,29,29,30,30],"right_children":[2,4,6,8,10,12,-1,14,16,18,-1,20,-1,-1,22,24,26,-1,-1,28,30,-1,32,34,36,38,40,42,-1,44,46,-1,-1,-1,-1,-1,-1,-1,-1,-1,-1,-1,-1,-1,-1,-1,-1],"split_conditions":[3.78471E1,3.70013E1,1.4075E2,7.475E-1,1.0875E2,1.4575E0,3.4781927E-1,1.1133333E2,3.286915E1,6.05E1,-5.3746605E-1,5.55E1,-2.2115576E-1,-4.0021476E-1,5.7E1,3.233425E1,1.1675E2,-2.9395753E-1,1.8759955E-1,5.452E0,1.13E2,-2.5213477E-1,1.1625E2,3.219165E1,3.240855E1,5.25E1,1.2625E2,4.11756E1,1.6267057E-1,1.055E2,1.3125E2,-1.15162574E-1,1.8195042E-1,-8.238418E-4,1.9564848E-1,-4.458998E-1,-5.5818416E-2,-5.673616E-2,1.3501295E-1,-9.539919E-2,5.2787744E-2,-3.3819652E-1,-3.8287275E-2,1.9088943E-1,-3.4493297E-1,2.4304089E-1,-1.5658173E-1],"split_indices":[4,4,6,2,6,2,0,6,4,5,0,5,0,0,5,4,6,0,0,3,6,0,6,4,4,5,6,4,0,6,6,0,0,0,0,0,0,0,0,0,0,0,0,0,0,0,0],"split_type":[0,0,0,0,0,0,0,0,0,0,0,0,0,0,0,0,0,0,0,0,0,0,0,0,0,0,0,0,0,0,0,0,0,0,0,0,0,0,0,0,0,0,0,0,0,0,0],"sum_hessian":[2.5227515E3,2.497917E3,2.4834497E1,2.4905247E3,7.3921757E0,2.139848E1,3.4360163E0,1.3067748E1,2.477457E3,2.9289572E0,4.463218E0,1.9837322E1,1.5611578E0,3.7802434E0,9.287505E0,2.3503384E3,1.27118645E2,1.0339048E0,1.8950524E0,3.8610275E0,1.5976295E1,1.8190148E0,7.46849E0,2.3215378E3,2.880047E1,5.847086E1,6.864778E1,2.5230885E0,1.3379389E0,4.44046E0,1.1535834E1,2.4877098E0,4.98078E0,2.309087E3,1.2450937E1,3.6632311E0,2.513724E1,7.064621E0,5.1406242E1,2.965897E1,3.8988815E1,1.417483E0,1.1056056E0,2.5405653E0,1.8998952E0,9.958775E0,1.5770599E0],"tree_param":{"num_deleted":"0","num_feature":"7","num_nodes":"47","size_leaf_vector":"0"}},{"base_weights":[-1.26722225E-5,-7.31292E-2,1.2674928E-2,4.0310597E-1,-1.0957622E-1,-1.2638304E-1,2.1952458E-2,-8.4740096E-1,6.904042E-1,-4.644172E-1,-7.437712E-2,1.2630625E-1,-4.7875148E-1,2.3858614E-1,3.1396432E-3,-2.2587991E-1,-9.3954825E-1,-1.7320573E-1,1.0519155E0,-7.340069E-1,3.4024614E-1,4.6696377E-1,-1.0161587E-1,-2.898091E-2,4.736567E-1,-5.7067555E-1,6.7789495E-1,2.0105226E-1,1.7129211E0,-2.8673974E-1,9.612283E-3,-1.008238E0,1.0152136E0,1.2620976E0,-6.9348794E-1,-8.797907E-1,5.84713E-1,9.4792676E-1,-1.6411431E-1,-8.614409E-2,1.374977E0,-3.1019258E-1,-4.422509E-2,1.6031562E-1,-1.0232644E0,8.640015E-1,3.503009E-2,-4.5798182E-1,-1.504539E0,7.909144E-2,9.4776326E-1,-6.5728015E-1,2.3033543E-1,-6.132956E-1,1.2941748E-1,7.050941E-1,2.444104E-3,1.2037438E0,3.3833173E-1,3.6141303E-1,1.6832255E0,-8.068463E-2,-9.530091E-1,-8.749561E-1,2.5775108E-1,4.6697083E-1,-7.2293013E-1,2.014377E-1,1.6537406E0,1.3224913E0,-3.6535534E-1,-1.0960348E-2,-7.098976E-1,5.298117E-2,1.0626297E0,-1.3832004E0,6.52803E-2,-4.0588034E-3,1.0150762E0,4.3302214E-1,-5.794045E-1,-1.1804401E0,-2.8122482E-1,6.475124E-1,-1.3458698E0,2.8049228E-1,-2.1753985E-1,-3.7680995E-1,-1.4627582E0,2.8920025E-1,-7.460529E-1,8.5841244E-1,2.246612E-1,-3.6077482E-1,1.01079E-2],"categories":[],"categories_nodes":[],"categories_segments":[],"categories_sizes":[],"default_left":[1,1,1,1,1,1,1,1,1,1,1,1,1,1,1,0,0,1,1,1,1,1,1,1,1,1,1,1,0,1,1,0,1,1,0,1,0,0,1,1,1,1,1,1,1,1,1,1,0,0,0,1,1,1,1,1,1,0,0,0,0,0,0,0,0,0,0,0,0,0,0,0,0,0,0,0,0,0,0,0,0,0,0,0,0,0,0,0,0,0,0,0,0,0,0],"id":17,"left_children":[1,3,5,7,9,11,13,15,17,19,21,23,25,27,29,-1,-1,31,33,35,37,39,41,43,45,47,49,51,-1,53,55,-1,57,59,-1,61,-1,-1,63,65,67,69,71,73,75,77,79,81,-1,-1,-1,83,85,87,89,91,93,-1,-1,-1,-1,-1,-1,-1,-1,-1,-1,-1,-1,-1,-1,-1,-1,-1,-1,-1,-1,-1,-1,-1,-1,-1,-1,-1,-1,-1,-1,-1,-1,-1,-1,-1,-1,-1,-1],"loss_changes":[2.337071E0,6.510109E0,2.7723465E0,1.0176224E1,4.2972975E0,1.20288105E1,8.204632E0,9.912968E-2,7.131856E0,6.998017E0,4.7175426E0,4.2787514E0,6.3776197E0,8.557136E0,3.4804316E0,0E0,0E0,8.394028E0,6.6835556E0,5.0549755E0,2.7576845E0,7.828385E0,3.6056778E0,1.0625924E1,4.1621647E0,4.8612556E0,6.692555E-1,4.1226315E0,0E0,5.5852475E0,9.041556E0,0E0,4.745555E-2,4.886154E0,0E0,1.1907883E0,0E0,0E0,1.8724153E0,4.029227E0,1.5872669E0,6.344312E0,5.2686605E0,4.5498037E0,3.626525E0,1.6976805E0,3.325329E0,5.861187E0,0E0,0E0,0E0,5.787867E0,3.5098305E0,4.044161E0,2.8231049E0,1.1699924E0,5.0043745E0,0E0,0E0,0E0,0E0,0E0,0E0,0E0,0E0,0E0,0E0,0E0,0E0,0E0,0E0,0E0,0E0,0E0,0E0,0E0,0E0,0E0,0E0,0E0,0E0,0E0,0E0,0E0,0E0,0E0,0E0,0E0,0E0,0E0,0E0,0E0,0E0,0E0,0E0],"parents":[2147483647,0,0,1,1,2,2,3,3,4,4,5,5,6,6,7,7,8,8,9,9,10,10,11,11,12,12,13,13,14,14,17,17,18,18,19,19,20,20,21,21,22,22,23,23,24,24,25,25,26,26,27,27,29,29,30,30,32,32,33,33,35,35,38,38,39,39,40,40,41,41,42,42,43,43,44,44,45,45,46,46,47,47,51,51,52,52,53,53,54,54,55,55,56,56],"right_children":[2,4,6,8,10,12,14,16,18,20,22,24,26,28,30,-1,-1,32,34,36,38,40,42,44,46,48,50,52,-1,54,56,-1,58,60,-1,62,-1,-1,64,66,68,70,72,74,76,78,80,82,-1,-1,-1,84,86,88,90,92,94,-1,-1,-1,-1,-1,-1,-1,-1,-1,-1,-1,-1,-1,-1,-1,-1,-1,-1,-1,-1,-1,-1,-1,-1,-1,-1,-1,-1,-1,-1,-1,-1,-1,-1,-1,-1,-1,-1],"split_conditions":[5.65E1,2.23135E1,9.225E-1,2.07191E1,9.383333E1,8.6950004E-1,9.975E-1,9.375E1,1.2895E0,3.0653301E1,3.8715E0,3.013065E1,1.395E2,7.5975E0,3.7495E0,-6.776398E-2,-2.818645E-1,5E-1,6.4020004E0,2.152E0,3.15041E1,1.1575E0,4.968E0,2.878375E1,3.21099E1,1.3025E2,2.91171E1,8.925E1,5.138764E-1,5E-1,3.8715E0,-3.024714E-1,5.35E1,2.1671799E1,-2.0804639E-1,4.95E1,1.754139E-1,2.8437805E-1,3.2927948E1,8.905E-1,3.6005E0,9.425E1,1.7465E0,2.8278801E1,2.971465E1,1.095E2,8.1949997E-1,8.845E-1,-4.5136172E-1,2.3727432E-2,2.84329E-1,4.925E1,5E-1,1.265E2,7.35E1,2.76951E1,1.0145E0,3.6112314E-1,1.0149952E-1,1.0842391E-1,5.049677E-1,-2.420539E-2,-2.8590274E-1,-2.6248685E-1,7.732533E-2,1.4009126E-1,-2.1687905E-1,6.0431313E-2,4.961222E-1,3.967474E-1,-1.0960661E-1,-3.2881044E-3,-2.1296929E-1,1.5894352E-2,3.1878892E-1,-4.1496015E-1,1.9584091E-2,-1.217641E-3,3.0452287E-1,1.2990665E-1,-1.7382134E-1,-3.5413203E-1,-8.436745E-2,1.9425373E-1,-4.0376094E-1,8.4147684E-2,-6.526196E-2,-1.1304299E-1,-4.3882748E-1,8.6760074E-2,-2.2381589E-1,2.5752375E-1,6.739836E-2,-1.08232446E-1,3.0323702E-3],"split_indices":[5,4,2,4,6,2,2,6,2,4,3,4,6,3,3,0,0,1,3,2,4,2,3,4,4,6,4,6,0,1,3,0,5,4,0,5,0,0,4,2,3,6,2,4,4,6,2,2,0,0,0,6,0,6,5,4,2,0,0,0,0,0,0,0,0,0,0,0,0,0,0,0,0,0,0,0,0,0,0,0,0,0,0,0,0,0,0,0,0,0,0,0,0,0,0],"split_type":[0,0,0,0,0,0,0,0,0,0,0,0,0,0,0,0,0,0,0,0,0,0,0,0,0,0,0,0,0,0,0,0,0,0,0,0,0,0,0,0,0,0,0,0,0,0,0,0,0,0,0,0,0,0,0,0,0,0,0,0,0,0,0,0,0,0,0,0,0,0,0,0,0,0,0,0,0,0,0,0,0,0,0,0,0,0,0,0,0,0,0,0,0,0,0],"sum_hessian":[2.5172832E3,3.715187E2,2.1457646E3,2.5696405E1,3.4582233E2,1.3341574E2,2.0123488E3,4.436471E0,2.1259933E1,3.0108227E1,3.1571408E2,7.807116E1,5.534458E1,1.598587E2,1.8524901E3,1.018451E0,3.4180202E0,6.42713E0,1.4832804E1,2.2618176E1,7.4900517E0,1.4351433E1,3.0136267E2,5.4584896E1,2.3486263E1,5.1739235E1,3.6053474E0,1.5699818E2,2.8605194E0,3.9514603E1,1.8129755E3,3.8638468E0,2.5632832E0,1.3485747E1,1.3470558E0,2.0666363E1,1.951812E0,2.9981983E0,4.491853E0,9.481185E0,4.8702474E0,6.407789E1,2.3728476E2,4.6559444E1,8.025451E0,1.1913951E1,1.1572312E1,4.7497856E1,4.2413764E0,1.5217817E0,2.0835657E0,4.471989E0,1.5252618E2,2.1875404E1,1.76392E1,1.7502037E1,1.7954735E3,1.3960726E0,1.1672107E0,4.888565E0,8.597182E0,1.9110557E0,1.8755308E1,1.2729386E0,3.2189147E0,5.2166543E0,4.264531E0,1.2654722E0,3.6047752E0,1.3433595E0,6.273453E1,2.2695969E2,1.0325081E1,4.2555935E1,4.003509E0,5.827766E0,2.1976852E0,1.9103572E0,1.0003593E1,7.20234E0,4.3699718E0,8.220386E0,3.927747E1,1.5654012E0,2.906588E0,1.3750136E2,1.5024832E1,1.824084E1,3.6345634E0,1.5483041E1,2.156159E0,1.26714945E1,4.8305426E0,3.614898E1,1.7593245E3],