{"learner":{"attributes":{"best_iteration":"99","best_ntree_limit":"100","scikit_learn":"{\"use_label_encoder\": null, \"n_estimators\": 100, \"objective\": \"binary:logistic\", \"max_depth\": null, \"max_leaves\": null, \"max_bin\": null, \"grow_policy\": null, \"learning_rate\": null, \"verbosity\": null, \"booster\": null, \"tree_method\": null, \"gamma\": null, \"min_child_weight\": null, \"max_delta_step\": null, \"subsample\": null, \"sampling_method\": null, \"colsample_bytree\": null, \"colsample_bylevel\": null, \"colsample_bynode\": null, \"reg_alpha\": null, \"reg_lambda\": null, \"scale_pos_weight\": null, \"base_score\": null, \"missing\": NaN, \"num_parallel_tree\": null, \"random_state\": null, \"n_jobs\": null, \"monotone_constraints\": null, \"interaction_constraints\": null, \"importance_type\": null, \"gpu_id\": null, \"validate_parameters\": null, \"predictor\": null, \"enable_categorical\": false, \"feature_types\": null, \"max_cat_to_onehot\": null, \"max_cat_threshold\": null, \"eval_metric\": null, \"early_stopping_rounds\": null, \"callbacks\": null, \"classes_\": [0, 1], \"n_classes_\": 2, \"_estimator_type\": \"classifier\"}"},"feature_names":["Diabetes status","Smoking status","HDL","Cholesterol","BMI","Age","End systolic blood pressure during PWA"],"feature_types":["float","float","float","float","float","float","float"],"gradient_booster":{"model":{"gbtree_model_param":{"num_parallel_tree":"1","num_trees":"100","size_leaf_vector":"0"},"tree_info":[0,0,0,0,0,0,0,0,0,0,0,0,0,0,0,0,0,0,0,0,0,0,0,0,0,0,0,0,0,0,0,0,0,0,0,0,0,0,0,0,0,0,0,0,0,0,0,0,0,0,0,0,0,0,0,0,0,0,0,0,0,0,0,0,0,0,0,0,0,0,0,0,0,0,0,0,0,0,0,0,0,0,0,0,0,0,0,0,0,0,0,0,0,0,0,0,0,0,0,0],"trees":[{"base_weights":[-0E0,-7.3091364E-1,3.4019417E-1,-1.0175234E0,-1.4556041E-2,-1.3669372E-2,6.346496E-1,-1.2078314E0,-3.5751295E-1,-1.3428827E-1,4.9808428E-1,-5.555556E-1,3.0290738E-1,1.2655479E0,4.9555603E-1,-1.3254606E0,-7.403315E-1,-9.359606E-1,-1.5008727E-1,1.52E0,-1.7153284E-1,9.259259E-1,1.910828E-1,1.607717E-1,-7.107671E-1,6.8735456E-1,5.9772865E-3,4.07767E-1,1.356674E0,2.9870927E-1,9.640499E-1,-1.3649564E0,2.5454545E-1,3.125E-1,-8.73706E-1,-4.5544556E-1,-1.3584906E0,-4.2606518E-1,4.7191012E-1,-6.1132073E-1,-3.1137725E-2,1.0384616E0,-1E0,-7.619048E-1,5.2100843E-1,-6.938776E-1,5.437788E-1,-9.0279114E-1,-1.865285E-1,4.2601627E-1,9.20354E-1,-3.005566E-1,5.5759597E-1,6.8235296E-1,-7.2727275E-1,1.1291139E0,1.5181644E0,1.154193E-1,6.8846154E-1,9.771555E-1,-1.2E0,-5.8181816E-1,-1.4061224E0,1.2727273E0,-3.783784E-1,-7.586207E-1,1.0769231E0,5.641026E-1,-9.910714E-1,-8.915663E-1,1.2727273E0,-1.7837838E0,-3.3333334E-1,-3.163539E-1,-1.7333333E0,-6.268657E-1,1.0956522E0,-2.195122E-1,-1.2E0,5.588235E-1,-1.4509246E-1,1.16E0,-1E0,9.3333334E-1,-1.483871E0,-4.2857143E-1,7.7894735E-1,-4.0816326E-2,-1.245283E0,-1.5555556E0,7.192118E-1,-9.6517414E-1,8.4210527E-1,2.7751195E-1,-7.1823204E-1,-1.3654618E-1,8E-1,1.2884616E0,7.510548E-1,-1.3875598E-1,-8.455285E-1,-1.1111112E0,6.319444E-1,-6.666667E-1,9.189189E-1,-1.1111112E0,5E-1,1.5354838E0,8.52459E-1,1.3581662E0,1.7977529E0,-2.5721785E-1,3.0958903E-1,6.134454E-1,1.4347826E0,1.3304721E0,9.007092E-1],"categories":[],"categories_nodes":[],"categories_segments":[],"categories_sizes":[],"default_left":[1,1,1,1,1,1,1,1,1,1,1,1,1,1,1,1,1,1,1,0,1,1,1,1,1,1,1,1,1,1,1,1,1,1,1,1,1,1,1,1,1,1,0,1,1,1,1,1,1,1,1,1,1,1,1,1,1,1,1,1,0,0,0,0,0,0,0,0,0,0,0,0,0,0,0,0,0,0,0,0,0,0,0,0,0,0,0,0,0,0,0,0,0,0,0,0,0,0,0,0,0,0,0,0,0,0,0,0,0,0,0,0,0,0,0,0,0],"id":0,"left_children":[1,3,5,7,9,11,13,15,17,19,21,23,25,27,29,31,33,35,37,-1,39,41,43,45,47,49,51,53,55,57,59,61,63,65,67,69,71,73,75,77,79,81,-1,83,85,87,89,91,93,95,97,99,101,103,105,107,109,111,113,115,-1,-1,-1,-1,-1,-1,-1,-1,-1,-1,-1,-1,-1,-1,-1,-1,-1,-1,-1,-1,-1,-1,-1,-1,-1,-1,-1,-1,-1,-1,-1,-1,-1,-1,-1,-1,-1,-1,-1,-1,-1,-1,-1,-1,-1,-1,-1,-1,-1,-1,-1,-1,-1,-1,-1,-1,-1],"loss_changes":[9.382904E2,2.460553E2,2.68316E2,1.0708624E2,2.115077E1,2.0096587E2,1.2271094E2,3.5533203E1,2.3016611E1,1.7466234E1,8.393528E0,4.8145004E1,8.441271E1,1.9242401E1,1.060665E2,3.3374634E1,1.9335175E1,9.685154E0,2.4791006E1,0E0,1.6898842E1,6.890314E0,1.2737747E1,2.5827747E1,3.5593353E1,1.923027E1,7.0889404E1,8.521655E0,6.6829224E0,5.8035103E1,1.0836639E1,1.583313E1,9.342506E0,1.3917606E1,2.0935501E1,2.0165445E1,1.0959206E1,1.3758003E1,3.1185019E1,1.5017117E1,1.4115109E1,7.6015377E0,0E0,1.4235945E1,7.62061E0,8.771661E0,2.1098646E1,2.9087051E1,2.4008951E1,3.2456577E1,9.595581E0,2.3646318E1,1.9281013E1,7.3941708E0,3.1464643E0,9.792961E0,3.407257E0,4.02004E1,1.3676239E1,7.964691E0,0E0,0E0,0E0,0E0,0E0,0E0,0E0,0E0,0E0,0E0,0E0,0E0,0E0,0E0,0E0,0E0,0E0,0E0,0E0,0E0,0E0,0E0,0E0,0E0,0E0,0E0,0E0,0E0,0E0,0E0,0E0,0E0,0E0,0E0,0E0,0E0,0E0,0E0,0E0,0E0,0E0,0E0,0E0,0E0,0E0,0E0,0E0,0E0,0E0,0E0,0E0,0E0,0E0,0E0,0E0,0E0,0E0],"parents":[2147483647,0,0,1,1,2,2,3,3,4,4,5,5,6,6,7,7,8,8,9,9,10,10,11,11,12,12,13,13,14,14,15,15,16,16,17,17,18,18,20,20,21,21,22,22,23,23,24,24,25,25,26,26,27,27,28,28,29,29,30,30,31,31,32,32,33,33,34,34,35,35,36,36,37,37,38,38,39,39,40,40,41,41,43,43,44,44,45,45,46,46,47,47,48,48,49,49,50,50,51,51,52,52,53,53,54,54,55,55,56,56,57,57,58,58,59,59],"right_children":[2,4,6,8,10,12,14,16,18,20,22,24,26,28,30,32,34,36,38,-1,40,42,44,46,48,50,52,54,56,58,60,62,64,66,68,70,72,74,76,78,80,82,-1,84,86,88,90,92,94,96,98,100,102,104,106,108,110,112,114,116,-1,-1,-1,-1,-1,-1,-1,-1,-1,-1,-1,-1,-1,-1,-1,-1,-1,-1,-1,-1,-1,-1,-1,-1,-1,-1,-1,-1,-1,-1,-1,-1,-1,-1,-1,-1,-1,-1,-1,-1,-1,-1,-1,-1,-1,-1,-1,-1,-1,-1,-1,-1,-1,-1,-1,-1,-1],"split_conditions":[6.05E1,2.895035E1,6.75E1,1.2225E2,3.674785E1,2.44272E1,4.9715004E0,2.65682E1,2.28779E1,2.8969E1,1.2105E0,1.3870001E0,1.4345E0,2.2211948E1,1.3075E2,5E-1,8.375E1,1.6405001E0,6.2125E0,4.56E-1,2.996255E1,6.67E0,5.4090004E0,6.35E1,1.2341667E2,2.87726E1,1.2625E2,2.14873E1,1.1875E2,2.705685E1,2.7915E0,3.9015E0,4.2445E0,1.6015E0,1.0209999E0,1.595E0,2.1005E0,2.820235E1,1.315E2,2.94723E1,3.0409851E1,1.3775E2,-3E-1,3.71986E1,1.3275E0,4.995E0,9.35E1,8.171E0,2.243935E1,1.1625E2,1.1355E0,6.8395E0,1.4779999E0,1.94865E1,7.35E1,4.2445E0,3.0467701E1,1.0875E2,5E-1,1.2609999E0,-3.6E-1,-1.7454545E-1,-4.2183676E-1,3.818182E-1,-1.1351352E-1,-2.2758621E-1,3.2307696E-1,1.6923079E-1,-2.9732144E-1,-2.6746988E-1,3.818182E-1,-5.3513515E-1,-1.0000001E-1,-9.490617E-2,-5.2000004E-1,-1.8805972E-1,3.2869568E-1,-6.585366E-2,-3.6E-1,1.6764706E-1,-4.3527737E-2,3.48E-1,-3E-1,2.8E-1,-4.451613E-1,-1.2857144E-1,2.3368421E-1,-1.2244898E-2,-3.7358493E-1,-4.666667E-1,2.1576355E-1,-2.8955224E-1,2.526316E-1,8.325359E-2,-2.1546961E-1,-4.0963855E-2,2.4000001E-1,3.8653848E-1,2.2531645E-1,-4.1626796E-2,-2.5365856E-1,-3.3333337E-1,1.8958333E-1,-2.0000002E-1,2.7567568E-1,-3.3333337E-1,1.5E-1,4.6064517E-1,2.5573772E-1,4.0744987E-1,5.393259E-1,-7.716536E-2,9.287671E-2,1.8403363E-1,4.304348E-1,3.9914164E-1,2.7021277E-1],"split_indices":[5,4,5,6,4,4,3,4,4,4,2,2,2,4,6,0,6,2,3,0,4,3,3,5,6,4,6,4,6,4,2,3,3,2,2,2,2,4,6,4,4,6,0,4,2,3,6,3,4,6,2,3,2,4,5,3,4,6,0,2,0,0,0,0,0,0,0,0,0,0,0,0,0,0,0,0,0,0,0,0,0,0,0,0,0,0,0,0,0,0,0,0,0,0,0,0,0,0,0,0,0,0,0,0,0,0,0,0,0,0,0,0,0,0,0,0,0],"split_type":[0,0,0,0,0,0,0,0,0,0,0,0,0,0,0,0,0,0,0,0,0,0,0,0,0,0,0,0,0,0,0,0,0,0,0,0,0,0,0,0,0,0,0,0,0,0,0,0,0,0,0,0,0,0,0,0,0,0,0,0,0,0,0,0,0,0,0,0,0,0,0,0,0,0,0,0,0,0,0,0,0,0,0,0,0,0,0,0,0,0,0,0,0,0,0,0,0,0,0,0,0,0,0,0,0,0,0,0,0,0,0,0,0,0,0,0,0],"sum_hessian":[3.7715E3,1.1975E3,2.574E3,8.55E2,3.425E2,1.1695E3,1.4045E3,6.63E2,1.92E2,2.7825E2,6.425E1,4.31E2,7.385E2,2.5225E2,1.15225E3,5.2825E2,1.3475E2,4.975E1,1.4225E2,5.25E0,2.73E2,2.6E1,3.825E1,7.675E1,3.5425E2,3.2125E2,4.1725E2,2.475E1,2.275E2,8.125E2,3.3975E2,5.155E2,1.275E1,1.5E1,1.1975E2,2.425E1,2.55E1,9.875E1,4.35E1,6.525E1,2.0775E2,2.5E1,1E0,9.5E0,2.875E1,2.35E1,5.325E1,2.5875E2,9.55E1,1.5275E2,1.685E2,2.685E2,1.4875E2,2.025E1,4.5E0,9.775E1,1.2975E2,5.535E2,2.59E2,3.3825E2,1.5E0,2.65E1,4.89E2,4.5E0,8.25E0,6.25E0,8.75E0,8.75E0,1.11E2,1.975E1,4.5E0,1.75E1,8E0,9.225E1,6.5E0,1.575E1,2.775E1,4E1,2.525E1,3.3E1,1.7475E2,2.4E1,1E0,2.75E0,6.75E0,6E0,2.275E1,1.125E1,1.225E1,3.5E0,4.975E1,2.5025E2,8.5E0,5.125E1,4.425E1,6.125E1,9.15E1,5.1E1,1.175E2,2.08E2,6.05E1,5.75E0,1.43E2,2.75E0,1.75E1,3.5E0,1E0,3.775E1,6E1,8.625E1,4.35E1,1.895E2,3.64E2,2.37E2,2.2E1,5.725E1,2.81E2],"tree_param":{"num_deleted":"0","num_feature":"7","num_nodes":"117","size_leaf_vector":"0"}},{"base_weights":[-1.4902903E-4,-5.292013E-1,2.4319656E-1,-7.3191637E-1,2.1763386E-2,1.5348732E-2,4.9280852E-1,-8.977219E-1,-2.8712973E-1,-1.1042162E0,7.068099E-2,-2.8120756E-1,3.3732858E-1,9.177734E-1,3.7135667E-1,-1.1112025E0,-7.3330903E-1,-7.742566E-1,-1.292493E-1,-3.320146E-1,-1.7456481E0,4.521966E-1,-7.1495384E-2,1.4850552E-1,-4.3448064E-1,1.587927E-1,6.9599485E-1,-4.5674253E-1,9.52291E-1,2.2750443E-1,6.7749196E-1,-1.1503255E0,5.348587E-1,8.2488656E-1,-7.736761E-1,-3.8432586E-1,-1.1213992E0,-3.3550698E-1,3.446491E-1,-1.2462884E0,7.2132134E-1,5.6059945E-1,-8.075851E-1,-1.9296128E-1,1.0049894E0,2.2970416E-1,-1.0693313E0,-5.3983974E-1,1.3782564E-3,4.6031895E-1,-1.0611847E-1,8.366562E-1,2.9398048E-1,-1.4134759E0,4.1516164E-1,1.2785033E0,8.241338E-1,1.7417039E-1,1.0343181E0,2.9157513E-1,8.935142E-1,-1.3806331E0,-9.53863E-1,1.0883924E0,-1.1085973E0,1.4666178E0,-1.1048788E0,9.181004E-2,-8.3124125E-1,-6.6501015E-1,8.7941027E-1,-1.4260346E0,-3.4945604E-1,3.1888765E-1,-4.5500097E-1,-2.6975328E-1,8.54584E-1,1.135588E0,1.17306754E-1,4.26245E-1,1.3515747E0,-1.4542443E0,2.5711113E-1,9.350986E-2,-6.500902E-1,1.3486664E0,-9.507154E-1,-1.00068286E-1,6.3183755E-1,-1.7043952E0,-1.0968065E-1,-4.8821908E-1,-1.2452816E0,-5.717844E-1,4.011225E-1,2.0102757E-1,7.162264E-1,-4.2315957E-1,3.2809618E-1,5.331436E-1,1.0473242E0,-8.9530677E-1,5.1591724E-1,9.396912E-1,-5.4141317E-2,3.5292366E-1,1.3549714E0,1.4713212E0,7.419341E-1,-2.1238856E-2,3.6253735E-1,-2.8768712E-1,1.1381556E0,-5.1357564E-2,7.032281E-1,9.1210884E-1,-1.1060576E0],"categories":[],"categories_nodes":[],"categories_segments":[],"categories_sizes":[],"default_left":[1,1,1,1,1,1,1,1,1,1,1,1,1,1,1,1,1,1,1,1,0,1,1,1,1,1,1,1,1,1,1,1,1,1,1,1,1,1,1,0,1,1,1,1,1,1,1,1,1,1,1,1,1,0,1,1,1,1,1,1,1,0,0,0,0,0,0,0,0,0,0,0,0,0,0,0,0,0,0,0,0,0,0,0,0,0,0,0,0,0,0,0,0,0,0,0,0,0,0,0,0,0,0,0,0,0,0,0,0,0,0,0,0,0,0,0,0],"id":1,"left_children":[1,3,5,7,9,11,13,15,17,19,21,23,25,27,29,31,33,35,37,39,-1,41,43,45,47,49,51,53,55,57,59,61,63,65,67,69,71,73,75,-1,77,79,81,83,85,87,89,91,93,95,97,99,101,-1,103,105,107,109,111,113,115,-1,-1,-1,-1,-1,-1,-1,-1,-1,-1,-1,-1,-1,-1,-1,-1,-1,-1,-1,-1,-1,-1,-1,-1,-1,-1,-1,-1,-1,-1,-1,-1,-1,-1,-1,-1,-1,-1,-1,-1,-1,-1,-1,-1,-1,-1,-1,-1,-1,-1,-1,-1,-1,-1,-1,-1],"loss_changes":[4.773267E2,1.3047842E2,1.4442384E2,6.271875E1,1.7436508E1,1.2696319E2,6.2205933E1,2.1002045E1,1.7846878E1,5.9494476E0,1.6466024E1,4.565433E1,4.0710625E1,1.3182327E1,4.1425446E1,1.7906128E1,2.2910217E1,7.273674E0,1.7459309E1,7.848221E0,0E0,1.170405E1,2.9166683E1,1.8315025E1,2.3441856E1,3.4149868E1,1.1717789E1,6.641071E0,9.917175E0,2.7524807E1,2.4860107E1,1.0563995E1,7.4981184E0,1.3292809E1,1.7297821E1,1.0633362E1,6.4601364E0,9.852086E0,1.724342E1,0E0,8.6427474E-1,7.548441E0,5.1503315E0,2.6245155E1,1.649115E1,2.2889778E1,6.881706E0,1.4362015E1,2.322565E1,1.3116791E1,3.153564E1,9.428352E0,1.5343256E1,0E0,1.1758842E0,4.632126E0,9.080826E0,2.228147E1,5.779869E0,1.5511635E1,8.173813E0,0E0,0E0,0E0,0E0,0E0,0E0,0E0,0E0,0E0,0E0,0E0,0E0,0E0,0E0,0E0,0E0,0E0,0E0,0E0,0E0,0E0,0E0,0E0,0E0,0E0,0E0,0E0,0E0,0E0,0E0,0E0,0E0,0E0,0E0,0E0,0E0,0E0,0E0,0E0,0E0,0E0,0E0,0E0,0E0,0E0,0E0,0E0,0E0,0E0,0E0,0E0,0E0,0E0,0E0,0E0,0E0],"parents":[2147483647,0,0,1,1,2,2,3,3,4,4,5,5,6,6,7,7,8,8,9,9,10,10,11,11,12,12,13,13,14,14,15,15,16,16,17,17,18,18,19,19,21,21,22,22,23,23,24,24,25,25,26,26,27,27,28,28,29,29,30,30,31,31,32,32,33,33,34,34,35,35,36,36,37,37,38,38,40,40,41,41,42,42,43,43,44,44,45,45,46,46,47,47,48,48,49,49,50,50,51,51,52,52,54,54,55,55,56,56,57,57,58,58,59,59,60,60],"right_children":[2,4,6,8,10,12,14,16,18,20,22,24,26,28,30,32,34,36,38,40,-1,42,44,46,48,50,52,54,56,58,60,62,64,66,68,70,72,74,76,-1,78,80,82,84,86,88,90,92,94,96,98,100,102,-1,104,106,108,110,112,114,116,-1,-1,-1,-1,-1,-1,-1,-1,-1,-1,-1,-1,-1,-1,-1,-1,-1,-1,-1,-1,-1,-1,-1,-1,-1,-1,-1,-1,-1,-1,-1,-1,-1,-1,-1,-1,-1,-1,-1,-1,-1,-1,-1,-1,-1,-1,-1,-1,-1,-1,-1,-1,-1,-1,-1,-1],"split_conditions":[6.05E1,2.92416E1,2.58042E1,1.1975E2,4.95E1,6.85E1,5.082E0,2.3546299E1,2.28858E1,1.0325E2,1.1865001E0,1.4595001E0,1.2725E2,9.2E-1,1.3075E2,5E-1,2.359375E1,1.6405001E0,6.2125E0,1.015E2,-5.2369446E-1,1.3425E2,1.425E2,7.3355E0,1.2875E2,5.9084997E0,1.9384999E0,1.315E2,4.2415E0,5E-1,6.0664997E0,5.45E1,1.744E0,1.47E0,3.9015E0,1.595E0,2.1005E0,1.2105E0,1.315E2,-3.7388653E-1,4.75E1,1.2925E2,5E-1,5.65E1,1.5645E0,5.7465E0,7.9475E0,2.5329449E1,6.1415E0,2.3136002E1,2.3892899E1,7.15E1,1.3025E2,-4.240428E-1,2.682255E1,6.25E1,9E1,6.75E1,6.2E1,5E-1,2.796E0,-4.1418996E-1,-2.8615892E-1,3.2651773E-1,-3.325792E-1,4.3998536E-1,-3.3146363E-1,2.7543014E-2,-2.4937238E-1,-1.9950305E-1,2.638231E-1,-4.278104E-1,-1.04836814E-1,9.56663E-2,-1.365003E-1,-8.0925986E-2,2.563752E-1,3.4067643E-1,3.5192028E-2,1.2787351E-1,4.0547243E-1,-4.362733E-1,7.713334E-2,2.805296E-2,-1.9502707E-1,4.0459993E-1,-2.8521463E-1,-3.0020487E-2,1.8955128E-1,-5.1131856E-1,-3.2904197E-2,-1.4646573E-1,-3.7358448E-1,-1.7153531E-1,1.20336756E-1,6.0308274E-2,2.1486793E-1,-1.2694788E-1,9.842886E-2,1.5994307E-1,3.1419727E-1,-2.6859203E-1,1.5477517E-1,2.8190738E-1,-1.6242396E-2,1.058771E-1,4.0649143E-1,4.413964E-1,2.2258024E-1,-6.371657E-3,1.0876121E-1,-8.630614E-2,3.414467E-1,-1.540727E-2,2.1096845E-1,2.7363268E-1,-3.318173E-1],"split_indices":[5,4,4,6,5,5,3,4,4,6,2,2,6,2,6,0,4,2,3,6,0,6,6,3,6,3,2,6,3,0,3,5,2,2,3,2,2,2,6,0,5,6,1,5,2,3,3,4,3,4,4,5,6,0,4,5,6,5,5,1,2,0,0,0,0,0,0,0,0,0,0,0,0,0,0,0,0,0,0,0,0,0,0,0,0,0,0,0,0,0,0,0,0,0,0,0,0,0,0,0,0,0,0,0,0,0,0,0,0,0,0,0,0,0,0,0,0],"split_type":[0,0,0,0,0,0,0,0,0,0,0,0,0,0,0,0,0,0,0,0,0,0,0,0,0,0,0,0,0,0,0,0,0,0,0,0,0,0,0,0,0,0,0,0,0,0,0,0,0,0,0,0,0,0,0,0,0,0,0,0,0,0,0,0,0,0,0,0,0,0,0,0,0,0,0,0,0,0,0,0,0,0,0,0,0,0,0,0,0,0,0,0,0,0,0,0,0,0,0,0,0,0,0,0,0,0,0,0,0,0,0,0,0,0,0,0,0],"sum_hessian":[3.705607E3,1.1670892E3,2.5385178E3,8.529406E2,3.1414868E2,1.3276707E3,1.210847E3,6.2058386E2,2.3235674E2,1.2181579E1,3.019671E2,6.911867E2,6.364839E2,2.676772E2,9.431699E2,2.674965E2,3.5308734E2,5.5919064E1,1.7643768E2,6.2159667E0,5.965612E0,8.1388626E1,2.2057848E2,1.817283E2,5.094584E2,4.259156E2,2.1056833E2,6.2577276E0,2.6141946E2,6.428428E2,3.0032715E2,2.615805E2,5.915985E0,8.425435E0,3.4466193E2,2.7328836E1,2.8590227E1,1.2313634E2,5.3301342E1,3.2295778E0,2.9863892E0,7.545113E1,5.9374876E0,1.9895052E2,2.1627968E1,1.711297E2,1.0598599E1,4.1008984E2,9.9368576E1,1.9884702E2,2.2706856E2,1.5518816E2,5.538017E1,2.6875565E0,3.5701709E0,7.1202934E1,1.9021652E2,6.0412335E2,3.871942E1,1.08623856E2,1.917033E2,1.1764316E2,1.4393735E2,4.678094E0,1.237891E0,6.502929E0,1.922506E0,2.1457388E1,3.2320453E2,2.274974E1,4.579096E0,1.9892591E1,8.697634E0,1.875549E1,1.0438085E2,2.4388052E1,2.891329E1,1.2494082E0,1.7369809E0,6.5811356E1,9.639783E0,3.4663007E0,2.4711866E0,1.2279404E2,7.615648E1,1.8659346E1,2.9686224E0,9.443705E1,7.669265E1,5.910906E0,4.6876936E0,3.8370438E2,2.6385468E1,4.065135E1,5.8717224E1,9.965739E1,9.918962E1,1.3125697E2,9.581159E1,6.5029655E1,9.015851E1,8.232235E0,4.7147938E1,1.2125821E0,2.3575888E0,5.8621407E0,6.53408E1,1.953232E1,1.706842E2,2.9695435E2,3.07169E2,2.6908164E0,3.6028603E1,5.97356E1,4.8888256E1,1.9047585E2,1.2274446E0],"tree_param":{"num_deleted":"0","num_feature":"7","num_nodes":"117","size_leaf_vector":"0"}},{"base_weights":[-6.418848E-4,-2.5840473E-1,2.8373438E-1,-4.9798298E-1,2.917506E-2,6.56238E-1,1.9421649E-1,-6.7103577E-1,-1.341722E-2,-2.7012897E-1,1.6324015E-1,-1.5512827E-1,7.676111E-1,1.2733132E-1,5.7768756E-1,-9.0878063E-1,-4.9261326E-1,-3.0003595E-1,3.393312E-1,-6.2596124E-1,1.1661202E-1,1.098368E-1,8.638249E-1,-1.0765178E0,4.7374588E-2,4.7545534E-1,8.709694E-1,6.202179E-1,5.8166534E-2,6.7463005E-1,-1.8677235E-1,-1.6106382E-1,-9.479918E-1,-1.0785937E0,-4.232509E-1,-1.3461852E-1,-7.6163924E-1,-2.7169088E-1,5.439951E-1,4.906815E-1,-7.8016937E-1,1.1368568E0,9.244714E-3,-5.230189E-2,3.1908056E-1,9.7776353E-1,-8.341553E-1,-1.4906243E0,-7.87125E-2,1.2099351E0,-2.861488E-1,1.05437964E-1,9.1864574E-1,1.3613099E0,8.054945E-1,-4.138754E-1,7.0076877E-1,-2.5208617E-2,3.3595997E-1,4.185719E-2,7.1458125E-1,-1.1524359E0,2.3786943E-1,1.0211723E0,-4.74023E-1,-1.0867593E0,-7.9180497E-1,-1.2238325E0,5.0441086E-1,2.9647833E-1,-4.839712E-1,-2.3347819E-1,4.7207162E-1,3.2229915E-1,-9.6641105E-1,1.2360015E-1,-1.022117E0,5.83798E-1,-1.3532615E0,1.2110456E0,-4.4011676E-1,7.547275E-2,-9.292839E-1,1.343684E0,2.1331966E-1,-1.6266456E-1,5.239775E-1,9.331582E-2,-3.7341523E-1,-1.5955617E0,3.4513882E-1,1.0840086E0,-1.2100507E-1,1.5006946E0,-3.4635667E-2,3.7387133E-1,-5.894864E-1,-4.6244046E-1,6.907974E-1,1.3932066E0,6.208078E-1,3.9328155E-1,1.4276505E0,-9.135233E-1,8.287538E-1,-8.83179E-1,5.838839E-1,-1.086864E-1,7.5158983E-1,-1.3971026E-1,1.7132582E-1,2.1446829E-1,6.844631E-1,-1.2104794E0,6.109543E-1,6.1614627E-1,1.0607187E0,-1.4771745E0,3.6546028E-1,7.2049564E-1,-9.928703E-1],"categories":[],"categories_nodes":[],"categories_segments":[],"categories_sizes":[],"default_left":[1,1,1,1,1,1,1,1,1,1,1,1,1,1,1,1,1,1,1,1,1,1,1,1,1,1,1,1,1,1,1,1,1,1,1,1,1,1,1,1,1,1,1,1,1,1,0,0,0,1,1,1,1,1,1,1,1,1,1,1,1,1,1,0,0,0,0,0,0,0,0,0,0,0,0,0,0,0,0,0,0,0,0,0,0,0,0,0,0,0,0,0,0,0,0,0,0,0,0,0,0,0,0,0,0,0,0,0,0,0,0,0,0,0,0,0,0,0,0,0,0],"id":2,"left_children":[1,3,5,7,9,11,13,15,17,19,21,23,25,27,29,31,33,35,37,39,41,43,45,47,49,51,53,55,57,59,61,63,65,67,69,71,73,75,77,79,81,83,85,87,89,91,-1,-1,-1,93,95,97,99,101,103,105,107,109,111,113,115,117,119,-1,-1,-1,-1,-1,-1,-1,-1,-1,-1,-1,-1,-1,-1,-1,-1,-1,-1,-1,-1,-1,-1,-1,-1,-1,-1,-1,-1,-1,-1,-1,-1,-1,-1,-1,-1,-1,-1,-1,-1,-1,-1,-1,-1,-1,-1,-1,-1,-1,-1,-1,-1,-1,-1,-1,-1,-1,-1],"loss_changes":[2.6378073E2,1.3006665E2,5.692569E1,8.634529E1,3.450483E1,3.003711E1,3.5343864E1,3.1739319E1,2.7603474E1,3.668596E1,2.21196E1,7.6623125E0,8.381882E0,4.0090897E1,1.5303429E1,9.350403E0,1.7250786E1,1.1397192E1,1.545549E1,2.4269913E1,1.4047179E1,1.8772823E1,8.923491E0,2.9371176E0,1.3684796E1,1.2747311E1,5.772827E0,1.2346859E1,2.394152E1,4.5702515E0,1.0046453E1,6.905421E0,5.8100586E0,1.1070271E1,1.7239456E1,6.8328986E0,9.082657E0,9.434928E0,7.7396564E0,1.2231203E1,1.5670967E1,2.0458574E0,1.0449007E1,1.4639932E1,1.2599825E1,4.769638E0,0E0,0E0,0E0,2.8963737E0,5.7342415E0,1.4884245E1,4.153925E0,9.641228E-1,8.402283E0,5.708037E0,5.621071E0,1.7930399E1,9.956108E0,9.198461E0,5.1761475E0,4.212063E0,1.1039725E1,0E0,0E0,0E0,0E0,0E0,0E0,0E0,0E0,0E0,0E0,0E0,0E0,0E0,0E0,0E0,0E0,0E0,0E0,0E0,0E0,0E0,0E0,0E0,0E0,0E0,0E0,0E0,0E0,0E0,0E0,0E0,0E0,0E0,0E0,0E0,0E0,0E0,0E0,0E0,0E0,0E0,0E0,0E0,0E0,0E0,0E0,0E0,0E0,0E0,0E0,0E0,0E0,0E0,0E0,0E0,0E0,0E0,0E0],"parents":[2147483647,0,0,1,1,2,2,3,3,4,4,5,5,6,6,7,7,8,8,9,9,10,10,11,11,12,12,13,13,14,14,15,15,16,16,17,17,18,18,19,19,20,20,21,21,22,22,23,23,24,24,25,25,26,26,27,27,28,28,29,29,30,30,31,31,32,32,33,33,34,34,35,35,36,36,37,37,38,38,39,39,40,40,41,41,42,42,43,43,44,44,45,45,49,49,50,50,51,51,52,52,53,53,54,54,55,55,56,56,57,57,58,58,59,59,60,60,61,61,62,62],"right_children":[2,4,6,8,10,12,14,16,18,20,22,24,26,28,30,32,34,36,38,40,42,44,46,48,50,52,54,56,58,60,62,64,66,68,70,72,74,76,78,80,82,84,86,88,90,92,-1,-1,-1,94,96,98,100,102,104,106,108,110,112,114,116,118,120,-1,-1,-1,-1,-1,-1,-1,-1,-1,-1,-1,-1,-1,-1,-1,-1,-1,-1,-1,-1,-1,-1,-1,-1,-1,-1,-1,-1,-1,-1,-1,-1,-1,-1,-1,-1,-1,-1,-1,-1,-1,-1,-1,-1,-1,-1,-1,-1,-1,-1,-1,-1,-1,-1,-1,-1,-1,-1],"split_conditions":[6.55E1,2.6404701E1,5.082E0,1.2283333E2,1.0925E2,2.2211948E1,7.45E1,5.75E1,5.9505E0,2.9834251E1,5E-1,1.935075E1,2.490645E1,1.2635E0,7.348E0,3.8140001E0,9.075E1,1.7765E0,2.28709E1,2.664415E1,4.039E0,6.05E1,1.3775E2,1.1825E2,1.9893349E1,5E-1,9.425E1,9.625E1,2.830785E1,1.182E0,7.763E0,4.75E1,5.2665E0,2.297E0,4.467E0,5.7415E0,1.2425E2,1.3225E2,2.62864E1,9.725E1,8.375E1,1.0025E2,3.53336E1,1.5634999E0,2.654265E1,6.958E0,-2.502466E-1,-4.471873E-1,-2.3613751E-2,1.555E0,1.0225E2,1.185E2,2.256345E1,5.4583332E1,9.85E1,2.9611801E1,5.2405E0,7.05E1,1.3525E2,7.65E1,1.4275E2,7.85E1,8.287001E0,3.063517E-1,-1.422069E-1,-3.260278E-1,-2.375415E-1,-3.6714977E-1,1.5132326E-1,8.8943504E-2,-1.4519137E-1,-7.004346E-2,1.4162149E-1,9.668975E-2,-2.8992334E-1,3.7080046E-2,-3.066351E-1,1.751394E-1,-4.0597847E-1,3.633137E-1,-1.3203503E-1,2.2641826E-2,-2.787852E-1,4.031052E-1,6.39959E-2,-4.879937E-2,1.5719326E-1,2.7994746E-2,-1.12024575E-1,-4.7866854E-1,1.0354165E-1,3.2520258E-1,-3.6301523E-2,4.502084E-1,-1.0390701E-2,1.12161405E-1,-1.7684594E-1,-1.3873215E-1,2.0723923E-1,4.1796198E-1,1.8624236E-1,1.17984466E-1,4.2829517E-1,-2.74057E-1,2.4862616E-1,-2.649537E-1,1.7516518E-1,-3.2605924E-2,2.2547697E-1,-4.191308E-2,5.139775E-2,6.434049E-2,2.0533894E-1,-3.6314383E-1,1.832863E-1,1.8484388E-1,3.182156E-1,-4.4315237E-1,1.0963809E-1,2.161487E-1,-2.978611E-1],"split_indices":[5,4,3,6,6,4,5,5,3,4,0,4,4,2,3,3,6,2,4,4,3,5,6,6,4,1,6,6,4,2,3,5,3,2,3,3,6,6,4,6,6,6,4,2,4,3,0,0,0,2,6,6,4,6,6,4,3,5,6,5,6,5,3,0,0,0,0,0,0,0,0,0,0,0,0,0,0,0,0,0,0,0,0,0,0,0,0,0,0,0,0,0,0,0,0,0,0,0,0,0,0,0,0,0,0,0,0,0,0,0,0,0,0,0,0,0,0,0,0,0,0],"split_type":[0,0,0,0,0,0,0,0,0,0,0,0,0,0,0,0,0,0,0,0,0,0,0,0,0,0,0,0,0,0,0,0,0,0,0,0,0,0,0,0,0,0,0,0,0,0,0,0,0,0,0,0,0,0,0,0,0,0,0,0,0,0,0,0,0,0,0,0,0,0,0,0,0,0,0,0,0,0,0,0,0,0,0,0,0,0,0,0,0,0,0,0,0,0,0,0,0,0,0,0,0,0,0,0,0,0,0,0,0,0,0,0,0,0,0,0,0,0,0,0,0],"sum_hessian":[3.5965652E3,1.8866077E3,1.7099575E3,1.0287993E3,8.578084E2,3.300822E2,1.3798754E3,7.577865E2,2.7101276E2,2.650537E2,5.927547E2,3.9792946E1,2.9028928E2,1.1760758E3,2.0379958E2,3.231291E2,4.346574E2,1.4960423E2,1.2140852E2,1.3772096E2,1.2733274E2,5.51846E2,4.090868E1,6.392223E0,3.3400726E1,7.732376E1,2.1296552E2,1.4374481E2,1.0323309E3,1.8096819E2,2.2831387E1,1.6355423E1,3.0677365E2,4.4464718E1,3.901927E2,1.1108728E2,3.8516953E1,3.0380457E1,9.102807E1,1.6446629E1,1.2127434E2,1.12112E1,1.16121544E2,3.1134286E2,2.4050314E2,3.8733715E1,2.1749659E0,4.168373E0,2.22385E0,6.860251E0,2.6540474E1,4.2815353E1,3.4508408E1,2.2755896E1,1.9020963E2,1.008882E1,1.3365599E2,7.9471844E2,2.3761247E2,1.0868809E1,1.7009938E2,6.449926E0,1.638146E1,2.9496927E0,1.3405729E1,1.5929051E2,1.4748315E2,4.0935802E1,3.5289156E0,3.0055576E1,3.6013712E2,9.605101E1,1.5036275E1,6.02902E0,3.2487934E1,2.0445808E1,9.934648E0,8.983568E1,1.192386E0,9.101616E0,7.345012E0,1.8071455E1,1.0320288E2,8.788152E0,2.4230485E0,8.756183E1,2.8559715E1,2.1469354E2,9.6649315E1,2.4205637E0,2.3808258E2,3.5330845E1,3.402869E0,5.3942423E0,1.4660084E0,8.283725E0,1.8256748E1,2.1838764E1,2.0976587E1,1.1888347E1,2.2620062E1,1.903828E0,2.0852068E1,2.0283172E0,1.881813E2,6.9395757E0,3.1492443E0,7.8284984E0,1.2582749E2,5.023416E2,2.9237683E2,1.7738847E2,6.022401E1,3.04377E0,7.825039E0,1.3460133E2,3.5498047E1,5.335316E0,1.1146097E0,1.2064882E1,4.3165784E0],"tree_param":{"num_deleted":"0","num_feature":"7","num_nodes":"121","size_leaf_vector":"0"}},{"base_weights":[-8.553642E-4,-3.335588E-1,1.2135727E-1,-4.3555412E-1,1.7688118E-1,4.5190495E-1,5.90306E-2,-5.8788764E-1,-2.0225044E-1,1.1464078E0,7.561769E-2,8.943557E-2,5.279404E-1,-9.89745E-2,2.0498389E-1,-6.8864715E-1,-1.4115724E-2,-1.645265E-1,-1.4900413E0,1.5029591E0,-2.0339634E-1,-1.0119129E-2,9.424859E-1,2.3213066E-1,-1.144328E0,9.875629E-1,4.718554E-1,-2.0220762E-1,1.3515867E-1,-4.092538E-3,3.0946273E-1,-7.246967E-1,5.5755436E-1,2.9841393E-1,-8.1001014E-1,-9.33227E-1,-1.0295714E-1,-2.5177708E-1,1.7292533E0,1.050603E0,-1.1647114E0,1.9840474E-1,-8.9987063E-1,-1.0874256E0,1.2988205E0,-1.1983154E0,3.160351E-1,-1.4617378E0,4.9172923E-2,-6.2201315E-1,1.0723783E0,1.4149417E-2,5.3232795E-1,7.9491377E-1,-2.2483261E-1,3.196388E-2,6.328524E-1,2.4658777E-1,-3.8828146E-1,6.737183E-1,2.491568E-1,-2.1686889E-1,-7.8137344E-1,1.3664117E0,-1.14391275E-1,-3.4863207E-1,6.637509E-1,-1.3343979E0,4.021789E-1,-1.0295821E0,4.325866E-1,-2.61059E-1,1.7896211E-1,5.293614E-2,9.304267E-1,8.755866E-2,-1.2601436E0,1.4692637E0,2.1271674E-1,-5.46022E-1,4.584904E-1,-1.8344582E0,1.9551378E-2,1.1444044E0,7.810754E-2,-1.0849429E0,4.6689114E-1,4.2254132E-1,7.803429E-1,2.6445016E-1,1.3308315E0,-3.3422762E-1,-9.767334E-3,7.4826366E-1,-2.4676656E-2,9.7799E-1,2.7419814E-1,4.8405077E-2,6.4778775E-1,2.0137782E-1,-5.6932235E-1,-2.259457E-1,7.5917935E-1,-1.7889401E0,2.615576E-1],"categories":[],"categories_nodes":[],"categories_segments":[],"categories_sizes":[],"default_left":[1,1,1,1,1,1,1,1,1,1,1,1,1,1,1,1,1,1,0,1,1,1,1,1,1,1,1,1,1,1,1,1,1,1,1,1,1,0,0,0,0,1,1,0,1,0,1,1,0,0,1,1,1,1,1,1,1,1,1,1,1,0,0,0,0,0,0,0,0,0,0,0,0,0,0,0,0,0,0,0,0,0,0,0,0,0,0,0,0,0,0,0,0,0,0,0,0,0,0,0,0,0,0,0,0],"id":3,"left_children":[1,3,5,7,9,11,13,15,17,19,21,23,25,27,29,31,33,35,-1,37,39,41,43,45,47,49,51,53,55,57,59,61,63,65,67,69,71,-1,-1,-1,-1,73,75,-1,77,-1,79,81,-1,-1,83,85,87,89,91,93,95,97,99,101,103,-1,-1,-1,-1,-1,-1,-1,-1,-1,-1,-1,-1,-1,-1,-1,-1,-1,-1,-1,-1,-1,-1,-1,-1,-1,-1,-1,-1,-1,-1,-1,-1,-1,-1,-1,-1,-1,-1,-1,-1,-1,-1,-1,-1],"loss_changes":[1.4184799E2,4.887024E1,5.2536877E1,2.765242E1,1.530695E1,1.1104012E1,4.9551025E1,2.7290436E1,1.4824315E1,7.407959E0,1.0640372E1,1.282905E1,8.150223E0,2.4970718E1,2.4396595E1,1.844844E1,1.8041355E1,1.4220358E1,0E0,5.1181507E0,6.0026746E0,2.4511797E1,1.0731914E1,8.155497E0,2.9383287E0,5.5045815E0,8.29084E0,1.634514E1,1.6229057E1,3.6029533E1,1.6190437E1,1.1078522E1,6.6009207E0,1.255042E1,1.3533253E1,3.3811226E0,1.2579642E1,0E0,0E0,0E0,0E0,1.1352268E1,9.033058E0,0E0,1.8007793E0,0E0,7.863813E0,3.353794E0,0E0,0E0,2.3475418E0,1.842828E1,6.8803253E0,4.230625E0,1.6500546E1,1.0692944E1,6.45109E0,1.7969782E1,1.588332E1,8.2592125E0,1.6655788E1,0E0,0E0,0E0,0E0,0E0,0E0,0E0,0E0,0E0,0E0,0E0,0E0,0E0,0E0,0E0,0E0,0E0,0E0,0E0,0E0,0E0,0E0,0E0,0E0,0E0,0E0,0E0,0E0,0E0,0E0,0E0,0E0,0E0,0E0,0E0,0E0,0E0,0E0,0E0,0E0,0E0,0E0,0E0,0E0],"parents":[2147483647,0,0,1,1,2,2,3,3,4,4,5,5,6,6,7,7,8,8,9,9,10,10,11,11,12,12,13,13,14,14,15,15,16,16,17,17,19,19,20,20,21,21,22,22,23,23,24,24,25,25,26,26,27,27,28,28,29,29,30,30,31,31,32,32,33,33,34,34,35,35,36,36,41,41,42,42,44,44,46,46,47,47,50,50,51,51,52,52,53,53,54,54,55,55,56,56,57,57,58,58,59,59,60,60],"right_children":[2,4,6,8,10,12,14,16,18,20,22,24,26,28,30,32,34,36,-1,38,40,42,44,46,48,50,52,54,56,58,60,62,64,66,68,70,72,-1,-1,-1,-1,74,76,-1,78,-1,80,82,-1,-1,84,86,88,90,92,94,96,98,100,102,104,-1,-1,-1,-1,-1,-1,-1,-1,-1,-1,-1,-1,-1,-1,-1,-1,-1,-1,-1,-1,-1,-1,-1,-1,-1,-1,-1,-1,-1,-1,-1,-1,-1,-1,-1,-1,-1,-1,-1,-1,-1,-1,-1,-1],"split_conditions":[5.95E1,3.1952E1,1.2674999E0,1.1475E2,3.21568E1,2.4371101E1,6.75E1,6.3905E0,1.4925E2,6.231E0,1.8405E0,7.25E1,3.913E0,2.75932E1,1.1283333E2,5E-1,1.9024999E0,2.11529E1,-4.470124E-1,1.326E0,1.3065E0,1.4995E0,5.35E1,9.15E1,1.3525E2,9.3E-1,6.15E1,3.987E0,1.3725E2,1.7645E0,5.0315E0,1.1635001E0,1.2005E0,5.45E1,2.3815E0,1.3925E2,5E-1,-7.553313E-2,5.18776E-1,3.1518093E-1,-3.4941342E-1,1.441E0,1.0475E2,-3.262277E-1,5E-1,-3.5949463E-1,6.25E1,1.2325001E0,1.4751878E-2,-1.8660395E-1,1.375E2,2.9194E1,3.119775E1,3.8745E0,1.2225E2,8.275E1,1.4325E2,1.6435001E0,5.7200003E0,1.1625E2,5.0699997E0,-6.506067E-2,-2.3441204E-1,4.0992352E-1,-3.4317385E-2,-1.04589626E-1,1.9912528E-1,-4.003194E-1,1.2065368E-1,-3.0887467E-1,1.2977599E-1,-7.83177E-2,5.3688634E-2,1.5880844E-2,2.7912802E-1,2.6267597E-2,-3.7804312E-1,4.4077912E-1,6.381503E-2,-1.638066E-1,1.3754712E-1,-5.503375E-1,5.8654137E-3,3.4332132E-1,2.3432264E-2,-3.254829E-1,1.4006735E-1,1.267624E-1,2.3410287E-1,7.933505E-2,3.9924946E-1,-1.0026829E-1,-2.9302004E-3,2.2447911E-1,-7.402997E-3,2.93397E-1,8.225945E-2,1.4521523E-2,1.9433634E-1,6.041335E-2,-1.707967E-1,-6.778371E-2,2.2775382E-1,-5.3668207E-1,7.846729E-2],"split_indices":[5,4,2,6,4,4,5,3,6,3,2,5,3,4,6,0,2,4,0,2,2,2,5,6,6,2,5,3,6,2,3,2,2,5,2,6,1,0,0,0,0,2,6,0,1,0,5,2,0,0,6,4,4,3,6,6,6,2,3,6,3,0,0,0,0,0,0,0,0,0,0,0,0,0,0,0,0,0,0,0,0,0,0,0,0,0,0,0,0,0,0,0,0,0,0,0,0,0,0,0,0,0,0,0,0],"split_type":[0,0,0,0,0,0,0,0,0,0,0,0,0,0,0,0,0,0,0,0,0,0,0,0,0,0,0,0,0,0,0,0,0,0,0,0,0,0,0,0,0,0,0,0,0,0,0,0,0,0,0,0,0,0,0,0,0,0,0,0,0,0,0,0,0,0,0,0,0,0,0,0,0,0,0,0,0,0,0,0,0,0,0,0,0,0,0,0,0,0,0,0,0,0,0,0,0,0,0,0,0,0,0,0,0],"sum_hessian":[3.4865935E3,9.362044E2,2.5503892E3,7.8041064E2,1.5579372E2,4.0360913E2,2.14678E3,4.7121515E2,3.0919553E2,1.3757196E1,1.4203651E2,7.036196E1,3.3324716E2,1.0309851E3,1.1157948E3,4.006561E2,7.055904E1,3.0149155E2,7.7039905E0,1.0792807E1,2.9643896E0,1.3015225E2,1.1884264E1,6.379535E1,6.566615E0,3.443557E1,2.9881158E2,7.1560126E2,3.1538385E2,3.721109E2,7.4368396E2,3.8979868E2,1.0857439E1,5.1113132E1,1.9445906E1,2.1307512E1,2.8018402E2,1.2200046E0,9.572803E0,1.2460644E0,1.7183253E0,1.06070404E2,2.4081852E1,1.4682823E0,1.0415982E1,2.7987587E0,6.099659E1,5.0095778E0,1.5570375E0,1.4066815E0,3.302889E1,3.5015972E1,2.6379562E2,1.5119616E1,7.004816E2,2.6210223E2,5.3281624E1,2.2539838E2,1.4671252E2,1.04190186E2,6.394938E2,3.962069E1,3.5017798E2,4.457813E0,6.3996263E0,1.846161E1,3.265152E1,1.3503524E1,5.942383E0,2.0133327E1,1.1741847E0,1.7955986E2,1.0062416E2,8.938081E1,1.6689587E1,6.6400094E0,1.7441843E1,8.698184E0,1.7177976E0,8.248501E0,5.274809E1,3.8119888E0,1.1975888E0,3.0657057E1,2.3718305E0,9.808388E0,2.5207586E1,1.8472755E2,7.906806E1,8.34902E0,6.770596E0,4.6394E2,2.3654163E2,1.8311878E1,2.4379036E2,2.6272465E1,2.7009157E1,1.5162172E2,7.377666E1,3.4437035E1,1.122755E2,8.89605E0,9.5294136E1,3.001076E0,6.364927E2],"tree_param":{"num_deleted":"0","num_feature":"7","num_nodes":"105","size_leaf_vector":"0"}},{"base_weights":[-1.0670861E-3,-1.3090007E-1,1.7147082E-1,-3.328733E-1,-1.5294567E-2,7.941788E-1,1.4249696E-1,-4.2753798E-1,9.075253E-2,-4.4112206E-2,6.0319996E-1,4.5786673E-1,9.462031E-1,4.5727815E-2,3.2164022E-1,1.7756274E0,-4.3869406E-1,7.249559E-1,-6.674509E-2,-2.4832025E-1,2.5807083E-2,2.9226586E-1,9.755935E-1,-9.080505E-1,7.563133E-1,4.2980734E-1,1.00287E0,5.4278322E-3,8.0070704E-1,6.302598E-1,2.5676674E-1,-5.345171E-1,-1.9289996E-1,-1.4416391E0,9.655103E-1,9.3625593E-1,-1.9850963E-1,-5.108624E-1,6.1289027E-2,5.959714E-1,-1.2317059E-2,5.337015E-1,-4.461521E-1,-3.0480444E-1,1.1353985E0,5.4131585E-1,-2.0835197E0,1.0725408E0,-6.754919E-1,1.030147E0,-8.8735205E-1,1.0439053E0,1.5608093E-1,-3.933488E-2,6.062283E-1,2.3826756E-2,9.920149E-1,2.8378668E-1,1.0549806E0,-5.346892E-2,3.431662E-1,-6.825237E-1,-3.6786613E-1,2.5822124E-1,-5.4288524E-1,1.102553E0,-5.0159246E-1,2.0868722E-2,1.1317279E0,-1.2488425E0,-6.585615E-2,-5.433742E-1,1.1791847E0,-5.721279E-1,1.9500826E-1,-5.259722E-1,7.311045E-1,-1.5606895E-1,1.2170955E-1,7.396026E-1,-3.9166382E-1,8.1618667E-1,-1.0031368E0,7.6353997E-1,-1.3953532E0,1.2500923E0,-4.9796435E-1,6.029942E-1,1.3459687E0,-1.4846429E0,4.8803684E-1,3.799915E-1,1.1056772E0,-2.8699748E-2,-2.0437086E0,-7.120348E-1,7.1277434E-1,6.412688E-1,-8.337604E-1,1.0884035E0,-9.697972E-1,3.9637223E-1,-1.9292396E0,5.7513893E-2,1.1057092E0,3.7108295E-2,-1.9980031E0,2.4450412E-1,5.62425E-1],"categories":[],"categories_nodes":[],"categories_segments":[],"categories_sizes":[],"default_left":[1,1,1,1,1,1,1,1,1,1,1,1,1,1,1,0,1,1,1,1,1,1,1,1,1,1,1,1,1,1,1,1,1,0,1,1,1,1,1,1,1,1,1,1,1,0,0,1,1,0,0,1,0,1,1,1,1,1,1,1,1,0,0,0,0,0,0,0,0,0,0,0,0,0,0,0,0,0,0,0,0,0,0,0,0,0,0,0,0,0,0,0,0,0,0,0,0,0,0,0,0,0,0,0,0,0,0,0,0],"id":4,"left_children":[1,3,5,7,9,11,13,15,17,19,21,23,25,27,29,-1,31,33,35,37,39,41,43,45,47,49,51,53,55,57,59,61,63,-1,65,67,69,71,73,75,77,79,81,83,85,-1,-1,87,89,-1,-1,91,-1,93,95,97,99,101,103,105,107,-1,-1,-1,-1,-1,-1,-1,-1,-1,-1,-1,-1,-1,-1,-1,-1,-1,-1,-1,-1,-1,-1,-1,-1,-1,-1,-1,-1,-1,-1,-1,-1,-1,-1,-1,-1,-1,-1,-1,-1,-1,-1,-1,-1,-1,-1,-1,-1],"loss_changes":[7.593893E1,4.516082E1,2.6149063E1,2.8274986E1,2.197208E1,2.8643532E0,2.4118065E1,1.4928268E1,1.29763365E1,1.6817131E1,6.0697174E0,9.661794E0,8.4132385E-1,2.7531525E1,9.610065E0,0E0,1.3406181E1,1.4855191E1,1.4009206E1,2.4449331E1,1.9092049E1,5.824908E0,5.368429E0,8.627953E0,9.152473E0,5.697783E0,1.1724892E0,2.3156717E1,6.7913704E0,1.20746E1,1.08737335E1,9.914154E0,2.5789024E1,0E0,5.348112E0,2.1808615E0,1.2913848E1,9.578426E0,1.1862521E1,8.730345E0,1.589339E1,4.876015E0,6.630692E0,5.1570926E0,4.7501926E0,0E0,0E0,1.1954784E0,4.4724927E0,0E0,0E0,1.0759125E0,0E0,1.7025959E1,8.893301E0,5.874839E0,8.008438E0,1.2643938E1,1.8293686E0,1.576459E1,6.7179184E0,0E0,0E0,0E0,0E0,0E0,0E0,0E0,0E0,0E0,0E0,0E0,0E0,0E0,0E0,0E0,0E0,0E0,0E0,0E0,0E0,0E0,0E0,0E0,0E0,0E0,0E0,0E0,0E0,0E0,0E0,0E0,0E0,0E0,0E0,0E0,0E0,0E0,0E0,0E0,0E0,0E0,0E0,0E0,0E0,0E0,0E0,0E0,0E0],"parents":[2147483647,0,0,1,1,2,2,3,3,4,4,5,5,6,6,7,7,8,8,9,9,10,10,11,11,12,12,13,13,14,14,16,16,17,17,18,18,19,19,20,20,21,21,22,22,23,23,24,24,25,25,26,26,27,27,28,28,29,29,30,30,31,31,32,32,34,34,35,35,36,36,37,37,38,38,39,39,40,40,41,41,42,42,43,43,44,44,47,47,48,48,51,51,53,53,54,54,55,55,56,56,57,57,58,58,59,59,60,60],"right_children":[2,4,6,8,10,12,14,16,18,20,22,24,26,28,30,-1,32,34,36,38,40,42,44,46,48,50,52,54,56,58,60,62,64,-1,66,68,70,72,74,76,78,80,82,84,86,-1,-1,88,90,-1,-1,92,-1,94,96,98,100,102,104,106,108,-1,-1,-1,-1,-1,-1,-1,-1,-1,-1,-1,-1,-1,-1,-1,-1,-1,-1,-1,-1,-1,-1,-1,-1,-1,-1,-1,-1,-1,-1,-1,-1,-1,-1,-1,-1,-1,-1,-1,-1,-1,-1,-1,-1,-1,-1,-1,-1],"split_conditions":[6.65E1,1.0883333E2,4.2405E0,2.9834251E1,5E-1,2.5248299E1,1.2658333E2,7.8900003E-1,3.04119E1,5.65E1,6.15E1,3.611E0,1.075E2,5E-1,5.195E0,5.3268826E-1,6.25E1,1.2305E0,4.351E0,2.8126999E1,1.0925E0,6.171E0,4.4435E0,1.1325E2,4.1225E0,5E-1,4.204E0,3.18852E1,1.07E2,1.5845E0,5.8265E0,2.434245E1,5.706E0,-4.3249175E-1,1.9054999E0,5.2E1,3.102525E1,8.1085E0,1.1375E2,9.125E-1,5.9110003E0,1.2625E2,1.13E2,1.2025E2,1.4175E2,1.6239476E-1,-6.250559E-1,4.066E0,1.18E2,3.090441E-1,-2.6620564E-1,1.0035E0,4.682428E-2,3.1568699E1,4.9825E0,9.95E1,3.34365E1,1.5550001E0,2.161855E1,5.8065004E0,1.4275E2,-2.0475712E-1,-1.1035984E-1,7.7466376E-2,-1.6286558E-1,3.307659E-1,-1.5047774E-1,6.260617E-3,3.395184E-1,-3.7465274E-1,-1.9756846E-2,-1.6301227E-1,3.537554E-1,-1.7163837E-1,5.850248E-2,-1.5779166E-1,2.1933135E-1,-4.6820685E-2,3.6512867E-2,2.218808E-1,-1.1749915E-1,2.4485601E-1,-3.0094105E-1,2.29062E-1,-4.1860598E-1,3.750277E-1,-1.4938931E-1,1.8089826E-1,4.0379062E-1,-4.4539288E-1,1.4641106E-1,1.1399745E-1,3.317032E-1,-8.609924E-3,-6.1311257E-1,-2.1361046E-1,2.138323E-1,1.9238065E-1,-2.5012812E-1,3.2652104E-1,-2.9093918E-1,1.18911676E-1,-5.787719E-1,1.7254168E-2,3.3171278E-1,1.1132489E-2,-5.9940094E-1,7.335124E-2,1.6872752E-1],"split_indices":[5,6,3,4,0,4,6,2,4,5,5,3,6,0,3,0,5,2,3,4,2,3,3,6,3,0,3,4,6,2,3,4,3,0,2,5,4,3,6,2,3,6,6,6,6,0,0,3,6,0,0,2,0,4,3,6,4,2,4,3,6,0,0,0,0,0,0,0,0,0,0,0,0,0,0,0,0,0,0,0,0,0,0,0,0,0,0,0,0,0,0,0,0,0,0,0,0,0,0,0,0,0,0,0,0,0,0,0,0],"split_type":[0,0,0,0,0,0,0,0,0,0,0,0,0,0,0,0,0,0,0,0,0,0,0,0,0,0,0,0,0,0,0,0,0,0,0,0,0,0,0,0,0,0,0,0,0,0,0,0,0,0,0,0,0,0,0,0,0,0,0,0,0,0,0,0,0,0,0,0,0,0,0,0,0,0,0,0,0,0,0,0,0,0,0,0,0,0,0,0,0,0,0,0,0,0,0,0,0,0,0,0,0,0,0,0,0,0,0,0,0],"sum_hessian":[3.3879602E3,1.9333646E3,1.4545956E3,7.0310223E2,1.2302625E3,6.349731E1,1.3910983E3,5.7467456E2,1.2842767E2,1.1763798E3,5.388262E1,2.1016308E1,4.2481003E1,9.0402155E2,4.8707675E2,2.0984478E0,5.725761E2,2.4832094E1,1.0359558E2,2.9939822E2,8.7698157E2,3.0337132E1,2.354549E1,3.402286E0,1.7614021E1,5.0496025E0,3.74314E1,8.591673E2,4.485424E1,8.30885E1,4.0398825E2,4.1112424E2,1.6145187E2,1.9825878E0,2.2849506E1,1.1320166E1,9.227541E1,1.6166211E2,1.3773611E2,5.4047253E1,8.229343E2,2.3071E1,7.266134E0,2.5119298E0,2.103356E1,1.765229E0,1.6370571E0,1.4633086E1,2.9809349E0,3.61833E0,1.4312727E0,3.5479298E1,1.9521027E0,8.0046326E2,5.8704082E1,9.085118E0,3.5769123E1,4.6678173E1,3.641033E1,8.808423E1,3.1590402E2,2.1610283E2,1.9502142E2,7.0649216E1,9.0802666E1,2.112472E1,1.7247869E0,2.1867003E0,9.133465E0,9.403715E0,8.2871704E1,1.5927657E2,2.3855448E0,2.3437246E1,1.14298874E2,5.4990535E0,4.85482E1,3.9698193E2,4.2595236E2,1.9036066E1,4.034932E0,2.08205E0,5.1840835E0,1.4203532E0,1.0915766E0,1.9872759E1,1.1608018E0,6.5648527E0,8.0682335E0,1.5954386E0,1.3854961E0,3.628831E0,3.1850468E1,7.972474E2,3.2158456E0,3.9648814E0,5.47392E1,5.4287734E0,3.6563454E0,3.4518356E1,1.250766E0,4.519958E1,1.4785926E0,1.865383E0,3.454495E1,8.5101105E1,2.9831283E0,2.1932658E2,9.657743E1],"tree_param":{"num_deleted":"0","num_feature":"7","num_nodes":"109","size_leaf_vector":"0"}},{"base_weights":[-4.968491E-4,-1.9016354E-1,6.5991834E-2,-4.6358013E-1,-1.019411E-1,2.5661495E-2,3.3601236E-1,-9.95573E-1,-3.738774E-1,5.0030625E-1,-1.3399571E-1,2.673918E-1,-1.849281E-2,5.046499E-1,-2.3034314E-2,7.6202756E-1,-1.1917812E0,-2.6488915E-1,-8.361866E-1,-4.7429004E-1,9.364104E-1,-2.6352012E-1,2.2587739E-2,2.984886E-1,-5.977253E-1,-3.6375232E-2,5.233943E-1,5.627237E-1,-9.3729824E-1,-3.6981702E-1,3.5457063E-1,-6.803226E-1,1.7982718E0,-2.963961E-1,1.5431638E0,-9.862153E-1,-4.58809E-2,1.1799223E0,-9.0498924E-1,1.177705E0,-9.636767E-1,2.0964919E-1,-3.6542174E-1,1.6487077E-1,-2.7132335E-1,1.5337072E-1,4.854927E-1,9.296311E-2,-1.2628968E0,-5.1933758E-2,5.5372643E-1,-7.32822E-1,6.60296E-1,5.0605416E-1,1.1657469E0,1.0963868E0,-1.4216976E0,-4.9296138E-1,1.1287504E0,4.9129614E-1,-6.8643665E-1,-7.7581704E-3,-5.042425E-1,-1.1266525E0,-4.812679E-1,1.0076507E0,-1.2759821E0,-1.1016492E0,2.6135677E-1,1.3368897E0,-8.556109E-1,-8.157671E-1,4.5234597E-1,-2.4984613E-1,-8.178884E-1,-7.517805E-1,2.2585608E-1,-9.378099E-1,-1.2826186E-1,1.1545499E-2,4.8618692E-1,5.3271145E-1,-5.136675E-1,-1.3741589E0,7.198899E-1,-1.8133547E0,2.0981798E-1,-1.0889243E-1,8.745051E-2,-4.4568288E-1,8.72723E-1,6.832179E-1,-1.2284529E0,-2.6571757E-1,7.913507E-1,5.2427125E-1,-9.386454E-1,1.3349148E0,3.9340095E-3,2.967191E-1,-1.7610384E0,-2.900846E-1,-1.9767603E0,-6.7429626E-1,5.903535E-1,1.412762E-1,-1.7044402E0],"categories":[],"categories_nodes":[],"categories_segments":[],"categories_sizes":[],"default_left":[1,1,1,1,1,1,1,1,1,1,1,1,1,1,1,1,0,1,1,1,1,1,1,1,1,1,1,1,1,1,1,0,0,1,0,1,1,0,1,1,0,1,1,1,1,1,1,1,1,1,1,1,1,1,1,0,1,1,0,1,1,0,0,0,0,0,0,0,0,0,0,0,0,0,0,0,0,0,0,0,0,0,0,0,0,0,0,0,0,0,0,0,0,0,0,0,0,0,0,0,0,0,0,0,0,0,0],"id":5,"left_children":[1,3,5,7,9,11,13,15,17,19,21,23,25,27,29,31,-1,33,35,37,39,41,43,45,47,49,51,53,55,57,59,-1,-1,61,-1,63,65,-1,67,69,-1,71,73,75,77,79,81,83,85,87,89,91,93,95,97,-1,99,101,-1,103,105,-1,-1,-1,-1,-1,-1,-1,-1,-1,-1,-1,-1,-1,-1,-1,-1,-1,-1,-1,-1,-1,-1,-1,-1,-1,-1,-1,-1,-1,-1,-1,-1,-1,-1,-1,-1,-1,-1,-1,-1,-1,-1,-1,-1,-1,-1],"loss_changes":[4.1719833E1,2.0666153E1,2.66674E1,9.611168E0,1.2625008E1,2.2764347E1,1.9280815E1,1.1110327E1,8.879198E0,1.4506075E1,1.2548464E1,9.040073E0,1.7499681E1,1.866391E1,1.3574194E1,6.5755005E0,0E0,8.867028E0,3.9853153E0,8.8277855E0,1.1768595E1,1.6399687E1,1.17911215E1,8.57262E0,5.521442E0,1.607043E1,1.0405948E1,6.546158E0,1.0188535E1,1.0522297E1,7.404993E0,0E0,0E0,8.7511015E0,0E0,1.4803047E0,9.673655E0,0E0,2.3999076E0,7.9506454E0,0E0,1.5456063E1,1.4381126E1,1.0784937E1,8.651957E0,8.531935E0,6.8204117E0,7.1536355E0,5.293558E0,1.35320835E1,1.4725753E1,5.151037E0,6.5876865E0,5.5623245E0,3.3696213E0,0E0,4.902074E0,1.4658318E1,0E0,5.5331516E0,5.4497604E0,0E0,0E0,0E0,0E0,0E0,0E0,0E0,0E0,0E0,0E0,0E0,0E0,0E0,0E0,0E0,0E0,0E0,0E0,0E0,0E0,0E0,0E0,0E0,0E0,0E0,0E0,0E0,0E0,0E0,0E0,0E0,0E0,0E0,0E0,0E0,0E0,0E0,0E0,0E0,0E0,0E0,0E0,0E0,0E0,0E0,0E0],"parents":[2147483647,0,0,1,1,2,2,3,3,4,4,5,5,6,6,7,7,8,8,9,9,10,10,11,11,12,12,13,13,14,14,15,15,17,17,18,18,19,19,20,20,21,21,22,22,23,23,24,24,25,25,26,26,27,27,28,28,29,29,30,30,33,33,35,35,36,36,38,38,39,39,41,41,42,42,43,43,44,44,45,45,46,46,47,47,48,48,49,49,50,50,51,51,52,52,53,53,54,54,56,56,57,57,59,59,60,60],"right_children":[2,4,6,8,10,12,14,16,18,20,22,24,26,28,30,32,-1,34,36,38,40,42,44,46,48,50,52,54,56,58,60,-1,-1,62,-1,64,66,-1,68,70,-1,72,74,76,78,80,82,84,86,88,90,92,94,96,98,-1,100,102,-1,104,106,-1,-1,-1,-1,-1,-1,-1,-1,-1,-1,-1,-1,-1,-1,-1,-1,-1,-1,-1,-1,-1,-1,-1,-1,-1,-1,-1,-1,-1,-1,-1,-1,-1,-1,-1,-1,-1,-1,-1,-1,-1,-1,-1,-1,-1,-1],"split_conditions":[5.95E1,2.3394749E1,7.35E1,9.241667E1,2.365315E1,1.2674999E0,6.5105E0,5.825E1,1.987E0,1.0425E2,1.1641667E2,7.25E1,5E-1,2.154E0,1.2775E2,5.35E1,-3.5753435E-1,1.984E0,1.3125E2,1.153E0,1.9165E0,1.1635001E0,5.9519997E0,5E-1,1.1455E0,1.5325E2,6.15E1,2.041E0,7.925E1,3.5706398E1,2.9527401E1,-2.0409678E-1,5.394816E-1,2.1629452E1,4.6294916E-1,2.3935E0,2.1266949E1,3.5397673E-1,2.3624199E1,1.3675E2,-2.8910303E-1,9.675E1,1.1058333E2,9.88E-1,5.35E1,1.2975E2,7.349E0,2.775115E1,1.2505E0,2.748035E1,5.7504997E0,2.268195E1,4.485E0,1.565E2,2.1225E0,3.2891604E-1,5.148E0,2.91073E1,3.3862513E-1,6.606E0,7.45E1,-2.3274512E-3,-1.5127274E-1,-3.3799577E-1,-1.4438038E-1,3.0229524E-1,-3.8279465E-1,-3.3049476E-1,7.8407034E-2,4.0106693E-1,-2.566833E-1,-2.4473014E-1,1.357038E-1,-7.495384E-2,-2.4536653E-1,-2.2553416E-1,6.7756824E-2,-2.8134298E-1,-3.847856E-2,3.46365E-3,1.4585608E-1,1.5981343E-1,-1.5410027E-1,-4.122477E-1,2.1596697E-1,-5.4400647E-1,6.2945396E-2,-3.266773E-2,2.6235154E-2,-1.3370487E-1,2.6181692E-1,2.0496537E-1,-3.6853588E-1,-7.9715274E-2,2.3740523E-1,1.5728138E-1,-2.8159365E-1,4.0047446E-1,1.1802029E-3,8.901574E-2,-5.2831155E-1,-8.702538E-2,-5.930281E-1,-2.0228888E-1,1.7710605E-1,4.238286E-2,-5.113321E-1],"split_indices":[5,4,5,6,4,2,3,6,2,6,6,5,0,2,6,5,0,2,6,2,2,2,3,1,2,6,5,2,6,4,4,0,0,4,0,2,4,0,4,6,0,6,6,2,5,6,3,4,2,4,3,4,3,6,2,0,3,4,0,3,5,0,0,0,0,0,0,0,0,0,0,0,0,0,0,0,0,0,0,0,0,0,0,0,0,0,0,0,0,0,0,0,0,0,0,0,0,0,0,0,0,0,0,0,0,0,0],"split_type":[0,0,0,0,0,0,0,0,0,0,0,0,0,0,0,0,0,0,0,0,0,0,0,0,0,0,0,0,0,0,0,0,0,0,0,0,0,0,0,0,0,0,0,0,0,0,0,0,0,0,0,0,0,0,0,0,0,0,0,0,0,0,0,0,0,0,0,0,0,0,0,0,0,0,0,0,0,0,0,0,0,0,0,0,0,0,0,0,0,0,0,0,0,0,0,0,0,0,0,0,0,0,0,0,0,0,0],"sum_hessian":[3.3062964E3,8.5771234E2,2.448584E3,2.0820241E2,6.4950995E2,2.1313413E3,3.172427E2,2.858385E1,1.7961856E2,3.208494E1,6.17425E2,3.2840054E2,1.8029408E3,2.1558224E2,1.0166048E2,2.5808904E0,2.600296E1,1.4662503E2,3.299352E1,9.891676E0,2.2193266E1,3.3753564E2,2.7988934E2,3.1763794E2,1.0762584E1,1.7462471E3,5.669375E1,2.0782205E2,7.760192E0,5.3003784E1,4.8656693E1,1.2226101E0,1.3582804E0,1.4493547E2,1.689562E0,2.752112E1,5.4723997E0,1.6840588E0,8.207618E0,2.0029835E1,2.1634321E0,5.9623398E1,2.7791226E2,1.8888753E2,9.100184E1,1.7987361E2,1.3776434E2,5.7020435E0,5.0605407E0,1.7022771E3,4.396998E1,5.1435356E0,5.1550213E1,1.9165074E2,1.6171312E1,1.2497772E0,6.5104146E0,4.959904E1,3.404743E0,4.3474785E1,5.1819053E0,6.110952E1,8.382595E1,2.0569153E1,6.9519672E0,3.0451727E0,2.427227E0,7.070856E0,1.1367615E0,1.8893225E1,1.13661E0,1.0959066E1,4.866433E1,2.2260374E2,5.5308506E1,1.1076273E1,1.7781125E2,1.5099919E1,7.590192E1,1.26852E2,5.3021614E1,1.3199338E2,5.77096E0,1.3502703E0,4.3517733E0,3.5153165E0,1.5452241E0,1.2086053E3,4.936717E2,1.054272E1,3.3427258E1,1.2354157E0,3.9081202E0,6.2637715E0,4.528644E1,1.8989337E2,1.7573708E0,1.3985881E1,2.185432E0,1.0943327E0,5.416082E0,4.468487E1,4.91417E0,2.9504273E0,4.0524357E1,3.3330827E0,1.8488226E0],"tree_param":{"num_deleted":"0","num_feature":"7","num_nodes":"107","size_leaf_vector":"0"}},{"base_weights":[-1.159221E-3,-1.983357E-2,4.349192E-1,-9.008991E-2,9.750967E-2,4.899678E-1,-1.906453E-1,-1.7170067E-1,8.493097E-3,6.869309E-1,7.7666126E-2,4.3262598E-1,1.1180314E0,-1.1240969E0,4.2100757E-1,-2.370076E-1,8.754461E-2,3.1656418E-2,-4.958381E-1,7.655704E-1,-8.162218E-1,-1.5908659E0,8.40495E-2,6.3806313E-1,1.9266486E-1,1.383122E0,2.814955E-2,-1.6002437E0,1.8369274E-1,5.4935284E-2,8.1766635E-1,-2.2085755E-1,-1.0846144E0,7.4769086E-3,8.800854E-1,-1.0209497E0,4.2328008E-2,-9.8661315E-1,3.0180106E-1,-8.109876E-1,8.4892666E-1,2.2003767E-1,-2.19777E0,7.011446E-2,8.275736E-1,-7.657907E-1,6.7926276E-1,-9.4118917E-1,2.985759E-1,-1.0991213E0,6.344074E-1,-3.57862E-1,-1.2432292E-1,1.7677324E-1,-1.3013678E0,5.348532E-1,-8.912371E-2,1.0455588E0,-9.293652E-1,2.7134642E-1,-1.6149659E0,2.8002277E-1,7.003603E-3,-1.7379816E0,-3.175058E-3,-1.257794E0,5.2300036E-1,-3.6222905E-2,9.0423006E-1,7.604287E-2,-1.8317467E0,1.0874081E0,-2.0739752E-1,4.8609358E-1,1.0159255E0,3.3227193E-1,-1.3978709E0,-1.292154E0,3.611604E-1,-2.5274025E-2,9.508154E-1],"categories":[],"categories_nodes":[],"categories_segments":[],"categories_sizes":[],"default_left":[1,1,1,1,1,1,1,1,1,1,1,1,1,1,1,1,1,1,1,1,0,1,1,1,1,0,0,0,0,1,0,1,1,1,1,1,1,1,1,0,1,0,0,1,1,0,1,1,1,0,1,0,0,0,0,0,0,0,0,0,0,0,0,0,0,0,0,0,0,0,0,0,0,0,0,0,0,0,0,0,0],"id":6,"left_children":[1,3,5,7,9,11,13,15,17,19,21,23,25,27,29,31,33,35,37,39,-1,41,43,45,47,-1,-1,-1,-1,49,-1,51,53,55,57,59,61,63,65,-1,67,-1,-1,69,71,-1,73,75,77,-1,79,-1,-1,-1,-1,-1,-1,-1,-1,-1,-1,-1,-1,-1,-1,-1,-1,-1,-1,-1,-1,-1,-1,-1,-1,-1,-1,-1,-1,-1,-1],"loss_changes":[2.6443302E1,2.5679039E1,4.6853313E0,1.5675401E1,1.3591351E1,3.9403057E0,7.041982E0,1.8066717E1,1.0334321E1,5.1011467E0,1.216625E1,5.506487E0,2.7478867E0,3.299653E0,1.0699799E0,1.1418949E1,1.3649938E1,9.540097E0,1.55049305E1,5.48534E0,0E0,5.27075E0,1.1612322E1,4.053528E0,6.778228E0,0E0,0E0,0E0,0E0,4.0844803E0,0E0,1.1025486E1,4.5139656E0,1.0056857E1,6.881673E0,6.9824915E0,7.0335836E0,1.7938505E1,6.0268373E0,0E0,1.7537518E0,0E0,0E0,1.2617781E1,5.7731886E0,0E0,3.4002323E0,3.2925358E0,5.468424E0,0E0,8.601856E-1,0E0,0E0,0E0,0E0,0E0,0E0,0E0,0E0,0E0,0E0,0E0,0E0,0E0,0E0,0E0,0E0,0E0,0E0,0E0,0E0,0E0,0E0,0E0,0E0,0E0,0E0,0E0,0E0,0E0,0E0],"parents":[2147483647,0,0,1,1,2,2,3,3,4,4,5,5,6,6,7,7,8,8,9,9,10,10,11,11,12,12,13,13,14,14,15,15,16,16,17,17,18,18,19,19,21,21,22,22,23,23,24,24,29,29,31,31,32,32,33,33,34,34,35,35,36,36,37,37,38,38,40,40,43,43,44,44,46,46,47,47,48,48,50,50],"right_children":[2,4,6,8,10,12,14,16,18,20,22,24,26,28,30,32,34,36,38,40,-1,42,44,46,48,-1,-1,-1,-1,50,-1,52,54,56,58,60,62,64,66,-1,68,-1,-1,70,72,-1,74,76,78,-1,80,-1,-1,-1,-1,-1,-1,-1,-1,-1,-1,-1,-1,-1,-1,-1,-1,-1,-1,-1,-1,-1,-1,-1,-1,-1,-1,-1,-1,-1,-1],"split_conditions":[5E-1,6.75E1,6.9845E0,1.1725E2,4.2405E0,6.7945004E0,7.4585E0,2.9834251E1,7.5629997E0,1.365E2,4.2904997E0,5.201E0,2.868145E1,3.427995E1,3.3538002E1,2.94342E1,1.8995E0,9.34E-1,8.2575E0,3.4429998E0,-2.4486654E-1,9.3E1,3.72314E1,8.24E-1,5.3595E0,4.149366E-1,8.444865E-3,-4.8007312E-1,5.5107825E-2,1.448E0,2.4529992E-1,5.4195004E0,9.025E1,9.025E1,7.895E0,2.595155E1,1.2114999E0,1.3225E2,1.3975E0,-2.4329628E-1,9.475E1,6.60113E-2,-6.593311E-1,3.633115E1,1.5455E0,-2.2973722E-1,4.767E0,2.4205051E1,2.060225E1,-3.297364E-1,1.205E2,-1.07358605E-1,-3.7296876E-2,5.3031974E-2,-3.9041033E-1,1.6045597E-1,-2.6737114E-2,3.1366765E-1,-2.7880958E-1,8.1403926E-2,-4.844898E-1,8.400683E-2,2.101081E-3,-5.213945E-1,-9.5251744E-4,-3.7733823E-1,1.5690011E-1,-1.0866872E-2,2.7126902E-1,2.2812862E-2,-5.49524E-1,3.2622242E-1,-6.221926E-2,1.4582808E-1,3.0477768E-1,9.9681586E-2,-4.193613E-1,-3.876462E-1,1.08348124E-1,-7.5822077E-3,2.852446E-1],"split_indices":[0,5,3,6,3,3,3,4,3,6,3,3,4,4,4,4,2,2,3,3,0,6,4,2,3,0,0,0,0,2,0,3,6,6,3,4,2,6,2,0,6,0,0,4,2,0,3,4,4,0,6,0,0,0,0,0,0,0,0,0,0,0,0,0,0,0,0,0,0,0,0,0,0,0,0,0,0,0,0,0,0],"split_type":[0,0,0,0,0,0,0,0,0,0,0,0,0,0,0,0,0,0,0,0,0,0,0,0,0,0,0,0,0,0,0,0,0,0,0,0,0,0,0,0,0,0,0,0,0,0,0,0,0,0,0,0,0,0,0,0,0,0,0,0,0,0,0,0,0,0,0,0,0,0,0,0,0,0,0,0,0,0,0,0,0],"sum_hessian":[3.2451152E3,3.1127705E3,1.3234482E2,1.9471782E3,1.1655923E3,1.21839874E2,1.0504943E1,1.0648845E3,8.8229364E2,3.6868027E1,1.1287242E3,1.1319414E2,8.645733E0,3.8268833E0,6.6780596E0,8.506753E2,2.1420927E2,8.444465E2,3.7847176E1,3.550141E1,1.3666141E0,3.3557434E0,1.1253684E3,6.0090244E1,5.3103897E1,6.737839E0,1.9078933E0,2.6415203E0,1.1853632E0,4.0650043E0,2.6130552E0,8.3600684E2,1.4668469E1,1.9547095E2,1.873833E1,7.525134E0,8.369213E2,2.3283985E1,1.4563192E1,1.3444273E0,3.4156982E1,1.0023466E0,2.353397E0,1.1057391E3,1.962933E1,1.2117931E0,5.8878452E1,3.8628376E0,4.924106E1,1.059058E0,3.0059462E0,3.4444888E2,4.9155795E2,2.1780202E0,1.2490449E1,2.9559364E1,1.6591158E2,1.7555096E1,1.1832368E0,2.5407891E0,4.984345E0,1.0738825E2,7.295331E2,1.2764429E1,1.0519556E1,1.226853E0,1.3336339E1,2.0288925E0,3.212809E1,1.1032601E3,2.4790225E0,1.5649726E1,3.979603E0,3.896507E1,1.9913382E1,1.0915267E0,2.7713108E0,1.120269E0,4.812079E1,1.2726696E0,1.7332768E0],"tree_param":{"num_deleted":"0","num_feature":"7","num_nodes":"81","size_leaf_vector":"0"}},{"base_weights":[-1.317843E-3,-2.0843208E-2,2.7003676E-1,-1.3423458E-1,2.2611117E-2,2.9196414E-1,-1.0842466E0,-2.3280616E-1,1.05115235E-1,6.984181E-3,3.3785293E-1,3.4718606E-1,-2.081263E-1,2.6238242E-1,-1.745011E0,-2.667885E-1,7.5229627E-1,1.3715001E0,2.7464908E-2,1.4234252E-1,-2.487208E-2,1.732102E-1,7.5544024E-1,1.0724877E-1,4.7170615E-1,-1.030596E0,1.0354717E-1,-2.2427218E-1,-8.250469E-1,9.589255E-1,-1.0982535E0,1.4939247E0,1.8734251E-1,1.6820629E-1,-2.4200708E-1,4.3820504E-2,6.898005E-1,-1.050335E0,-1.7205972E-2,3.112411E-1,-5.3803605E-1,9.6860963E-1,-2.6020087E-2,-3.273588E-1,5.361556E-1,4.2612374E-1,1.2954129E0,8.569077E-3,-1.6712748E0,4.350869E-1,-1.3357317E0,-6.732273E-1,-1.6787952E-1,9.731922E-1,-9.437452E-1,-7.991095E-2,1.1649929E0,9.254668E-2,1.3481483E0,-1.2686017E0,-6.3517585E-2,3.0033598E-3,8.216942E-1,-6.103896E-1,8.776979E-1,-1.5066936E0,1.3560764E-1,-1.1418834E-2,-1.0298841E0,9.655299E-2,7.077215E-1,5.9195715E-1,-8.9507735E-1,1.0668936E0,-3.7497354E-1,5.947209E-1,-1.3075465E0,-1.4387637E-1,-1.8618687E0,6.5989757E-1,-1.3323923E0,4.5395273E-1,-7.3031074E-1,3.156463E-1,-2.7228096E-1,-9.8673284E-1,6.3902164E-1],"categories":[],"categories_nodes":[],"categories_segments":[],"categories_sizes":[],"default_left":[1,1,1,1,1,1,1,1,1,1,1,1,1,0,0,1,1,1,1,1,1,1,1,1,1,1,1,1,1,1,0,0,0,1,1,1,1,1,1,1,1,1,1,1,1,1,0,1,0,1,0,0,0,0,0,0,0,0,0,0,0,0,0,0,0,0,0,0,0,0,0,0,0,0,0,0,0,0,0,0,0,0,0,0,0,0,0],"id":7,"left_children":[1,3,5,7,9,11,13,15,17,19,21,23,25,-1,-1,27,29,31,33,35,37,39,41,43,45,47,49,51,53,55,-1,-1,-1,57,59,61,63,65,67,69,71,73,75,77,79,81,-1,83,-1,85,-1,-1,-1,-1,-1,-1,-1,-1,-1,-1,-1,-1,-1,-1,-1,-1,-1,-1,-1,-1,-1,-1,-1,-1,-1,-1,-1,-1,-1,-1,-1,-1,-1,-1,-1,-1,-1],"loss_changes":[1.69612E1,1.4717604E1,6.697769E0,1.9547874E1,1.0637398E1,5.9337215E0,3.6931453E0,1.9832191E1,2.3766525E1,8.881178E0,6.880993E0,5.6713734E0,5.6775136E0,0E0,0E0,1.3287388E1,8.630704E0,1.7446365E0,8.729784E0,2.1133245E1,1.3090188E1,7.475943E0,4.7798557E0,1.2613995E1,4.170952E0,4.0511804E0,8.534987E0,1.3275515E1,9.41291E0,4.0235043E0,0E0,0E0,0E0,1.3363802E1,1.439785E1,1.0589547E1,1.5139076E1,6.891691E0,9.693729E0,5.2923756E0,5.5591917E0,3.3647919E0,6.4184933E0,9.23872E0,8.732158E0,4.215418E0,0E0,3.7118718E-1,0E0,4.7775373E0,0E0,0E0,0E0,0E0,0E0,0E0,0E0,0E0,0E0,0E0,0E0,0E0,0E0,0E0,0E0,0E0,0E0,0E0,0E0,0E0,0E0,0E0,0E0,0E0,0E0,0E0,0E0,0E0,0E0,0E0,0E0,0E0,0E0,0E0,0E0,0E0,0E0],"parents":[2147483647,0,0,1,1,2,2,3,3,4,4,5,5,6,6,7,7,8,8,9,9,10,10,11,11,12,12,15,15,16,16,17,17,18,18,19,19,20,20,21,21,22,22,23,23,24,24,25,25,26,26,27,27,28,28,29,29,33,33,34,34,35,35,36,36,37,37,38,38,39,39,40,40,41,41,42,42,43,43,44,44,45,45,47,47,49,49],"right_children":[2,4,6,8,10,12,14,16,18,20,22,24,26,-1,-1,28,30,32,34,36,38,40,42,44,46,48,50,52,54,56,-1,-1,-1,58,60,62,64,66,68,70,72,74,76,78,80,82,-1,84,-1,86,-1,-1,-1,-1,-1,-1,-1,-1,-1,-1,-1,-1,-1,-1,-1,-1,-1,-1,-1,-1,-1,-1,-1,-1,-1,-1,-1,-1,-1,-1,-1,-1,-1,-1,-1,-1,-1],"split_conditions":[7.45E1,2.3484451E1,1.5625E2,1.2341667E2,3.70729E1,7.348E0,7.65E1,8E0,1.2375E2,2.47311E1,6.5369997E0,2.42942E1,1.64E0,7.871473E-2,-5.235033E-1,1.2016667E2,9.396E0,2.303985E1,1.8985E0,2.459645E1,2.47744E1,6.005E0,4.085175E1,1.797E0,7.3275E0,1.4100001E0,2.335E0,9.075E1,3.995E0,1.8870001E0,-3.2947606E-1,4.4817743E-1,5.6202754E-2,1.8815E0,1.967E0,2.3325E0,1.0075E2,6.9E1,2.5955E0,5.572E0,3.739935E1,1.963E0,1.474E0,6.7125E0,7.0585003E0,7.251E0,3.886239E-1,2.528005E1,-5.0138247E-1,7.55E0,-4.0071955E-1,-2.0196821E-1,-5.0363857E-2,2.9195768E-1,-2.8312358E-1,-2.3973286E-2,3.4949788E-1,2.7764006E-2,4.0444452E-1,-3.805805E-1,-1.9055277E-2,9.0100797E-4,2.4650827E-1,-1.8311688E-1,2.633094E-1,-4.520081E-1,4.0682293E-2,-3.4256505E-3,-3.0896524E-1,2.8965898E-2,2.1231645E-1,1.7758715E-1,-2.6852322E-1,3.200681E-1,-1.1249206E-1,1.7841628E-1,-3.9226398E-1,-4.3162912E-2,-5.5856067E-1,1.9796927E-1,-3.9971772E-1,1.3618582E-1,-2.1909323E-1,9.469389E-2,-8.168429E-2,-2.9601985E-1,1.917065E-1],"split_indices":[5,4,6,6,4,3,5,3,6,4,3,4,2,0,0,6,3,4,2,4,4,3,4,2,3,2,2,6,3,2,0,0,0,2,2,2,6,5,2,3,4,2,2,3,3,3,0,4,0,3,0,0,0,0,0,0,0,0,0,0,0,0,0,0,0,0,0,0,0,0,0,0,0,0,0,0,0,0,0,0,0,0,0,0,0,0,0],"split_type":[0,0,0,0,0,0,0,0,0,0,0,0,0,0,0,0,0,0,0,0,0,0,0,0,0,0,0,0,0,0,0,0,0,0,0,0,0,0,0,0,0,0,0,0,0,0,0,0,0,0,0,0,0,0,0,0,0,0,0,0,0,0,0,0,0,0,0,0,0,0,0,0,0,0,0,0,0,0,0,0,0,0,0,0,0,0,0],"sum_hessian":[3.1991929E3,2.9853076E3,2.1388512E2,8.26505E2,2.1588027E3,2.1124916E2,2.6359506E0,5.8543304E2,2.4107195E2,2.0578164E3,1.009864E2,1.9051727E2,2.07319E1,1.0661207E0,1.5698297E0,5.666161E2,1.881696E1,1.2965038E1,2.2810692E2,3.9137637E2,1.66644E3,7.344423E1,2.7542171E1,6.572784E1,1.2478943E2,5.0634356E0,1.5668464E1,5.278197E2,3.879642E1,1.736035E1,1.4566109E0,1.1513153E1,1.4518851E0,1.5009186E2,7.801505E1,3.3260068E2,5.877568E1,1.1356218E1,1.6550837E3,6.1978516E1,1.1465712E1,2.1451164E1,6.0910077E0,3.2764557E1,3.2963284E1,1.19683685E2,5.105748E0,2.3074439E0,2.7559917E0,1.330203E1,2.3664346E0,5.7679718E1,4.7013998E2,1.9565451E0,3.6839874E1,2.9749768E0,1.4385372E1,1.4206113E2,8.030734E0,1.0650506E1,6.736455E1,3.1697214E2,1.5628529E1,7.137555E0,5.1638126E1,8.005275E0,3.3509436E0,1.6466847E3,8.399009E0,4.101373E1,2.0964785E1,2.5949743E0,8.870737E0,2.0180857E1,1.2703077E0,4.464458E0,1.6265498E0,3.0242231E1,2.5223243E0,3.1522583E1,1.4406995E0,1.1746442E2,2.2192636E0,1.0430703E0,1.2643735E0,1.187109E0,1.2114921E1],"tree_param":{"num_deleted":"0","num_feature":"7","num_nodes":"87","size_leaf_vector":"0"}},{"base_weights":[-1.4098407E-3,-1.404462E-1,3.191028E-2,-3.8443288E-1,-6.803689E-2,1.2409691E-1,-1.624959E-2,5.8693923E-2,-5.167114E-1,-1.0907354E-1,2.3231098E-1,3.7052486E-2,2.3461016E-1,-6.890975E-2,1.6052955E-1,3.757356E-1,-1.038033E0,-6.092827E-1,2.4834913E-1,-7.8332335E-2,-8.5429233E-1,-2.9750213E-1,5.62108E-1,1.5983167E-1,-2.5992277E-1,3.026998E-1,-1.6294806E-1,-1.4410108E-1,5.4873295E-2,3.8409086E-3,2.7895835E-1,7.948687E-1,-5.3352404E-1,-6.4009E-1,6.4930725E-1,9.408381E-1,-9.18301E-1,-1.0173336E0,-6.1819497E-2,-1.1151503E0,6.94878E-1,3.6391163E-1,-9.262939E-1,1.4136592E0,3.3238968E-1,-1.4835119E0,1.7144534E-1,7.127046E-2,-4.8230612E-1,2.4799669E-1,8.812063E-1,-4.3634015E-1,6.889023E-1,2.5650064E-2,-3.216523E-1,-9.2603825E-2,1.9604331E-1,2.6904812E-1,-2.5291842E-1,7.278102E-1,1.23565E-1,-1.6654234E-1,1.9200287E0,-1.0500222E0,2.4628134E-1,-3.9801484E-1,-8.2173187E-1,1.6076764E0,2.2061919E-1,-1.0204287E0,-2.5863042E-1,-1.1303931E0,-2.7376723E-1,8.238651E-1,-8.939418E-2,-1.3802549E0,6.366776E-1,6.794794E-1,-1.0932009E0,-5.179142E-2,-1.3281024E0,8.6276466E-1,-1.0773555E-1,1.1812375E0,1.448797E-1,-3.6040464E-1,4.7308964E-1,5.693711E-1,-6.862695E-1,2.911073E-1,-5.2635235E-1,1.7391963E0,6.757768E-1,-1.5741825E0,-2.671137E-1,9.88169E-1,-2.8200996E-1,-1.4344384E-1,3.4538075E-1,-6.52188E-1,-2.580614E-1,1.3584967E-2,-9.651745E-1,4.1377813E-1,-9.250758E-2,-5.2863766E-2,5.693507E-1,-1.7849482E0,-1.4494522E-1,-1.0885526E0,8.046371E-1,9.925547E-1,1.9462362E-2],"categories":[],"categories_nodes":[],"categories_segments":[],"categories_sizes":[],"default_left":[1,1,1,1,1,1,1,1,1,1,1,1,1,1,1,1,0,1,1,1,1,1,1,1,1,1,1,1,1,1,1,1,1,1,0,1,1,1,1,1,0,1,1,0,1,0,1,1,1,1,1,1,1,1,1,1,1,1,1,1,1,0,0,0,0,0,0,0,0,0,0,0,0,0,0,0,0,0,0,0,0,0,0,0,0,0,0,0,0,0,0,0,0,0,0,0,0,0,0,0,0,0,0,0,0,0,0,0,0,0,0,0,0],"id":8,"left_children":[1,3,5,7,9,11,13,15,17,19,21,23,25,27,29,31,-1,33,35,37,39,41,43,45,47,49,51,53,55,57,59,61,63,65,-1,67,69,71,73,75,-1,77,79,-1,81,-1,83,85,87,89,91,93,95,97,99,101,103,105,107,109,111,-1,-1,-1,-1,-1,-1,-1,-1,-1,-1,-1,-1,-1,-1,-1,-1,-1,-1,-1,-1,-1,-1,-1,-1,-1,-1,-1,-1,-1,-1,-1,-1,-1,-1,-1,-1,-1,-1,-1,-1,-1,-1,-1,-1,-1,-1,-1,-1,-1,-1,-1,-1],"loss_changes":[1.4685154E1,1.0800183E1,1.1354827E1,8.238295E0,5.8647366E0,8.43333E0,1.5655439E1,1.1895321E1,7.7959137E0,9.49765E0,1.0174109E1,1.7984997E1,1.0511196E1,1.2065813E1,7.1618843E0,1.0486239E1,0E0,4.160343E0,1.0850563E1,6.1713552E0,7.4182415E0,9.747117E0,6.5027056E0,6.9109907E0,1.06640835E1,1.02347145E1,1.3613333E1,2.430744E1,1.022573E1,1.1451927E1,1.5242985E1,2.0303751E1,3.8549082E0,3.8402824E0,0E0,3.6079793E0,8.0375195E-2,2.692237E-1,9.749371E0,7.5914745E0,0E0,6.143357E0,4.1060543E0,0E0,6.950897E0,0E0,9.143675E0,1.0378198E1,1.8939865E1,1.0273928E1,3.785345E0,8.030099E0,4.4268365E0,2.2383125E1,8.115986E0,2.2294302E1,1.5796928E1,8.026779E0,1.38774605E1,8.736393E0,1.4862196E1,0E0,0E0,0E0,0E0,0E0,0E0,0E0,0E0,0E0,0E0,0E0,0E0,0E0,0E0,0E0,0E0,0E0,0E0,0E0,0E0,0E0,0E0,0E0,0E0,0E0,0E0,0E0,0E0,0E0,0E0,0E0,0E0,0E0,0E0,0E0,0E0,0E0,0E0,0E0,0E0,0E0,0E0,0E0,0E0,0E0,0E0,0E0,0E0,0E0,0E0,0E0,0E0],"parents":[2147483647,0,0,1,1,2,2,3,3,4,4,5,5,6,6,7,7,8,8,9,9,10,10,11,11,12,12,13,13,14,14,15,15,17,17,18,18,19,19,20,20,21,21,22,22,23,23,24,24,25,25,26,26,27,27,28,28,29,29,30,30,31,31,32,32,33,33,35,35,36,36,37,37,38,38,39,39,41,41,42,42,44,44,46,46,47,47,48,48,49,49,50,50,51,51,52,52,53,53,54,54,55,55,56,56,57,57,58,58,59,59,60,60],"right_children":[2,4,6,8,10,12,14,16,18,20,22,24,26,28,30,32,-1,34,36,38,40,42,44,46,48,50,52,54,56,58,60,62,64,66,-1,68,70,72,74,76,-1,78,80,-1,82,-1,84,86,88,90,92,94,96,98,100,102,104,106,108,110,112,-1,-1,-1,-1,-1,-1,-1,-1,-1,-1,-1,-1,-1,-1,-1,-1,-1,-1,-1,-1,-1,-1,-1,-1,-1,-1,-1,-1,-1,-1,-1,-1,-1,-1,-1,-1,-1,-1,-1,-1,-1,-1,-1,-1,-1,-1,-1,-1,-1,-1,-1,-1],"split_conditions":[5.75E1,2.35596E1,1.4595001E0,2.0604801E1,3.5288498E1,5.8585E0,1.3075E2,1.929E0,1.3225E2,3.38983E1,5.4025E0,5.3715E0,7.3459997E0,5E-1,6.1359997E0,1.1025E2,-3.1140992E-1,7.492E0,1.3675E2,6.875E1,5E-1,5.25E1,5.4895E0,5.775E1,1.2565E0,1.4445E0,3.234245E1,6.0684996E0,6.191E0,1.3825E2,6.35E1,1.0025E2,1.2441667E2,1.5534999E0,1.9479218E-1,1.431E0,2.2938148E1,3.0127449E1,7.925E1,7.4309998E0,2.084634E-1,1.306E0,4.331E0,4.2409778E-1,1.1225E2,-4.450536E-1,7.875E1,5E-1,2.201235E1,1.4305E0,2.23367E1,7.4495E0,3.568125E1,6.95E1,2.166345E1,5.9895E0,2.5273449E1,6.75E1,2.124105E1,2.19217E1,6.235E0,-4.9962703E-2,5.760086E-1,-3.1500667E-1,7.3884405E-2,-1.1940446E-1,-2.4651957E-1,4.8230293E-1,6.618576E-2,-3.0612862E-1,-7.758913E-2,-3.3911794E-1,-8.213017E-2,2.4715954E-1,-2.6818255E-2,-4.1407648E-1,1.910033E-1,2.0384383E-1,-3.2796028E-1,-1.5537426E-2,-3.9843073E-1,2.588294E-1,-3.2320667E-2,3.5437125E-1,4.346391E-2,-1.08121395E-1,1.419269E-1,1.7081134E-1,-2.0588087E-1,8.733219E-2,-1.5790571E-1,5.217589E-1,2.0273304E-1,-4.7225478E-1,-8.013411E-2,2.964507E-1,-8.460299E-2,-4.3033153E-2,1.0361423E-1,-1.956564E-1,-7.7418424E-2,4.0754904E-3,-2.8955236E-1,1.24133445E-1,-2.7752275E-2,-1.585913E-2,1.7080522E-1,-5.354845E-1,-4.3483566E-2,-3.265658E-1,2.4139114E-1,2.9776642E-1,5.838709E-3],"split_indices":[5,4,2,4,4,3,6,2,6,4,3,3,3,1,3,6,0,3,6,6,0,5,3,6,2,2,4,3,3,6,5,6,6,2,0,2,4,4,6,3,0,2,3,0,6,0,6,1,4,2,4,3,4,5,4,3,4,5,4,4,3,0,0,0,0,0,0,0,0,0,0,0,0,0,0,0,0,0,0,0,0,0,0,0,0,0,0,0,0,0,0,0,0,0,0,0,0,0,0,0,0,0,0,0,0,0,0,0,0,0,0,0,0],"split_type":[0,0,0,0,0,0,0,0,0,0,0,0,0,0,0,0,0,0,0,0,0,0,0,0,0,0,0,0,0,0,0,0,0,0,0,0,0,0,0,0,0,0,0,0,0,0,0,0,0,0,0,0,0,0,0,0,0,0,0,0,0,0,0,0,0,0,0,0,0,0,0,0,0,0,0,0,0,0,0,0,0,0,0,0,0,0,0,0,0,0,0,0,0,0,0,0,0,0,0,0,0,0,0,0,0,0,0,0,0,0,0,0,0],"sum_hessian":[3.167918E3,6.118034E2,2.5561145E3,1.3902905E2,4.7277438E2,8.7658905E2,1.6795254E3,3.208894E1,1.0694012E2,4.165041E2,5.627028E1,4.911086E2,3.8548044E2,1.2945164E3,3.8500903E2,2.540288E1,6.686059E0,9.557883E1,1.136129E1,4.010648E2,1.5439312E1,2.1626158E1,3.464412E1,3.4778488E2,1.4332372E2,3.2931705E2,5.616341E1,8.052235E2,4.892928E2,1.6617786E2,2.1883119E2,1.7473904E1,7.9289775E0,9.3774864E1,1.8039638E0,7.2509165E0,4.1103735E0,5.883635E0,3.9518115E2,1.3454012E1,1.9852993E0,1.0744978E1,1.088118E1,6.2652726E0,2.8378847E1,1.5511959E0,3.462337E2,5.7849125E1,8.54746E1,3.0217252E2,2.714452E1,4.288705E1,1.3276358E1,4.120914E2,3.9313214E2,2.39469E2,2.498238E2,8.172061E1,8.445724E1,5.5329346E1,1.6350185E2,9.882029E0,7.5918746E0,4.56131E0,3.3676677E0,4.156807E1,5.2206795E1,3.1251702E0,4.1257463E0,3.08577E0,1.0246035E0,4.655529E0,1.2281058E0,1.1060061E1,3.841211E2,1.1869851E1,1.584161E0,9.270863E0,1.4741155E0,3.7810142E0,7.1001654E0,1.243442E1,1.59444275E1,7.7610717E0,3.3847263E2,2.7938168E1,2.9910957E1,1.3593287E1,7.188131E1,2.868279E2,1.5344608E1,3.801432E0,2.3343088E1,4.4777045E0,3.8409348E1,1.0134731E1,3.141627E0,2.6990164E2,1.4218977E2,6.1937008E1,3.3119513E2,2.1436584E2,2.5103142E1,1.4213646E2,1.07687355E2,3.9838917E1,4.1881695E1,4.5378838E0,7.991936E1,1.7108968E0,5.3618446E1,1.6578613E1,1.4692323E2],"tree_param":{"num_deleted":"0","num_feature":"7","num_nodes":"113","size_leaf_vector":"0"}},{"base_weights":[-1.4894021E-3,-1.3437866E-2,2.9351035E-1,-1.13597356E-1,2.0193698E-2,6.868574E-1,2.0124443E-1,-2.6068896E-1,-1.2417714E-2,3.993656E-1,7.0847217E-3,9.49248E-1,-3.531105E-2,-5.4602486E-1,2.7064878E-1,-1.3266118E-1,-6.149109E-1,1.0347632E0,-4.8093155E-2,2.8471294E-1,1.1456759E0,1.03194555E-2,-1.0580405E0,1.0819491E0,3.5702983E-1,-1.1525124E0,7.129087E-1,-8.423604E-1,4.520938E-1,6.1050147E-1,1.39805E-1,-1.7048734E-1,1.7260145E0,-1.0744474E0,-3.2618573E-1,-8.0132115E-1,1.3301754E0,-1.15335315E-1,1.6356084E-1,3.7538487E-1,-9.973195E-1,-7.748014E-2,1.3636583E0,-2.5981253E-2,1.0306572E-1,-1.2782243E-1,-1.5519583E0,1.1385106E0,3.9994025E-1,-7.017799E-1,8.795757E-1,-1.594195E0,-2.1135706E-1,1.5897457E-1,8.889355E-1,-6.072791E-2,-1.2503246E0,9.371876E-2,8.0938774E-1,-1.2747556E0,1.8486872E-1,9.2985445E-1,-2.1693425E-1,-1.1053212E0,-1.7873482E-1,1.2998422E0,-5.759424E-1,1.8896942E0,4.8869777E-2,-1.7657386E-1,3.0541572E-1,3.530525E-1,-5.62574E-1,4.3787894E-1,-7.3465973E-1,-1.3329498E0,8.8399775E-2,1.5931802E0,4.767281E-1,-3.8348474E-2,4.193658E-1,7.993848E-2,7.5574684E-1,-9.029711E-1,6.8282235E-1,7.138402E-1,-7.184534E-1,-1.6220057E-1,-1.5520735E0,-3.0993497E-1,8.510093E-1,8.11584E-2,1.0025892E0,-1.1686168E-1,3.4096906E-1],"categories":[],"categories_nodes":[],"categories_segments":[],"categories_sizes":[],"default_left":[1,1,1,1,1,1,1,1,1,1,1,1,1,1,1,1,1,1,1,1,1,1,1,1,1,1,1,1,0,1,1,1,0,1,1,0,1,1,1,1,1,0,1,1,1,1,0,0,0,0,0,0,0,0,0,1,1,1,1,0,1,0,0,0,0,0,0,0,0,0,0,0,0,0,0,0,0,0,0,0,0,0,0,0,0,0,0,0,0,0,0,0,0,0,0],"id":9,"left_children":[1,3,5,7,9,11,13,15,17,19,21,23,25,27,29,31,33,35,37,39,41,43,45,47,49,51,53,55,-1,57,59,61,-1,63,65,-1,67,69,71,73,75,-1,77,79,81,83,-1,-1,-1,-1,-1,-1,-1,-1,-1,85,87,89,91,-1,93,-1,-1,-1,-1,-1,-1,-1,-1,-1,-1,-1,-1,-1,-1,-1,-1,-1,-1,-1,-1,-1,-1,-1,-1,-1,-1,-1,-1,-1,-1,-1,-1,-1,-1],"loss_changes":[1.1002678E1,1.0107452E1,4.2716837E0,1.1221907E1,1.1164211E1,4.329712E0,5.3257403E0,1.385598E1,1.6783106E1,6.0963087E0,7.4963155E0,9.234543E-1,6.678414E0,2.9884155E0,4.006634E0,1.6254986E1,1.0438427E1,9.094063E0,6.1971455E0,8.092291E0,2.6825237E0,7.2984095E0,2.8283525E0,5.0872803E-2,3.1309776E0,9.901333E-1,3.2808137E-1,2.2031112E0,0E0,2.522768E0,4.553685E0,1.1619041E1,0E0,6.580696E-1,2.161253E1,0E0,9.317684E0,8.557589E0,1.4656966E1,4.673684E0,1.815577E0,0E0,9.212837E-1,8.598295E0,9.143932E0,2.7370014E0,0E0,0E0,0E0,0E0,0E0,0E0,0E0,0E0,0E0,2.2970097E0,1.2733855E0,2.7572737E0,2.468855E0,0E0,3.1729825E0,0E0,0E0,0E0,0E0,0E0,0E0,0E0,0E0,0E0,0E0,0E0,0E0,0E0,0E0,0E0,0E0,0E0,0E0,0E0,0E0,0E0,0E0,0E0,0E0,0E0,0E0,0E0,0E0,0E0,0E0,0E0,0E0,0E0,0E0],"parents":[2147483647,0,0,1,1,2,2,3,3,4,4,5,5,6,6,7,7,8,8,9,9,10,10,11,11,12,12,13,13,14,14,15,15,16,16,17,17,18,18,19,19,20,20,21,21,22,22,23,23,24,24,25,25,26,26,27,27,29,29,30,30,31,31,33,33,34,34,36,36,37,37,38,38,39,39,40,40,42,42,43,43,44,44,45,45,55,55,56,56,57,57,58,58,60,60],"right_children":[2,4,6,8,10,12,14,16,18,20,22,24,26,28,30,32,34,36,38,40,42,44,46,48,50,52,54,56,-1,58,60,62,-1,64,66,-1,68,70,72,74,76,-1,78,80,82,84,-1,-1,-1,-1,-1,-1,-1,-1,-1,86,88,90,92,-1,94,-1,-1,-1,-1,-1,-1,-1,-1,-1,-1,-1,-1,-1,-1,-1,-1,-1,-1,-1,-1,-1,-1,-1,-1,-1,-1,-1,-1,-1,-1,-1,-1,-1,-1],"split_conditions":[5E-1,5.95E1,4.172E0,5.2524996E0,4.2415E0,1.388E0,4.485E0,1.588E0,5.2834997E0,1.6795001E0,9.495E0,1.23E2,1.6345E0,1.738E0,5.201E0,1.5795E0,1.0525E2,9.675E1,1.8610001E0,1.581E0,2.2146149E1,2.79542E1,6.65E1,1.227E0,1.3025E2,3.085105E1,1.0625E2,1.162E0,1.3562815E-1,4.767E0,5.2390003E0,7.025E1,5.178044E-1,3.321055E1,1.0825E2,-2.4039635E-1,1.2275E2,7.0545E0,6.6470003E0,1.3875E2,7.35E1,-2.3244042E-2,4.1665E0,1.5316666E2,2.3115E0,6.5E1,-4.6558753E-1,3.4155318E-1,1.1998208E-1,-2.1053398E-1,2.6387274E-1,-4.7825852E-1,-6.340712E-2,4.7692373E-2,2.6668066E-1,1.185E2,4.295E0,1.6165E0,2.52432E1,-3.824267E-1,6.15E1,2.7895635E-1,-6.508028E-2,-3.3159637E-1,-5.362045E-2,3.899527E-1,-1.7278272E-1,5.669083E-1,1.4660934E-2,-5.297216E-2,9.162472E-2,1.05915755E-1,-1.6877222E-1,1.3136369E-1,-2.2039793E-1,-3.9988494E-1,2.6519934E-2,4.7795406E-1,1.4301844E-1,-1.1504542E-2,1.2580974E-1,2.3981545E-2,2.2672406E-1,-2.7089134E-1,2.0484671E-1,2.1415207E-1,-2.1553603E-1,-4.8660174E-2,-4.6562207E-1,-9.29805E-2,2.5530282E-1,2.4347521E-2,3.0077678E-1,-3.5058506E-2,1.0229072E-1],"split_indices":[0,5,3,3,3,2,3,2,3,2,3,6,2,2,3,2,6,6,2,2,4,4,5,2,6,4,6,2,0,3,3,6,0,4,6,0,6,3,3,6,5,0,3,6,2,5,0,0,0,0,0,0,0,0,0,6,3,2,4,0,5,0,0,0,0,0,0,0,0,0,0,0,0,0,0,0,0,0,0,0,0,0,0,0,0,0,0,0,0,0,0,0,0,0,0],"split_type":[0,0,0,0,0,0,0,0,0,0,0,0,0,0,0,0,0,0,0,0,0,0,0,0,0,0,0,0,0,0,0,0,0,0,0,0,0,0,0,0,0,0,0,0,0,0,0,0,0,0,0,0,0,0,0,0,0,0,0,0,0,0,0,0,0,0,0,0,0,0,0,0,0,0,0,0,0,0,0,0,0,0,0,0,0,0,0,0,0,0,0,0,0,0,0],"sum_hessian":[3.1193909E3,2.9988806E3,1.20510124E2,7.532423E2,2.2456384E3,2.167237E1,9.883775E1,3.063314E2,4.4691092E2,7.405857E1,2.1715798E3,1.566592E1,6.006451E0,7.8160353E0,9.102172E1,2.2601608E2,8.031532E1,1.3801143E1,4.3310977E2,6.539387E1,8.664706E0,2.165992E3,5.5877004E0,1.2122608E1,3.5433123E0,2.1924553E0,3.8139958E0,6.147061E0,1.6689742E0,2.4283098E1,6.673862E1,2.223983E2,3.6177833E0,2.994051E1,5.0374813E1,1.6754037E0,1.2125739E1,3.290319E2,1.0407787E2,6.1734856E1,3.6590111E0,1.4080919E0,7.2566137E0,1.5572194E3,6.087727E2,2.374496E0,3.2132044E0,1.0576141E1,1.5464673E0,1.0575162E0,2.485796E0,1.0199327E0,1.1725225E0,1.3786588E0,2.435337E0,2.5020857E0,3.6449752E0,7.1571918E0,1.7125906E1,1.2179834E0,6.552064E1,8.237181E0,2.1416112E2,2.8716679E1,1.2238312E0,6.147486E0,4.4227325E1,8.109621E0,4.0161176E0,2.877338E2,4.1298103E1,8.2946106E1,2.1131767E1,5.901776E1,2.717093E0,2.6210501E0,1.0379608E0,5.132204E0,2.1244097E0,1.5160332E3,4.118613E1,5.890236E2,1.9749115E1,1.1556022E0,1.2188936E0,1.109808E0,1.3922777E0,1.1251507E0,2.5198245E0,5.0540147E0,2.1031773E0,3.888638E0,1.3237268E1,2.2425388E1,4.309525E1],"tree_param":{"num_deleted":"0","num_feature":"7","num_nodes":"95","size_leaf_vector":"0"}},{"base_weights":[-1.1222004E-3,-1.2016528E-2,2.2770531E-1,-1.0636303E-1,1.4236098E-2,8.074127E-1,1.4155446E-1,9.742324E-1,-1.2060419E-1,5.6949055E-1,8.059833E-3,1.0557332E0,2.225348E-1,-7.6201606E-1,1.797396E-1,1.239363E0,-1.5580986E-1,-1.4309372E-1,4.2433363E-1,1.4854026E-1,1.1120762E0,7.1073964E-2,-3.9401885E-2,1.6152425E-1,1.2720224E0,-1.2337922E0,7.615727E-1,-1.3765959E0,-9.964188E-2,2.0836376E-1,-9.011167E-1,-1.2652665E-1,-8.830997E-1,1.1028333E0,1.7279613E-1,5.063073E-1,-8.5787743E-1,2.2701076E-1,1.5955288E0,5.2714918E-2,7.073492E-1,-2.1882887E-1,-4.225782E-3,-1.3581343E-1,3.548237E-1,1.126256E0,-6.5859176E-2,8.302796E-1,-8.791776E-1,2.3995505E-1,-5.7780796E-1,-1.286084E0,-5.905497E-2,1.325017E-1,-1.6946483E-1,-1.1400408E0,7.526197E-1,4.5981488E-1,1.2947428E0,-3.0276528E-1,5.796956E-1,-3.2614553E-1,1.1346503E0,-1.2110304E0,1.0407026E-1,-6.841965E-1,1.2326398E0,1.8983121E0,2.4176608E-1,2.8262824E-2,4.1305077E-1,9.299722E-1,-3.4899827E-2,-7.5107425E-2,-6.4993674E-1,-6.146893E-1,1.1542612E-2,8.682564E-2,5.1801664E-1,1.3214023E-1,-1.2015271E0],"categories":[],"categories_nodes":[],"categories_segments":[],"categories_sizes":[],"default_left":[1,1,1,1,1,1,1,1,1,1,1,1,1,1,1,0,0,1,1,1,1,1,1,1,0,0,1,0,1,1,1,1,1,1,1,1,1,1,1,1,1,1,1,0,0,0,0,0,0,1,1,0,0,0,0,0,0,0,0,0,0,0,0,0,0,0,0,0,0,0,0,0,0,0,0,0,0,0,0,0,0],"id":10,"left_children":[1,3,5,7,9,11,13,15,17,19,21,23,25,27,29,-1,-1,31,33,35,37,39,41,43,-1,-1,45,-1,47,49,51,53,55,57,59,61,63,65,67,69,71,73,75,-1,-1,-1,-1,-1,-1,77,79,-1,-1,-1,-1,-1,-1,-1,-1,-1,-1,-1,-1,-1,-1,-1,-1,-1,-1,-1,-1,-1,-1,-1,-1,-1,-1,-1,-1,-1,-1],"loss_changes":[7.7070017E0,7.310576E0,6.902504E0,1.0004845E1,7.9154716E0,2.37432E0,4.399205E0,2.7300377E0,7.8432665E0,5.6343575E0,6.8368893E0,2.181983E0,6.1375194E0,1.9795375E0,3.8797526E0,0E0,0E0,7.3741693E0,4.1480045E0,5.998339E0,4.3184805E0,1.1434424E1,8.229451E0,2.5220877E-1,0E0,0E0,1.7190125E0,0E0,3.3255463E0,3.0461302E0,9.82954E-1,6.6780396E0,6.4072657E0,2.3016262E-1,3.993671E0,6.662055E0,1.6288462E0,5.4528084E0,2.3729362E0,8.40798E0,4.570122E0,1.3193484E1,1.0511927E1,0E0,0E0,0E0,0E0,0E0,0E0,4.777161E0,2.2912738E0,0E0,0E0,0E0,0E0,0E0,0E0,0E0,0E0,0E0,0E0,0E0,0E0,0E0,0E0,0E0,0E0,0E0,0E0,0E0,0E0,0E0,0E0,0E0,0E0,0E0,0E0,0E0,0E0,0E0,0E0],"parents":[2147483647,0,0,1,1,2,2,3,3,4,4,5,5,6,6,7,7,8,8,9,9,10,10,11,11,12,12,13,13,14,14,17,17,18,18,19,19,20,20,21,21,22,22,23,23,26,26,28,28,29,29,30,30,31,31,32,32,33,33,34,34,35,35,36,36,37,37,38,38,39,39,40,40,41,41,42,42,49,49,50,50],"right_children":[2,4,6,8,10,12,14,16,18,20,22,24,26,28,30,-1,-1,32,34,36,38,40,42,44,-1,-1,46,-1,48,50,52,54,56,58,60,62,64,66,68,70,72,74,76,-1,-1,-1,-1,-1,-1,78,80,-1,-1,-1,-1,-1,-1,-1,-1,-1,-1,-1,-1,-1,-1,-1,-1,-1,-1,-1,-1,-1,-1,-1,-1,-1,-1,-1,-1,-1,-1],"split_conditions":[7.55E1,1.0383333E2,9.925E1,9.08E-1,1.869935E1,6.443E0,1.0375E2,1.0025E2,3.5345497E1,1.83598E1,1.5015E0,4.8805E0,7.65E1,1.7685E0,1.56E2,3.718089E-1,-4.674296E-2,2.4074998E0,3.6538948E1,6.3754997E0,6.25E1,1.4944999E0,1.5995E0,5E-1,3.8160673E-1,-3.7013766E-1,1.4295001E0,-4.1297877E-1,1.8515E0,2.3284998E0,1.6375E2,8.025E1,2.5910099E1,3.585125E1,9.675E1,5.6140003E0,7.0715E0,7.293E0,1.1966667E2,3.713805E1,2.7988651E1,1.5705E0,5.15E1,-4.074403E-2,1.06447116E-1,3.378768E-1,-1.9757753E-2,2.4908389E-1,-2.637533E-1,1.8234999E0,1.225E2,-3.8582525E-1,-1.7716492E-2,3.9750513E-2,-5.083945E-2,-3.4201223E-1,2.2578591E-1,1.3794447E-1,3.8842288E-1,-9.082959E-2,1.7390868E-1,-9.784366E-2,3.4039512E-1,-3.6330912E-1,3.1221079E-2,-2.0525895E-1,3.6979195E-1,5.6949365E-1,7.252983E-2,8.478847E-3,1.2391523E-1,2.7899167E-1,-1.0469949E-2,-2.2532228E-2,-1.9498102E-1,-1.8440679E-1,3.4627838E-3,2.6047694E-2,1.55405E-1,3.9642073E-2,-3.6045814E-1],"split_indices":[5,6,6,2,4,3,6,6,4,4,2,3,5,2,6,0,0,2,4,3,5,2,2,1,0,0,2,0,2,2,6,6,4,4,6,3,3,3,6,4,4,2,5,0,0,0,0,0,0,2,6,0,0,0,0,0,0,0,0,0,0,0,0,0,0,0,0,0,0,0,0,0,0,0,0,0,0,0,0,0,0],"split_type":[0,0,0,0,0,0,0,0,0,0,0,0,0,0,0,0,0,0,0,0,0,0,0,0,0,0,0,0,0,0,0,0,0,0,0,0,0,0,0,0,0,0,0,0,0,0,0,0,0,0,0,0,0,0,0,0,0,0,0,0,0,0,0,0,0,0,0,0,0,0,0,0,0,0,0,0,0,0,0,0,0],"sum_hessian":[3.089456E3,2.949958E3,1.394981E2,6.414975E2,2.3084607E3,1.69655E1,1.22532585E2,7.4674854E0,6.3403E2,2.439188E1,2.2840686E3,1.1344106E1,5.621394E0,4.1997023E0,1.18332886E2,5.970052E0,1.4974339E0,6.096089E2,2.4421095E1,1.4452819E1,9.939062E0,9.8104895E2,1.3030198E3,2.5496857E0,8.79442E0,1.1704075E0,4.4509864E0,1.6191285E0,2.5805738E0,1.1606634E2,2.266544E0,5.9740533E2,1.2203588E1,5.689585E0,1.873151E1,1.1029065E1,3.4237535E0,4.0302935E0,5.908769E0,9.545882E2,2.6460775E1,2.1272528E2,1.0902944E3,1.1216823E0,1.4280035E0,2.8387055E0,1.612281E0,1.1470925E0,1.4334813E0,1.1225048E2,3.8158615E0,1.1935722E0,1.0729719E0,8.4651535E1,5.127538E2,1.0808766E1,1.3948218E0,2.0883362E0,3.601249E0,8.755034E0,9.976475E0,4.950886E0,6.0781794E0,2.3149476E0,1.1088059E0,2.2821002E0,1.748193E0,4.500039E0,1.4087298E0,8.9493695E2,5.965124E1,2.0160976E1,6.2997994E0,1.6041937E2,5.2305912E1,2.6497007E1,1.0637975E3,7.3233055E1,3.9017426E1,2.1531644E0,1.6626971E0],"tree_param":{"num_deleted":"0","num_feature":"7","num_nodes":"81","size_leaf_vector":"0"}},{"base_weights":[-4.3655536E-4,-8.963528E-3,2.2217761E-1,-1.8065905E-3,-2.7285594E-1,3.218831E-1,-1.0294353E-1,-6.031289E-3,1.3197758E0,-1.453619E0,-1.3872756E-1,-2.6803348E-2,4.781302E-1,-1.1472431E0,1.2160857E-1,-1.1619356E-2,3.4996787E-1,1.6110247E0,2.687734E-1,-6.0886246E-1,-1.7081537E0,-5.108436E-1,2.4675304E-1,8.6084205E-1,-3.3883554E-1,7.018642E-1,2.5277576E-1,-1.7278749E0,2.4983327E-1,5.408946E-1,-2.608352E-1,1.8672866E-3,-3.906693E-1,8.948809E-1,-5.317235E-2,-1.6085854E-1,-7.466494E-1,4.047753E-2,-1.1390923E0,-9.194177E-1,3.481345E-1,2.4353585E-1,9.2239696E-1,-1.102198E0,2.4760653E-1,3.0454504E-1,8.8909686E-1,-8.7645674E-1,3.833429E-1,1.3932585E-2,9.746724E-1,2.3563403E-1,-1.0591387E0,-1.5652053E-3,9.069186E-1,7.224395E-1,-5.827327E-1,-8.3060414E-1,1.0595956E0,1.0823131E0,-2.9454398E-1,-1.1684088E0,4.5898965E-1,6.8018234E-1,-1.3218372E0,1.7144977E0,1.5766744E-1,1.0001493E0,2.7272895E-1,2.3625225E-1,-1.3365648E0,7.243014E-1,-3.657009E-1,-9.231676E-1,5.717048E-1,9.9350095E-1,-3.4662598E-1,-1.635223E0,2.5157666E-1,1.2270921E0,2.0438157E-1,8.572598E-1,-7.861807E-1,-2.3313272E-1,7.9437315E-1,-1.6396915E0,3.4644622E-1],"categories":[],"categories_nodes":[],"categories_segments":[],"categories_sizes":[],"default_left":[1,1,1,1,1,1,1,1,1,1,1,1,1,1,1,1,1,0,0,1,0,1,1,1,1,1,1,0,0,1,1,1,1,1,1,0,0,1,1,0,1,0,1,1,1,1,1,1,1,1,0,1,1,0,0,0,0,0,0,0,0,0,0,0,0,0,0,0,0,0,0,0,0,0,0,0,0,0,0,0,0,0,0,0,0,0,0],"id":11,"left_children":[1,3,5,7,9,11,13,15,17,19,21,23,25,27,29,31,33,-1,-1,35,-1,37,39,41,43,45,47,-1,-1,49,51,53,55,57,59,-1,-1,61,63,-1,65,-1,67,69,71,73,75,77,79,81,-1,83,85,-1,-1,-1,-1,-1,-1,-1,-1,-1,-1,-1,-1,-1,-1,-1,-1,-1,-1,-1,-1,-1,-1,-1,-1,-1,-1,-1,-1,-1,-1,-1,-1,-1,-1],"loss_changes":[5.8283772E0,5.584498E0,3.7049627E0,1.6088058E1,1.2163326E1,4.748804E0,6.5512004E0,5.717192E0,2.3775902E0,6.497364E-1,1.0341523E1,8.004366E0,2.8519154E0,4.4345846E0,3.8945324E0,1.4460055E1,9.804426E0,0E0,0E0,8.813822E-2,0E0,1.2709919E1,4.5354004E0,6.1305523E-2,9.817677E0,1.9302254E0,4.979737E0,0E0,0E0,2.6131287E0,5.368672E0,8.48941E0,2.1197605E1,6.2638006E0,7.5741105E0,0E0,0E0,1.0876978E1,6.5918617E0,0E0,8.455193E0,0E0,5.4762363E-2,3.2790833E0,4.028842E0,4.134969E0,2.8716536E0,3.4657505E0,4.117169E0,4.8593597E0,0E0,2.4852524E0,4.7579637E0,0E0,0E0,0E0,0E0,0E0,0E0,0E0,0E0,0E0,0E0,0E0,0E0,0E0,0E0,0E0,0E0,0E0,0E0,0E0,0E0,0E0,0E0,0E0,0E0,0E0,0E0,0E0,0E0,0E0,0E0,0E0,0E0,0E0,0E0],"parents":[2147483647,0,0,1,1,2,2,3,3,4,4,5,5,6,6,7,7,8,8,9,9,10,10,11,11,12,12,13,13,14,14,15,15,16,16,19,19,21,21,22,22,23,23,24,24,25,25,26,26,29,29,30,30,31,31,32,32,33,33,34,34,37,37,38,38,40,40,42,42,43,43,44,44,45,45,46,46,47,47,48,48,49,49,51,51,52,52],"right_children":[2,4,6,8,10,12,14,16,18,20,22,24,26,28,30,32,34,-1,-1,36,-1,38,40,42,44,46,48,-1,-1,50,52,54,56,58,60,-1,-1,62,64,-1,66,-1,68,70,72,74,76,78,80,82,-1,84,86,-1,-1,-1,-1,-1,-1,-1,-1,-1,-1,-1,-1,-1,-1,-1,-1,-1,-1,-1,-1,-1,-1,-1,-1,-1,-1,-1,-1,-1,-1,-1,-1,-1,-1],"split_conditions":[5E-1,2.4085E0,1.2625E2,2.3955E0,5.858E0,1.09E2,1.2933334E2,2.3155E0,6.65E1,6.1E1,2.361745E1,1.061E0,5.3725E0,7.45E1,1.3475E2,2.1775E0,2.3385E0,4.8330745E-1,8.063202E-2,2.142795E1,-5.1244617E-1,2.142955E1,5.75E1,7.15E1,1.5125E0,6.25E1,5.582E0,-5.1836246E-1,7.494999E-2,1.458E0,5.717E0,2.1705E0,5.2025E0,1.9854649E1,6.05E1,-4.8257563E-2,-2.2399482E-1,2.5124998E0,5.8E1,-2.7582532E-1,6.05E1,7.306076E-2,1.0325E2,5.25E1,2.6003899E1,2.52628E1,3.345895E1,1.2275E2,5.6965E0,1.23E0,2.9240173E-1,1.4225E2,7.8385E0,-4.695616E-4,2.720756E-1,2.1673186E-1,-1.7481981E-1,-2.4918126E-1,3.178787E-1,3.2469392E-1,-8.83632E-2,-3.5052264E-1,1.376969E-1,2.0405471E-1,-3.9655116E-1,5.1434934E-1,4.7300234E-2,3.0004478E-1,8.1818685E-2,7.0875674E-2,-4.0096945E-1,2.1729043E-1,-1.09710276E-1,-2.769503E-1,1.7151144E-1,2.9805028E-1,-1.039878E-1,-4.9056694E-1,7.5473E-2,3.6812764E-1,6.1314475E-2,2.5717795E-1,-2.3585421E-1,-6.993982E-2,2.3831196E-1,-4.9190745E-1,1.0393387E-1],"split_indices":[0,2,6,2,3,6,6,2,5,5,4,2,3,5,6,2,2,0,0,4,0,4,5,6,2,5,3,0,0,2,3,2,3,4,5,0,0,2,5,0,5,0,6,5,4,4,4,6,3,2,0,6,3,0,0,0,0,0,0,0,0,0,0,0,0,0,0,0,0,0,0,0,0,0,0,0,0,0,0,0,0,0,0,0,0,0,0],"split_type":[0,0,0,0,0,0,0,0,0,0,0,0,0,0,0,0,0,0,0,0,0,0,0,0,0,0,0,0,0,0,0,0,0,0,0,0,0,0,0,0,0,0,0,0,0,0,0,0,0,0,0,0,0,0,0,0,0,0,0,0,0,0,0,0,0,0,0,0,0,0,0,0,0,0,0,0,0,0,0,0,0,0,0,0,0,0,0],"sum_hessian":[3.0683867E3,2.9561157E3,1.1227078E2,2.8790413E3,7.707466E1,8.59288E1,2.6341982E1,2.8708594E3,8.181831E0,6.858671E0,7.021599E1,2.6846241E1,5.9082558E1,3.9346254E0,2.2407356E1,2.8274446E3,4.341463E1,5.9892673E0,2.1925638E0,2.3734994E0,4.4851723E0,3.556185E1,3.4654137E1,6.5251536E0,2.0321087E1,2.8586811E1,3.0495749E1,2.6122024E0,1.322423E0,1.0491194E1,1.19161625E1,2.7312612E3,9.618353E1,1.7942497E1,2.5472134E1,1.0680991E0,1.3054003E0,1.9438831E1,1.612302E1,2.1263423E0,3.2527794E1,1.0410757E0,5.4840784E0,8.446692E0,1.1874393E1,9.997683E0,1.8589128E1,2.5685453E0,2.7927202E1,5.202821E0,5.288373E0,7.7815843E0,4.134578E0,2.7219363E3,9.324928E0,1.3747578E1,8.243596E1,1.2112488E0,1.6731249E1,3.8546553E0,2.161748E1,4.5382185E0,1.4900613E1,1.223246E0,1.4899775E1,3.0006108E0,2.9527184E1,4.4160833E0,1.0679948E0,1.2574499E0,7.1892424E0,6.5794907E0,5.2949033E0,1.3479217E0,8.649761E0,1.7321669E1,1.2674608E0,1.2668092E0,1.3017361E0,3.8620486E0,2.4065155E1,2.4982343E0,2.7045865E0,4.548375E0,3.2332094E0,2.8081608E0,1.3264173E0],"tree_param":{"num_deleted":"0","num_feature":"7","num_nodes":"87","size_leaf_vector":"0"}},{"base_weights":[-9.60857E-5,1.6862424E-3,-8.6936975E-1,-6.546287E-4,8.9503103E-1,-5.7377037E-2,-1.2652937E0,-3.1371407E-2,5.364401E-2,2.1122897E-1,1.1107558E0,-7.7089705E-2,4.5600466E-2,4.3347514E-1,3.575764E-2,-1.03769645E-1,2.023266E-1,7.503646E-2,-3.4582797E-1,7.906723E-1,1.2559915E-1,-3.103343E-2,1.2345339E-1,-2.2094621E-1,-2.4919461E-2,6.6448134E-1,7.1907733E-3,3.3582333E-2,5.365545E-1,1.6602433E-1,-5.581135E-1,2.2321108E-1,1.1097952E0,-1.0282292E0,3.2357734E-1,1.438238E-3,-6.4668715E-1,-1.4664084E0,1.3854724E-1],"categories":[],"categories_nodes":[],"categories_segments":[],"categories_sizes":[],"default_left":[1,1,1,1,1,0,0,1,1,0,0,1,1,1,1,1,1,1,1,1,1,1,1,0,0,0,0,0,0,0,0,0,0,0,0,0,0,0,0],"id":12,"left_children":[1,3,5,7,9,-1,-1,11,13,-1,-1,15,17,19,21,23,25,27,29,31,33,35,37,-1,-1,-1,-1,-1,-1,-1,-1,-1,-1,-1,-1,-1,-1,-1,-1],"loss_changes":[4.739453E0,6.384672E0,1.9396863E0,5.081789E0,9.424243E-1,0E0,0E0,6.8514924E0,7.463517E0,0E0,0E0,9.124977E0,8.388288E0,5.335368E0,6.1682844E0,1.0300475E1,9.625238E0,1.2911777E1,5.627702E0,3.8608513E0,6.6672773E0,1.1960245E1,1.1127011E1,0E0,0E0,0E0,0E0,0E0,0E0,0E0,0E0,0E0,0E0,0E0,0E0,0E0,0E0,0E0,0E0],"parents":[2147483647,0,0,1,1,2,2,3,3,4,4,7,7,8,8,11,11,12,12,13,13,14,14,15,15,16,16,17,17,18,18,19,19,20,20,21,21,22,22],"right_children":[2,4,6,8,10,-1,-1,12,14,-1,-1,16,18,20,22,24,26,28,30,32,34,36,38,-1,-1,-1,-1,-1,-1,-1,-1,-1,-1,-1,-1,-1,-1,-1,-1],"split_conditions":[9.495E0,9.323999E0,1.654E0,5E-1,2.4536499E1,-1.7213112E-2,-3.7958813E-1,1.2283333E2,1.029E0,6.336869E-2,3.3322674E-1,3.2886497E1,3.408075E1,2.8235E1,6.1645E0,6.25E1,3.3891403E1,3.1989E1,5.203E0,5.259E0,2.92638E1,6.0495E0,1.1005E0,-6.628387E-2,-7.4758385E-3,1.9934441E-1,2.157232E-3,1.00747E-2,1.6096637E-1,4.98073E-2,-1.6743407E-1,6.696333E-2,3.3293858E-1,-3.084688E-1,9.7073205E-2,4.3147142E-4,-1.9400616E-1,-4.3992254E-1,4.1564174E-2],"split_indices":[3,3,2,1,4,0,0,6,2,0,0,4,4,4,3,5,4,4,3,3,4,3,2,0,0,0,0,0,0,0,0,0,0,0,0,0,0,0,0],"split_type":[0,0,0,0,0,0,0,0,0,0,0,0,0,0,0,0,0,0,0,0,0,0,0,0,0,0,0,0,0,0,0,0,0,0,0,0,0,0,0],"sum_hessian":[3.057086E3,3.0518267E3,5.259298E0,3.0448474E3,6.9792814E0,2.0991373E0,3.1601605E0,1.9449883E3,1.099859E3,2.1484156E0,4.830866E0,1.2202223E3,7.2476605E2,4.8418537E1,1.0514406E3,1.1144392E3,1.0578313E2,6.748264E2,4.9939636E1,2.1688005E1,2.6730534E1,5.972259E2,4.542146E2,4.4754935E2,6.6688983E2,3.0690739E1,7.509239E1,6.201927E2,5.463371E1,1.4704002E1,3.5235634E1,8.418235E0,1.326977E1,3.3006287E0,2.3429905E1,5.68252E2,2.8973877E1,3.3674026E0,4.508472E2],"tree_param":{"num_deleted":"0","num_feature":"7","num_nodes":"39","size_leaf_vector":"0"}},{"base_weights":[-2.3419065E-5,7.4676347E-1,-2.022679E-3,1.5498189E-3,1.005662E0,-9.663901E-3,1.6248116E-1,-5.732722E-1,5.669535E-1,-4.0652747E-3,-2.4588718E-1,6.685053E-1,9.1818295E-2,-1.2073277E-2,4.8378843E-1,-1.202852E0,-1.16069734E-1,8.8944215E-1,1.6844405E-1,1.1660681E-1,-8.310354E-1,-7.4716506E-4,-2.4959606E-1,1.4161415E0,2.8596908E-1,-1.4223332E0,-5.651991E-1,-6.6712314E-1,9.4908975E-2,1.37887E-1,1.0907825E0,-1.0400796E0,6.4994997E-1,-3.8047552E-2,2.9442045E-1,-8.995857E-2,-1.1309286E0,-4.506306E-3,1.1934643E0,3.8960817E-1,-3.3843774E-1,4.208091E-1,-8.44017E-1,-8.671391E-1,4.365632E-2,-1.2443705E0,-4.512985E-2,5.6113446E-1,-5.868956E-2,-1.0859924E-1,3.0465925E-1,9.850278E-1,-5.5012003E-2,-8.4109074E-1,6.999741E-2,6.60451E-1,1.2648171E-1],"categories":[],"categories_nodes":[],"categories_segments":[],"categories_sizes":[],"default_left":[1,1,1,1,0,1,1,0,0,1,1,1,1,1,1,1,1,1,1,1,1,1,1,0,1,0,1,1,1,1,0,0,1,1,1,0,0,0,0,0,0,0,0,0,0,0,0,0,0,0,0,0,0,0,0,0,0],"id":13,"left_children":[1,3,5,7,-1,9,11,-1,-1,13,15,17,19,21,23,25,27,29,31,33,35,37,39,-1,41,-1,43,45,47,49,-1,-1,51,53,55,-1,-1,-1,-1,-1,-1,-1,-1,-1,-1,-1,-1,-1,-1,-1,-1,-1,-1,-1,-1,-1,-1],"loss_changes":[4.537545E0,1.5640264E0,3.8116238E0,1.330522E0,0E0,3.8309453E0,4.751488E0,0E0,0E0,1.1067287E1,8.191845E0,1.6547375E0,2.8252401E0,7.4964314E0,8.033078E0,3.0230522E-1,7.0575833E0,1.5284386E0,4.306391E0,3.229283E0,6.189573E-1,1.1950274E1,7.3341484E0,0E0,6.296789E0,0E0,7.149986E-1,5.968859E0,3.2110224E0,1.7650646E-1,0E0,0E0,1.2533877E0,5.5660667E0,3.2696867E0,0E0,0E0,0E0,0E0,0E0,0E0,0E0,0E0,0E0,0E0,0E0,0E0,0E0,0E0,0E0,0E0,0E0,0E0,0E0,0E0,0E0,0E0],"parents":[2147483647,0,0,1,1,2,2,3,3,5,5,6,6,9,9,10,10,11,11,12,12,13,13,14,14,15,15,16,16,17,17,18,18,19,19,20,20,21,21,22,22,24,24,26,26,27,27,28,28,29,29,32,32,33,33,34,34],"right_children":[2,4,6,8,-1,10,12,-1,-1,14,16,18,20,22,24,26,28,30,32,34,36,38,40,-1,42,-1,44,46,48,50,-1,-1,52,54,56,-1,-1,-1,-1,-1,-1,-1,-1,-1,-1,-1,-1,-1,-1,-1,-1,-1,-1,-1,-1,-1,-1],"split_conditions":[3.108E0,1.18E2,7.55E1,5E-1,3.016986E-1,2.4205E0,9.925E1,-1.7198168E-1,1.7008606E-1,2.3335E0,2.4580002E0,6.443E0,1.56E2,2.1485E0,2.3385E0,2.4394999E0,1.0975E2,4.8805E0,7.65E1,1.2675E2,5.8599997E0,2.1425E0,5.2025E0,4.2484248E-1,1.3125E2,-4.267E-1,6.2335E0,6.9375E0,2.52E0,5E-1,3.2723477E-1,-3.1202388E-1,1.4295001E0,1.3205E0,1.3175E2,-2.6987573E-2,-3.392786E-1,-1.3518918E-3,3.580393E-1,1.1688246E-1,-1.0153133E-1,1.2624273E-1,-2.5320512E-1,-2.6014173E-1,1.3096896E-2,-3.7331116E-1,-1.3538956E-2,1.6834034E-1,-1.760687E-2,-3.2579772E-2,9.139778E-2,2.9550835E-1,-1.6503602E-2,-2.5232723E-1,2.0999223E-2,1.981353E-1,3.7944514E-2],"split_indices":[3,6,5,0,0,2,6,0,0,2,2,3,6,2,2,2,6,3,5,6,3,2,3,0,6,0,3,3,2,1,0,0,2,2,6,0,0,0,0,0,0,0,0,0,0,0,0,0,0,0,0,0,0,0,0,0,0],"split_type":[0,0,0,0,0,0,0,0,0,0,0,0,0,0,0,0,0,0,0,0,0,0,0,0,0,0,0,0,0,0,0,0,0,0,0,0,0,0,0,0,0,0,0,0,0,0,0,0,0,0,0,0,0,0,0,0,0],"sum_hessian":[3.037158E3,7.114587E0,3.0300435E3,2.0937943E0,5.0207925E0,2.8964443E3,1.3359892E2,1.0313488E0,1.0624455E0,2.8303801E3,6.6064415E1,1.5333516E1,1.1826541E2,2.78563E3,4.4750195E1,6.904124E0,5.916029E1,1.0094779E1,5.2387366E0,1.16022606E2,2.2428052E0,2.6598022E3,1.25827705E2,6.7548385E0,3.7995358E1,4.2207556E0,2.6833677E0,1.5780723E1,4.337957E1,2.4889553E0,7.605824E0,1.162056E0,4.0766807E0,6.2472683E1,5.3549927E1,1.0206385E0,1.2221668E0,2.652449E3,7.3531575E0,1.4941339E1,1.1088637E2,3.4505455E1,3.4899008E0,1.5102174E0,1.1731503E0,7.66579E0,8.114933E0,1.0092384E1,3.328718E1,1.1451952E0,1.3437599E0,2.4939804E0,1.5827003E0,6.603985E0,5.58687E1,1.5919632E1,3.7630295E1],"tree_param":{"num_deleted":"0","num_feature":"7","num_nodes":"57","size_leaf_vector":"0"}},{"base_weights":[6.913631E-5,-1.1488143E0,1.116307E-3,-5.0566457E-3,1.7233576E-1,-1.1917806E-3,-2.8649393E-1,2.2298613E-1,-3.5181066E-1,-2.9488534E-3,1.251051E0,-1.3473518E0,4.093064E-2,1.6182308E-1,8.6201054E-1,-8.1682855E-1,2.957763E-1,-1.5774207E-3,-1.3840362E0,9.0141684E-2,-1.5901209E0,2.0939454E-1,-7.2272116E-1,2.8574565E-1,-1.602697E-1,1.1141965E0,-7.899382E-2,-1.3150398E0,1.7457847E-1,6.1649144E-1,-3.5599658E-1,-6.064947E-3,2.8755623E-1,3.2321942E-1,-1.1794555E0,-1.07739E0,8.434883E-2,1.9100814E-1,8.56665E-1,-7.0123696E-1,3.227766E-1],"categories":[],"categories_nodes":[],"categories_segments":[],"categories_sizes":[],"default_left":[1,0,1,1,1,1,1,1,1,1,0,1,1,1,1,1,1,1,0,0,0,1,1,1,1,0,0,0,0,0,0,0,0,0,0,0,0,0,0,0,0],"id":14,"left_children":[1,-1,3,5,7,9,11,13,15,17,-1,19,21,23,25,27,29,31,-1,-1,-1,33,35,37,39,-1,-1,-1,-1,-1,-1,-1,-1,-1,-1,-1,-1,-1,-1,-1,-1],"loss_changes":[3.6454964E0,0E0,3.200534E0,3.1789956E0,2.875941E0,6.350077E0,1.380736E1,3.6400208E0,3.1546311E0,5.4552126E0,0E0,3.4122696E0,4.1683044E0,3.6175404E0,2.0377192E0,3.1418803E0,1.2180598E0,3.7378182E0,0E0,0E0,0E0,4.5478277E0,1.7705331E0,3.3510447E0,6.8907027E0,0E0,0E0,0E0,0E0,0E0,0E0,0E0,0E0,0E0,0E0,0E0,0E0,0E0,0E0,0E0,0E0],"parents":[2147483647,0,0,2,2,3,3,4,4,5,5,6,6,7,7,8,8,9,9,11,11,12,12,13,13,14,14,15,15,16,16,17,17,21,21,22,22,23,23,24,24],"right_children":[2,-1,4,6,8,10,12,14,16,18,-1,20,22,24,26,28,30,32,-1,-1,-1,34,36,38,40,-1,-1,-1,-1,-1,-1,-1,-1,-1,-1,-1,-1,-1,-1,-1,-1],"split_conditions":[7.645E-1,-3.446443E-1,5E-1,8.4385E0,6.9845E0,8.431E0,8.6845E0,6.7945004E0,7.671E0,8.3945E0,3.753153E-1,2.315115E1,9.495E0,5.6965E0,2.868145E1,3.426335E1,8.7955E0,8.0795E0,-4.1521087E-1,2.7042506E-2,-4.770363E-1,2.5809999E0,1.27E2,5.552E0,3.015065E1,3.3425897E-1,-2.3698147E-2,-3.9451194E-1,5.2373543E-2,1.8494743E-1,-1.0679898E-1,-1.8194843E-3,8.6266875E-2,9.696583E-2,-3.5383666E-1,-3.23217E-1,2.5304649E-2,5.730244E-2,2.5699952E-1,-2.1037109E-1,9.683298E-2],"split_indices":[2,0,0,3,3,3,3,3,3,3,0,4,3,3,4,4,3,3,0,0,0,2,6,3,4,0,0,0,0,0,0,0,0,0,0,0,0,0,0,0,0],"split_type":[0,0,0,0,0,0,0,0,0,0,0,0,0,0,0,0,0,0,0,0,0,0,0,0,0,0,0,0,0,0,0,0,0,0,0,0,0,0,0,0,0],"sum_hessian":[3.028078E3,1.7593646E0,3.0263186E3,2.9219446E3,1.0437402E2,2.8833528E3,3.8591694E1,9.570066E1,8.673367E0,2.880309E3,3.0438337E0,8.367131E0,3.0224564E1,8.848474E1,7.21592E0,4.8961835E0,3.777183E0,2.878452E3,1.8571875E0,1.2997426E0,7.067389E0,2.5356615E1,4.867948E0,6.3981304E1,2.4503435E1,5.5456533E0,1.6702669E0,3.0413685E0,1.8548149E0,2.567792E0,1.209391E0,2.8354233E3,4.302844E1,2.4145054E1,1.2115618E0,3.1491196E0,1.7188282E0,5.6019993E1,7.961312E0,1.1345654E1,1.3157782E1],"tree_param":{"num_deleted":"0","num_feature":"7","num_nodes":"41","size_leaf_vector":"0"}},{"base_weights":[-2.1829236E-4,7.1237923E-4,-1.0226175E0,-9.783136E-4,1.2139792E0,1.0789144E-3,-1.2240759E0,-1.6109161E-4,9.4887334E-1,8.3971105E-4,-9.9594927E-1,-6.2723353E-4,1.1726781E0],"categories":[],"categories_nodes":[],"categories_segments":[],"categories_sizes":[],"default_left":[1,1,0,1,0,1,0,1,0,1,0,0,0],"id":15,"left_children":[1,3,-1,5,-1,7,-1,9,-1,11,-1,-1,-1],"loss_changes":[2.877318E0,6.198887E0,0E0,7.5956955E0,0E0,3.542577E0,0E0,3.0017564E0,0E0,5.173568E0,0E0,0E0,0E0],"parents":[2147483647,0,0,1,1,3,3,5,5,7,7,9,9],"right_children":[2,4,-1,6,-1,8,-1,10,-1,12,-1,-1,-1],"split_conditions":[3.103E0,3.0505E0,-3.0678526E-1,2.8555E0,3.641938E-1,2.8400002E0,-3.672228E-1,2.791E0,2.84662E-1,2.777E0,-2.987848E-1,-1.8817007E-4,3.5180345E-1],"split_indices":[2,2,0,2,0,2,0,2,0,2,0,0,0],"split_type":[0,0,0,0,0,0,0,0,0,0,0,0,0],"sum_hessian":[3.0221587E3,3.0204087E3,1.7501205E0,3.0172034E3,3.2052927E0,3.0131345E3,4.068919E0,3.010196E3,2.93843E0,3.0081719E3,2.0241632E0,3.0054092E3,2.7628016E0],"tree_param":{"num_deleted":"0","num_feature":"7","num_nodes":"13","size_leaf_vector":"0"}},{"base_weights":[-1.5830318E-4,6.2372094E-1,-1.6765739E-3,-1.4384661E-2,8.414209E-1,-1.3310107E0,-7.936936E-4,9.317461E-1,2.89515E-1,-3.6361476E-3,3.15002E-1,-1.7423806E-3,-9.186785E-1,4.1277084E-1,-8.987417E-1,-5.584225E-1,2.838238E-4,-1.3185744E0,-2.5533827E-3,-6.136028E-1,5.164024E-1,1.168727E0,-8.6623764E-1,4.387556E-1,-4.5446036E-3,-1.0352971E-1,7.183351E-1],"categories":[],"categories_nodes":[],"categories_segments":[],"categories_sizes":[],"default_left":[1,1,1,0,1,0,1,0,0,1,1,1,1,1,0,1,1,0,0,0,1,0,0,0,0,0,0],"id":16,"left_children":[1,3,5,-1,7,-1,9,-1,-1,11,13,15,17,19,-1,21,23,-1,-1,-1,25,-1,-1,-1,-1,-1,-1],"loss_changes":[2.8629756E0,1.0314269E0,3.5375588E0,0E0,3.8251877E-3,0E0,2.7066782E0,0E0,0E0,5.176531E0,3.562958E0,3.364827E0,2.256906E0,3.0375547E0,0E0,6.7640567E0,6.296604E0,0E0,0E0,0E0,3.0507665E0,0E0,0E0,0E0,0E0,0E0,0E0],"parents":[2147483647,0,0,1,1,2,2,4,4,6,6,9,9,10,10,11,11,12,12,13,13,15,15,16,16,20,20],"right_children":[2,4,6,-1,8,-1,10,-1,-1,12,14,16,18,20,-1,22,24,-1,-1,-1,26,-1,-1,-1,-1,-1,-1],"split_conditions":[3.108E0,1.18E2,3.2005E0,-4.3153986E-3,1.1370001E0,-3.9930323E-1,4.1855553E1,2.7952385E-1,8.68545E-2,4.0959846E1,6.9685E0,3.625E1,6.374E0,9.47E-1,-2.6962253E-1,3.8595E0,6.425E1,-3.9557233E-1,-7.6601485E-4,-1.8408085E-1,1.1525E2,3.5061812E-1,-2.598713E-1,1.3162668E-1,-1.3633812E-3,-3.1058913E-2,2.1550053E-1],"split_indices":[3,6,3,0,2,0,4,0,0,4,3,6,3,2,0,3,6,0,0,0,6,0,0,0,0,0,0],"split_type":[0,0,0,0,0,0,0,0,0,0,0,0,0,0,0,0,0,0,0,0,0,0,0,0,0,0,0],"sum_hessian":[3.020407E3,6.337718E0,3.0140693E3,1.8497617E0,4.487956E0,1.0005394E0,3.0130688E3,3.2653186E0,1.2226377E0,2.98717E3,2.5898815E1,2.9820005E3,5.1696286E0,2.4578869E1,1.3199449E0,9.818658E0,2.9721816E3,3.2929394E0,1.8766893E0,1.8028023E0,2.2776068E1,1.0621411E0,8.756516E0,3.1394157E1,2.9407876E3,5.7158246E0,1.7060242E1],"tree_param":{"num_deleted":"0","num_feature":"7","num_nodes":"27","size_leaf_vector":"0"}},{"base_weights":[-2.2187424E-4,-1.7445357E-1,4.9710595E-3,2.2505672E-1,-5.199555E-1,8.56217E-1,-1.933111E-3,7.968328E-2,1.0552119E0,4.2990837E-1,-6.647964E-1,1.2591251E0,-5.9927034E-1,-1.2637839E0,3.6640477E-4,-1.1230236E0,2.8041112E-1,1.3938782E0,-2.6192185E-1,-3.677534E-1,1.3919197E0,-9.854591E-1,7.128709E-2,3.9855012E-1,1.5463914E0,-1.1575906E0,1.166783E-1,-3.8473804E-2,-1.5442877E0,9.4206303E-1,-2.6302815E-3,-4.2540124E-1,5.45588E-1,-9.5762736E-1,5.54252E-1,4.5287234E-1,1.7712562E0,-2.6957735E-1,-1.229565E0,-1.2002008E0,4.5216182E-1,-8.332462E-1,1.1159445E0,1.7810652E0,2.7060773E-2,-3.4913445E-1,-1.3695669E0,-4.4669E-1,6.965743E-1,4.833723E-3,1.6566788E0,5.329828E-3,-1.8965419E-1,1.0796953E0,-8.047507E-1,-4.4613382E-1,7.0385796E-1,-1.1824054E0,6.4370185E-1,-1.3387259E0,1.0287471E-1,9.41527E-1,-3.2508093E-1,1.4253869E0,4.445958E-1,5.2110356E-1,1.9070967E0,1.3001236E0,-6.745063E-1,2.1537564E0,5.427399E-1,-1.6533745E-3,6.766235E-1,-6.6554403E-1,-4.338312E-2],"categories":[],"categories_nodes":[],"categories_segments":[],"categories_sizes":[],"default_left":[1,1,1,1,1,1,1,1,1,1,1,1,1,1,1,0,1,0,0,1,1,1,1,1,1,1,1,0,0,1,1,1,1,0,0,0,0,1,1,0,1,0,1,1,0,0,0,0,0,1,1,1,1,0,0,0,0,0,0,0,0,0,0,0,0,0,0,0,0,0,0,0,0,0,0],"id":17,"left_children":[1,3,5,7,9,11,13,15,17,19,21,23,25,27,29,-1,31,-1,-1,33,35,37,39,41,43,45,47,-1,-1,49,51,53,55,-1,-1,-1,-1,57,59,-1,61,-1,63,65,-1,-1,-1,-1,-1,67,69,71,73,-1,-1,-1,-1,-1,-1,-1,-1,-1,-1,-1,-1,-1,-1,-1,-1,-1,-1,-1,-1,-1,-1],"loss_changes":[2.732584E0,1.2182445E1,1.7238247E1,4.8922462E0,6.7761946E0,1.4593056E1,8.444884E0,9.047371E0,3.0696673E0,5.7676253E0,9.824753E0,4.0323715E0,2.4509625E0,1.7601681E0,8.202906E0,0E0,6.183649E0,0E0,0E0,2.9974318E0,3.782382E-1,4.710762E0,7.0672727E0,6.2790594E0,4.854679E0,9.538078E-2,1.4372475E0,0E0,0E0,6.1676655E0,4.3149114E0,6.147975E0,4.0107937E0,0E0,0E0,0E0,0E0,7.9454556E0,3.226513E0,0E0,4.5256042E0,0E0,2.4978876E-1,8.951912E-1,0E0,0E0,0E0,0E0,0E0,5.2695894E0,1.7263145E0,1.3034924E1,8.20756E0,0E0,0E0,0E0,0E0,0E0,0E0,0E0,0E0,0E0,0E0,0E0,0E0,0E0,0E0,0E0,0E0,0E0,0E0,0E0,0E0,0E0,0E0],"parents":[2147483647,0,0,1,1,2,2,3,3,4,4,5,5,6,6,7,7,8,8,9,9,10,10,11,11,12,12,13,13,14,14,16,16,19,19,20,20,21,21,22,22,23,23,24,24,25,25,26,26,29,29,30,30,31,31,32,32,37,37,38,38,40,40,42,42,43,43,49,49,50,50,51,51,52,52],"right_children":[2,4,6,8,10,12,14,16,18,20,22,24,26,28,30,-1,32,-1,-1,34,36,38,40,42,44,46,48,-1,-1,50,52,54,56,-1,-1,-1,-1,58,60,-1,62,-1,64,66,-1,-1,-1,-1,-1,68,70,72,74,-1,-1,-1,-1,-1,-1,-1,-1,-1,-1,-1,-1,-1,-1,-1,-1,-1,-1,-1,-1,-1,-1],"split_conditions":[1.96139E1,1.887635E1,1.977775E1,1.87686E1,4.377E0,1.1975E2,1.98399E1,9.725E1,6.0039997E0,1.943275E1,6.5575E0,1.035E2,1.3225E2,4.672E0,1.989365E1,-3.369071E-1,5.4095E0,4.1816348E-1,-7.857656E-2,1.3675E2,1.95514E1,1.565E0,1.79E0,6.7E1,6.269E0,5.9135E0,2.0879998E0,-1.1542141E-2,-4.632863E-1,1.987615E1,7.8645E0,4.2904997E0,6.05E1,-2.8728822E-1,1.6627562E-1,1.3586171E-1,5.313769E-1,1.165E2,7.65E1,-3.6006024E-1,6.85E1,-2.4997386E-1,6.85E1,1.9628E1,8.118233E-3,-1.0474034E-1,-4.108701E-1,-1.34007E-1,2.0897229E-1,4.3754997E0,5.9414997E0,7.7524996E0,8.0285E0,3.2390863E-1,-2.4142522E-1,-1.3384016E-1,2.111574E-1,-3.547216E-1,1.9311057E-1,-4.016178E-1,3.0862415E-2,2.8245813E-1,-9.7524285E-2,4.276161E-1,1.3337874E-1,1.5633108E-1,5.721291E-1,3.900371E-1,-2.023519E-1,6.461269E-1,1.6282198E-1,-4.960124E-4,2.0298706E-1,-1.9966322E-1,-1.3014937E-2],"split_indices":[4,4,4,4,3,6,4,6,3,4,3,6,6,3,4,0,3,0,0,6,4,2,2,5,3,3,2,0,0,4,3,3,5,0,0,0,0,6,5,0,5,0,5,4,0,0,0,0,0,3,3,3,3,0,0,0,0,0,0,0,0,0,0,0,0,0,0,0,0,0,0,0,0,0,0],"split_type":[0,0,0,0,0,0,0,0,0,0,0,0,0,0,0,0,0,0,0,0,0,0,0,0,0,0,0,0,0,0,0,0,0,0,0,0,0,0,0,0,0,0,0,0,0,0,0,0,0,0,0,0,0,0,0,0,0,0,0,0,0,0,0,0,0,0,0,0,0,0,0,0,0,0,0],"sum_hessian":[3.0182268E3,8.64106E1,2.9318162E3,4.023488E1,4.617572E1,2.2597963E1,2.909218E3,3.517173E1,5.0631456E0,5.8491244E0,4.03266E1,1.7804289E1,4.793673E0,4.2940373E0,2.904924E3,4.3733063E0,3.0798424E1,3.981215E0,1.0819308E0,3.5354192E0,2.313705E0,2.7853773E1,1.2472825E1,5.053301E0,1.2750989E1,2.3467429E0,2.4469302E0,1.0117263E0,3.282311E0,8.220742E0,2.8967034E3,8.246029E0,2.2552395E1,2.1324809E0,1.4029384E0,1.2969526E0,1.0167525E0,7.6177588E0,2.0236013E1,2.379174E0,1.0093651E1,1.8004179E0,3.2528827E0,1.0895772E1,1.855217E0,1.0373687E0,1.3093742E0,1.3576659E0,1.0892642E0,3.9919734E0,4.228769E0,2.779379E3,1.17324394E2,1.2883259E0,6.957703E0,2.8535016E0,1.9698895E1,3.6624436E0,3.955315E0,1.869934E1,1.5366737E0,6.0641756E0,4.029475E0,1.457783E0,1.7950999E0,1.4576881E0,9.438084E0,1.0589954E0,2.9329782E0,2.2785442E0,1.9502244E0,2.7517512E3,2.762784E1,2.6748531E1,9.057587E1],"tree_param":{"num_deleted":"0","num_feature":"7","num_nodes":"75","size_leaf_vector":"0"}},{"base_weights":[-1.9013455E-4,-4.473853E-2,1.9807843E-2,-2.9894998E-2,-8.9011645E-1,7.382513E-1,8.763119E-3,-6.400287E-2,2.711191E-1,-1.6794169E0,-3.669281E-1,-8.7760305E-1,8.4790653E-1,-1.2063469E0,1.2957347E-2,-5.067357E-2,-1.1950262E0,8.166568E-1,9.3257405E-2,1.0501524E0,-6.60818E-1,-5.032403E-1,9.720001E-1,-4.622026E-1,-1.3263915E0,-3.9807023E-3,2.0108318E-1,7.2062945E-1,-6.20297E-2,-1.4069313E0,-6.4885775E-3,-1.0244274E0,1.085654E0,7.6858693E-1,-2.1652201E-1,9.943518E-2,-1.274398E0,1.3273203E0,6.187571E-1,1.2499688E-2,-1.9229618E-1,5.330802E-1,3.3460822E-2,-1.4879985E-1,1.3344841E0,-7.44163E-1,-3.3920154E-2,1.3859442E0,-5.3334093E-1,-4.2531803E-1,9.9752194E-1,-5.414024E-1,3.5679445E-1,-8.05095E-1,5.3873765E-1,4.4259194E-2,1.6927487E0,-4.398483E-1,1.0193331E0,-1.1791592E-2,1.9183062E-1,-6.5634504E-2,-8.747264E-1,1.3038307E0,3.3473077E-1,5.362776E-1,-1.0687799E-1],"categories":[],"categories_nodes":[],"categories_segments":[],"categories_sizes":[],"default_left":[1,1,1,1,1,1,1,1,1,0,1,0,1,1,1,1,1,1,1,0,1,0,1,0,0,1,1,1,1,0,0,0,1,1,1,1,0,1,1,1,1,1,1,0,0,0,0,0,0,0,0,0,0,0,0,0,0,0,0,0,0,0,0,0,0,0,0],"id":18,"left_children":[1,3,5,7,9,11,13,15,17,-1,19,-1,21,23,25,27,29,31,33,-1,35,-1,37,-1,-1,39,41,43,45,-1,-1,-1,47,49,51,53,-1,55,57,59,61,63,65,-1,-1,-1,-1,-1,-1,-1,-1,-1,-1,-1,-1,-1,-1,-1,-1,-1,-1,-1,-1,-1,-1,-1,-1],"loss_changes":[2.6850812E0,1.1691055E1,1.649978E1,9.4498005E0,6.023388E0,6.322443E0,1.0461806E1,1.2392368E1,9.015184E0,0E0,5.2537303E0,0E0,5.5176315E0,1.7726898E-2,6.5128145E0,7.204727E0,2.4029455E0,1.2457302E1,1.5184677E1,0E0,4.6430798E0,0E0,2.669138E0,0E0,0E0,5.8240175E0,9.377098E0,6.571061E0,1.5439078E1,0E0,0E0,0E0,1.0692585E1,6.6545706E0,9.50493E0,2.520574E0,0E0,6.0158825E0,7.1562214E0,7.520164E0,1.2995733E1,8.212278E0,8.048685E0,0E0,0E0,0E0,0E0,0E0,0E0,0E0,0E0,0E0,0E0,0E0,0E0,0E0,0E0,0E0,0E0,0E0,0E0,0E0,0E0,0E0,0E0,0E0,0E0],"parents":[2147483647,0,0,1,1,2,2,3,3,4,4,5,5,6,6,7,7,8,8,10,10,12,12,13,13,14,14,15,15,16,16,17,17,18,18,20,20,22,22,25,25,26,26,27,27,28,28,32,32,33,33,34,34,35,35,37,37,38,38,39,39,40,40,41,41,42,42],"right_children":[2,4,6,8,10,12,14,16,18,-1,20,-1,22,24,26,28,30,32,34,-1,36,-1,38,-1,-1,40,42,44,46,-1,-1,-1,48,50,52,54,-1,56,58,60,62,64,66,-1,-1,-1,-1,-1,-1,-1,-1,-1,-1,-1,-1,-1,-1,-1,-1,-1,-1,-1,-1,-1,-1,-1,-1],"split_conditions":[2.3890549E1,2.3831451E1,2.39556E1,7.2675E0,2.38605E1,8.925E1,2.3998451E1,7.1755E0,7.3775E0,-5.0382507E-1,2.386335E1,-2.6328093E-1,1.2595E0,9.875E1,1.4275E2,6.575E1,7.2469997E0,1.0525E2,2.105545E1,3.1504574E-1,1.451E0,-1.509721E-1,5.8345E0,-1.3866079E-1,-3.9791745E-1,7.4034996E0,1.4575E2,6.65E1,8.875E1,-4.220794E-1,-1.9465733E-3,-3.0732822E-1,7.15E1,1.0625E2,8.002501E0,6.6E1,-3.8231942E-1,2.3911049E1,1.155E2,1.9635E0,2.0615E0,2.453705E1,5.2545E0,-4.4639956E-2,4.0034524E-1,-2.232489E-1,-1.0176047E-2,4.157833E-1,-1.6000229E-1,-1.2759541E-1,2.992566E-1,-1.6242072E-1,1.0703834E-1,-2.4152851E-1,1.616213E-1,1.3277759E-2,5.078246E-1,-1.3195449E-1,3.0579996E-1,-3.537478E-3,5.754919E-2,-1.9690352E-2,-2.6241794E-1,3.9114925E-1,1.0041924E-1,1.6088328E-1,-3.20634E-2],"split_indices":[4,4,4,3,4,6,4,3,3,0,4,0,2,6,6,6,3,6,4,0,2,0,3,0,0,3,6,5,6,0,0,0,5,6,3,5,0,4,6,2,2,4,3,0,0,0,0,0,0,0,0,0,0,0,0,0,0,0,0,0,0,0,0,0,0,0,0],"split_type":[0,0,0,0,0,0,0,0,0,0,0,0,0,0,0,0,0,0,0,0,0,0,0,0,0,0,0,0,0,0,0,0,0,0,0,0,0,0,0,0,0,0,0,0,0,0,0,0,0,0,0,0,0,0,0,0,0,0,0,0,0,0,0,0,0,0,0],"sum_hessian":[3.0119778E3,9.32798E2,2.07918E3,9.1771954E2,1.5078379E1,3.048269E1,2.0486973E3,8.250236E2,9.269595E1,5.1296463E0,9.948732E0,1.4921026E0,2.899059E1,6.0612845E0,2.0426359E3,8.164465E2,8.577156E0,2.1908041E1,7.078791E1,1.2668655E0,8.681867E0,2.1816103E0,2.6808979E1,1.5157235E0,4.545561E0,1.8748145E3,1.6782146E2,1.0940137E1,8.0550635E2,7.123375E0,1.453781E0,2.4348693E0,1.9473171E1,2.179437E1,4.899354E1,4.2517276E0,4.430139E0,1.199047E1,1.4818509E1,1.7248022E3,1.500121E2,5.5572643E1,1.1224882E2,4.841089E0,6.099048E0,3.0871641E1,7.746347E2,1.6547838E1,2.925334E0,3.3686924E0,1.8425678E1,3.1307968E1,1.7685574E1,1.1177002E0,3.1340275E0,2.9065056E0,9.083963E0,4.0410786E0,1.0777431E1,1.5198634E3,2.0493893E2,1.2745259E2,2.2559513E1,1.0233539E1,4.5339104E1,2.387747E1,8.8371346E1],"tree_param":{"num_deleted":"0","num_feature":"7","num_nodes":"67","size_leaf_vector":"0"}},{"base_weights":[-6.15263E-4,1.6301928E-2,-7.067508E-2,9.180309E-3,1.505359E0,-7.572469E-1,-1.4730229E-2,-4.2135082E-2,4.9291752E-2,1.786343E0,-2.9081476E-1,-1.0790061E0,3.1884643E-1,-5.5961166E-2,2.9124454E-1,-5.3198576E-2,5.905214E-1,2.661792E-1,2.7686873E-2,2.4757268E0,8.0345076E-1,3.2948658E-1,-1.3144877E0,1.0938029E0,-1.0750287E0,8.363097E-1,-7.4701786E-2,4.3463013E-1,-4.988159E-1,-4.7773365E-2,-9.8455834E-1,-8.588609E-1,8.1305397E-1,5.262999E-1,9.289996E-3,6.721014E-2,-1.0050661E-1,2.9465778E0,4.3623018E-1,1.2593441E0,-3.1918846E-3,-7.918693E-1,9.106558E-1,-1.5636305E0,-3.155511E-1,2.6173306E-1,1.3050278E0,2.1090221E-1,-1.6429162E0,1.1765792E0,-5.083176E-1,-5.0583786E-1,-4.68031E-2,-1.0256424E0,5.0674367E-1,2.8100404E-1,-1.1059737E0,-5.6385368E-2,8.4244335E-1,3.85075E-2,-1.4629166E0,9.866759E-1,-8.088574E-1,4.1516715E-1,1.4879609E0,-1.1012459E0,1.2137426E-1,5.9732497E-2,8.67699E-1,-3.6628696E-1,3.5631604E-2,1.2968844E0,3.4926283E-1,-1.3718795E0,4.0214074E-1,1.3630013E0,-6.755378E-3,8.72534E-1,-9.225133E-1,-4.508054E-1,2.1855186E-3,-5.1721287E-1,5.812885E-1,-5.417004E-1,1.1965544E0,-1.3101225E0,-1.3226081E-1],"categories":[],"categories_nodes":[],"categories_segments":[],"categories_sizes":[],"default_left":[1,1,1,1,1,1,1,1,1,1,0,1,1,1,1,1,1,1,1,1,1,1,1,1,1,1,1,1,1,1,1,0,1,1,1,1,1,0,0,0,0,0,1,0,1,0,0,0,0,1,0,1,1,0,1,1,1,0,0,0,0,0,0,0,0,0,0,0,0,0,0,0,0,0,0,0,0,0,0,0,0,0,0,0,0,0,0],"id":19,"left_children":[1,3,5,7,9,11,13,15,17,19,-1,21,23,25,27,29,31,33,35,37,39,41,43,45,47,49,51,53,55,57,59,-1,61,63,65,67,69,-1,-1,-1,-1,-1,71,-1,73,-1,-1,-1,-1,75,-1,77,79,-1,81,83,85,-1,-1,-1,-1,-1,-1,-1,-1,-1,-1,-1,-1,-1,-1,-1,-1,-1,-1,-1,-1,-1,-1,-1,-1,-1,-1,-1,-1,-1,-1],"loss_changes":[3.5566456E0,2.5619408E1,2.2407621E1,4.9558773E0,6.3232155E0,1.5563688E1,6.837711E0,7.4257517E0,6.324486E0,4.843609E0,0E0,1.1732155E1,1.293903E1,8.04442E0,7.5089655E0,5.2037907E0,6.5810857E0,8.167157E0,6.2386155E0,3.9448051E0,2.0771565E0,4.4222846E0,6.8204765E0,9.75605E-1,3.5563302E0,5.1283526E0,5.610769E0,6.3133764E0,5.2129335E0,7.9763927E0,2.9766588E0,0E0,5.3952694E0,5.8744583E0,7.9192185E0,5.579165E0,1.0515203E1,0E0,0E0,0E0,0E0,0E0,4.5895672E-1,0E0,5.9488664E0,0E0,0E0,0E0,0E0,1.8189049E0,0E0,1.7097784E1,8.730438E0,0E0,4.353634E0,4.6626816E0,1.0241547E0,0E0,0E0,0E0,0E0,0E0,0E0,0E0,0E0,0E0,0E0,0E0,0E0,0E0,0E0,0E0,0E0,0E0,0E0,0E0,0E0,0E0,0E0,0E0,0E0,0E0,0E0,0E0,0E0,