{"learner":{"attributes":{"best_iteration":"499","best_ntree_limit":"500","scikit_learn":"{\"use_label_encoder\": null, \"n_estimators\": 500, \"objective\": \"binary:logistic\", \"max_depth\": 20, \"max_leaves\": null, \"max_bin\": null, \"grow_policy\": null, \"learning_rate\": 0.3, \"verbosity\": null, \"booster\": null, \"tree_method\": null, \"gamma\": null, \"min_child_weight\": null, \"max_delta_step\": null, \"subsample\": 0.7000000000000002, \"sampling_method\": null, \"colsample_bytree\": 0.8999999999999999, \"colsample_bylevel\": 0.4, \"colsample_bynode\": null, \"reg_alpha\": null, \"reg_lambda\": null, \"scale_pos_weight\": null, \"base_score\": null, \"missing\": NaN, \"num_parallel_tree\": null, \"random_state\": null, \"n_jobs\": null, \"monotone_constraints\": null, \"interaction_constraints\": null, \"importance_type\": null, \"gpu_id\": null, \"validate_parameters\": null, \"predictor\": null, \"enable_categorical\": false, \"feature_types\": null, \"max_cat_to_onehot\": null, \"max_cat_threshold\": null, \"eval_metric\": null, \"early_stopping_rounds\": null, \"callbacks\": null, \"classes_\": [0, 1], \"n_classes_\": 2, \"_estimator_type\": \"classifier\"}"},"feature_names":["Diabetes status","Smoking status","HDL","Cholesterol","BMI","Age","End systolic blood pressure during PWA"],"feature_types":["float","float","float","float","float","float","float"],"gradient_booster":{"model":{"gbtree_model_param":{"num_parallel_tree":"1","num_trees":"500","size_leaf_vector":"0"},"tree_info":[0,0,0,0,0,0,0,0,0,0,0,0,0,0,0,0,0,0,0,0,0,0,0,0,0,0,0,0,0,0,0,0,0,0,0,0,0,0,0,0,0,0,0,0,0,0,0,0,0,0,0,0,0,0,0,0,0,0,0,0,0,0,0,0,0,0,0,0,0,0,0,0,0,0,0,0,0,0,0,0,0,0,0,0,0,0,0,0,0,0,0,0,0,0,0,0,0,0,0,0,0,0,0,0,0,0,0,0,0,0,0,0,0,0,0,0,0,0,0,0,0,0,0,0,0,0,0,0,0,0,0,0,0,0,0,0,0,0,0,0,0,0,0,0,0,0,0,0,0,0,0,0,0,0,0,0,0,0,0,0,0,0,0,0,0,0,0,0,0,0,0,0,0,0,0,0,0,0,0,0,0,0,0,0,0,0,0,0,0,0,0,0,0,0,0,0,0,0,0,0,0,0,0,0,0,0,0,0,0,0,0,0,0,0,0,0,0,0,0,0,0,0,0,0,0,0,0,0,0,0,0,0,0,0,0,0,0,0,0,0,0,0,0,0,0,0,0,0,0,0,0,0,0,0,0,0,0,0,0,0,0,0,0,0,0,0,0,0,0,0,0,0,0,0,0,0,0,0,0,0,0,0,0,0,0,0,0,0,0,0,0,0,0,0,0,0,0,0,0,0,0,0,0,0,0,0,0,0,0,0,0,0,0,0,0,0,0,0,0,0,0,0,0,0,0,0,0,0,0,0,0,0,0,0,0,0,0,0,0,0,0,0,0,0,0,0,0,0,0,0,0,0,0,0,0,0,0,0,0,0,0,0,0,0,0,0,0,0,0,0,0,0,0,0,0,0,0,0,0,0,0,0,0,0,0,0,0,0,0,0,0,0,0,0,0,0,0,0,0,0,0,0,0,0,0,0,0,0,0,0,0,0,0,0,0,0,0,0,0,0,0,0,0,0,0,0,0,0,0,0,0,0,0,0,0,0,0,0,0,0,0,0,0,0,0,0,0,0,0,0,0,0,0,0,0,0,0,0,0,0,0,0,0,0,0,0,0,0,0,0,0,0,0,0,0,0,0,0,0,0,0,0,0,0,0,0,0,0,0,0,0,0,0,0,0,0,0,0,0,0],"trees":[{"base_weights":[6.26853E-3,-6.936275E-1,2.736103E-1,-8.8479745E-1,-4.257498E-1,2.2774327E-1,7.040195E-1,-1.1508197E0,-4.058394E-1,-8.888889E-1,-1.05781056E-1,-1.01915434E-1,4.1127896E-1,1.6438356E-1,8.1590575E-1,-1.5076923E0,-1.0166852E0,-3.0379745E-1,-1.5087719E0,-1.1445783E0,-5.043478E-1,2.1929824E-1,-5.152355E-1,3.3333334E-1,-1.743158E-1,5.981873E-1,3.4293553E-1,5.4867256E-1,-1.027027E0,8.7827426E-1,-4.7058824E-1,1.0909091E0,-1.674267E0,-7.1382636E-1,-1.6725979E0,-6.010929E-1,1.037037E-1,-1.7083334E0,-3.611111E-1,1.3684211E0,-6.604651E-1,7.7894735E-1,-1.7777778E-1,-4.1420117E-1,-1.7037038E0,-1.6363636E0,4.4444445E-1,-6.878307E-1,-1.2968037E-1,8.8487583E-1,1.8099548E-2,3.7866047E-1,-2.8E-1,-3.1111112E-1,1.0555556E0,-1.6521739E0,-0E0,1.1659575E0,1.2021858E-1,-1.5555556E0,6E-1,-1.945946E0,-1.3865031E0,-1.7490494E-1,-1.0964187E0,-1.7894737E0,-7.368421E-1,-9.3670887E-1,1.5037594E-2,-8.264463E-2,1.5E0,6.666667E-1,-1.9101124E0,2.0560747E-1,-1.804878E0,4.375E-1,-1.0967742E0,4.3835616E-1,1.75E0,-6.105263E-1,8.095238E-1,6.2068963E-1,-7.607843E-1,-1.5294118E0,5.3150684E-1,-1.4022988E0,-7.54717E-2,-3.4571427E-1,2.5188917E-1,3.147208E-1,1.041847E0,-4.2071196E-1,1.0072993E0,3.1323764E-1,1.018868E0,-1.1168832E0,2.3622048E-1,7.1428573E-1,-1.6190476E0,1.3846154E0,-1.2727273E0,-1.2E0,1E0,-1.1764706E-1,1.2545455E0,3.8036808E-1,-1.6666666E0,-1.1111112E0,1.4666667E0,-1.6271186E0,-6.938776E-1,-7.6258993E-1,4.6875E-1,-1.4789916E0,-3.5658914E-1,-1.7142857E0,1.4285715E0,-1.1612903E0,-1.0909091E-1,5.925926E-1,-3.6144578E-1,-8.9855075E-1,2.3728813E-1,-1E0,1.4285715E0,-1.5E0,4.8421052E-1,-1.5384616E-1,1.1724138E0,-1.2432432E0,1.2727273E0,2.1487603E-1,1.3103448E0,-9.577465E-1,3.846154E-1,1.1466666E0,-1.3846154E0,-1.904762E-1,1.2653061E0,-2.7027026E-1,-9.4054055E-1,1.5061729E0,2.5E-1,-7.4074075E-2,-1.875E0,4.5783132E-1,-1.7037038E0,1.1351352E0,-3.847842E-1,-7.909604E-2,5.135135E-1,-1.2E0,7.4358976E-1,-5.714286E-1,1.103139E0,-1.7228465E-1,-1.826087E0,-1.1111112E0,1.1212121E0,-1.3684211E0,3.439325E-1,5.0980395E-1,1.2363636E0,3.529412E-1,-1.4375E0,-1.6190476E0,5.8181816E-1,3.529412E-1,9.3333334E-1,5.714286E-1,1.4909091E0,-1.3846154E0,5.6E-1,1.0248756E0,1.4238683E0,-1.4492753E-1,7.346939E-1,-1.9223301E0,3.1578946E-1,2.857143E-1,-1.68E0,-1.8666667E0,7.2289154E-2,-1.2727273E0,6.1157024E-1,-1E0,-1.7746478E0,-5.5045873E-2,-1.6666666E0,-1.902439E0,-5.555556E-1,-1.5789474E0,6E-1,-1.2E0,9.166667E-1,-8.8372093E-1,1.8181819E-1,-1.2542373E0,8.5714287E-1,-1.6521739E0,5.063291E-1,-1.6190476E0,1.0256411E0,-7.692308E-1,8.235294E-1,1.6666667E-1,-1.46875E0,-1.5384616E-1,1.1764706E0,-2.3809524E-1,-1.8709677E0,-2.857143E-1,1E0,-1.2E0,1.4202899E0,1.1578947E0,-1.1111112E0,4.4444445E-1,1.5428572E0,-1.0666667E0,2.5E-1,-6.101695E-1,-1.4366198E0,6.232558E-1,-8.051948E-1,-1.4285715E0,1.0588236E0,2.2950819E-1,9.230769E-1,1.625E0,-1.1111112E0,-6.737213E-1,-1.7910448E-1,2.580645E-1,-4.4186047E-1,6.363636E-1,-4.6153846E-1,-1.7647059E0,4E-1,1.3777778E0,4.695652E-1,3.529412E-1,-1.4666667E0,1.3381295E0,1.0337079E0,-1.0136986E0,1.4141414E-1,1.2920353E0,8.695652E-2,2.6951674E-1,5.1391864E-1,-9.5652175E-1,8.915663E-1,1.0133333E0,1.6216216E0,1.0769231E0,-1E0,-4.347826E-1,-1.8222222E0,-1.2631578E0,1.4736842E0,1.0769231E0,-1E0,-1E0,1.7647059E0,-1.1111112E0,1.2E0,7.4285716E-1,1.5692308E0,1.1071428E0,1.6444445E0,-1.6666666E0,6.122449E-1,8.5106385E-1,-1E0,1.1428572E0,-1.1111112E0,-1.2E0,9.0909094E-1,3.888889E-1,-1.4666667E0,-1.2987013E-1,1.75E0,-1.2444445E0,8.5714287E-1,-1.5555556E0,2.3157895E-1,-1.2463768E0,6.0465115E-1,1.3548387E0,-1.3846154E0,1.1818181E0,-1E0,-2.857143E-1,-1.5789474E0,7.4285716E-1,-1.3846154E0,-4.827586E-1,-1.7647059E0,7.017544E-2,1.5E0,1.5102041E0,1.8181819E-1,1.2E0,-1.6E0,-1.2E0,8.888889E-1,-1.6363636E0,-3.6363637E-1,6.3829786E-1,-9.166667E-1,1.6666666E0,-0E0,-1.5789474E0,1.4492753E-1,1.4285715E0,-1.5555556E0,1.5E0,-1E0,-1.5384616E-1,-1.5555556E0,-1.1111112E0,1.3846154E0,-1.6666666E0,8E-1,1.2380953E0,-4.516129E-1,-1.1627907E0,7.777778E-1,-2.6086956E-1,-1.8461539E0,4.4324324E-1,1.5294118E0,1.904762E-1,-1.7948718E0,1.4666667E0,-8.5714287E-1,-5.891182E-1,-1.7894737E0,-4.3686005E-1,5.045045E-1,-1.5652174E-1,8.8E-1,-1.6438356E-1,-1.7333333E0,-1.3333334E-1,7.647059E-1,-1.7037038E0,7.586207E-1,7.368421E-1,1.6E0,7.5728154E-1,-1.5E0,-1.1111112E0,1.3333334E0,1.1387163E0,3.6363635E-2,-2.857143E-1,-1.7714286E0,1.5121951E0,-2.1118012E-1,1.6571429E0,1.0731708E0,-1.2727273E0,1E0,-4E-1,3.355431E-1,6.355828E-1,-3.089431E-1,-1.4285715E0,-1.5384616E-1,1.2156863E0,3.3333334E-1,-1.4666667E0,1.2517985E0,1.7575758E0,3.3333334E-1,-1.3333334E0,4E-1,-6E-1,-1.6363636E0,2.2222222E-1,1.7419355E0,-1.1111112E0,8.4444445E-1,6.666667E-1,1.7647059E0,1.2222222E0,-1E0,1.2820513E0,-1.4285715E0,9.6103895E-1,2.857143E-1,-1E0,1.5555556E0,1.0833334E0,-8.5714287E-1,-1.125E0,5.3061223E-1,-1.826087E0,-5.833333E-1,-1.1111112E0,3.5555556E-1,-1.8490566E0,6E-1,2.4E-1,9.0909094E-1,1.4666667E0,4.4444445E-1,6.666667E-1,-1.4285715E0,1.2E0,-1.1111112E0,9.3333334E-1,-1.5555556E0,-7.8571427E-1,8.3870965E-1,-1.2727273E0,7.692308E-1,-1.8904109E0,-1.0243902E0,-1.3333334E0,5.714286E-1,-1.3333334E-1,8.888889E-1,-0E0,-1.6923077E0,1.1111112E0,-1.1111112E0,-7.4074075E-2,7.368421E-1,-1.1111112E0,1E0,1.2E0,-1.6E0,-1.3548387E0,-5.714286E-1,2.4E-1,1.4666667E0,-1.3333334E0,6.666667E-1,7.3015875E-1,2.857143E-1,1.6923077E0,6.666667E-1,-0E0,4.4444445E-1,-1.5555556E0,-9.52381E-2,-6.124031E-1,9.52381E-2,-1.25E-1,-5.829146E-1,3.04E-1,7.326733E-1,-3.3333334E-1,3.3898305E-2,1.8181819E-1,1.0877193E0,1.7391304E-2,-7.4285716E-1,1.9607843E-1,-1.3846154E0,1.0344827E0,5.527638E-1,-2.857143E-1,9.767442E-1,1.1649269E0,-1E0,-4.5454547E-1,1.4666667E0,4E-1,-1.5E0,2.5E-1,-6.3529414E-1,1.2820513E0,8.0851066E-1,-1.0697675E0,1.23893805E-1,2.9544207E-1,8.333333E-1,6.85567E-1,-3.255814E-1,2.857143E-1,-1.7777778E0,1.1111112E0,-1.3846154E0,1.3442622E0,4.7619048E-1,-0E0,-1.2E0,-1.1111112E0,1.0769231E0,1.2888889E0,-4.0816326E-2,-1E0,1.4285715E0,1.3913044E0,2E-1,1.5714285E0,4E-1,1.5384616E0,6.181818E-1,-1.2727273E0,1.4285715E0,1.7E0,-1.3333334E0,-1.5789474E0,4.6153846E-1,-1.6923077E0,8E-1,1.3513514E0,-1.5E0,-1.5789474E0,6.0606062E-2,-1.4666667E0,6.835443E-1,6.666667E-1,-1E0,-1.6666666E0,-1.1111111E-1,1.5294118E0,5.3061223E-1,8.5714287E-1,-1.7419355E0,8E-1,-1.1111112E0,1.4666667E0,-1.2E0,1.0588236E0,-1.3846154E0,6.666667E-1,-1.5789474E0,-6.2068963E-1,-1.7837838E0,-1.4666667E0,3.529412E-1,-1.3333334E0,1.2941177E0,-8.695652E-2,1.0909091E0,-3.8961038E-1,1.245283E0,-6.666667E-1,1.2727273E0,1.1428572E0,-1E0,1.0769231E0,-1.3333334E0,-2.2077923E-1,-1.1698114E0,-1.1111112E0,7.5E-1,4.6153846E-1,-6.2857145E-1,-1.4285715E0,-3.9759037E-1,4.2016807E-1,-1.2E0,-1.6E0,1.2470589E0,9.52381E-2,-1.0909091E0,6.086956E-1,-1.5294118E0,1.4285715E0,-1.3333334E0,-1.2E0,1.4509804E0,-1.7647059E0,7.294118E-1,1.3846154E0,-1.6923077E0,4.888889E-1,-1.2E0,1.4375E0,6.8235296E-1,9.0909094E-1,1.923077E-1,-1.2727273E0,5.714286E-1,1.2E0,-1.2E0,1.4133333E0,9.302326E-1,-1.2592592E0,6.666667E-1,-1.2727273E0,1.1304348E0,-1.68E0,1.0508474E0,6.666667E-1,-8.648649E-1,1.3E0,-1.2727273E0,-4E-1,-1.8E0,-1.3333334E0,2.857143E-1,6.0784316E-1,2.0465773E-1,9.781022E-1,-1.2727273E0,5.8181816E-1,1.2333333E0,-1.3846154E0,1.1764706E-1,6E-1,-1.4666667E0,4E-1,1.5E0,-1.1111112E0,1.25E0,-1E0,8E-1,1.4285715E0,6.666667E-1,-1.6666666E0,1.3103448E0,1.5616438E0,6.086956E-1,-1.2E0,1.1428572E0,8.235294E-1,-1E0,9.3333334E-1,-5.4545456E-1,1.117647E0,-1.4666667E0,1.3846154E0,-3.3333334E-1,7.5E-1,-6.666667E-1,1.2222222E0,-1.0588236E0,9.714286E-1,-1E0,-1.5294118E0,5E-1,7.5E-1,-1.2727273E0,-1E0,1.4E0,7.5555557E-1,-1.7777778E0,1.5102041E0,-1E0,-0E0,-1.2727273E0,-9.059233E-2,-1.68E0,5.263158E-1,-1.3096447E0,9.52381E-2,1.125E0,1.5789474E0,-1.0666667E0,-4E-1,-1.8367347E0,-7.1823204E-1,-1.2903226E-2,7.692308E-1,-1.5789474E0,-1.2E0,1.493671E0,-1.3846154E0,6.666667E-1,-4.6153846E-1,-1.3846154E0,1.1578947E0,-1.3333334E0,1.6470588E0,8.5714287E-1,1.5714285E0,-7.878788E-1,1.1111112E0,-1.3846154E0,1.5087719E0,5.4545456E-1,-1.3846154E0,1E0,2.6086956E-1,1.3684211E0,-1.5E0,4.7826087E-1,-1E0,1.3684211E0,1.4528302E0,5.882353E-1,1.1452992E0,-1E0,5E-1,-1.6521739E0,-1E0,1.2941177E0,1.4615384E0,-1.2727273E0,-1.804878E0,2.7027026E-1,3.529412E-1,-1.6E0,-1.2727273E0,4.489796E-1,7.0737916E-1,-1.5789474E0,4.742268E-1,1.668653E-2,7.5268817E-1,1.3333334E0,6.756303E-1,-2.6086956E-1,1.5368421E0,6.896552E-2,4.827586E-1,-1.1111112E0,1.5238096E0,-3.809524E-1,8.965517E-1,1.6444445E0,-1E0,1.2E0,1.8095238E0,1.0857143E0,-1.1111112E0,1.3333334E0,1.1578947E0,-1.1764706E-1,-1.4666667E0,9.0909094E-1,1.5555556E0,5.555556E-1,9.0909094E-1,-1.5294118E0,5.263158E-1,1.6190476E0,-1.2727273E0,-4E-1,-1.1111112E0,1.4666667E0,1.1E0,-1.1111112E0,8E-1,-1E0,-7.2E-1,1.2962963E-1,-1.4350282E0,-1.6666667E-1,-7.619048E-1,1.52E0,-1.75E0,-6.451613E-1,8.5714287E-1,-1.4666667E0,-0E0,-1.2871287E0,1.388889E-1,-1.4666667E0,5.2873564E-1,1.6190476E0,1.6969697E0,3.529412E-1,3.3333334E-1,1.0769231E0,-1E0,2.2222222E-1,4E-1,1.4074074E0,-1.8181819E-1,-1.4666667E0,3.1578946E-1,1.6190476E0,9.0909094E-1,1.6923077E0,-1E0,1.1666666E0,-9.230769E-1,1.5E0,-1.1111112E0,1.6923077E0,-3.255814E-1,1.0943396E0,1.5909091E0,7E-1,-1E0,1.3846154E0,-1.1111112E0,1.2139738E0,-1.6521739E0,1.1111112E0,-1.2727273E0,8E-1,-1.2E0,8.5714287E-1,1.5294118E0,2.1176471E-1,1.4141414E-1,8.8590604E-1,-1.68E0,5.6684494E-1,-4.2027194E-2,1.4117647E0,8.764045E-1,-1E0,1.625E0,6E-1,9.3048126E-1,2.4E-1,1.1111112E0,-6.909091E-1,5.882353E-1,1.6585366E0,-1.4666667E0,1.3333334E0,1.1304348E0,-1.2E0,8.235294E-1,1.7241379E0,5.185185E-1,-1.5789474E0,1.25E0,3.529412E-1,5.263158E-1,1.4E0,1.4285715E0,6.666667E-1,9.0909094E-1,-1.2E0,1.25E0,-0E0,1.3043479E0,6.666667E-1,-1.04E0,-6.896552E-2,3.3333334E-1,-7.1428575E-2,-1.1111112E0,3.1578946E-1,-1.1111112E0,-1.0526316E-1,-1.7333333E0,3.3333334E-1,-1.5294118E0,3.6619717E-1,-1.4202899E0,-8.888889E-1,2.9126215E-1,-2.2222222E-1,8.77193E-1,-1.1764706E-1,-1.1111112E0,3.529412E-1,-1.2E0,1.3846154E0,-2.5E-1,-1.4285715E0,-7.4074075E-2,-6E-1,-1.3333334E0,1.375E0,7.5E-1,1.4248366E0,1.3333334E0,3.6363637E-1,-1E0,1.3333334E0,1.1320755E-1,3.3333334E-1,-6.4285713E-1,1.0638298E0,5.503356E-1,1.1895425E0,2.5316456E-2,6.502058E-1,3.9130434E-1,-1.6852146E-1,-3.529412E-1,1.1052631E0,-1E0,1.25E0,1.0393013E0,7.38255E-1,-1.6666667E-1,4.2038217E-1,-1.7037038E0,2.5E-1,-1E0,1.3846154E0,2.2222222E-1,7.692308E-1,1.0769231E0,-1E0,1.4285715E0,-1.1111112E0,-1.3846154E0,1.2E0,-1.1111112E0,1.5E0,-1.7419355E0,8.695652E-2,-1.5E0,1.2941177E0,-4.477612E-1,1.4666667E0,2.2680412E-1,-1.5789474E0,-1E0,9.3333334E-1,-5E-1,-1.4666667E0,1.2727273E0,-1.3333334E0,-5E-1,1.5E0,1.0588236E0,-1.1666666E0,-1.7777778E0,-9.189189E-1,-1.5555556E0,-1.8181819E-1,1.0175439E0,-5.6E-1,1.6363636E0,-1.7037038E0,-8E-2,1.4444444E0,-1.5555556E0,1.2E0,-1E0,1.0769231E0,-1.1111112E0,5.4545456E-1,6.666667E-1,-7.5E-1,-1.4285715E0,8E-1,-1.2727273E0,1.0136986E0,8.75E-1,1.52E0,1.4666667E0,-1.2727273E0,-1.3846154E0,5.4545456E-1,8.965517E-1,-1.2727273E0,-9.5652175E-1,5.714286E-1,-1.2727273E0,1.6E0,6.9503546E-1,-1.3333334E0,-1E0,1.2751678E0,-9.3333334E-1,1.1578947E0,4.489796E-1,1.4285715E0,-1.2727273E0,4.858757E-1,-4.5308924E-1,4.6938777E-1,-1.2E0,5.4545456E-1,1.3714286E0,-1.2E0,1.7391305E-1,1.2299465E0,-5.4054055E-2,9.655172E-1,-1.5294118E0,2.3728813E-1,1.2432432E0,1.6129032E-1,-1.3333334E0,1E0,-1E0,8.5714287E-1,1.4285715E0,-1.3846154E0,7.5E-1,-7.6363635E-1,-1.4666667E0,5.116279E-1,-1.3333334E0,1E0,1E0,-1.5E0,-0E0,1.3846154E0,-3.3333334E-1,-1.5E0,1.3333334E0,-1.7241379E0,1.3333334E0,-1.4285715E0,1.3103448E0,6.25E-1,-1.7142857E0,7.692308E-1,8.235294E-1,-1.3333334E0,-1.2727273E0,2.2222222E-1,6.122449E-1,1.5714285E0,1.5384616E0,-1.2E0,1.0204082E0,1.75E0,1.4285715E0,1.1764706E-1,3.1578946E-1,1.4285715E0,-8E-2,-1.68E0,4.0816326E-2,1E0,1.6825397E0,9.3333334E-1,-1.6363636E0,-2.2222222E-1,1.4285715E0,6.666667E-1,6.0162604E-1,-1.7037038E0,1.6129032E0,-1.1111112E0,8.8E-1,-2.4691358E-2,-3.7108433E-1,-1.6923077E0,1.1489362E0,-1.1864407E0,1.2258065E0,-1.5789474E0,1.4965035E0,3.3333334E-1,8.8E-1,-1.5E0,1.6571429E0,6.3529414E-1,1.483871E0,-1E0,1.3333334E-1,1.6923077E0,6.27451E-1,-1.6923077E0,1.3333334E0,5E-1,-1.7777778E0,9.5652175E-1,-1.754386E-1,1.6363636E0,1.2E0,-1.2E0,5E-1,-1E0,-1.3333334E0,1.5E0,1.6E0,-1.2E0,1.2820513E0,-1.4285715E0,1.1794872E0,2.857143E-1,-1.3333334E0,7.692308E-1,1.3846154E0,-1.2E0,-1.2E0,5.263158E-1,-1.6666666E0,1.4482758E0,1.3882353E0,-1.4666667E0,1.2195122E0,-1.3333334E0,-1.4666667E0,1E0,-1.1111112E0,1.5E0,8.7258685E-1,-3.508772E-2,-3.1578946E-1,1.1058824E0,-1.6190476E0,5E-1,-1.4666667E0,-3.2673267E-1,1.2647059E0,-1.1111112E0,-1.7714286E0,-2.857143E-1,1.7313433E0,-1.3846154E0,9.4736844E-1,-1.4285715E0,1.6E0,-1.1111112E0,7.4074075E-2,8.3870965E-1,-1.5294118E0,-3.1578946E-1,-1E0,9.0909094E-1,-1.2E0,7.916667E-1,-1.1111112E0,5.882353E-1,-1E0,1.5428572E0,1.2E0,-1E0,1.2727273E0,3.1578946E-1,1.2E0,-1E0,1.4736842E0,-1.2E0,9.4071144E-1,-1.2E0,-1.0943396E0,8.3076924E-1,-1.3846154E0,1.2E0,7.118644E-1,-1.1111112E0,1.1111111E-1,-6.666667E-1,1.34375E0,-0E0,8.695652E-2,-1.1111112E0,1.3939394E0,-1.1111112E0,-1.2727273E0,8E-1,-1.2727273E0,1.2E0,-1.1111112E0,2.857143E-1,1.2727273E0,-2.3529412E-1,1.8181819E-1,-1.6E0,1.0588236E0,9.52381E-2,4.4444445E-1,1.6774193E0,8.318584E-1,1.6129032E0,-1.6521739E0,-5.882353E-1,9.52381E-2,1.0833334E0,-1.1111112E0,9.62963E-1,-1.0958904E-1,9.4736844E-1,-1.2517985E0,2.3655914E-1,6.2857145E-1,1.5463917E0,-7.5E-1,1.2727273E0,1.5E0,-1E0,1.4509804E0,-1E0,1.2E0,-1E0,5.263158E-1,1.4509804E0,-1.4666667E0,6.086956E-1,-1.3333334E0,1.3846154E0,1.3846154E0,-1.1111112E0,1.0537634E0,-1.8181819E-1,1.2E0,-1.6521739E0,-1.3333334E0,1.3846154E0,-1.2E0,1.5238096E0,-1.2E0,1.3333334E0,1.6E-1,-6.4E-1,1.4545455E0,2E-1,-1.4769231E0,1.3846154E0,-1.5294118E0,6E-1,-1.2727273E0,1.2857143E0,5.4545456E-1,1.6E0,5E-1,-1.3333334E0,7.368421E-1,1.6666666E0,-1.2E0,1.5294118E0],"categories":[],"categories_nodes":[],"categories_segments":[],"categories_sizes":[],"default_left":[1,1,1,1,1,1,1,1,1,1,1,1,1,1,1,1,1,1,0,1,1,1,1,1,1,1,1,1,1,1,1,0,1,1,1,1,1,1,1,0,1,1,1,1,0,0,1,1,1,1,1,1,1,1,1,0,1,1,1,0,1,0,1,1,1,0,1,1,1,1,0,1,0,1,0,1,1,1,0,1,1,1,1,0,1,1,1,1,1,1,1,1,1,1,1,1,1,1,0,1,0,0,0,1,1,1,0,0,0,1,1,1,1,1,1,0,0,1,1,1,1,1,1,0,0,0,1,1,0,1,0,1,0,1,1,1,0,1,1,1,1,0,1,1,0,1,0,1,1,1,1,1,1,1,1,1,0,0,1,0,1,1,1,1,1,0,1,1,0,0,1,0,1,1,1,1,1,0,1,1,0,0,1,0,1,1,0,1,0,0,1,0,1,0,1,1,1,1,0,0,1,0,1,1,0,1,1,1,1,1,0,1,1,0,0,0,1,1,0,1,1,1,1,1,1,0,0,1,0,0,0,1,1,1,1,1,1,0,0,1,1,1,0,0,1,1,1,1,1,1,1,1,1,1,1,0,0,1,0,1,1,0,0,0,0,0,0,1,1,1,0,0,1,1,0,0,0,0,1,1,0,1,0,1,0,0,1,1,1,0,0,1,0,1,0,1,0,1,0,1,0,0,1,0,0,0,0,1,1,1,1,0,1,0,1,0,0,0,0,1,0,0,0,0,0,0,1,1,1,1,0,1,1,1,0,0,1,1,0,1,1,1,1,1,0,1,1,0,0,0,0,1,0,0,0,1,1,1,0,0,1,0,1,0,0,1,1,1,1,0,0,0,1,0,1,0,0,0,0,1,0,1,0,0,1,1,0,1,0,1,0,1,1,0,0,1,1,1,1,0,1,0,1,0,0,1,0,0,0,0,0,0,0,0,0,1,1,0,0,0,1,0,0,1,1,1,0,0,0,1,0,0,0,0,0,1,1,1,0,0,0,1,1,0,0,1,1,0,1,1,1,1,1,1,1,1,1,1,1,1,1,1,0,1,1,1,1,1,0,1,0,1,0,1,1,0,1,1,1,1,1,1,1,1,0,1,0,0,1,1,0,0,0,1,1,0,0,1,1,0,0,0,1,0,0,0,0,0,0,0,0,0,0,0,1,0,1,1,0,0,1,0,1,0,0,0,0,0,0,0,0,1,0,1,0,0,0,0,0,1,1,1,1,1,0,0,0,0,0,1,1,0,0,1,1,1,1,1,0,0,1,1,1,1,0,0,0,0,1,0,1,0,0,1,0,1,1,1,1,0,0,1,0,1,1,1,1,0,0,0,1,0,1,0,0,1,0,0,1,1,1,1,0,1,1,0,1,1,0,0,0,0,0,0,0,1,1,0,0,1,1,0,0,1,0,0,1,1,0,0,0,0,1,1,1,1,0,0,0,0,0,0,0,1,0,0,0,1,0,1,0,0,1,1,0,0,1,1,0,1,1,1,0,0,1,0,1,1,0,1,0,0,0,0,1,1,0,1,0,0,1,1,1,0,1,0,0,1,1,1,1,0,0,0,0,0,0,0,1,1,0,0,1,1,0,1,1,1,1,1,1,1,1,1,0,1,1,1,0,0,0,0,1,0,0,1,1,0,0,0,1,0,0,0,0,0,0,0,0,1,0,0,0,1,1,0,1,1,0,0,1,0,0,1,1,1,0,1,0,0,0,0,0,0,0,0,0,1,0,1,0,0,0,0,0,1,0,0,0,1,0,0,1,0,0,0,1,0,0,0,1,0,1,0,1,1,1,0,1,1,0,1,0,0,1,1,1,0,1,1,0,0,0,0,0,0,0,1,0,0,1,1,0,0,0,0,0,0,1,0,1,1,1,1,1,0,1,1,1,0,1,0,1,1,1,1,1,1,1,0,1,0,0,1,0,1,1,0,0,1,1,0,1,0,0,1,1,1,1,1,1,1,1,1,1,1,1,0,0,1,1,1,1,0,1,0,0,1,0,0,0,0,0,0,0,0,0,0,1,0,0,1,0,1,0,0,0,1,0,0,0,1,0,1,1,0,1,0,1,1,1,0,0,1,0,0,0,0,0,0,0,0,1,0,0,0,1,1,1,0,0,0,1,1,0,1,0,0,0,1,0,0,1,1,1,1,1,0,1,1,1,0,0,0,0,1,1,1,1,0,1,1,1,0,1,0,0,0,0,0,1,0,1,0,0,0,0,1,0,1,0,0,0,0,0,0,1,0,1,0,0,0,0,1,0,0,0,1,0,0,1,1,0,1,0,1,1,0,1,0,1,0,1,1,0,0,0,1,1,1,0,1,1,0,0,1,1,1,0,0,1,0,1,1,0,1,0,0,0,0,0,1,0,0,0,0,0,0,0,0,0,0,0,1,1,0,1,0,0,0,1,0,0,0,0,1,0,0,0,0,0,1,1,1,0,0,1,0,1,1,0,0,1,0,0,1,0,0,0,1,1,0,1,0,0,0,1,1,1,0,0,0,0,0,0,0,0,1,0,1,0,1,1,0,0,1,0,1,1,1,0,1,0,0,0,0,1,0,1,0,1,1,1,0,0,0,1,1,0,1,0,0,1,1,1,0,1,1,1,1,1,1,1,1,0,0,0,1,0,0,0,0,0,0,1,0,0,0,0,0,0,0,0,0,0,0,0,0,0,0,0,0,0,0,0,0,0,0,0,0,0,0,0,0,0,0,0],"id":0,"left_children":[1,3,5,7,9,11,13,15,17,19,21,23,25,27,29,31,33,35,-1,37,39,41,43,45,47,49,51,53,55,57,59,-1,61,63,65,67,69,71,73,-1,75,77,79,81,-1,-1,83,85,87,89,91,93,95,97,99,-1,101,103,105,-1,107,-1,109,111,113,-1,115,117,119,121,-1,123,-1,125,-1,127,129,131,-1,133,135,137,139,-1,141,143,145,147,149,151,153,155,157,159,161,163,165,167,-1,169,-1,-1,-1,171,173,175,-1,-1,-1,177,179,181,183,185,187,-1,-1,189,191,193,195,197,199,-1,-1,-1,201,203,-1,205,-1,207,-1,209,211,213,-1,215,217,219,221,-1,223,225,-1,227,-1,229,231,233,235,237,239,241,243,245,-1,-1,247,-1,249,251,253,255,257,-1,259,261,-1,-1,263,-1,265,267,269,271,273,-1,275,277,-1,-1,279,-1,281,283,-1,285,-1,-1,287,-1,289,-1,291,293,295,297,-1,-1,299,-1,301,303,-1,305,307,309,311,313,-1,315,317,-1,-1,-1,319,321,-1,323,325,327,329,331,333,-1,-1,335,-1,-1,-1,337,339,341,343,345,347,-1,-1,349,351,353,-1,-1,355,357,359,361,363,365,367,369,371,373,375,-1,-1,377,-1,379,381,-1,-1,-1,-1,-1,-1,383,385,387,-1,-1,389,391,-1,-1,-1,-1,393,395,-1,397,-1,399,-1,-1,401,403,405,-1,-1,407,-1,409,-1,411,-1,413,-1,415,-1,-1,417,-1,-1,-1,-1,419,421,423,425,-1,427,-1,429,-1,-1,-1,-1,431,-1,-1,-1,-1,-1,-1,433,435,437,439,-1,441,443,445,-1,-1,447,449,-1,451,453,455,457,459,-1,461,463,-1,-1,-1,-1,465,-1,-1,-1,467,469,471,-1,-1,473,-1,475,-1,-1,477,479,481,483,-1,-1,-1,485,-1,487,-1,-1,-1,-1,489,-1,491,-1,-1,493,495,-1,497,-1,499,-1,501,503,-1,-1,505,507,509,511,-1,513,-1,515,-1,-1,517,-1,-1,-1,-1,-1,-1,-1,-1,-1,519,521,-1,-1,-1,523,-1,-1,525,527,529,-1,-1,-1,531,-1,-1,-1,-1,-1,533,535,537,-1,-1,-1,539,541,-1,-1,543,545,-1,547,549,551,553,555,557,559,561,563,565,567,569,571,573,-1,575,577,579,581,583,-1,585,-1,587,-1,589,591,-1,593,595,597,599,601,603,605,607,-1,609,-1,-1,611,613,-1,-1,-1,615,617,-1,-1,619,621,-1,-1,-1,623,-1,-1,-1,-1,-1,-1,-1,-1,-1,-1,-1,625,-1,627,629,-1,-1,631,-1,633,-1,-1,-1,-1,-1,-1,-1,-1,635,-1,637,-1,-1,-1,-1,-1,639,641,643,645,647,-1,-1,-1,-1,-1,649,651,-1,-1,653,655,657,659,661,-1,-1,663,665,667,669,-1,-1,-1,-1,671,-1,673,-1,-1,675,-1,677,679,681,683,-1,-1,685,-1,687,689,691,693,-1,-1,-1,695,-1,697,-1,-1,699,-1,-1,701,703,705,707,-1,709,711,-1,713,715,-1,-1,-1,-1,-1,-1,-1,717,719,-1,-1,721,723,-1,-1,725,-1,-1,727,729,-1,-1,-1,-1,731,733,735,737,-1,-1,-1,-1,-1,-1,-1,739,-1,-1,-1,741,-1,743,-1,-1,745,747,-1,-1,749,751,-1,753,755,757,-1,-1,759,-1,761,763,-1,765,-1,-1,-1,-1,767,769,-1,771,-1,-1,773,775,777,-1,779,-1,-1,781,783,785,787,-1,-1,-1,-1,-1,-1,-1,789,791,-1,-1,793,795,-1,797,799,801,803,805,807,809,811,813,-1,815,817,819,-1,-1,-1,-1,821,-1,-1,823,825,-1,-1,-1,827,-1,-1,-1,-1,-1,-1,-1,-1,829,-1,-1,-1,831,833,-1,835,837,-1,-1,839,-1,-1,841,843,845,-1,847,-1,-1,-1,-1,-1,-1,-1,-1,-1,849,-1,851,-1,-1,-1,-1,-1,853,-1,-1,-1,855,-1,-1,857,-1,-1,-1,859,-1,-1,-1,861,-1,863,-1,865,867,869,-1,871,873,-1,875,-1,-1,877,879,881,-1,883,885,-1,-1,-1,-1,-1,-1,-1,887,-1,-1,889,891,-1,-1,-1,-1,-1,-1,893,-1,895,897,899,901,903,-1,905,907,909,-1,911,-1,913,915,917,919,921,923,925,-1,927,-1,-1,929,-1,931,933,-1,-1,935,937,-1,939,-1,-1,941,943,945,947,949,951,953,955,957,959,961,963,-1,-1,965,967,969,971,-1,973,-1,-1,975,-1,-1,-1,-1,-1,-1,-1,-1,-1,-1,977,-1,-1,979,-1,981,-1,-1,-1,983,-1,-1,-1,985,-1,987,989,-1,991,-1,993,995,997,-1,-1,999,-1,-1,-1,-1,-1,-1,-1,-1,1001,-1,-1,-1,1003,1005,1007,-1,-1,-1,1009,1011,-1,1013,-1,-1,-1,1015,-1,-1,1017,1019,1021,1023,1025,-1,1027,1029,1031,-1,-1,-1,-1,1033,1035,1037,1039,-1,1041,1043,1045,-1,1047,-1,-1,-1,-1,-1,1049,-1,1051,-1,-1,-1,-1,1053,-1,1055,-1,-1,-1,-1,-1,-1,1057,-1,1059,-1,-1,-1,-1,1061,-1,-1,-1,1063,-1,-1,1065,1067,-1,1069,-1,1071,1073,-1,1075,-1,1077,-1,1079,1081,-1,-1,-1,1083,1085,1087,-1,1089,1091,-1,-1,1093,1095,1097,-1,-1,1099,-1,1101,1103,-1,1105,-1,-1,-1,-1,-1,1107,-1,-1,-1,-1,-1,-1,-1,-1,-1,-1,-1,1109,1111,-1,1113,-1,-1,-1,1115,-1,-1,-1,-1,1117,-1,-1,-1,-1,-1,1119,1121,1123,-1,-1,1125,-1,1127,1129,-1,-1,1131,-1,-1,1133,-1,-1,-1,1135,1137,-1,1139,-1,-1,-1,1141,1143,1145,-1,-1,-1,-1,-1,-1,-1,-1,1147,-1,1149,-1,1151,1153,-1,-1,1155,-1,1157,1159,1161,-1,1163,-1,-1,-1,-1,1165,-1,1167,-1,1169,1171,1173,-1,-1,-1,1175,1177,-1,1179,-1,-1,1181,1183,1185,-1,1187,1189,1191,1193,1195,1197,1199,1201,-1,-1,-1,1203,-1,-1,-1,-1,-1,-1,1205,-1,-1,-1,-1,-1,-1,-1,-1,-1,-1,-1,-1,-1,-1,-1,-1,-1,-1,-1,-1,-1,-1,-1,-1,-1,-1,-1,-1,-1,-1,-1,-1],"loss_changes":[5.524024E2,4.1410797E1,4.201265E1,6.0086212E1,5.0549915E1,1.16935905E2,1.2258423E1,1.3067169E1,1.8815035E1,1.3138802E1,2.7166613E1,2.1856647E1,1.5650528E1,1.727488E1,1.4033493E1,3.6996475E1,4.3452377E1,1.9203754E1,0E0,3.604283E1,1.771516E1,2.547193E1,1.0131186E1,2.239394E1,1.3520119E1,5.5030777E1,2.0385292E1,1.2640018E1,5.938895E0,3.52433E1,1.0806537E1,0E0,3.3022003E0,3.1870346E1,6.364502E0,1.8934753E1,1.7687298E1,2.427623E1,2.982664E1,0E0,2.6228891E1,1.4942646E1,2.9333834E1,3.078031E1,0E0,0E0,1.7052591E1,2.056656E1,4.5218582E1,1.9495895E1,4.8388767E1,3.57955E1,2.1864641E1,1.6244446E1,1.5552835E1,0E0,6.6E0,1.3508743E1,2.190117E1,0E0,9.044444E0,0E0,5.662224E0,2.5228477E1,2.5158363E1,0E0,2.255639E1,1.0885971E1,7.444065E0,1.6005838E1,0E0,7.1428566E0,0E0,1.3437579E1,0E0,7.133786E0,1.503083E1,6.831271E0,0E0,1.6781195E1,1.7122196E1,1.1613888E1,5.366825E0,0E0,2.4660189E1,1.3516922E1,2.3791046E1,2.0686611E1,1.7229485E1,3.288593E1,1.7761475E1,2.6655962E1,9.510803E0,4.0926483E1,8.171875E0,9.578924E0,2.1299341E1,2.246499E-1,0E0,5.5264664E-1,0E0,0E0,0E0,8.073122E0,2.8184357E0,7.6911035E0,0E0,0E0,0E0,1.7527336E1,1.2313469E1,3.2166466E1,8.737345E0,6.6515656E0,1.264846E1,0E0,0E0,1.9818779E1,1.5278468E1,8.942592E0,6.0481415E0,1.1847282E1,2.333071E1,0E0,0E0,0E0,2.8706306E1,6.4977374E0,0E0,1.2008724E1,0E0,1.0906473E1,0E0,2.2885159E1,5.6483517E0,1.3743765E1,0E0,1.4320801E1,2.105215E0,7.9319825E0,6.7033424E0,0E0,2.8859589E1,1.1870525E1,0E0,1.992343E0,0E0,1.198386E1,2.0189026E1,1.093845E1,1.3589869E1,1.0870588E1,6.1305847E0,6.3103647E0,1.3455658E0,1.776205E1,0E0,0E0,5.717922E0,0E0,9.6080475E0,1.5127396E1,3.0825882E0,5.239819E0,5.3800125E0,0E0,4.711196E1,5.239819E0,0E0,0E0,1.1142246E1,0E0,8.017777E0,6.5485764E0,2.4234924E0,2.0896185E1,5.7967863E0,0E0,6.875522E0,7.5740256E0,0E0,0E0,1.0680455E1,0E0,2.5760628E1,1.24158745E1,0E0,1.2080005E1,0E0,0E0,2.2394001E1,0E0,1.6856575E1,0E0,7.280303E0,4.0181847E0,1.0695704E1,4.956854E0,0E0,0E0,1.7013767E1,0E0,7.698683E0,1.2553846E1,0E0,6.988889E0,5.332382E0,1.4332106E1,4.9019604E0,1.10139475E1,0E0,1.7460318E1,8.5E0,0E0,0E0,0E0,2.6324797E0,8.1196575E0,0E0,9.733333E0,8.878264E0,2.3531162E1,8.065193E0,8.089769E0,1.9310692E1,0E0,0E0,2.1758627E1,0E0,0E0,0E0,1.2326447E1,3.563741E1,1.2127574E1,1.5124286E1,9.881641E0,2.0995777E1,0E0,0E0,4.2339134E-1,1.742786E1,7.581699E0,0E0,0E0,1.3940002E1,9.560862E0,2.4244156E1,4.7903824E-1,8.411068E0,2.3916912E1,2.35727E1,1.9589105E0,3.3491611E0,2.4013233E1,2.6543808E0,0E0,0E0,4.846377E0,0E0,1.3693781E0,5.9913216E0,0E0,0E0,0E0,0E0,0E0,0E0,7.530159E0,1.6904984E0,8.011902E0,0E0,0E0,1.857666E1,1.1865158E0,0E0,0E0,0E0,0E0,8.343435E0,1.6503967E1,0E0,1.3249304E1,0E0,7.5867157E0,0E0,0E0,4.3485374E0,2.0304785E1,9.752221E-1,0E0,0E0,1.6585865E0,0E0,8.571428E0,0E0,8.749207E0,0E0,1.24659E1,0E0,1.9405733E1,0E0,0E0,8.027972E0,0E0,0E0,0E0,0E0,2.338913E0,5.7489176E0,2.390544E0,8.532052E0,0E0,5.5555553E0,0E0,2.2907026E0,0E0,0E0,0E0,0E0,4.700855E0,0E0,0E0,0E0,0E0,0E0,0E0,1.6619356E1,1.6675606E0,2.9822216E0,6.6086955E0,0E0,1.8817673E0,6.6366196E-2,5.079365E-1,0E0,0E0,4.507937E0,2.1816864E0,0E0,6.6000004E0,2.316329E0,9.7926795E-1,2.5214672E0,3.8509655E0,0E0,6.4542985E0,4.2882233E0,0E0,0E0,0E0,0E0,6.173208E0,0E0,0E0,0E0,7.9338074E0,1.0321212E1,9.342857E0,0E0,0E0,8.031439E0,0E0,9.6735E-2,0E0,0E0,1.7238277E1,9.540115E0,1.00119705E1,2.7366629E1,0E0,0E0,0E0,1.3564102E1,0E0,1.8519936E0,0E0,0E0,0E0,0E0,1.8E0,0E0,6.324786E0,0E0,0E0,1.3331518E1,7.1428566E0,0E0,4.3884087E0,0E0,1.860075E0,0E0,2.8599396E0,1.1168831E1,0E0,0E0,2.0150002E1,7.3915553E0,1.0090385E1,2.2442911E1,0E0,7.7890744E0,0E0,1.4450069E1,0E0,0E0,3.973333E0,0E0,0E0,0E0,0E0,0E0,0E0,0E0,0E0,0E0,8.134919E0,2.48693E0,0E0,0E0,0E0,1.5331459E1,0E0,0E0,4.311111E0,1.2622223E1,1.0995475E1,0E0,0E0,0E0,1.6101364E1,0E0,0E0,0E0,0E0,0E0,3.7739239E0,6.3103647E0,1.20909815E1,0E0,0E0,0E0,4.737561E0,2.089782E1,0E0,0E0,6.787879E0,5.68254E0,0E0,9.054945E0,2.790171E1,4.980159E0,1.4467583E1,1.5025726E1,5.9641004E0,3.2292603E1,4.974026E0,1.4185097E1,1.2294373E1,1.3583488E1,3.7767773E1,2.0017582E1,5.7986927E0,0E0,4.163517E0,6.2150793E0,5.1688313E0,1.18883705E1,5.666641E0,0E0,1.076431E1,0E0,1.0602372E1,0E0,3.2678135E1,6.928035E0,0E0,1.3673695E1,9.795351E0,7.0425625E0,1.2787003E1,1.2220966E1,1.0307472E1,5.2088814E0,1.3409524E1,0E0,1.2666674E0,0E0,0E0,7.8373013E0,3.6E0,0E0,0E0,0E0,1.0031776E0,2.9094532E1,0E0,0E0,2.1155472E0,7.971429E0,0E0,0E0,0E0,5.392513E0,0E0,0E0,0E0,0E0,0E0,0E0,0E0,0E0,0E0,0E0,0E0,4.8727274E0,0E0,2.0074112E1,4.230769E0,0E0,0E0,4.805556E0,0E0,1.4760171E1,0E0,0E0,0E0,0E0,0E0,0E0,0E0,0E0,5.9238095E0,0E0,8.148073E0,0E0,0E0,0E0,0E0,0E0,6.661067E0,8.509091E0,3.1944592E1,9.391605E0,2.1212122E0,0E0,0E0,0E0,0E0,0E0,1.4475603E1,1.3259567E1,0E0,0E0,5.421704E0,2.7070675E1,6.6122437E0,1.0228512E1,2.1974617E1,0E0,0E0,1.461623E1,9.802198E0,3.7762213E-1,1.3809305E1,0E0,0E0,0E0,0E0,7.282829E-2,0E0,2.838676E1,0E0,0E0,1.4652992E1,0E0,1.942749E-1,1.5336653E1,7.012272E0,1.3299332E1,0E0,0E0,8.77895E0,0E0,9.785156E-1,2.7921093E1,5.491948E0,6.784314E0,0E0,0E0,0E0,1.5935638E1,0E0,2.022808E1,0E0,0E0,1.1858824E1,0E0,0E0,7.250464E0,2.331868E1,1.7942368E1,1.7389565E0,0E0,1.3220207E1,1.0495884E1,0E0,4.349786E0,1.8704762E1,0E0,0E0,0E0,0E0,0E0,0E0,0E0,5.3552246E-1,6.533333E0,0E0,0E0,1.8838501E-1,8.647343E0,0E0,0E0,4.1486073E0,0E0,0E0,8.70303E0,3.320263E0,0E0,0E0,0E0,0E0,9.547236E0,1.6332493E0,8.9839935E-2,1.0653967E1,0E0,0E0,0E0,0E0,0E0,0E0,0E0,8.455556E0,0E0,0E0,0E0,3.6E0,0E0,1.0038558E1,0E0,0E0,6.8188705E0,2.0392382E1,0E0,0E0,5.351612E0,9.638095E0,0E0,1.8489143E1,8.75466E0,4.4577503E0,0E0,0E0,3.9812737E0,0E0,7.692306E-1,1.4188035E0,0E0,1.2335281E0,0E0,0E0,0E0,0E0,3.1272726E0,3.1244783E0,0E0,2.9937744E-2,0E0,0E0,7.5E0,1.8255854E1,1.3324339E1,0E0,1.174659E1,0E0,0E0,4.395714E0,6.760181E0,1.041391E1,1.1473431E1,0E0,0E0,0E0,0E0,0E0,0E0,0E0,8.57887E0,7.6840334E0,0E0,0E0,5.955342E0,9.801899E0,0E0,2.9982521E1,1.7240005E1,5.917845E0,1.5916653E0,1.629103E1,1.0945279E1,1.7660942E0,1.6032183E1,9.258171E0,0E0,5.3123474E-2,1.213311E1,9.518256E-1,0E0,0E0,0E0,0E0,8.0150414E-1,0E0,0E0,3.107767E-1,5.813904E0,0E0,0E0,0E0,3.4722223E0,0E0,0E0,0E0,0E0,0E0,0E0,0E0,0E0,1.594162E-2,0E0,0E0,0E0,3.8344831E0,2.2354498E0,0E0,3.0847952E0,2.2907262E0,0E0,0E0,1.708172E1,0E0,0E0,1.2321458E1,7.652664E-2,2.0455773E0,0E0,5.0021E0,0E0,0E0,0E0,0E0,0E0,0E0,0E0,0E0,0E0,3.1253712E0,0E0,9.357084E0,0E0,0E0,0E0,0E0,0E0,1.8543954E0,0E0,0E0,0E0,6.9750214E-1,0E0,0E0,1.5558334E1,0E0,0E0,0E0,4.5324173E0,0E0,0E0,0E0,1.2606058E0,0E0,7.52381E0,0E0,2.1687019E-1,1.8588638E1,6.936268E0,0E0,6.314743E0,1.1152066E1,0E0,6.650049E0,0E0,0E0,6.45E0,1.1885681E0,4.1963053E0,0E0,1.3528955E1,6.760181E0,0E0,0E0,0E0,0E0,0E0,0E0,0E0,3.304844E-1,0E0,0E0,5.239819E0,8.604846E0,0E0,0E0,0E0,0E0,0E0,0E0,1.163077E1,0E0,9.444445E0,1.0039606E1,1.6083164E1,2.455821E1,1.294667E1,0E0,4.792982E0,7.333336E-1,9.735248E0,0E0,9.5E0,0E0,2.0080503E1,1.4581566E0,3.9595962E0,1.648992E1,3.376431E1,7.852867E0,1.7971243E1,0E0,5.239819E0,0E0,0E0,3.3459594E0,0E0,3.8796294E0,6.942857E0,0E0,0E0,1.1957972E1,6.71402E-1,0E0,1.1793939E1,0E0,0E0,9.333685E0,9.282131E0,5.8788824E0,1.6756674E1,1.1079823E1,8.446285E0,2.2524183E1,1.8388847E1,7.8573947E0,2.8758017E1,3.88877E0,1.3303761E1,0E0,0E0,9.231319E0,6.7594967E0,1.0271685E1,8.167444E0,0E0,1.0833334E1,0E0,0E0,4.349206E0,0E0,0E0,0E0,0E0,0E0,0E0,0E0,0E0,0E0,0E0,1.3330149E1,0E0,0E0,6.909973E0,0E0,1.2447151E1,0E0,0E0,0E0,6.3333335E0,0E0,0E0,0E0,1.05E1,0E0,4.3981905E0,1.166666E0,0E0,1.9074245E1,0E0,1.2294373E1,8.188896E-1,2.0497581E1,0E0,0E0,8.175687E0,0E0,0E0,0E0,0E0,0E0,0E0,0E0,0E0,2.3156567E0,0E0,0E0,0E0,3.1241264E0,1.2859615E1,1.8051071E0,0E0,0E0,0E0,3.987777E0,1.7889552E0,0E0,7.1582613E0,0E0,0E0,0E0,6.9920406E0,0E0,0E0,3.6168327E0,5.260606E0,3.107767E-1,3.322773E1,1.326165E1,0E0,8.92602E0,1.0474213E1,5.6498707E1,0E0,0E0,0E0,0E0,2.313944E1,1.0674347E1,1.3812973E1,5.5705585E0,0E0,2.4234007E1,4.384755E0,2.784815E1,0E0,3.333335E-1,0E0,0E0,0E0,0E0,0E0,2.5687134E1,0E0,1.69016E1,0E0,0E0,0E0,0E0,7.2E0,0E0,2.1666667E0,0E0,0E0,0E0,0E0,0E0,0E0,1.5708334E1,0E0,1.2553846E1,0E0,0E0,0E0,0E0,1.857666E1,0E0,0E0,0E0,1.0947142E0,0E0,0E0,9.06184E0,9.357084E0,0E0,4.8757896E0,0E0,3.1853153E1,2.5019608E1,0E0,1.6221136E1,0E0,1.1733334E1,0E0,9.444445E0,1.5946003E1,0E0,0E0,0E0,7.101919E0,1.774956E1,4.5620975E0,0E0,1.062822E1,7.2658596E0,0E0,0E0,2.658574E1,1.4335839E1,1.0737778E1,0E0,0E0,2.3637924E0,0E0,2.4148607E0,4.2060604E0,0E0,8.60245E0,0E0,0E0,0E0,0E0,0E0,1.0835913E1,0E0,0E0,0E0,0E0,0E0,0E0,0E0,0E0,0E0,0E0,0E0,9.264469E0,5.3142858E0,0E0,1.0820761E0,0E0,0E0,0E0,6.0842104E0,0E0,0E0,0E0,0E0,1.4375351E1,0E0,0E0,0E0,0E0,0E0,1.0271172E1,2.7048222E1,9.357084E0,0E0,0E0,6.2523537E0,0E0,1.5106711E1,3.3988953E0,0E0,0E0,2.2498274E0,0E0,0E0,1.0281767E1,0E0,0E0,0E0,7.617509E0,1.3351319E1,0E0,2.5898077E0,0E0,0E0,0E0,1.2156194E1,4.557576E0,1.8711481E0,0E0,0E0,0E0,0E0,0E0,0E0,0E0,0E0,3.238636E0,0E0,3.2863045E0,0E0,2.7689047E0,2.9155674E0,0E0,0E0,7.8217196E0,0E0,8.409117E0,3.0420977E1,3.6655807E0,0E0,6.661067E0,0E0,0E0,0E0,0E0,7.8E0,0E0,9.0431385E0,0E0,5.3142858E0,1.4316559E0,9.726513E0,0E0,0E0,0E0,1.1516483E1,8.1196575E0,0E0,1.29007E1,0E0,0E0,1.8154476E1,1.1516483E1,1.389762E1,0E0,1.2414816E1,5.321644E0,3.310048E0,2.2669842E1,1.5840101E1,1.2568831E1,4.2848969E-1,3.5833335E0,0E0,0E0,0E0,7.358093E-1,0E0,0E0,0E0,0E0,0E0,0E0,1.1410741E1,0E0,0E0,0E0,0E0,0E0,0E0,0E0,0E0,0E0,0E0,0E0,0E0,0E0,0E0,0E0,0E0,0E0,0E0,0E0,0E0,0E0,0E0,0E0,0E0,0E0,0E0,0E0,0E0,0E0,0E0,0E0,0E0],"parents":[2147483647,0,0,1,1,2,2,3,3,4,4,5,5,6,6,7,7,8,8,9,9,10,10,11,11,12,12,13,13,14,14,15,15,16,16,17,17,19,19,20,20,21,21,22,22,23,23,24,24,25,25,26,26,27,27,28,28,29,29,30,30,32,32,33,33,34,34,35,35,36,36,37,37,38,38,40,40,41,41,42,42,43,43,46,46,47,47,48,48,49,49,50,50,51,51,52,52,53,53,54,54,56,56,57,57,58,58,60,60,62,62,63,63,64,64,66,66,67,67,68,68,69,69,71,71,73,73,75,75,76,76,77,77,79,79,80,80,81,81,82,82,84,84,85,85,86,86,87,87,88,88,89,89,90,90,91,91,92,92,93,93,94,94,95,95,96,96,97,97,99,99,103,103,104,104,105,105,109,109,110,110,111,111,112,112,113,113,114,114,117,117,118,118,119,119,120,120,121,121,122,122,126,126,127,127,129,129,131,131,133,133,134,134,135,135,137,137,138,138,139,139,140,140,142,142,143,143,145,145,147,147,148,148,149,149,150,150,151,151,152,152,153,153,154,154,155,155,158,158,160,160,161,161,162,162,163,163,164,164,166,166,167,167,170,170,172,172,173,173,174,174,175,175,176,176,178,178,179,179,182,182,184,184,185,185,187,187,190,190,192,192,194,194,195,195,196,196,197,197,200,200,202,202,203,203,205,205,206,206,207,207,208,208,209,209,211,211,212,212,216,216,217,217,219,219,220,220,221,221,222,222,223,223,224,224,227,227,231,231,232,232,233,233,234,234,235,235,236,236,239,239,240,240,241,241,244,244,245,245,246,246,247,247,248,248,249,249,250,250,251,251,252,252,253,253,254,254,257,257,259,259,260,260,267,267,268,268,269,269,272,272,273,273,278,278,279,279,281,281,283,283,286,286,287,287,288,288,291,291,293,293,295,295,297,297,299,299,302,302,307,307,308,308,309,309,310,310,312,312,314,314,319,319,326,326,327,327,328,328,329,329,331,331,332,332,333,333,336,336,337,337,339,339,340,340,341,341,342,342,343,343,345,345,346,346,351,351,355,355,356,356,357,357,360,360,362,362,365,365,366,366,367,367,368,368,372,372,374,374,379,379,381,381,384,384,385,385,387,387,389,389,391,391,392,392,395,395,396,396,397,397,398,398,400,400,402,402,405,405,415,415,416,416,420,420,423,423,424,424,425,425,429,429,435,435,436,436,437,437,441,441,442,442,445,445,446,446,448,448,449,449,450,450,451,451,452,452,453,453,454,454,455,455,456,456,457,457,458,458,459,459,460,460,461,461,463,463,464,464,465,465,466,466,467,467,469,469,471,471,473,473,474,474,476,476,477,477,478,478,479,479,480,480,481,481,482,482,483,483,485,485,488,488,489,489,493,493,494,494,497,497,498,498,502,502,514,514,516,516,517,517,520,520,522,522,531,531,533,533,539,539,540,540,541,541,542,542,543,543,549,549,550,550,553,553,554,554,555,555,556,556,557,557,560,560,561,561,562,562,563,563,568,568,570,570,573,573,575,575,576,576,577,577,578,578,581,581,583,583,584,584,585,585,586,586,590,590,592,592,595,595,598,598,599,599,600,600,601,601,603,603,604,604,606,606,607,607,615,615,616,616,619,619,620,620,623,623,626,626,627,627,632,632,633,633,634,634,635,635,643,643,647,647,649,649,652,652,653,653,656,656,657,657,659,659,660,660,661,661,664,664,666,666,667,667,669,669,674,674,675,675,677,677,680,680,681,681,682,682,684,684,687,687,688,688,689,689,690,690,698,698,699,699,702,702,703,703,705,705,706,706,707,707,708,708,709,709,710,710,711,711,712,712,713,713,715,715,716,716,717,717,722,722,725,725,726,726,730,730,739,739,743,743,744,744,746,746,747,747,750,750,753,753,754,754,755,755,757,757,767,767,769,769,775,775,779,779,782,782,786,786,790,790,792,792,794,794,795,795,796,796,798,798,799,799,801,801,804,804,805,805,806,806,808,808,809,809,817,817,820,820,821,821,828,828,830,830,831,831,832,832,833,833,834,834,836,836,837,837,838,838,840,840,842,842,843,843,844,844,845,845,846,846,847,847,848,848,850,850,853,853,855,855,856,856,859,859,860,860,862,862,865,865,866,866,867,867,868,868,869,869,870,870,871,871,872,872,873,873,874,874,875,875,876,876,879,879,880,880,881,881,882,882,884,884,887,887,898,898,901,901,903,903,907,907,911,911,913,913,914,914,916,916,918,918,919,919,920,920,923,923,932,932,936,936,937,937,938,938,942,942,943,943,945,945,949,949,952,952,953,953,954,954,955,955,956,956,958,958,959,959,960,960,965,965,966,966,967,967,968,968,970,970,971,971,972,972,974,974,980,980,982,982,987,987,989,989,996,996,998,998,1003,1003,1007,1007,1010,1010,1011,1011,1013,1013,1015,1015,1016,1016,1018,1018,1020,1020,1022,1022,1023,1023,1027,1027,1028,1028,1029,1029,1031,1031,1032,1032,1035,1035,1036,1036,1037,1037,1040,1040,1042,1042,1043,1043,1045,1045,1051,1051,1063,1063,1064,1064,1066,1066,1070,1070,1075,1075,1081,1081,1082,1082,1083,1083,1086,1086,1088,1088,1089,1089,1092,1092,1095,1095,1099,1099,1100,1100,1102,1102,1106,1106,1107,1107,1108,1108,1117,1117,1119,1119,1121,1121,1122,1122,1125,1125,1127,1127,1128,1128,1129,1129,1131,1131,1136,1136,1138,1138,1140,1140,1141,1141,1142,1142,1146,1146,1147,1147,1149,1149,1152,1152,1153,1153,1154,1154,1156,1156,1157,1157,1158,1158,1159,1159,1160,1160,1161,1161,1162,1162,1163,1163,1167,1167,1174,1174],"right_children":[2,4,6,8,10,12,14,16,18,20,22,24,26,28,30,32,34,36,-1,38,40,42,44,46,48,50,52,54,56,58,60,-1,62,64,66,68,70,72,74,-1,76,78,80,82,-1,-1,84,86,88,90,92,94,96,98,100,-1,102,104,106,-1,108,-1,110,112,114,-1,116,118,120,122,-1,124,-1,126,-1,128,130,132,-1,134,136,138,140,-1,142,144,146,148,150,152,154,156,158,160,162,164,166,168,-1,170,-1,-1,-1,172,174,176,-1,-1,-1,178,180,182,184,186,188,-1,-1,190,192,194,196,198,200,-1,-1,-1,202,204,-1,206,-1,208,-1,210,212,214,-1,216,218,220,222,-1,224,226,-1,228,-1,230,232,234,236,238,240,242,244,246,-1,-1,248,-1,250,252,254,256,258,-1,260,262,-1,-1,264,-1,266,268,270,272,274,-1,276,278,-1,-1,280,-1,282,284,-1,286,-1,-1,288,-1,290,-1,292,294,296,298,-1,-1,300,-1,302,304,-1,306,308,310,312,314,-1,316,318,-1,-1,-1,320,322,-1,324,326,328,330,332,334,-1,-1,336,-1,-1,-1,338,340,342,344,346,348,-1,-1,350,352,354,-1,-1,356,358,360,362,364,366,368,370,372,374,376,-1,-1,378,-1,380,382,-1,-1,-1,-1,-1,-1,384,386,388,-1,-1,390,392,-1,-1,-1,-1,394,396,-1,398,-1,400,-1,-1,402,404,406,-1,-1,408,-1,410,-1,412,-1,414,-1,416,-1,-1,418,-1,-1,-1,-1,420,422,424,426,-1,428,-1,430,-1,-1,-1,-1,432,-1,-1,-1,-1,-1,-1,434,436,438,440,-1,442,444,446,-1,-1,448,450,-1,452,454,456,458,460,-1,462,464,-1,-1,-1,-1,466,-1,-1,-1,468,470,472,-1,-1,474,-1,476,-1,-1,478,480,482,484,-1,-1,-1,486,-1,488,-1,-1,-1,-1,490,-1,492,-1,-1,494,496,-1,498,-1,500,-1,502,504,-1,-1,506,508,510,512,-1,514,-1,516,-1,-1,518,-1,-1,-1,-1,-1,-1,-1,-1,-1,520,522,-1,-1,-1,524,-1,-1,526,528,530,-1,-1,-1,532,-1,-1,-1,-1,-1,534,536,538,-1,-1,-1,540,542,-1,-1,544,546,-1,548,550,552,554,556,558,560,562,564,566,568,570,572,574,-1,576,578,580,582,584,-1,586,-1,588,-1,590,592,-1,594,596,598,600,602,604,606,608,-1,610,-1,-1,612,614,-1,-1,-1,616,618,-1,-1,620,622,-1,-1,-1,624,-1,-1,-1,-1,-1,-1,-1,-1,-1,-1,-1,626,-1,628,630,-1,-1,632,-1,634,-1,-1,-1,-1,-1,-1,-1,-1,636,-1,638,-1,-1,-1,-1,-1,640,642,644,646,648,-1,-1,-1,-1,-1,650,652,-1,-1,654,656,658,660,662,-1,-1,664,666,668,670,-1,-1,-1,-1,672,-1,674,-1,-1,676,-1,678,680,682,684,-1,-1,686,-1,688,690,692,694,-1,-1,-1,696,-1,698,-1,-1,700,-1,-1,702,704,706,708,-1,710,712,-1,714,716,-1,-1,-1,-1,-1,-1,-1,718,720,-1,-1,722,724,-1,-1,726,-1,-1,728,730,-1,-1,-1,-1,732,734,736,738,-1,-1,-1,-1,-1,-1,-1,740,-1,-1,-1,742,-1,744,-1,-1,746,748,-1,-1,750,752,-1,754,756,758,-1,-1,760,-1,762,764,-1,766,-1,-1,-1,-1,768,770,-1,772,-1,-1,774,776,778,-1,780,-1,-1,782,784,786,788,-1,-1,-1,-1,-1,-1,-1,790,792,-1,-1,794,796,-1,798,800,802,804,806,808,810,812,814,-1,816,818,820,-1,-1,-1,-1,822,-1,-1,824,826,-1,-1,-1,828,-1,-1,-1,-1,-1,-1,-1,-1,830,-1,-1,-1,832,834,-1,836,838,-1,-1,840,-1,-1,842,844,846,-1,848,-1,-1,-1,-1,-1,-1,-1,-1,-1,850,-1,852,-1,-1,-1,-1,-1,854,-1,-1,-1,856,-1,-1,858,-1,-1,-1,860,-1,-1,-1,862,-1,864,-1,866,868,870,-1,872,874,-1,876,-1,-1,878,880,882,-1,884,886,-1,-1,-1,-1,-1,-1,-1,888,-1,-1,890,892,-1,-1,-1,-1,-1,-1,894,-1,896,898,900,902,904,-1,906,908,910,-1,912,-1,914,916,918,920,922,924,926,-1,928,-1,-1,930,-1,932,934,-1,-1,936,938,-1,940,-1,-1,942,944,946,948,950,952,954,956,958,960,962,964,-1,-1,966,968,970,972,-1,974,-1,-1,976,-1,-1,-1,-1,-1,-1,-1,-1,-1,-1,978,-1,-1,980,-1,982,-1,-1,-1,984,-1,-1,-1,986,-1,988,990,-1,992,-1,994,996,998,-1,-1,1000,-1,-1,-1,-1,-1,-1,-1,-1,1002,-1,-1,-1,1004,1006,1008,-1,-1,-1,1010,1012,-1,1014,-1,-1,-1,1016,-1,-1,1018,1020,1022,1024,1026,-1,1028,1030,1032,-1,-1,-1,-1,1034,1036,1038,1040,-1,1042,1044,1046,-1,1048,-1,-1,-1,-1,-1,1050,-1,1052,-1,-1,-1,-1,1054,-1,1056,-1,-1,-1,-1,-1,-1,1058,-1,1060,-1,-1,-1,-1,1062,-1,-1,-1,1064,-1,-1,1066,1068,-1,1070,-1,1072,1074,-1,1076,-1,1078,-1,1080,1082,-1,-1,-1,1084,1086,1088,-1,1090,1092,-1,-1,1094,1096,1098,-1,-1,1100,-1,1102,1104,-1,1106,-1,-1,-1,-1,-1,1108,-1,-1,-1,-1,-1,-1,-1,-1,-1,-1,-1,1110,1112,-1,1114,-1,-1,-1,1116,-1,-1,-1,-1,1118,-1,-1,-1,-1,-1,1120,1122,1124,-1,-1,1126,-1,1128,1130,-1,-1,1132,-1,-1,1134,-1,-1,-1,1136,1138,-1,1140,-1,-1,-1,1142,1144,1146,-1,-1,-1,-1,-1,-1,-1,-1,1148,-1,1150,-1,1152,1154,-1,-1,1156,-1,1158,1160,1162,-1,1164,-1,-1,-1,-1,1166,-1,1168,-1,1170,1172,1174,-1,-1,-1,1176,1178,-1,1180,-1,-1,1182,1184,1186,-1,1188,1190,1192,1194,1196,1198,1200,1202,-1,-1,-1,1204,-1,-1,-1,-1,-1,-1,1206,-1,-1,-1,-1,-1,-1,-1,-1,-1,-1,-1,-1,-1,-1,-1,-1,-1,-1,-1,-1,-1,-1,-1,-1,-1,-1,-1,-1,-1,-1,-1,-1],"split_conditions":[6.15E1,1.1525E2,1.3825E2,2.7720901E1,2.70402E1,6.75E1,2.502795E1,1.151E0,1.4745E0,1.4225E0,1.158E0,9.97E-1,1.0964999E0,1.483E0,1.674E0,6.3E1,1.0625E2,5E-1,-4.526316E-1,5E-1,1.1575E2,1.2025E2,1.3825E2,9.7E1,9.483333E1,1.1825E2,1.3275E2,5E-1,1.465E2,1.4525E2,1.4625E2,3.2727274E-1,2.53829E1,1.314E0,1.8865E0,3.14276E1,3.62234E1,8.27E-1,2.5602749E1,4.1052634E-1,2.274915E1,1.1365E0,1.1045E0,2.7556E1,-5.1111114E-1,-4.909091E-1,7.92E-1,1.4384999E0,2.7741798E1,9.3050003E-1,1.0569999E0,3.146695E1,2.58438E1,2.3585499E1,2.4358849E1,-4.9565217E-1,2.0845E0,9.875E-1,3.155965E1,-4.666667E-1,2.2319999E0,-5.837838E-1,1.0875E2,1.0125E2,5E-1,-5.368421E-1,1.1475E2,1.1275E2,1.015E2,1.0125E2,4.5000002E-1,1.3375E2,-5.7303375E-1,1.1925E2,-5.4146343E-1,1.33E2,1.4775E2,1.1975E2,5.2500004E-1,1.385E2,1.3025E2,1.2925E2,1.1925E2,-4.5882356E-1,1.0275E2,7.325E1,8.975E1,9.525E1,5E-1,1.0675E2,8.925E1,1.3175E2,1.1925E2,8.425E1,5E-1,1.3325E2,1.3425E2,1.44E2,-4.8571432E-1,1.4025E2,-3.818182E-1,-3.6E-1,3E-1,1.41E2,5E-1,5E-1,-5E-1,-3.3333337E-1,4.4000003E-1,5E-1,5.35E1,5.75E1,5.05E1,5.45E1,5.85E1,-5.1428574E-1,4.2857146E-1,5.55E1,5.65E1,5.35E1,5.65E1,6.05E1,5.15E1,-3E-1,4.2857146E-1,-4.5000002E-1,5.65E1,5.95E1,3.5172415E-1,5.05E1,3.818182E-1,5E-1,3.9310345E-1,5.55E1,5.85E1,5.5E1,-4.1538465E-1,5.2E1,5.75E1,5.65E1,5.85E1,4.5185187E-1,6.55E1,6.65E1,-5.625E-1,6.65E1,-5.1111114E-1,6.35E1,6.45E1,6.45E1,6.65E1,7.8E1,6.85E1,6.95E1,6.85E1,7.05E1,-5.478261E-1,-3.3333337E-1,7.4E1,-4.1052634E-1,7.35E1,7.05E1,7.45E1,6.95E1,6.95E1,-4.8571432E-1,7.35E1,6.9E1,2.8E-1,1.7142859E-1,6.7E1,-4.1538465E-1,5E-1,7.45E1,6.95E1,6.85E1,7.35E1,-5.766991E-1,5E-1,1.026E0,-5.04E-1,-5.6E-1,1.2644999E0,-3.818182E-1,1.3065E0,2.124E0,-5.3239435E-1,1.438E0,-5E-1,-5.707317E-1,1.283E0,-4.7368425E-1,1.0955E0,-3.6E-1,1.2615E0,1.0325E0,1.1455E0,1.0604999E0,2.5714287E-1,-4.9565217E-1,1.346E0,-4.8571432E-1,1.1705E0,1.454E0,2.4705884E-1,5E-1,1.924E0,9.3299997E-1,8.43E-1,9.605E-1,-5.612903E-1,7.79E-1,9.57E-1,-3.6E-1,4.26087E-1,3.4736842E-1,1.3080001E0,1.5090001E0,4.6285716E-1,1.559E0,1.1915E0,1.5305E0,1.224E0,9.885E-1,9.0250003E-1,-4.2857146E-1,3.176471E-1,1.458E0,2.769231E-1,4.875E-1,-3.3333337E-1,1.8225E0,1.6215E0,1.3725E0,1.4475E0,1.0964999E0,1.3655E0,-5.294118E-1,1.20000005E-1,8.8250005E-1,9.055E-1,1.084E0,-4.4000003E-1,4.0143886E-1,1.0705E0,9.3700004E-1,7.4300003E-1,1.0675E0,1.0929999E0,1.1595E0,1.6825E0,1.2915001E0,1.205E0,1.1875E0,1.3245001E0,3.2307696E-1,-3E-1,5E-1,-5.466667E-1,1.2635E0,1.3234999E0,3.2307696E-1,-3E-1,-3E-1,5.294118E-1,-3.3333337E-1,3.6E-1,1.063E0,1.245E0,1.533E0,4.9333337E-1,-5E-1,1.332E0,1.4E0,-3E-1,3.4285718E-1,-3.3333337E-1,-3.6E-1,5.2E1,5.95E1,-4.4000003E-1,5.75E1,5.2500004E-1,5.25E1,2.5714287E-1,-4.666667E-1,4.95E1,5E-1,5.95E1,4.0645164E-1,-4.1538465E-1,5.65E1,-3E-1,4.95E1,-4.7368425E-1,5.85E1,-4.1538465E-1,5.1E1,-5.294118E-1,5.85E1,4.5000002E-1,4.5306125E-1,5.95E1,3.6E-1,-4.8000002E-1,-3.6E-1,2.6666668E-1,5.95E1,5.95E1,5.6E1,5.35E1,5E-1,5.45E1,-4.7368425E-1,5.45E1,4.2857146E-1,-4.666667E-1,4.5000002E-1,-3E-1,5E-1,-4.666667E-1,-3.3333337E-1,4.1538465E-1,-5E-1,2.4000001E-1,3.714286E-1,5.75E1,5.65E1,5.75E1,6.05E1,-5.538462E-1,6.25E1,6.45E1,5E-1,-5.3846157E-1,4.4000003E-1,6.55E1,5E-1,-5.368421E-1,6.55E1,6.65E1,6.35E1,6.25E1,6.65E1,-5.2000004E-1,6.55E1,6.35E1,-5.1111114E-1,2.2758621E-1,2.2105263E-1,4.8000002E-1,7.05E1,-4.5000002E-1,-3.3333337E-1,4.0000004E-1,7.75E1,8.05E1,6.85E1,-5.314286E-1,4.5365855E-1,7.25E1,4.9714288E-1,6.95E1,-3.818182E-1,3E-1,7.05E1,5E-1,5E-1,7.55E1,-4.2857146E-1,-4.615385E-2,3.6470592E-1,7.15E1,-4.4000003E-1,7.25E1,5.2727276E-1,1.0000001E-1,-4.0000004E-1,1.20000005E-1,6.95E1,-4.909091E-1,7.85E1,5.225807E-1,-3.3333337E-1,6.65E1,7.9E1,5.294118E-1,6.75E1,-3E-1,7E1,-4.2857146E-1,6.25E1,7.15E1,-3E-1,4.666667E-1,8.85E1,9.8E1,1.0575E2,1.0325E2,-5.478261E-1,9.875E1,-3.3333337E-1,9.333333E1,-5.54717E-1,1.8E-1,1.0725E2,2.7272728E-1,4.4000003E-1,1.3333334E-1,2.0000002E-1,-4.2857146E-1,3.6E-1,-3.3333337E-1,2.8E-1,-4.666667E-1,1.1025E2,1.0175E2,-3.818182E-1,2.3076925E-1,-5.671233E-1,1.1725E2,-4.0000004E-1,1.7142859E-1,1.1625E2,1.185E2,1.1675E2,-5.0769234E-1,3.3333337E-1,-3.3333337E-1,1.255E2,2.2105263E-1,-3.3333337E-1,3E-1,3.6E-1,-4.8000002E-1,1.25E2,1.3025E2,1.3425E2,4.4000003E-1,-4.0000004E-1,2.0000002E-1,1.205E2,1.2825E2,5.0769234E-1,2.0000002E-1,1.3075E2,1.1675E2,-4.666667E-1,7.85E1,1.1425E2,1.1825E2,1.0825E2,1.0583333E2,1.295E2,1.0925E2,1.185E2,1.23E2,1.0075E2,1.175E2,1.1775E2,1.045E2,1.2425E2,-4.1538465E-1,1.1075E2,1.1325E2,1.1425E2,1.165E2,1.0375E2,-3E-1,1.135E2,4.4000003E-1,1.275E2,-4.5000002E-1,1.275E2,1.1925E2,3.8461542E-1,1.2375E2,1.11E2,9.875E1,1.0316667E2,1.2375E2,1.2875E2,1.1E2,1.23E2,-5.3333336E-1,1.165E2,-4.1538465E-1,4.0327868E-1,1.24E2,1.375E2,-3.6E-1,-3.3333337E-1,3.2307696E-1,1.42E2,1.4475E2,-3E-1,4.2857146E-1,1.4275E2,1.4225E2,4.7142857E-1,1.20000005E-1,4.615385E-1,1.54E2,-3.818182E-1,4.2857146E-1,5.1000005E-1,-4.0000004E-1,-4.7368425E-1,1.3846155E-1,-5.0769234E-1,2.4000001E-1,4.0540543E-1,-4.5000002E-1,-4.7368425E-1,2.2104351E1,-4.4000003E-1,2.591655E1,2.7782452E1,-3E-1,-5E-1,2.87287E1,4.5882356E-1,2.967025E1,2.5714287E-1,-5.225807E-1,2.4000001E-1,-3.3333337E-1,4.4000003E-1,-3.6E-1,3.176471E-1,-4.1538465E-1,3.0808449E1,-4.7368425E-1,3.16021E1,-5.3513515E-1,-4.4000003E-1,1.0588236E-1,-4.0000004E-1,3.8823533E-1,2.670365E1,2.84581E1,2.728865E1,3.108415E1,2.7327549E1,3.818182E-1,3.4285718E-1,-3E-1,3.2307696E-1,-4.0000004E-1,2.682275E1,2.13304E1,-3.3333337E-1,2.2500001E-1,2.667075E1,2.173115E1,2.3481949E1,2.56334E1,2.507555E1,-3.6E-1,-4.8000002E-1,2.27076E1,2.995185E1,3.0458302E1,2.99749E1,-4.5882356E-1,4.2857146E-1,-4.0000004E-1,-3.6E-1,2.951515E1,-5.294118E-1,2.938655E1,4.1538465E-1,-5.0769234E-1,2.987445E1,-3.6E-1,3.38077E1,2.926215E1,3.1615452E1,2.82195E1,-3.818182E-1,1.7142859E-1,2.591585E1,-3.6E-1,3.054125E1,2.83261E1,2.34292E1,2.80292E1,-3.818182E-1,3.3913043E-1,-5.04E-1,2.7852451E1,2.0000002E-1,3.0215E1,3.9000002E-1,-3.818182E-1,2.6384449E1,-5.4E-1,-4.0000004E-1,2.415385E1,2.90954E1,2.4593151E1,2.8333649E1,-3.818182E-1,2.857035E1,2.7298199E1,-4.1538465E-1,2.836025E1,2.20735E1,-4.4000003E-1,1.20000005E-1,4.5000002E-1,-3.3333337E-1,3.75E-1,-3E-1,2.4000001E-1,3.0111599E1,3.4135353E1,-5E-1,3.9310345E-1,2.933575E1,3.147025E1,-3.6E-1,3.4285718E-1,2.8026001E1,-3E-1,2.8E-1,1.0475E2,9.875E1,-4.4000003E-1,4.1538465E-1,-1.0000001E-1,2.2500001E-1,5.25E1,1.095E2,1.1E2,1.235E2,-3E-1,-4.5882356E-1,1.5E-1,2.2500001E-1,-3.818182E-1,-3E-1,4.2000002E-1,1.1675E2,-5.3333336E-1,4.5306125E-1,-3E-1,1.1175E2,-3.818182E-1,6.25E1,-5.04E-1,1.5789475E-1,1.3375E2,1.0775E2,3.375E-1,4.7368425E-1,1.175E2,9.75E1,-5.5102044E-1,1.1425E2,1.31E2,1.255E2,-4.7368425E-1,-3.6E-1,1.1875E2,-4.1538465E-1,1.1775E2,1.2675E2,-4.1538465E-1,1.1375E2,-4.0000004E-1,4.9411768E-1,2.5714287E-1,4.7142857E-1,1.2925E2,1.205E2,-4.1538465E-1,1.04E2,1.6363637E-1,-4.1538465E-1,1.1475E2,1.125E2,1.0666667E2,-4.5000002E-1,1.25E2,-3E-1,4.1052634E-1,7.35E1,9.925E1,1.0525E2,7.6E1,1.5E-1,-4.9565217E-1,-3E-1,3.8823533E-1,4.3846154E-1,-3.818182E-1,-5.4146343E-1,1.2575E2,6.85E1,-4.8000002E-1,-3.818182E-1,9.925E1,9.475E1,-4.7368425E-1,1.0525E2,1.3225E2,7.25E1,6.9E1,7.55E1,9.35E1,7.55E1,7.75E1,7.7E1,-3.3333337E-1,1.1675E2,7.45E1,1.3875E2,4.9333337E-1,-3E-1,3.6E-1,5.4285717E-1,6.65E1,-3.3333337E-1,4.0000004E-1,7.05E1,6.35E1,-4.4000003E-1,2.7272728E-1,4.666667E-1,5.05E1,2.7272728E-1,-4.5882356E-1,1.5789475E-1,4.8571432E-1,-3.818182E-1,-1.20000005E-1,-3.3333337E-1,4.4000003E-1,6.35E1,-3.3333337E-1,2.4000001E-1,-3E-1,5E-1,6.35E1,-4.3050846E-1,6.25E1,5E-1,4.56E-1,-5.2500004E-1,5E-1,2.5714287E-1,-4.4000003E-1,6.65E1,5E-1,5E-1,-4.4000003E-1,6.55E1,4.8571432E-1,5.0909096E-1,1.0588236E-1,1.0000001E-1,3.2307696E-1,-3E-1,6.666667E-2,1.20000005E-1,4.2222223E-1,6.55E1,-4.4000003E-1,6.45E1,4.8571432E-1,2.7272728E-1,5.0769234E-1,-3E-1,3.5E-1,6.45E1,4.5000002E-1,-3.3333337E-1,5.0769234E-1,6.55E1,3.283019E-1,4.7727275E-1,5E-1,-3E-1,4.1538465E-1,-3.3333337E-1,7.15E1,-4.9565217E-1,3.3333337E-1,-3.818182E-1,7.35E1,-3.6E-1,5E-1,4.5882356E-1,7.25E1,7.15E1,5E-1,-5.04E-1,6.85E1,6.85E1,4.2352945E-1,6.95E1,-3E-1,4.875E-1,5E-1,7.45E1,7.65E1,3.3333337E-1,7.55E1,5E-1,4.9756098E-1,-4.4000003E-1,4.0000004E-1,3.3913043E-1,-3.6E-1,2.4705884E-1,5.172414E-1,5E-1,-4.7368425E-1,3.75E-1,6.35E1,6.25E1,4.2000002E-1,4.2857146E-1,2.0000002E-1,2.7272728E-1,-3.6E-1,3.75E-1,5.75E1,3.9130437E-1,2.621385E1,2.51045E1,2.65056E1,2.64452E1,2.50543E1,-3.3333337E-1,2.4770351E1,2.4097198E1,2.18027E1,-5.2000004E-1,2.72182E1,-4.5882356E-1,2.3912651E1,2.45094E1,2.455045E1,2.625095E1,2.5672699E1,2.381025E1,2.4192799E1,-3.3333337E-1,3.13806E1,-3.6E-1,4.1538465E-1,2.9636799E1,-4.2857146E-1,2.876295E1,3.538645E1,-4.0000004E-1,4.1250002E-1,2.31362E1,2.427865E1,4.0000004E-1,3.049015E1,-3E-1,4.0000004E-1,2.67809E1,2.728635E1,2.613395E1,2.508155E1,2.67931E1,6.85E1,2.413315E1,2.42781E1,2.48293E1,2.845195E1,2.703875E1,2.563705E1,-3E-1,3.75E-1,2.400595E1,2.39039E1,2.4335152E1,2.187375E1,-5.1111114E-1,3.00933E1,-3E-1,4.1538465E-1,2.457045E1,2.3076925E-1,3.2307696E-1,-3E-1,4.2857146E-1,-3.3333337E-1,-4.1538465E-1,3.6E-1,-3.3333337E-1,4.5000002E-1,-5.225807E-1,2.51625E1,-4.5000002E-1,3.8823533E-1,2.17502E1,4.4000003E-1,2.202035E1,-4.7368425E-1,-3E-1,2.8E-1,2.39785E1,-4.4000003E-1,3.818182E-1,-4.0000004E-1,2.3668049E1,4.5000002E-1,2.275485E1,2.42464E1,-5.3333336E-1,2.45346E1,-4.666667E-1,2.469025E1,6.65E1,2.74337E1,4.909091E-1,-5.1111114E-1,2.2880852E1,4.3333334E-1,-4.666667E-1,3.6E-1,-3E-1,3.2307696E-1,-3.3333337E-1,1.6363637E-1,2.0000002E-1,3.2148598E1,-4.2857146E-1,2.4000001E-1,-3.818182E-1,2.803315E1,7.45E1,7.45E1,4.4000003E-1,-3.818182E-1,-4.1538465E-1,2.717685E1,2.6989498E1,-3.818182E-1,2.245435E1,1.7142859E-1,-3.818182E-1,4.8000002E-1,2.43834E1,-4.0000004E-1,-3E-1,2.3853199E1,2.29839E1,2.426235E1,2.39263E1,7.15E1,-3.818182E-1,2.681755E1,2.81582E1,2.963485E1,-3.6E-1,1.6363637E-1,4.114286E-1,-3.6E-1,2.21585E1,2.6608898E1,2.199255E1,2.4205051E1,-4.5882356E-1,2.470345E1,2.14799E1,7.85E1,-4.0000004E-1,3.02486E1,-3E-1,2.5714287E-1,4.2857146E-1,-4.1538465E-1,2.2500001E-1,1.5174999E0,-4.4000003E-1,1.7585E0,-4.0000004E-1,3E-1,3E-1,-4.5000002E-1,1.0864999E0,4.1538465E-1,1.2214999E0,-4.5000002E-1,4.0000004E-1,-5.172414E-1,4.0000004E-1,-4.2857146E-1,3.9310345E-1,1.3705E0,-5.1428574E-1,1.256E0,2.4705884E-1,-4.0000004E-1,-3.818182E-1,6.666667E-2,1.002E0,4.7142857E-1,4.615385E-1,-3.6E-1,1.023E0,5.2500004E-1,4.2857146E-1,1.1215E0,1.108E0,4.2857146E-1,1.641E0,-5.04E-1,1.8945E0,1.4195E0,5.0476193E-1,1.625E0,-4.909091E-1,1.5999999E0,4.2857146E-1,1.7735E0,1.5135E0,-5.1111114E-1,4.8387098E-1,-3.3333337E-1,1.3885E0,1.369E0,1.181E0,-5.0769234E-1,7.25E1,7.15E1,3.6774194E-1,-4.7368425E-1,1.425E0,1.36E0,1.4330001E0,-4.5000002E-1,4.9714288E-1,1.3025E0,4.451613E-1,1.3255E0,1.4554999E0,5.0769234E-1,1.1524999E0,-5.0769234E-1,4.0000004E-1,1.5E-1,-5.3333336E-1,2.8695655E-1,1.0825E2,4.909091E-1,3.6E-1,-3.6E-1,1.5E-1,-3E-1,-4.0000004E-1,4.5000002E-1,4.8000002E-1,-3.6E-1,3.8461542E-1,-4.2857146E-1,1.0825E2,1.08E2,-4.0000004E-1,1.1375E2,4.1538465E-1,-3.6E-1,-3.6E-1,9.025E1,-5E-1,4.3448275E-1,4.1647062E-1,-4.4000003E-1,1.0175E2,-4.0000004E-1,-4.4000003E-1,3E-1,-3.3333337E-1,4.5000002E-1,1.26E2,1.2125E2,1.275E2,3.3176473E-1,-4.8571432E-1,1.2825E2,-4.4000003E-1,1.1425E2,1.255E2,-3.3333337E-1,-5.314286E-1,1.2125E2,5.19403E-1,-4.1538465E-1,1.16E2,-4.2857146E-1,4.8000002E-1,-3.3333337E-1,1.2025E2,1.0775E2,-4.5882356E-1,1.1875E2,-3E-1,2.7272728E-1,-3.6E-1,1.145E2,9.875E1,1.09E2,-3E-1,4.6285716E-1,3.6E-1,-3E-1,3.818182E-1,9.4736844E-2,3.6E-1,-3E-1,9.875E1,-3.6E-1,1.245E2,-3.6E-1,1.1325E2,1.2525E2,-4.1538465E-1,3.6E-1,1.1525E2,-3.3333337E-1,1.1325E2,1.2575E2,1.1675E2,-0E0,1.1975E2,-3.3333337E-1,4.1818184E-1,-3.3333337E-1,-3.818182E-1,1.2375E2,-3.818182E-1,1.175E2,-3.3333337E-1,1.215E2,1.0275E2,1.2425E2,5.454546E-2,-4.8000002E-1,3.176471E-1,2.504055E1,2.502655E1,5.032258E-1,2.32925E1,4.8387098E-1,-4.9565217E-1,2.1290901E1,2.375505E1,2.23266E1,-3.3333337E-1,2.789435E1,2.670905E1,2.571635E1,2.813525E1,2.571935E1,2.91333E1,2.8510601E1,3.00094E1,3.818182E-1,4.5000002E-1,-3E-1,2.641225E1,-3E-1,3.6E-1,-3E-1,1.5789475E-1,4.3529415E-1,-4.4000003E-1,2.75144E1,-4.0000004E-1,4.1538465E-1,4.1538465E-1,-3.3333337E-1,3.1612903E-1,-5.454546E-2,3.6E-1,-4.9565217E-1,-4.0000004E-1,4.1538465E-1,-3.6E-1,4.571429E-1,-3.6E-1,4.0000004E-1,4.8E-2,-1.92E-1,4.3636367E-1,6.0000002E-2,-4.4307694E-1,4.1538465E-1,-4.5882356E-1,1.8E-1,-3.818182E-1,3.857143E-1,1.6363637E-1,4.8000002E-1,1.5E-1,-4.0000004E-1,2.2105263E-1,5E-1,-3.6E-1,4.5882356E-1],"split_indices":[5,6,6,4,4,5,4,2,2,2,2,2,2,2,2,6,6,1,0,1,6,6,6,6,6,6,6,1,6,6,6,0,4,2,2,4,4,2,4,0,4,2,2,4,0,0,2,2,4,2,2,4,4,4,4,0,2,2,4,0,2,0,6,6,1,0,6,6,6,6,0,6,0,6,0,6,6,6,0,6,6,6,6,0,6,6,6,6,1,6,6,6,6,6,1,6,6,6,0,6,0,0,0,6,1,1,0,0,0,0,5,5,5,5,5,0,0,5,5,5,5,5,5,0,0,0,5,5,0,5,0,0,0,5,5,5,0,5,5,5,5,0,5,5,0,5,0,5,5,5,5,5,5,5,5,5,0,0,5,0,5,5,5,5,5,0,5,5,0,0,5,0,0,5,5,5,5,0,1,2,0,0,2,0,2,2,0,2,0,0,2,0,2,0,2,2,2,2,0,0,2,0,2,2,0,1,2,2,2,2,0,2,2,0,0,0,2,2,0,2,2,2,2,2,2,0,0,2,0,0,0,2,2,2,2,2,2,0,0,2,2,2,0,0,2,2,2,2,2,2,2,2,2,2,2,0,0,1,0,2,2,0,0,0,0,0,0,2,2,2,0,0,2,2,0,0,0,0,5,5,0,5,0,5,0,0,5,0,5,0,0,5,0,5,0,5,0,5,0,5,0,0,5,0,0,0,0,5,5,5,5,0,5,0,5,0,0,0,0,0,0,0,0,0,0,0,5,5,5,5,0,5,5,0,0,0,5,0,0,5,5,5,5,5,0,5,5,0,0,0,0,5,0,0,0,5,5,5,0,0,5,0,5,0,0,5,0,0,5,0,0,0,5,0,5,0,0,0,0,5,0,5,0,0,5,5,0,5,0,5,0,5,5,0,0,6,6,6,6,0,6,0,6,0,0,6,0,0,0,0,0,0,0,0,0,6,6,0,0,0,6,0,0,6,6,6,0,0,0,6,0,0,0,0,0,6,6,6,0,0,0,6,6,0,0,6,6,0,6,6,6,6,6,6,6,6,6,6,6,6,6,6,0,6,6,6,6,6,0,6,0,6,0,6,6,0,6,6,6,6,6,6,6,6,0,6,0,0,6,6,0,0,0,6,6,0,0,6,6,0,0,0,6,0,0,0,0,0,0,0,0,0,0,0,4,0,4,4,0,0,4,0,4,0,0,0,0,0,0,0,0,4,0,4,0,0,0,0,0,4,4,4,4,4,0,0,0,0,0,4,4,0,0,4,4,4,4,4,0,0,4,4,4,4,0,0,0,0,4,0,4,0,0,4,0,4,4,4,4,0,0,4,0,4,4,4,4,0,0,0,4,0,4,0,0,4,0,0,4,4,4,4,0,4,4,0,4,4,0,0,0,0,0,0,0,4,4,0,0,4,4,0,0,4,0,0,6,6,0,0,0,0,5,6,6,6,0,0,0,0,0,0,0,6,0,0,0,6,0,5,0,0,6,6,0,0,6,6,0,6,6,6,0,0,6,0,6,6,0,6,0,0,0,0,6,6,0,6,0,0,6,6,6,0,6,0,0,5,6,6,5,0,0,0,0,0,0,0,6,5,0,0,6,6,0,6,6,5,5,5,6,5,5,5,0,6,5,6,0,0,0,0,5,0,0,5,5,0,0,0,5,0,0,0,0,0,0,0,0,5,0,0,0,1,5,0,5,1,0,0,1,0,0,5,1,1,0,5,0,0,0,0,0,0,0,0,0,5,0,5,0,0,0,0,0,5,0,0,0,5,0,0,1,0,0,0,5,0,0,0,5,0,1,0,5,5,1,0,5,5,0,5,0,0,1,5,5,0,5,1,0,0,0,0,0,0,0,1,0,0,5,5,0,0,0,0,0,0,5,0,4,4,4,4,4,0,4,4,4,0,4,0,4,4,4,4,4,4,4,0,4,0,0,4,0,4,4,0,0,4,4,0,4,0,0,4,4,4,4,4,5,4,4,4,4,4,4,0,0,4,4,4,4,0,4,0,0,4,0,0,0,0,0,0,0,0,0,0,4,0,0,4,0,4,0,0,0,4,0,0,0,4,0,4,4,0,4,0,4,5,4,0,0,4,0,0,0,0,0,0,0,0,4,0,0,0,4,5,5,0,0,0,4,4,0,4,0,0,0,4,0,0,4,4,4,4,5,0,4,4,4,0,0,0,0,4,4,4,4,0,4,4,5,0,4,0,0,0,0,0,2,0,2,0,0,0,0,2,0,2,0,0,0,0,0,0,2,0,2,0,0,0,0,2,0,0,0,2,0,0,2,2,0,2,0,2,2,0,2,0,2,0,2,2,0,0,0,2,2,2,0,5,5,0,0,2,2,2,0,0,2,0,2,2,0,2,0,0,0,0,0,6,0,0,0,0,0,0,0,0,0,0,0,6,6,0,6,0,0,0,6,0,0,0,0,6,0,0,0,0,0,6,6,6,0,0,6,0,6,6,0,0,6,0,0,6,0,0,0,6,6,0,6,0,0,0,6,6,6,0,0,0,0,0,0,0,0,6,0,6,0,6,6,0,0,6,0,6,6,6,0,6,0,0,0,0,6,0,6,0,6,6,6,0,0,0,4,4,0,4,0,0,4,4,4,0,4,4,4,4,4,4,4,4,0,0,0,4,0,0,0,0,0,0,4,0,0,0,0,0,0,0,0,0,0,0,0,0,0,0,0,0,0,0,0,0,0,0,0,0,0,0,0,0,0,0,0],"split_type":[0,0,0,0,0,0,0,0,0,0,0,0,0,0,0,0,0,0,0,0,0,0,0,0,0,0,0,0,0,0,0,0,0,0,0,0,0,0,0,0,0,0,0,0,0,0,0,0,0,0,0,0,0,0,0,0,0,0,0,0,0,0,0,0,0,0,0,0,0,0,0,0,0,0,0,0,0,0,0,0,0,0,0,0,0,0,0,0,0,0,0,0,0,0,0,0,0,0,0,0,0,0,0,0,0,0,0,0,0,0,0,0,0,0,0,0,0,0,0,0,0,0,0,0,0,0,0,0,0,0,0,0,0,0,0,0,0,0,0,0,0,0,0,0,0,0,0,0,0,0,0,0,0,0,0,0,0,0,0,0,0,0,0,0,0,0,0,0,0,0,0,0,0,0,0,0,0,0,0,0,0,0,0,0,0,0,0,0,0,0,0,0,0,0,0,0,0,0,0,0,0,0,0,0,0,0,0,0,0,0,0,0,0,0,0,0,0,0,0,0,0,0,0,0,0,0,0,0,0,0,0,0,0,0,0,0,0,0,0,0,0,0,0,0,0,0,0,0,0,0,0,0,0,0,0,0,0,0,0,0,0,0,0,0,0,0,0,0,0,0,0,0,0,0,0,0,0,0,0,0,0,0,0,0,0,0,0,0,0,0,0,0,0,0,0,0,0,0,0,0,0,0,0,0,0,0,0,0,0,0,0,0,0,0,0,0,0,0,0,0,0,0,0,0,0,0,0,0,0,0,0,0,0,0,0,0,0,0,0,0,0,0,0,0,0,0,0,0,0,0,0,0,0,0,0,0,0,0,0,0,0,0,0,0,0,0,0,0,0,0,0,0,0,0,0,0,0,0,0,0,0,0,0,0,0,0,0,0,0,0,0,0,0,0,0,0,0,0,0,0,0,0,0,0,0,0,0,0,0,0,0,0,0,0,0,0,0,0,0,0,0,0,0,0,0,0,0,0,0,0,0,0,0,0,0,0,0,0,0,0,0,0,0,0,0,0,0,0,0,0,0,0,0,0,0,0,0,0,0,0,0,0,0,0,0,0,0,0,0,0,0,0,0,0,0,0,0,0,0,0,0,0,0,0,0,0,0,0,0,0,0,0,0,0,0,0,0,0,0,0,0,0,0,0,0,0,0,0,0,0,0,0,0,0,0,0,0,0,0,0,0,0,0,0,0,0,0,0,0,0,0,0,0,0,0,0,0,0,0,0,0,0,0,0,0,0,0,0,0,0,0,0,0,0,0,0,0,0,0,0,0,0,0,0,0,0,0,0,0,0,0,0,0,0,0,0,0,0,0,0,0,0,0,0,0,0,0,0,0,0,0,0,0,0,0,0,0,0,0,0,0,0,0,0,0,0,0,0,0,0,0,0,0,0,0,0,0,0,0,0,0,0,0,0,0,0,0,0,0,0,0,0,0,0,0,0,0,0,0,0,0,0,0,0,0,0,0,0,0,0,0,0,0,0,0,0,0,0,0,0,0,0,0,0,0,0,0,0,0,0,0,0,0,0,0,0,0,0,0,0,0,0,0,0,0,0,0,0,0,0,0,0,0,0,0,0,0,0,0,0,0,0,0,0,0,0,0,0,0,0,0,0,0,0,0,0,0,0,0,0,0,0,0,0,0,0,0,0,0,0,0,0,0,0,0,0,0,0,0,0,0,0,0,0,0,0,0,0,0,0,0,0,0,0,0,0,0,0,0,0,0,0,0,0,0,0,0,0,0,0,0,0,0,0,0,0,0,0,0,0,0,0,0,0,0,0,0,0,0,0,0,0,0,0,0,0,0,0,0,0,0,0,0,0,0,0,0,0,0,0,0,0,0,0,0,0,0,0,0,0,0,0,0,0,0,0,0,0,0,0,0,0,0,0,0,0,0,0,0,0,0,0,0,0,0,0,0,0,0,0,0,0,0,0,0,0,0,0,0,0,0,0,0,0,0,0,0,0,0,0,0,0,0,0,0,0,0,0,0,0,0,0,0,0,0,0,0,0,0,0,0,0,0,0,0,0,0,0,0,0,0,0,0,0,0,0,0,0,0,0,0,0,0,0,0,0,0,0,0,0,0,0,0,0,0,0,0,0,0,0,0,0,0,0,0,0,0,0,0,0,0,0,0,0,0,0,0,0,0,0,0,0,0,0,0,0,0,0,0,0,0,0,0,0,0,0,0,0,0,0,0,0,0,0,0,0,0,0,0,0,0,0,0,0,0,0,0,0,0,0,0,0,0,0,0,0,0,0,0,0,0,0,0,0,0,0,0,0,0,0,0,0,0,0,0,0,0,0,0,0,0,0,0,0,0,0,0,0,0,0,0,0,0,0,0,0,0,0,0,0,0,0,0,0,0,0,0,0,0,0,0,0,0,0,0,0,0,0,0,0,0,0,0,0,0,0,0,0,0,0,0,0,0,0,0,0,0,0,0,0,0,0,0,0,0,0,0,0,0,0,0,0,0,0,0,0,0,0,0,0,0,0,0,0,0,0,0,0,0,0,0,0,0,0,0,0,0,0,0,0,0,0,0,0,0,0,0,0,0,0,0,0,0,0,0,0,0,0,0,0,0,0,0,0,0,0,0,0,0,0,0,0,0,0,0,0,0,0,0,0,0,0,0,0,0,0,0,0,0,0,0,0,0,0,0,0,0,0,0,0,0,0,0,0,0,0,0,0,0,0,0,0,0,0,0,0,0,0,0,0,0,0,0,0,0,0,0],"sum_hessian":[2.95025E3,8.15E2,2.13525E3,4.7425E2,3.4075E2,1.931E3,2.0425E2,3.04E2,1.7025E2,1.385E2,2.0225E2,6.9075E2,1.24025E3,3.55E1,1.6875E2,8.025E1,2.2375E2,1.57E2,1.325E1,8.2E1,5.65E1,1.13E2,8.925E1,9.8E1,5.9275E2,3.3E2,9.1025E2,2.725E1,8.25E0,1.6125E2,7.5E0,4.5E0,7.575E1,1.545E2,6.925E1,9.05E1,6.65E1,4.7E1,3.5E1,3.75E0,5.275E1,4.65E1,6.65E1,8.35E1,5.75E0,4.5E0,9.35E1,4.625E1,5.465E2,2.205E2,1.095E2,8.6125E2,4.9E1,1.025E1,1.7E1,4.75E0,3.5E0,1.165E2,4.475E1,3.5E0,4E0,3.6E1,3.975E1,6.475E1,8.975E1,6.075E1,8.5E0,5.825E1,3.225E1,5.95E1,7E0,3.5E0,4.35E1,2.575E1,9.25E0,1.5E1,3.775E1,3.55E1,1.1E1,4.65E1,2E1,2.075E1,6.275E1,3.25E0,9.025E1,2.075E1,2.55E1,3.49E2,1.975E2,4.825E1,1.7225E2,7.625E1,3.325E1,7.8275E2,7.85E1,1.825E1,3.075E1,6E0,4.25E0,1.525E1,1.75E0,1.5E0,2E0,7.5E0,1.09E2,3.975E1,5E0,1.25E0,2.75E0,2.85E1,1.125E1,3.375E1,3.1E1,5.85E1,3.125E1,6E0,2.5E0,4.55E1,1.275E1,1.25E1,1.975E1,1.625E1,4.325E1,1E0,2.5E0,3E0,2.275E1,8.75E0,6.25E0,3.6E1,1.75E0,2.925E1,6.25E0,3.45E1,1.2E1,1.775E1,2.25E0,9.5E0,1.125E1,1.75E1,4.525E1,1.925E1,7.1E1,5.75E0,1.5E1,1.975E1,5.75E0,8.25E0,3.4075E2,8.75E1,1.1E2,1.025E1,3.8E1,6E0,1.6625E2,6.575E1,1.05E1,1.25E0,3.2E1,1.325E1,7.695E2,2.45E1,5.4E1,3.25E0,1.5E1,4.25E0,2.65E1,3.25E0,2.75E0,2.5E0,1.275E1,2.25E0,5.25E0,4.925E1,5.975E1,1.625E1,2.35E1,2.475E1,3.75E0,6E0,5.25E0,1.4E1,1.975E1,1.75E0,2.925E1,2.4E1,3.45E1,2.625E1,5E0,1.95E1,2.6E1,3.75E0,9E0,1.5E0,1.1E1,9.75E0,1E1,1.375E1,2.5E0,4.75E0,3.85E1,4.25E0,1.85E1,5.5E0,3.25E0,5E0,3.1E1,2.175E1,7.5E0,2E1,1.45E1,6E0,6E0,1.5E0,1.625E1,3.75E0,5.75E0,3.5E0,7.75E0,6.5E0,1.1E1,2.85E1,1.675E1,5.275E1,1.825E1,2.5E0,3.25E0,1.425E1,5.5E0,7E0,1.25E0,1.4075E2,2E2,4.55E1,4.2E1,9.8E1,1.2E1,7.5E0,2.75E0,1.025E1,2.775E1,3.25E0,2.75E0,3.375E1,1.325E2,1.725E1,4.85E1,2.725E1,4.75E0,5.37E2,2.325E2,4.75E0,1.975E1,3.65E1,1.75E1,2.25E0,1E0,4.75E0,1.025E1,8.5E0,1.8E1,2.25E0,1E0,1E0,1.175E1,1.25E0,4E0,3.4E1,1.525E1,2.7E1,3.275E1,5E0,1.125E1,2.25E1,1E0,2.5E0,1.25E0,1.5E0,4.5E0,1.7E1,2.75E0,1.825E1,1.1E1,2.15E1,2.5E0,3.5E0,2.275E1,1.625E1,9.75E0,6.75E0,2.25E0,1E1,1E0,6E0,3.75E0,7.75E0,2.25E0,6.25E0,7.5E0,2.75E1,1.1E1,1.125E1,7.25E0,1.5E0,4E0,1.5E0,3.5E0,2.65E1,4.5E0,1.075E1,1.1E1,5E0,2.5E0,3.75E0,1.625E1,2.5E0,3.5E0,5E0,1E0,2.25E0,3.5E0,1.25E0,2.25E0,5E0,1.5E0,4.25E0,6.75E0,2.05E1,8E0,4.75E0,1.2E1,4.525E1,7.5E0,9.5E0,8.75E0,6.5E0,7.75E0,1.3225E2,8.5E0,1.455E2,5.45E1,2.775E1,1.775E1,3.55E1,6.5E0,1.4E1,8.4E1,5.75E0,6.25E0,3.75E0,6.5E0,2.475E1,3E0,1.25E0,2E0,1.1975E2,1.275E1,9.5E0,7.75E0,9.25E0,3.925E1,7.75E0,1.95E1,1.75E0,3E0,4.775E1,4.8925E2,2.0275E2,2.975E1,2.5E0,2.25E0,1.175E1,8E0,2.75E0,3.375E1,1.55E1,2E0,2E0,2.75E0,4E0,4.5E0,3.5E0,1.45E1,1.25E0,3.275E1,3.5E0,1.175E1,2.6E1,1E0,8.75E0,2.5E0,1.825E1,4.25E0,1E0,3.5E0,1.1E1,6E0,7E0,1.125E1,1.05E1,1.1E1,1.25E0,2.15E1,1.225E1,4E0,5.25E0,4.5E0,6.5E0,3.5E0,3.5E0,2.5E0,6.5E0,1.25E0,2.75E0,3.5E0,1.3E1,1.45E1,1.75E0,5.5E0,1.725E1,9.25E0,2E0,2.5E0,2.75E0,8E0,5.5E0,5.5E0,1.25E0,1.25E0,1.25E1,3.75E0,1.25E0,1E0,2.75E0,4E0,1.45E1,6E0,5.25E0,2.75E0,2E0,2.75E0,1.475E1,3.05E1,5.5E0,2E0,6E0,3.5E0,3.5E0,4.25E0,1.28E2,4.25E0,4.7E1,9.85E1,3.025E1,2.425E1,1.4E1,1.375E1,4.5E0,1.325E1,2.775E1,7.75E0,1.175E1,2.25E0,3.525E1,4.875E1,4.25E0,2.05E1,1.1875E2,1E0,1E1,2.75E0,6.5E0,3E0,1.9E1,2.025E1,8.75E0,1.075E1,2.05E1,2.725E1,4.5425E2,3.5E1,1.93E2,9.75E0,2.175E1,8E0,5.75E0,2.25E0,2.95E1,4.25E0,2.5E0,1.5E0,1.25E0,2.25E0,2.15E1,1.125E1,1E0,2.5E0,2.2E1,4E0,6E0,2.75E0,5.5E0,1.275E1,1.75E0,2.5E0,9E0,2E0,3.75E0,2.25E0,5.5E0,1.5E0,8.25E0,3E0,3.75E0,7.25E0,2.75E0,1.875E1,4.25E0,1E0,5E0,8E0,3.25E0,1.125E1,2.5E0,6.75E0,1.5E0,1.25E0,6.5E0,1.5E0,3.25E0,2.25E0,8.75E0,3.75E0,6.25E0,8.25E0,2.75E0,3.25E0,2E0,3.25E0,4.75E0,1E1,1.825E1,1.225E1,4.25E0,1.75E0,2.5E0,1E0,2.25E0,2E0,7.6E1,5.2E1,1.25E0,3E0,2.175E1,2.525E1,1.65E1,8.2E1,2.875E1,1.5E0,4E0,2.025E1,9.5E0,4.5E0,1.05E1,3.25E0,2.5E0,2E0,1.5E0,1.175E1,7.5E0,2.025E1,2.25E0,5.5E0,1.025E1,1.5E0,1.5E1,2.025E1,2.375E1,2.5E1,1.75E0,2.5E0,1.9E1,1.5E0,5.525E1,6.35E1,5.75E0,4.25E0,1.75E0,4.75E0,5.25E0,1.375E1,2.75E0,1.75E1,9E0,1.75E0,1.15E1,9E0,2E0,2.525E1,1.01E2,3.5325E2,3.325E1,1.75E0,1.64E2,2.9E1,2.25E0,7.5E0,1.9E1,2.75E0,2.75E0,3E0,1.25E0,3E0,1E0,1.5E0,1.65E1,5E0,5E0,6.25E0,1.725E1,4.75E0,1.5E0,2.5E0,1.175E1,1E0,2.75E0,4.5E0,1.6E1,2.75E0,2.25E0,2E0,3E0,5E0,8E0,3.25E0,7.75E0,1E0,3.25E0,3E0,3E0,1.75E0,1E0,9E0,1.025E1,8E0,1.125E1,1E0,2.5E0,1.75E0,7.075E1,5.25E0,3.75E0,4.825E1,1.475E1,7E0,3.75E0,2.15E1,5.25E0,1.125E1,4.425E1,3.775E1,2.5E1,3.75E0,1.5E0,1.875E1,2.25E0,7.25E0,2.25E0,2.25E0,8.5E0,2E0,7.5E0,4.25E0,1.3E1,7.25E0,8E0,2.25E0,1.325E1,1.75E0,2.25E0,1.8E1,1.05E1,1.325E1,3E0,2.2E1,1E0,1.8E1,5.2E1,3.25E0,5.75E1,6E0,1E0,4.75E0,1E0,3.25E0,1.2E1,1.75E0,9.25E0,8.25E0,7.5E0,4E0,1.75E0,2.35E1,9.725E1,3.75E0,1.445E2,2.0875E2,2.225E1,1.1E1,1.4775E2,1.625E1,2.275E1,6.25E0,6.25E0,1.25E0,9.5E0,9.5E0,6.25E0,1.025E1,1E0,4E0,9.5E0,7.75E0,1.25E0,3.5E0,8.5E0,3.25E0,2.75E0,1.75E0,8E0,8E0,1.75E0,3.25E0,3.75E0,4.25E0,1.75E0,1.5E0,1.25E0,6.5E0,9E0,1.25E0,1.5E0,1E0,1.775E1,5.3E1,4.325E1,5E0,9.5E0,5.25E0,7E0,1.45E1,2.5E0,2.75E0,2E1,2.425E1,3.5E1,2.75E0,2.075E1,4.25E0,1.55E1,3.25E0,5E0,2.25E0,1E0,1.25E0,2.75E0,5.75E0,4.5E0,2.75E0,3.75E0,4.25E0,4.5E0,8.75E0,1E0,1.7E1,5.5E0,5E0,1.25E0,1.2E1,9.75E0,1.225E1,4.3E1,9E0,1E0,2.25E0,1.25E0,5.625E1,4.75E0,1.25E0,1.75E0,6.5E0,1.5E0,6E0,3.25E0,2.025E1,2.375E1,7.35E1,5.25E0,1.3925E2,2.0125E2,7.5E0,2.125E1,1E0,7E0,4E0,9.25E1,5.525E1,3.5E0,1.275E1,3.25E0,1.95E1,2.75E0,3.5E0,4.75E0,1.5E0,3.25E0,6.25E0,5.75E0,3.75E0,3E0,3.25E0,3.75E0,4E0,4.25E0,4.25E0,1.75E0,1.5E0,3E0,5E0,4.75E0,4.25E0,1.15E1,6.25E0,2.6E1,2.7E1,1.25E0,3.75E0,5.75E0,3.75E0,6.5E0,8E0,3.25E0,1.675E1,1.625E1,8E0,2.475E1,1.025E1,1.325E1,7.5E0,1.25E0,3.25E0,1.5E0,2.25E0,3E0,2.5E0,5.75E0,4E0,2E0,7E0,1.9E1,3.725E1,2E0,4.5E0,1E0,5E0,1.225E1,8E0,1.3E1,1.075E1,3.625E1,3.725E1,1.875E1,1.205E2,4.5E1,1.5625E2,3.25E0,1.8E1,1E0,3E0,5.625E1,3.625E1,1.7E1,3.825E1,5.75E0,7E0,1E0,2.25E0,3.5E0,2.25E0,2.25E0,1E0,2.5E0,1.25E0,2.25E0,2.75E0,1.25E0,3E0,6.75E0,4.75E0,3E0,3.25E0,1.575E1,1.025E1,2.325E1,3.75E0,1E0,2.75E0,3E0,2.75E0,1.75E0,2E0,5E0,3E0,1.175E1,5E0,8E0,8.25E0,3.5E0,4.5E0,1.325E1,1.15E1,4.5E0,5.75E0,5.25E0,8E0,3.5E0,4E0,1E0,2.25E0,1.25E0,1.75E0,2.75E0,3E0,2.5E0,1.5E0,1.75E0,1.725E1,7E0,3.025E1,2.75E0,1.75E0,2.25E0,1E1,6.25E0,1.75E0,1.05E1,2.5E0,1.75E0,9E0,3.425E1,2E0,1E0,3.625E1,1.025E1,8.5E0,9.7E1,2.35E1,1.75E0,4.325E1,1.0825E2,4.8E1,1.5E0,1.75E0,1.65E1,1.5E0,1.05E1,4.575E1,8.25E0,2.8E1,3.25E0,1.375E1,8.25E0,3E1,2E0,5E0,1E0,2.5E0,2.5E0,2.25E0,3E0,1.275E1,2.75E0,2.05E1,2E0,1E0,2E0,3E0,3E0,8.75E0,2E0,3E0,2E0,6.25E0,2E0,2.5E0,6.25E0,7E0,6E0,5.5E0,3.25E0,2E0,1.75E0,1.25E0,1.125E1,6E0,5.5E0,1.5E0,1.125E1,1.9E1,2.5E0,7.5E0,3.75E0,2.5E0,5.25E0,5.25E0,1.125E1,2.3E1,1.475E1,2.15E1,4.5E0,5.75E0,4.25E0,4.25E0,9.125E1,5.75E0,2.225E1,1.25E0,2.4E1,1.925E1,1.0275E2,5.5E0,3.425E1,1.375E1,6.75E0,3.75E0,3.475E1,1.1E1,5.25E0,3E0,7.75E0,2.025E1,6.75E0,7E0,2.75E0,5.5E0,2.45E1,5.5E0,2E0,3E0,8E0,4.75E0,1.325E1,7.25E0,1.5E0,1.5E0,1E0,1E0,2E0,5E0,4E0,1.5E0,8.75E0,2.5E0,8.75E0,2.5E0,2E0,5.5E0,2.25E0,1.5E0,1.5E0,3.75E0,5E0,6.25E0,2.025E1,2.75E0,1.95E1,2E0,2.75E0,3E0,1.25E0,3E0,6.375E1,2.75E1,3.75E0,2.025E1,4.25E0,1.5E1,2.75E0,1E2,3.3E1,1.25E0,7.75E0,6E0,3.25E1,2.25E0,8.5E0,2.5E0,4E0,1.25E0,5.75E0,1.45E1,3.25E0,3.75E0,1E0,1.75E0,1.5E0,2.3E1,5.75E0,7.5E0,1E0,7.75E0,1.5E0,1E0,1.75E0,3.75E0,2.75E0,1E0,1.8E1,1.5E0,6.225E1,1.5E0,1.225E1,1.525E1,2.25E0,1.5E0,1.375E1,1.25E0,4.4E1,5.6E1,3.1E1,2E0,4.75E0,1.25E0,7.25E0,1.25E0,1.75E0,4E0,1.75E0,1.275E1,1.25E0,2.5E0,1.55E1,7.5E0,1.75E0,4E0,3.25E0,4.25E0,3.5E0,1.45E1,5.55E1,6.75E0,4.75E0,7.5E0,4.25E0,1.1E1,1.25E0,1.25E1,3.55E1,8.5E0,3.375E1,2.225E1,7.75E0,2.325E1,3E0,1.75E0,3E0,1E0,1.175E1,1E0,1.5E0,1E0,3.75E0,1.175E1,2.75E0,4.75E0,2E0,2.25E0,2.25E0,1.25E0,4.55E1,1E1,2.75E0,4.75E0,2E0,2.25E0,1.5E0,9.5E0,1.5E0,1.1E1,2.4E1,1.15E1,4.5E0,4E0,3.15E1,2.25E0,3.25E0,1.9E1,1.75E0,6E0,1.75E0,2.15E1,1E0,2E0,3.75E0,8E0,1.5E0,3.25E0],"tree_param":{"num_deleted":"0","num_feature":"7","num_nodes":"1207","size_leaf_vector":"0"}},{"base_weights":[-2.0279756E-2,-4.6214607E-2,2.7250755E-1,3.462673E-1,-1.1091057E-1,3.3575284E-1,-1.6290603E0,-1.5802313E-1,6.9498795E-1,-6.007174E-1,9.833418E-2,-1.2647867E0,4.1913688E-1,-9.537926E-1,4.5166615E-2,7.2287244E-1,-1.2516804E0,-1.3199768E0,-5.591083E-1,-5.5979364E-2,1.966187E-1,1.7296945E-1,5.815041E-1,-1.192147E0,1.0083811E0,-1.0077496E-1,5.925346E-1,5.550675E-1,1.0148146E0,-1.6324226E0,-1.9809064E-1,-1.3847908E0,-5.012396E-1,1.3160133E-1,-1.7345911E-1,3.5338485E-1,8.0101214E-2,2.759374E-1,-1.4379038E0,-1.4403424E0,6.4798075E-1,-1.539946E0,-4.5918375E-1,2.1175128E-1,-9.2330724E-1,7.5466037E-1,-1.0733836E0,4.8903114E-1,1.4916741E0,1.1338326E0,6.229576E-1,5.7657707E-1,-1.2574884E0,-1.008601E0,-1.6044855E0,1.7133787E-1,-5.297841E-1,7.2664976E-1,8.96548E-2,3.8229096E-1,-2.2351217E-1,1.6516583E-1,4.8655823E-1,-1.2488978E0,1.2025902E-1,6.10225E-1,-2.4910486E-1,-6.613772E-1,7.313775E-1,4.9344596E-1,-1.3198628E0,4.1312376E-1,-3.0959898E-1,4.4517374E-1,-1.192214E0,9.0211594E-1,-9.305557E-1,5.4710704E-1,-1.4138373E0,1.2479912E0,5.765569E-1,-1.1712009E0,8.530452E-1,1.3207532E0,-1.0232939E0,-2.4541269E-1,-1.4965688E0,-3.7587923E-1,7.2246695E-1,-4.0625826E-1,-6.6107863E-1,9.763767E-1,1.5529965E-1,-1.2842289E-2,4.339412E-1,7.786732E-1,-8.7090826E-1,-6.143168E-1,-1.06484465E-1,4.1166067E-2,5.841626E-1,-4.338004E-3,6.682802E-1,-1.6299951E0,-4.8882192E-1,-1.8117586E-2,4.0108484E-1,6.705868E-1,-9.9771327E-1,-1.5125383E0,1.8802407E-1,7.876011E-1,-1.5301538E0,8.7841713E-1,2.3808001E-1,-1.160639E0,1.3364544E0,-7.1259636E-1,6.8801486E-1,9.046288E-1,-8.8782024E-1,-9.4718283E-1,1.2398751E0,-1.3707328E0,6.0213387E-1,2.3069859E-1,1.2364563E0,6.159366E-1,-1.3323369E0,5.310363E-1,1.3450696E0,-1.3443414E0,1.4318924E0,1.1223696E0,-1.1472641E0,1.2371467E0,-1.3092611E0,5.9781027E-1,-1.3505075E0,1.2356371E0,4.26179E-1,-1.5300056E0,-3.458081E-1,-1.0023631E0,-3.553846E-1,5.9519005E-1,1.2033455E0,-8.966034E-1,6.213201E-1,-6.323498E-1,2.87877E-1,9.3418616E-1,-1.2099929E-1,-1.1091595E0,9.259521E-1,-2.420922E-1,-1.3442136E0,-1.2557521E0,-3.500863E-1,-2.9578397E-1,5.6905174E-1,2.6983136E-1,-4.921471E-1,-4.747449E-2,6.703414E-1,-1.6247926E0,2.1198559E-1,-1.3051116E0,6.981971E-1,-1.3266664E0,2.6474196E-1,1.0933571E-2,-1.8512832E0,3.36222E-4,8.378385E-1,7.5889945E-1,-1.1409785E0,-3.5011455E-1,7.663551E-1,9.3394816E-1,-3.4369028E-1,-2.7408227E-1,1.0474131E0,1.0449754E0,-1.4602649E0,3.1709594E-1,9.3883413E-1,-1.4875064E0,8.178007E-2,-4.0571982E-1,8.689389E-1,8.221436E-1,1.4651566E0,8.145489E-1,2.8572825E-1,1.2284687E0,-1.1097685E0,9.3367356E-1,1.5762714E0,3.6784068E-1,1.3009348E0,1.0029099E-1,9.0361935E-1,-1.0694239E0,9.350958E-1,-3.8843274E-1,1.1076971E0,-7.704908E-1,-1.1647178E0,-7.297804E-1,-1.2725802E-2,1.1031923E0,6.4392865E-2,9.4086736E-1,-7.581162E-1,4.005021E-2,6.346471E-1,3.540372E-1,1.0095341E0,3.6890885E-1,-7.348782E-1,-9.796238E-1,1.0747774E0,3.010277E-1,-9.86407E-1,-7.194477E-1,-1.584162E0,-9.822186E-2,-1.5445948E0,1.369807E0,-3.495148E-1,6.9569093E-1,-6.304412E-1,4.6766904E-1,-8.806448E-1,-1.5239663E0,-2.820864E-1,5.460726E-1,-1.0181851E0,1.3341169E0,5.1078707E-1,4.0166458E-1,-1.485111E0,7.647232E-1,1.2775764E-1,1.2252989E0,-1.0318978E0,1.01437405E-1,-4.6660957E-1,2.564415E-1,-4.593231E-1,9.5089966E-1,4.5919472E-1,1.6828915E-1,8.793436E-1,-6.4911395E-1,1.0866377E0,1.0605242E0,1.8869421E-1,7.196284E-1,1.4228685E0,3.6754763E-1,-1.1175088E0,-5.3796387E-1,1.1360989E0,1.1309975E-1,1.3982444E0,8.6073077E-1,-1.4034404E0,1.2040803E0,6.7704564E-1,1.18647E0,-1.2385982E0,7.2574204E-1,-1.1848917E0,1.310988E0,-9.65473E-1,2.8733647E-1,9.8788E-1,-1.4257536E0,4.267112E-1,1.1115549E0,2.8708956E-1,1.1846626E0,5.6917924E-1,-3.4854236E-1,-1.1995401E0,-1.1329621E0,6.716186E-1,-1.4405406E0,-7.2119606E-1,-3.122973E-1,-9.40871E-1,7.4497217E-1,-3.251838E-1,-9.5582914E-1,-2.1563247E-1,1.6976513E-1,-8.463888E-1,1.199084E0,4.6526295E-1,1.4113666E0,7.5912726E-1,-4.929208E-1,1.2331837E0,-1.4461327E0,1.1214133E-1,8.150903E-1,1.262529E0,-1.4989926E0,1.2666599E0,-3.1515768E-1,1.2899147E0,-5.7794535E-1,-6.565928E-2,5.947438E-1,1.3606595E0,-1.3401567E0,4.2334285E-1,9.0584016E-1,3.0652902E-1,-1.175862E0,-1.2535062E-1,5.0532633E-1,-7.569737E-1,-1.1764289E0,6.8988234E-1,1.5804563E-1,1.0764418E0,6.751342E-1,1.4747367E0,-1.3151567E0,4.6486184E-1,-5.7021186E-2,8.1833476E-1,-9.2197615E-1,1.2716281E-1,-1.393975E-1,9.015998E-1,-1.5960437E0,-9.860701E-3,6.44124E-1,1.2319729E0,-1.3275614E0,8.431899E-1,-1.185225E0,6.2910527E-1,9.630119E-1,2.0425622E-1,3.460956E-1,-1.5182642E0,-9.763106E-1,7.574613E-1,1.2061727E0,3.0541733E-1,-1.10039905E-1,-1.5606267E0,1.9954334E-1,1.2621837E0,-1.12062E0,1.0338802E0,1.1338352E0,-1.049861E0,8.974004E-1,1.3778038E0,1.4739805E-1,1.088455E0,-3.9437988E-1,6.309963E-1,-1.4882828E0,-6.7746556E-1,-1.388934E0,-7.601639E-1,-1.173164E0,1.140286E0,-1.5731945E0,-1.081878E0,1.675881E0,-9.180073E-1,-5.7641464E-1,1.3301768E0,-1.3548671E0,-5.8609843E-1,-4.162766E-1,1.0957404E0,-1.4425224E0,-2.0310287E-1,-6.691956E-1,-1.5399965E0,1.1422212E0,-5.019477E-1,-4.0751006E-2,8.4014976E-1,-1.4025043E0,-2.0451644E-2,2.1450691E-1,9.987012E-1,-1.1018404E0,1.0449216E0,7.8323275E-1,-1.375663E0,1.3128464E0,-1.2498719E0,4.966131E-1,1.2593029E0,-1.4360771E0,-1.4264208E-1,1.8381637E0,4.821918E-1,-4.6666622E-1,-1.5774964E0,8.6589867E-1,-3.3018652E-1,7.055729E-1,-1.1826528E0,5.2729934E-1,1.0944957E0,-1.2919174E0,4.1694802E-1,-6.811985E-1,-1.5486704E0,1.0598128E0,-1.1795748E0,1.0477942E0,5.2627236E-2,-1.55048E0,-1.93724E-1,8.9820784E-1,-1.0786464E-1,2.5059643E-1,-1.2268897E0,7.028318E-1,-1.1228712E0,-4.4252076E-3,9.7445124E-1,-1.9065166E-2,-1.5345451E0,1.1287098E0,6.8012756E-1,-3.641925E-1,-1.293117E0,6.056771E-1,-4.8318198E-1,3.5770353E-2,-1.493483E0,1.2149997E0,6.5049577E-1,7.7700573E-1,-4.0596348E-1,9.4641554E-1,-1.2923009E0,1.5390656E0,8.897697E-1,1.3920478E0,4.413816E-1,9.51942E-1,2.2606805E-1,-1.0613205E0,9.019577E-1,-2.545031E-1,1.124858E0,5.4882663E-1,1.2528857E0,-2.1814814E-1,7.8504694E-1,-6.871887E-1,9.9127233E-1,8.1735563E-1,-1.0348998E0,-9.3862265E-1,1.4266583E0,-1.5496035E0,-5.426501E-2,9.783504E-1,-1.0570834E0,7.327153E-1,-8.9658433E-1,3.0639526E-1,1.3218555E0,-2.9882258E-1,-7.275861E-1,9.898179E-1,9.5417365E-2,5.3688425E-1,-1.2528038E0,-8.525434E-1,-1.5754733E0,1.2060003E0,-1.0922118E0,-6.030231E-1,-1.4788702E0,2.9680413E-1,-1.2949109E0,-1.4654402E0,-2.1357253E-1,-1.5531515E0,2.0118973E-1,4.9606928E-1,-1.1627816E0,6.7166173E-1,1.2963301E0,5.801081E-2,-1.1850642E0,-1.5666095E0,-2.0788313E-1,-1.3656565E0,-4.2537544E-2,1.5329677E-1,-1.4515402E0,1.4334378E0,2.4492668E-1,7.8828967E-1,-1.051251E0,6.200661E-1,-1.4206642E0,1.3044783E0,4.5272106E-1,1.3817797E0,5.5123746E-1,9.2839843E-1,1.8294075E-1,6.1106944E-1,-5.477361E-1,-5.724236E-1,1.1306983E0,2.5386325E-1,1.3635925E0,5.2564904E-2,-1.305304E0,8.0861884E-1,-2.2610517E-1,9.411486E-1,-9.608334E-1,1.2703515E0,2.9204544E-1,6.839422E-2,6.9302994E-1,4.9806356E-1,-1.3533227E0,9.9352384E-1,-1.313594E0,-6.523235E-1,6.2352645E-1,6.9767946E-1,1.3453262E0,-1.3734535E0,9.681825E-1,-6.2443626E-1,4.017099E-1,-1.0208544E0,8.180981E-1,6.1539596E-1,-1.2669243E0,5.4708026E-2,1.3804111E0,-9.831876E-1,2.7715541E-2,1.2240961E0,3.8636068E-1,-1.0343653E0,7.7160645E-1,-1.4655755E0,3.0846426E-1,-6.7146164E-1,-1.6628953E0,1.2652359E0,3.1468493E-1,-7.611261E-1,3.9283624E-1,-1.4573048E-1,9.8932713E-1,5.576607E-1,1.5047897E0,-1.3494812E0,1.0552177E0,1.5715882E-1,1.3372642E0,-1.4728031E0,3.72554E-1,1.2850766E0,5.310565E-1,-1.3263464E0,1.3694516E0,-1.4931973E0,1.228142E0,1.0351049E0,-1.2562251E0,-8.9332E-1,9.6429443E-1,1.0172058E0,-1.1422633E0,9.250681E-1,-1.5259941E0,2.665373E-1,1.1732577E0,-1.0416218E0,9.528933E-1,-9.9639755E-1,1.0511911E0,-1.0427204E0,9.1179293E-1,-1.6452047E0,2.2620872E-1,1.3883434E-1,4.0436566E-1,-5.868599E-1,1.538488E-1,1.0832983E0,-9.464323E-1,7.254572E-1,-9.752224E-1,3.3180953E-3,-1.3118068E0,1.0727268E-3,-1.5166441E0,7.6802886E-1,-1.3343973E0,-1.0383486E0,9.199052E-1,-1.5153947E0,1.2846937E-2,3.428698E-1,-1.3470752E0,-1.3895253E0,1.0403707E0,1.3207422E0,-1.065998E0,-2.1739E-1,1.2383089E0,-4.8986906E-1,-1.4621545E0,-6.909569E-1,7.98079E-1,-1.2853843E0,6.0707647E-1,-1.1425322E0,6.114657E-1,-1.235638E0,9.499001E-1,-5.823233E-1,1.1271839E0,9.90626E-1,-8.9448446E-1,-1.1485835E0,1.322337E0,-1.2493672E0,1.2362994E0,8.967007E-1,-2.1239702E-1,-1.5109689E0,-8.4347665E-2,8.174147E-1,-7.210274E-1,-1.2212503E0,8.476577E-1,1.4624836E0,3.140281E-1,1.7793657E-1,-1.3680426E0,-1.5581092E0,-8.604869E-1,-1.0730885E0,9.155497E-1,7.360561E-1,-1.1389614E0,1.2110084E0,5.397463E-1,-9.721255E-1,7.303537E-1,1.1691887E0,2.4188529E-1,6.2203944E-1,-1.549794E0,1.4432833E-1,8.892038E-1,9.405994E-1,-1.1105838E0,2.2028619E-1,-1.3328912E0,1.1000319E0,-3.8573337E-1,7.6481944E-1,-1.545496E0,9.475926E-1,1.8716276E-1,-1.0363739E0,1.3327237E0,-1.5924263E0,1.0822619E0,5.288883E-1,-7.025045E-2,6.6524476E-1,1.4073348E0,9.3208474E-1,-1.3109596E0,-1.224818E0,9.873955E-1,-1.6439455E0,1.1598871E0,9.509837E-1,-1.3141296E0,-1.4867423E0,9.0885496E-1,1.288608E0,-3.4954384E-1,1.255246E0,4.4830924E-1,1.4097023E0,4.566898E-1,7.597794E-1,-1.0246131E0,7.8193027E-1,-1.1449573E0,7.097446E-1,1.4821266E0,-1.0478987E0,7.501523E-1,-4.3941192E-2,-1.5994732E0,1.234291E0,4.484949E-1,1.2963467E0,1.0769793E-1,1.2714863E0,3.2975677E-1,6.4466643E-1,1.2394984E0,1.1416177E0,-7.5050557E-1,-4.5508695E-1,-1.4917029E0,-1.8460362E-1,5.4503965E-1,-1.2838334E0,-4.24819E-1,-1.0931549E0,1.4580644E0,-1.2195935E0,1.2606258E0,-9.5099E-1,8.622933E-1,-1.1829468E0,8.386543E-1,2.3746854E-1,1.7731885E0,1.3261901E0,-4.5680225E-1,-1.2429091E0,8.8944095E-1,-1.1771102E0,1.2213932E0,3.127925E-1,1.0315678E0,1.0500387E0,-8.667155E-1,-1.5828956E0,3.2265413E-1,7.612695E-1,-1.282033E0,5.750052E-1,1.381138E0,1.0697465E0,-1.4409523E0,1.2363644E0,3.6107457E-1,1.0735497E0,1.6404818E-1,9.704959E-1,-1.1308889E0,-7.0774907E-1,4.9110097E-1,-1.1233207E0,1.4341458E0,-9.682419E-1,-4.8346087E-1,1.2341835E0,4.206904E-1,-1.0013503E0,4.3638605E-1,-1.1289938E-1,-1.3899915E0,1.3698231E0,7.46715E-1,7.014042E-1,-1.6096648E0,1.1356602E0,-6.6687964E-2,4.9947333E-1,1.349978E0,-1.2816453E0,5.694942E-1,1.3837383E0,5.1680136E-1,2.1662375E-1,1.2240664E0,1.136848E0,-1.1282295E0,8.656878E-1,1.2734816E0,-1.4675778E0,1.1006948E0,-1.7103676E0,8.5259324E-1,8.696665E-1,-1.2584595E-1,1.2290772E0,4.7299972E-1,1.234088E0,-1.24883816E-1,2.923119E-1,1.2163188E0,-1.5069383E0,6.691779E-2,-1.1181165E0,1.2854896E0,1.4156382E0,1.8615903E-1,-1.141886E0,1.0698109E0,-7.9613036E-1,1.0928341E0,1.4577794E0,6.335981E-1,-1.2139049E0,1.1333481E0,4.8069316E-1,1.3543603E0,-6.726533E-1,9.0979874E-1,9.567063E-1,-1.1332147E0,-9.9769396E-1,-1.5891863E-1,-1.4565326E0,-3.215232E-1,7.847626E-1,-6.8025166E-1,-5.7385904E-1,8.329712E-1,-8.354211E-1,-1.4443283E0,1.1711334E0,-6.942755E-1,1.9419101E-1,1.2390544E0,9.034495E-1,-1.0024478E0,1.0231402E0,-7.3834807E-1,-2.7722234E-1,-1.4543768E0,1.3147514E0,3.3641678E-1,5.056361E-1,1.2803061E0,5.538381E-1,1.3165467E0,-1.5152577E0,1.1230773E0,1.0133051E0,-1.1415739E0,-3.6344576E-1,-1.6832182E0,1.0360094E-1,-9.123575E-1,-8.8976264E-1,1.0155143E0,-1.3913946E0,-3.0863258E-1,6.99481E-1,-1.7182575E-1,-1.1738675E0,1.0733318E0,-1.0253721E0,8.8193953E-1,6.603674E-1,1.3896707E0,1.2118022E0,-1.2550783E0,-4.7821623E-1,9.408469E-1,-1.0378188E0,9.8532623E-1,-5.368264E-1,-1.5021024E0,9.658958E-1,-5.08321E-1,1.3526566E0,6.17588E-1,1.2975072E0,3.9707634E-1,5.612235E-1,1.2406819E0,1.2714845E0,-1.0433671E0,-1.4113629E0,-8.638662E-2,3.622715E-1,1.3193722E0,-1.4017614E0,1.0517596E0,1.0440464E0,-4.97258E-1,-1.2460482E0,1.2270851E0,6.759465E-1,1.4054645E0,4.9939984E-1,-1.4311961E0,1.2594467E0,-1.0368296E0,-2.0693734E-1,-1.1902863E0,1.2106336E0,5.199618E-1,4.4844133E-1,1.2910662E0,-6.36023E-1,1.8907736E-1,1.0396442E0,-9.409677E-1,-3.0802175E-1,-1.637595E0,-5.805538E-2,-1.1774434E0,1.5174037E0,4.283989E-1,-1.4168868E0,1.0932958E0,-1.4470024E0,-2.7166507E-1,1.4022778E0,-1.120804E0,-1.4898849E0,-3.5155484E-1,3.1137568E-1,-8.781278E-1,8.582097E-1,-2.2559562E-1,-1.5949498E0,3.1604186E-1,-2.8515834E-1,1.2943625E0,-1.4979461E0,-5.080947E-1,9.455751E-1,-1.174193E0,9.997712E-1,-5.2471614E-1,1.3836478E0,-1.4642153E0,4.6282133E-1,1.154336E0,-8.938021E-1,1.2638786E0,4.151101E-1,-1.1278926E0,1.0934943E0,4.4082326E-1,2.908202E-1,-1.256416E0,8.8181996E-1,1.3631529E0,5.5147886E-2,-1.2247655E0,7.580717E-1,-1.2418876E0,1.4662592E0,7.7038676E-1,-3.0167392E-1,1.02388814E-1,5.806715E-1,1.4176478E0,1.2827661E0,6.337867E-1,4.7290182E-1,1.3120346E0,-9.399626E-2,-1.4166778E0,1.127908E0,-9.16196E-1,-1.0003304E0,1.0962479E0,1.0886602E0,-7.8552926E-1,-6.71689E-1,5.398327E-1,1.3523374E0,-9.327636E-1,3.709739E-1,-1.4379233E0,-1.1025877E0,8.344293E-1,1.0566095E0,-1.4742513E0,3.4881404E-1,-1.3390883E0,-8.985549E-1,2.723836E-1,1.1328574E0,-1.0189357E0,-1.2375302E0,7.7802026E-1,-1.184216E0,5.150549E-1,1.2559818E0,-7.784E-1,-1.4811445E0,1.9288377E-1,4.5837277E-1,1.198913E0,-1.3059815E0,3.9780572E-1,1.4055693E0,-3.8734287E-1,-1.1431788E0,1.4366747E0,7.2362894E-1,1.3515606E0,1.7047858E0,-9.868905E-1,1.4027113E0,-1.2295222E0,1.1710341E0,3.7517712E-1,3.7575853E-1,1.1170807E0,-5.836056E-1,3.1216118E-1,2.2919407E-1,-6.00843E-1,1.8781123E-1,9.2923015E-1,-8.2333654E-1,8.6866295E-1,-1.1121637E0,-8.883891E-2,-8.8236856E-1,1.521894E-1,6.666972E-1,-1.0096714E0,-1.1205521E0,6.893222E-1,-8.5810065E-1,1.2753774E0,-1.032307E0,7.423911E-1,-1.4181498E0,-1.14494495E-1,3.7360457E-1,1.5484306E-1,1.2856691E0,4.6433926E-1,7.505672E-1,-1.0286263E0,-1.3153253E0,-3.635507E-1,-5.3630058E-2,2.8650472E-1,6.3475037E-1,2.330882E-1,-1.2090377E0,3.999313E-2,5.97703E-1,9.85793E-1,1.3815285E0,4.8523068E-1,2.070767E-1,9.2874146E-1,-3.3043918E-1,-9.8103184E-1,6.644493E-1,-8.487941E-1,3.3083355E-1,-4.062413E-1,-1.0801723E0,3.5429648E-1,7.121279E-1,-1.5035106E0,-4.0886834E-1,-1.512981E0,-6.540762E-1,1.1822075E0,-1.4069841E0,1.0658082E0,8.518806E-1,-1.0643072E0,-1.1087629E0,1.0201234E0,1.2179596E0,1.5822563E-1,-9.536991E-1,4.6789986E-1,-8.8562334E-1,1.128427E0,7.076292E-1,-9.628608E-1,-9.5502394E-1,1.0278351E0,1.0467888E0,-7.968256E-1,7.331764E-1,-9.8115873E-1,1.152777E0,-2.7087978E-1,1.1674747E0,-1.048042E0,1.2523602E0,-1.288276E0,1.0452775E0,-3.4504128E-1,1.1904652E0,1.0292046E-1,-1.3889593E-1,1.1066636E0,2.1526507E-1,-9.63875E-1,9.7840506E-1,-1.1677203E0,-1.1151298E0,8.508197E-1,-3.0185997E-1,-1.3668514E0,6.2503296E-1,-1.1441093E-1,7.269382E-1,-1.5036668E0,8.5109866E-1,-1.6450803E0,-1.0668429E0,1.2012649E0,2.0472673E-1,-1.1244076E0,9.204344E-2,-1.3579291E0,1.3425447E-1,-3.115528E-1],"categories":[],"categories_nodes":[],"categories_segments":[],"categories_sizes":[],"default_left":[1,1,1,1,1,1,0,1,1,1,1,0,1,1,1,1,0,1,1,1,1,1,1,1,0,1,1,1,1,0,1,1,1,1,1,1,1,1,0,0,1,0,1,1,1,1,0,1,0,1,1,1,0,1,0,1,1,1,1,1,1,1,1,1,1,1,1,1,1,1,0,1,1,1,1,1,0,1,0,1,1,0,1,0,0,1,0,1,1,1,1,1,1,1,1,1,1,1,1,1,1,1,1,0,1,1,1,1,0,0,1,0,0,1,1,0,0,1,1,0,1,0,0,0,0,1,1,1,0,1,1,0,0,1,0,0,0,1,0,0,1,0,1,1,1,1,0,0,0,1,1,1,1,0,1,1,0,1,1,1,1,1,1,1,1,0,1,0,1,0,1,1,0,1,1,1,0,1,1,1,1,1,1,0,0,1,1,0,1,1,0,1,0,1,1,0,0,1,0,0,0,0,0,0,1,1,0,1,1,1,1,0,0,0,1,1,1,0,1,1,1,0,1,0,0,1,0,1,0,0,1,1,1,1,1,0,1,0,0,0,1,1,0,1,1,0,0,1,1,1,1,1,1,1,1,1,0,0,1,1,0,0,0,1,0,0,0,1,0,0,1,0,0,0,0,0,0,1,1,0,1,0,0,0,0,1,1,1,1,1,1,1,1,1,1,1,1,1,1,0,1,0,1,1,0,0,1,1,0,0,0,1,1,1,1,1,0,0,0,1,1,1,1,1,1,0,1,1,0,1,0,0,1,1,1,1,1,1,1,0,1,1,1,0,1,0,1,0,1,1,0,0,0,1,1,1,0,1,0,0,0,1,1,1,0,1,1,1,1,0,1,1,1,0,0,0,1,0,1,1,0,0,1,1,1,0,1,1,0,0,1,1,1,0,1,1,1,0,1,0,0,0,0,1,0,0,1,0,0,1,0,1,1,1,0,1,1,0,1,1,0,0,0,0,1,0,1,1,1,1,0,1,0,1,1,1,0,1,1,1,1,1,1,1,0,1,1,1,1,1,0,0,1,0,1,0,0,0,0,1,0,0,0,1,1,1,1,0,0,0,0,0,1,1,0,1,1,1,0,1,1,0,1,0,0,1,0,0,1,1,0,1,1,0,1,0,1,0,0,1,0,1,1,0,1,0,1,1,0,0,1,0,0,1,0,0,1,0,1,0,1,1,1,1,0,1,1,1,1,1,1,1,0,0,0,1,1,0,0,0,0,1,1,1,0,0,0,1,1,1,1,1,0,0,0,1,1,1,0,0,1,0,1,1,0,0,1,1,0,1,1,0,0,0,1,1,0,0,1,1,1,0,0,0,0,0,0,1,1,1,0,0,0,0,0,0,0,0,1,0,1,0,1,0,0,1,1,0,1,0,0,1,0,1,0,0,0,0,0,0,1,1,0,0,1,0,0,1,0,1,0,1,1,0,1,1,1,0,1,1,1,0,0,0,0,0,0,1,1,0,1,1,1,0,1,0,0,1,0,0,1,0,1,0,0,0,0,1,1,1,1,0,0,0,0,1,0,0,0,1,1,0,0,1,1,0,0,0,0,1,1,0,0,1,0,0,1,0,0,1,0,0,0,0,1,0,0,0,1,0,0,1,0,0,0,0,1,1,0,0,0,1,1,1,1,1,0,0,1,1,0,1,1,1,1,0,0,0,0,0,0,0,1,1,0,0,1,0,0,1,0,0,0,1,0,0,0,1,0,0,0,0,0,0,0,1,0,0,0,1,1,0,0,1,1,0,1,1,1,1,0,0,1,0,0,1,1,0,0,0,1,0,1,0,0,0,1,1,1,0,1,0,1,1,1,1,1,0,0,0,0,0,1,0,0,0,1,0,1,1,0,0,0,0,0,1,0,1,1,1,0,0,0,0,1,1,1,1,1,1,0,0,1,1,0,0,0,0,1,1,0,0,0,1,0,0,0,0,0,0,0,1,0,1,1,0,0,0,1,1,1,0,0,0,1,1,0,0,0,1,1,0,0,1,0,1,1,0,0,0,0,1,1,0,0,0,1,0,1,0,1,1,1,0,0,1,0,0,0,0,0,0,0,0,0,1,0,1,1,1,0,1,0,1,0,0,1,0,0,0,1,0,0,0,1,0,0,1,1,0,1,1,0,0,1,0,0,1,1,0,0,1,1,0,0,0,0,0,0,0,0,1,1,1,0,1,0,0,1,1,1,0,0,0,1,0,0,1,0,0,0,0,0,0,1,1,1,0,0,1,0,0,0,1,0,1,0,1,1,1,0,0,0,0,1,0,1,0,1,1,0,0,0,0,1,0,0,1,0,0,0,0,0,1,1,0,0,1,1,1,1,0,0,1,0,1,1,1,0,1,0,0,1,0,0,0,1,0,1,1,1,0,0,1,0,0,1,1,1,0,1,0,1,1,1,0,0,1,0,1,1,1,1,1,1,1,1,0,0,0,0,0,0,0,0,0,0,0,0,0,0,0,0,0,0,0,0,0,0,0,0,0,0,0,1,0,0,0,0,0,1,0,0,1,0,0,0,0,0,0,0,0,0,0,0,0,0,0,0,0,0,0,0,0,0,0,0],"id":1,"left_children":[1,3,5,7,9,11,-1,13,15,17,19,-1,21,23,25,27,-1,29,31,33,35,37,39,41,-1,43,45,47,49,-1,51,53,55,57,59,61,63,65,-1,-1,67,-1,69,71,73,75,-1,77,-1,79,81,83,-1,85,-1,87,89,91,93,95,97,99,101,103,105,107,109,111,113,115,-1,117,119,121,123,125,-1,127,-1,129,131,-1,133,-1,-1,135,-1,137,139,141,143,145,147,149,151,153,155,157,159,161,163,165,167,-1,169,171,173,175,-1,-1,177,-1,-1,179,181,-1,-1,183,185,-1,187,-1,-1,-1,-1,189,191,193,-1,195,197,-1,-1,199,-1,-1,-1,201,-1,-1,203,-1,205,207,209,211,-1,-1,-1,213,215,217,219,-1,221,223,-1,225,227,229,231,233,235,237,239,-1,241,-1,243,-1,245,247,-1,249,251,253,-1,255,257,259,261,263,265,-1,-1,267,269,-1,271,273,-1,275,-1,277,279,-1,-1,281,-1,-1,-1,-1,-1,-1,283,285,-1,287,289,291,293,-1,-1,-1,295,297,299,-1,301,303,305,-1,307,-1,-1,309,-1,311,-1,-1,313,315,317,319,321,-1,323,-1,-1,-1,325,327,-1,329,331,-1,-1,333,335,337,339,341,343,345,347,349,-1,-1,351,353,-1,-1,-1,355,-1,-1,-1,357,-1,-1,359,-1,-1,-1,-1,-1,-1,361,363,-1,365,-1,-1,-1,-1,367,369,371,373,375,377,379,381,383,385,387,389,391,393,-1,395,-1,397,399,-1,-1,401,403,-1,-1,-1,405,407,409,411,413,-1,-1,-1,415,417,419,421,423,425,-1,427,429,-1,431,-1,-1,433,435,437,439,441,443,445,-1,447,449,451,-1,453,-1,455,-1,457,459,-1,-1,-1,461,463,465,-1,467,-1,-1,-1,469,471,473,-1,475,477,479,481,-1,483,485,487,-1,-1,-1,489,-1,491,493,-1,-1,495,497,499,-1,501,503,-1,-1,505,507,509,-1,511,513,515,-1,517,-1,-1,-1,-1,519,-1,-1,521,-1,-1,523,-1,525,527,529,-1,531,533,-1,535,537,-1,-1,-1,-1,539,-1,541,543,545,547,-1,549,-1,551,553,555,-1,557,559,561,563,565,567,569,-1,571,573,575,577,579,-1,-1,581,-1,583,-1,-1,-1,-1,585,-1,-1,-1,587,589,591,593,-1,-1,-1,-1,-1,595,597,-1,599,601,603,-1,605,607,-1,609,-1,-1,611,-1,-1,613,615,-1,617,619,-1,621,-1,623,-1,-1,625,-1,627,629,-1,631,-1,633,635,-1,-1,637,-1,-1,639,-1,-1,641,-1,643,-1,645,647,649,651,-1,653,655,657,659,661,663,665,-1,-1,-1,667,669,-1,-1,-1,-1,671,673,675,-1,-1,-1,677,679,681,683,685,-1,-1,-1,687,689,691,-1,-1,693,-1,695,697,-1,-1,699,701,-1,703,705,-1,-1,-1,707,709,-1,-1,711,713,715,-1,-1,-1,-1,-1,-1,717,719,721,-1,-1,-1,-1,-1,-1,-1,-1,723,-1,725,-1,727,-1,-1,729,731,-1,733,-1,-1,735,-1,737,-1,-1,-1,-1,-1,-1,739,741,-1,-1,743,-1,-1,745,-1,747,-1,749,751,-1,753,755,757,-1,759,761,763,-1,-1,-1,-1,-1,-1,765,767,-1,769,771,773,-1,775,-1,-1,777,-1,-1,779,-1,781,-1,-1,-1,-1,783,785,787,789,-1,-1,-1,-1,791,-1,-1,-1,793,795,-1,-1,797,799,-1,-1,-1,-1,801,803,-1,-1,805,-1,-1,807,-1,-1,809,-1,-1,-1,-1,811,-1,-1,-1,813,-1,-1,815,-1,-1,-1,-1,817,819,-1,-1,-1,821,823,825,827,829,-1,-1,831,833,-1,835,837,839,841,-1,-1,-1,-1,-1,-1,-1,843,845,-1,-1,847,-1,-1,849,-1,-1,-1,851,-1,-1,-1,853,-1,-1,-1,-1,-1,-1,-1,855,-1,-1,-1,857,859,-1,-1,861,863,-1,865,867,869,871,-1,-1,873,-1,-1,875,877,-1,-1,-1,879,-1,881,-1,-1,-1,883,885,887,-1,889,-1,891,893,895,897,899,-1,-1,-1,-1,-1,901,-1,-1,-1,903,-1,905,907,-1,-1,-1,-1,-1,909,-1,911,913,915,-1,-1,-1,-1,917,919,921,923,925,927,-1,-1,929,931,-1,-1,-1,-1,933,935,-1,-1,-1,937,-1,-1,-1,-1,-1,-1,-1,939,-1,941,943,-1,-1,-1,945,947,949,-1,-1,-1,951,953,-1,-1,-1,955,957,-1,-1,959,-1,961,963,-1,-1,-1,-1,965,967,-1,-1,-1,969,-1,971,-1,973,975,977,-1,-1,979,-1,-1,-1,-1,-1,-1,-1,-1,-1,981,-1,983,985,987,-1,989,-1,991,-1,-1,993,-1,-1,-1,995,-1,-1,-1,997,-1,-1,999,1001,-1,1003,1005,-1,-1,1007,-1,-1,1009,1011,-1,-1,1013,1015,-1,-1,-1,-1,-1,-1,-1,-1,1017,1019,1021,-1,1023,-1,-1,1025,1027,1029,-1,-1,-1,1031,-1,-1,1033,-1,-1,-1,-1,-1,-1,1035,1037,1039,-1,-1,1041,-1,-1,-1,1043,-1,1045,-1,1047,1049,1051,-1,-1,-1,-1,1053,-1,1055,-1,1057,1059,-1,-1,-1,-1,1061,-1,-1,1063,-1,-1,-1,-1,-1,1065,1067,-1,-1,1069,1071,1073,1075,-1,-1,1077,-1,1079,1081,1083,-1,1085,-1,-1,1087,-1,-1,-1,1089,-1,1091,1093,1095,-1,-1,1097,-1,-1,1099,1101,1103,-1,1105,-1,1107,1109,1111,-1,-1,1113,-1,1115,1117,1119,1121,1123,1125,1127,1129,-1,-1,-1,-1,-1,-1,-1,-1,-1,-1,-1,-1,-1,-1,-1,-1,-1,-1,-1,-1,-1,-1,-1,-1,-1,-1,-1,1131,-1,-1,-1,-1,-1,1133,-1,-1,1135,-1,-1,-1,-1,-1,-1,-1,-1,-1,-1,-1,-1,-1,-1,-1,-1,-1,-1,-1,-1,-1,-1,-1],"loss_changes":[2.1222733E1,6.521461E1,2.7899403E1,6.402921E1,2.259794E2,3.0017002E1,0E0,2.4201082E1,1.2579033E1,1.9012909E1,2.34491E1,0E0,8.323116E0,1.5436317E1,9.643562E0,9.854988E0,0E0,1.2069786E1,2.9197754E1,1.3290696E1,1.7220234E1,1.45262165E1,1.794482E1,6.3278923E0,0E0,2.4763765E1,7.6701584E0,7.7594643E0,2.85746E0,0E0,7.979655E0,1.7212067E0,1.1344711E1,5.736338E0,1.0395671E1,1.0004066E1,2.9128817E1,1.4352195E1,0E0,0E0,1.3939861E1,0E0,9.100992E0,7.484388E0,1.0283144E1,6.737256E0,0E0,1.5106594E1,0E0,2.9316406E0,9.264203E0,8.246996E0,0E0,6.183447E0,0E0,7.696952E0,8.855362E0,2.0121164E0,7.7077646E0,1.6073605E1,1.5514307E1,8.715917E0,2.0975246E1,3.8417645E0,2.0523869E1,5.4950256E0,1.8058659E1,1.1154963E1,8.228424E0,9.386904E0,0E0,1.6264746E1,1.4912142E1,6.795939E0,8.007402E0,4.727928E0,0E0,1.719497E1,0E0,2.5413513E0,2.1011272E1,0E0,1.1159518E1,0E0,0E0,1.4326601E1,0E0,1.315568E1,1.3905306E0,1.9337616E1,2.7928894E1,1.8039608E-1,3.4010067E0,3.1696821E1,1.4021392E1,7.720311E0,2.0315456E0,1.2829857E1,3.3846462E1,1.6093756E1,2.1187754E0,2.2958061E1,1.104142E1,0E0,4.62946E0,1.8906992E1,3.0511024E1,8.628563E0,0E0,0E0,7.9866195E0,0E0,0E0,6.377388E0,1.19279175E1,0E0,0E0,1.5318516E1,3.5613098E0,0E0,8.330483E0,0E0,0E0,0E0,0E0,3.8673677E0,1.8631935E-1,7.8202705E0,0E0,9.637696E0,2.3847504E0,0E0,0E0,1.7654724E0,0E0,0E0,0E0,1.0051866E0,0E0,0E0,8.2461405E0,0E0,1.7704494E1,3.9043274E0,1.8536848E1,1.5054195E0,0E0,0E0,0E0,1.1712881E1,9.820601E0,7.993965E-1,7.680646E0,0E0,7.540497E0,2.1648295E0,0E0,2.8152962E0,1.6947857E1,1.8947796E1,9.247072E0,2.140869E1,8.159858E0,3.746078E0,2.8985167E0,0E0,1.9201687E1,0E0,6.341385E0,0E0,6.7459803E0,1.5178699E1,0E0,1.0937371E1,3.1342697E0,3.1858997E0,0E0,6.518879E0,1.8844495E0,7.949028E0,2.9478207E0,7.306343E0,3.4774923E0,0E0,0E0,1.8272038E1,8.677025E-1,0E0,1.0721262E1,5.28071E0,0E0,7.8192525E0,0E0,6.6733437E0,1.2107624E1,0E0,0E0,1.6408329E0,0E0,0E0,0E0,0E0,0E0,0E0,2.3096085E-2,8.370125E0,0E0,2.9763695E1,7.899681E0,5.792656E0,1.8353308E1,0E0,0E0,0E0,5.3746376E0,7.949377E0,4.001131E0,0E0,1.230978E0,1.130999E1,6.951344E0,0E0,2.8738022E-2,0E0,0E0,1.7939209E1,0E0,1.4863297E1,0E0,0E0,1.297699E1,2.7434635E0,5.101136E0,5.326227E0,2.9481106E0,0E0,1.3153964E1,0E0,0E0,0E0,9.536003E0,8.505321E0,0E0,8.657425E0,9.815275E0,0E0,0E0,3.357485E1,1.5247644E1,1.5362803E1,1.6968935E1,4.664566E0,1.5605634E1,6.468476E0,1.988718E0,1.0756248E1,0E0,0E0,4.2882104E0,1.2037531E1,0E0,0E0,0E0,6.7577944E0,0E0,0E0,0E0,3.592474E0,0E0,0E0,1.0448478E1,0E0,0E0,0E0,0E0,0E0,0E0,2.4108963E1,7.7049637E-1,0E0,8.120126E0,0E0,0E0,0E0,0E0,1.1935902E1,8.492756E-1,3.210823E0,1.1516073E1,3.937149E-1,1.5700722E1,1.1477669E1,5.87027E0,9.677913E0,7.19016E0,5.305851E0,6.478623E0,8.509188E0,4.0283446E0,0E0,4.910532E0,0E0,9.799725E0,9.986635E0,0E0,0E0,1.1570538E1,1.0617375E0,0E0,0E0,0E0,7.9793158E0,2.0739279E0,1.1620266E1,2.2619184E1,1.0235945E1,0E0,0E0,0E0,9.1031647E-1,1.104723E1,7.63752E-1,7.523096E0,3.247554E0,9.400778E0,0E0,4.5395E0,5.427736E0,0E0,7.591755E0,0E0,0E0,3.849114E0,1.3578959E1,1.5269775E0,6.1104794E0,7.6429276E0,9.0295725E0,1.0056019E0,0E0,8.054445E0,2.0166508E1,1.9868889E0,0E0,3.3530931E0,0E0,7.6042247E-1,0E0,5.8452654E0,3.2461927E0,0E0,0E0,0E0,1.7119598E-1,8.857345E0,8.460667E0,0E0,5.924648E0,0E0,0E0,0E0,9.155058E0,4.0793247E0,8.793049E0,0E0,2.0613989E1,1.9935417E0,7.7194824E0,2.2156262E0,0E0,5.0208607E0,1.1883583E0,1.4642762E1,0E0,0E0,0E0,1.9777641E0,0E0,1.3382097E1,6.7733483E0,0E0,0E0,2.0257847E1,4.6474338E0,6.318035E-1,0E0,1.3047825E1,1.0916047E1,0E0,0E0,5.1951456E0,1.2994716E1,4.7331896E0,0E0,4.637598E0,1.9008339E1,1.4090223E0,0E0,1.6678619E0,0E0,0E0,0E0,0E0,9.9451613E-1,0E0,0E0,1.1872259E1,0E0,0E0,1.7773901E1,0E0,5.843396E0,2.6683537E1,4.5560303E0,0E0,6.359252E0,1.4594173E0,0E0,5.3845463E0,5.4484215E0,0E0,0E0,0E0,0E0,1.208234E1,0E0,5.5928764E0,9.714947E-1,1.0083789E1,5.3119273E0,0E0,2.7685028E1,0E0,8.108098E0,2.8040667E0,1.0743039E1,0E0,5.867214E-1,6.997715E0,1.0893731E1,3.1815586E0,2.394538E0,3.1273794E0,6.112576E0,0E0,8.7508965E-1,1.3421658E1,2.7962575E0,1.4811622E1,3.3362713E0,0E0,0E0,2.0393707E1,0E0,1.9871454E1,0E0,0E0,0E0,0E0,6.96933E0,0E0,0E0,0E0,1.4688857E1,9.336582E0,1.3070757E1,2.9634762E-1,0E0,0E0,0E0,0E0,0E0,4.8040524E0,7.8955536E0,0E0,7.7792025E0,1.061213E1,1.4810234E-2,0E0,2.5569656E1,2.276565E1,0E0,4.70697E0,0E0,0E0,3.427032E0,0E0,0E0,8.347942E0,9.578831E0,0E0,7.2242045E0,6.3203163E0,0E0,1.1040036E1,0E0,2.1904558E1,0E0,0E0,1.0145613E1,0E0,1.3576997E1,1.3409615E0,0E0,9.827409E0,0E0,8.591163E0,2.5585642E1,0E0,0E0,9.934057E0,0E0,0E0,1.4436069E1,0E0,0E0,5.111867E0,0E0,1.1466044E1,0E0,1.0936348E1,3.4086933E0,1.1078363E1,2.036511E1,0E0,1.0093789E1,6.801739E-1,9.535248E0,9.239807E-1,9.279186E0,5.509092E0,1.5177536E-1,0E0,0E0,0E0,1.8658834E1,6.4600773E0,0E0,0E0,0E0,0E0,1.1660317E1,5.6998134E-1,8.417593E0,0E0,0E0,0E0,3.9010499E0,1.870653E1,9.534376E0,1.0217163E1,9.621186E0,0E0,0E0,0E0,1.5593094E1,1.1210178E1,3.7451744E-1,0E0,0E0,1.3954748E1,0E0,1.1178152E1,1.731387E1,0E0,0E0,1.3093256E1,1.2449556E1,0E0,9.174496E0,2.4906349E-1,0E0,0E0,0E0,2.090806E0,4.512477E0,0E0,0E0,7.558665E0,6.523857E-1,5.8146725E0,0E0,0E0,0E0,0E0,0E0,0E0,6.8536673E0,3.9008617E-1,4.134363E0,0E0,0E0,0E0,0E0,0E0,0E0,0E0,0E0,6.9552803E0,0E0,9.554653E-1,0E0,6.0000534E0,0E0,0E0,1.3585323E1,1.0266596E1,0E0,8.162136E0,0E0,0E0,8.035394E0,0E0,1.0807504E1,0E0,0E0,0E0,0E0,0E0,0E0,4.2130623E0,1.0104754E1,0E0,0E0,5.8187323E0,0E0,0E0,1.3187364E1,0E0,5.8287587E0,0E0,1.3924961E1,4.3158817E-1,0E0,5.5013013E0,7.8004646E0,9.945023E0,0E0,2.164526E-1,1.1986256E1,9.115944E-1,0E0,0E0,0E0,0E0,0E0,0E0,1.1649637E0,5.804385E0,0E0,6.808362E0,1.324201E1,4.6432915E0,0E0,7.9511166E-1,0E0,0E0,1.5318121E1,0E0,0E0,3.61616E0,0E0,2.010971E0,0E0,0E0,0E0,0E0,1.2397209E1,5.4052258E0,1.1431313E0,9.404005E0,0E0,0E0,0E0,0E0,2.165473E0,0E0,0E0,0E0,1.6940384E0,1.978546E1,0E0,0E0,1.7085571E0,3.6249287E1,0E0,0E0,0E0,0E0,2.8514977E1,1.0102687E1,0E0,0E0,4.321245E0,0E0,0E0,2.1272416E0,0E0,0E0,1.1819811E0,0E0,0E0,0E0,0E0,1.3074728E1,0E0,0E0,0E0,9.6253E0,0E0,0E0,3.150025E0,0E0,0E0,0E0,0E0,9.294242E0,6.2302656E0,0E0,0E0,0E0,4.4480896E-1,8.212955E0,1.6556511E0,7.708308E0,8.365953E0,0E0,0E0,3.366537E-1,1.3691668E1,0E0,2.0671648E1,1.2033913E1,9.1994095E-1,9.812882E0,0E0,0E0,0E0,0E0,0E0,0E0,0E0,2.2564974E0,6.037903E0,0E0,0E0,1.3346315E1,0E0,0E0,2.3958864E0,0E0,0E0,0E0,6.6461277E-1,0E0,0E0,0E0,3.3237E0,0E0,0E0,0E0,0E0,0E0,0E0,0E0,3.0102444E-1,0E0,0E0,0E0,1.5087849E1,9.64471E0,0E0,0E0,1.7399559E1,1.1772367E1,0E0,5.035759E0,2.0239964E0,6.640024E0,7.603518E0,0E0,0E0,8.341579E0,0E0,0E0,4.0933895E-1,1.140548E1,0E0,0E0,0E0,6.2842145E0,0E0,7.8959064E0,0E0,0E0,0E0,1.737195E0,1.2508781E1,1.5280151E-1,0E0,1.6081371E0,0E0,3.0668907E0,9.633404E0,9.081381E0,1.1819E0,1.856352E1,0E0,0E0,0E0,0E0,0E0,1.1958791E1,0E0,0E0,0E0,1.0193121E1,0E0,6.2776756E-1,4.2945633E0,0E0,0E0,0E0,0E0,0E0,7.0834255E0,0E0,9.7073555E-1,3.2704926E-1,1.4107752E0,0E0,0E0,0E0,0E0,1.5325807E1,7.419771E0,9.569181E0,2.4015462E0,7.362402E0,1.2943821E1,0E0,0E0,5.5023212E0,9.346741E0,0E0,0E0,0E0,0E0,7.02507E0,1.6449968E0,0E0,0E0,0E0,5.789552E0,0E0,0E0,0E0,0E0,0E0,0E0,0E0,2.0453606E1,0E0,9.848575E0,5.607441E0,0E0,0E0,0E0,6.056318E0,1.1052612E1,2.8372234E1,0E0,0E0,0E0,2.819231E0,6.5077543E0,0E0,0E0,0E0,3.130457E0,3.8872814E-1,0E0,0E0,3.9457846E0,0E0,1.5265427E0,2.7271538E0,0E0,0E0,0E0,0E0,8.336437E0,2.967968E-1,0E0,0E0,0E0,7.2281933E0,0E0,5.4367065E-1,0E0,4.041643E-1,5.9152603E-1,4.9956303E0,0E0,0E0,6.3710938E0,0E0,0E0,0E0,0E0,0E0,0E0,0E0,0E0,0E0,6.894925E0,0E0,1.602354E1,1.1492247E1,9.424236E0,0E0,1.7094322E1,0E0,5.8884473E0,0E0,0E0,2.4960388E1,0E0,0E0,0E0,9.143456E0,0E0,0E0,0E0,6.5428867E0,0E0,0E0,8.811607E0,8.938139E0,0E0,5.4462457E0,1.3335497E1,0E0,0E0,1.2173294E1,0E0,0E0,1.967041E0,5.057995E0,0E0,0E0,1.1156129E1,1.275663E1,0E0,0E0,0E0,0E0,0E0,0E0,0E0,0E0,4.24271E0,1.1668261E1,9.765476E0,0E0,2.6289692E0,0E0,0E0,4.6483517E-1,1.4544559E1,8.61846E0,0E0,0E0,0E0,6.7714524E-1,0E0,0E0,8.218318E0,0E0,0E0,0E0,0E0,0E0,0E0,1.2352158E1,2.064096E0,5.930609E0,0E0,0E0,7.552169E0,0E0,0E0,0E0,7.504053E0,0E0,5.700856E0,0E0,3.938342E0,5.3843677E-2,7.750263E-1,0E0,0E0,0E0,0E0,6.2246714E0,0E0,2.4025097E0,0E0,2.6958328E-1,1.6579175E-1,0E0,0E0,0E0,0E0,2.7682045E0,0E0,0E0,1.2169552E0,0E0,0E0,0E0,0E0,0E0,6.0929203E-1,8.815638E-1,0E0,0E0,5.4329205E0,1.1513442E1,5.385104E0,7.160916E0,0E0,0E0,7.9568343E0,0E0,9.85746E0,1.4101123E1,1.0699045E1,0E0,9.024139E0,0E0,0E0,8.498405E0,0E0,0E0,0E0,1.9315047E0,0E0,2.938703E0,5.1210146E0,4.420351E0,0E0,0E0,7.4088035E0,0E0,0E0,6.1367908E0,3.5467126E0,4.243102E0,0E0,7.2658367E0,0E0,1.1378006E1,1.7026875E1,2.8069906E0,0E0,0E0,3.3093545E0,0E0,1.281098E1,9.10162E0,7.9468956E0,1.477777E0,9.324576E0,1.5592714E1,1.2424605E1,8.142652E0,0E0,0E0,0E0,0E0,0E0,0E0,0E0,0E0,0E0,0E0,0E0,0E0,0E0,0E0,0E0,0E0,0E0,0E0,0E0,0E0,0E0,0E0,0E0,0E0,0E0,0E0,0E0,2.569801E0,0E0,0E0,0E0,0E0,0E0,6.08715E0,0E0,0E0,4.2908585E-1,0E0,0E0,0E0,0E0,0E0,0E0,0E0,0E0,0E0,0E0,0E0,0E0,0E0,0E0,0E0,0E0,0E0,0E0,0E0,0E0,0E0,0E0,0E0],"parents":[2147483647,0,0,1,1,2,2,3,3,4,4,5,5,7,7,8,8,9,9,10,10,12,12,13,13,14,14,15,15,17,17,18,18,19,19,20,20,21,21,22,22,23,23,25,25,26,26,27,27,28,28,30,30,31,31,32,32,33,33,34,34,35,35,36,36,37,37,40,40,42,42,43,43,44,44,45,45,47,47,49,49,50,50,51,51,53,53,55,55,56,56,57,57,58,58,59,59,60,60,61,61,62,62,63,63,64,64,65,65,66,66,67,67,68,68,69,69,71,71,72,72,73,73,74,74,75,75,77,77,79,79,80,80,82,82,85,85,87,87,88,88,89,89,90,90,91,91,92,92,93,93,94,94,95,95,96,96,97,97,98,98,99,99,100,100,101,101,102,102,104,104,105,105,106,106,107,107,110,110,113,113,114,114,117,117,118,118,120,120,125,125,126,126,127,127,129,129,130,130,133,133,137,137,140,140,142,142,143,143,144,144,145,145,149,149,150,150,151,151,152,152,154,154,155,155,157,157,158,158,159,159,160,160,161,161,162,162,163,163,164,164,166,166,168,168,170,170,171,171,173,173,174,174,175,175,177,177,178,178,179,179,180,180,181,181,182,182,185,185,186,186,188,188,189,189,191,191,193,193,194,194,197,197,204,204,205,205,207,207,208,208,209,209,210,210,214,214,215,215,216,216,218,218,219,219,220,220,222,222,225,225,227,227,230,230,231,231,232,232,233,233,234,234,236,236,240,240,241,241,243,243,244,244,247,247,248,248,249,249,250,250,251,251,252,252,253,253,254,254,255,255,258,258,259,259,263,263,267,267,270,270,277,277,278,278,280,280,285,285,286,286,287,287,288,288,289,289,290,290,291,291,292,292,293,293,294,294,295,295,296,296,297,297,298,298,300,300,302,302,303,303,306,306,307,307,311,311,312,312,313,313,314,314,315,315,319,319,320,320,321,321,322,322,323,323,324,324,326,326,327,327,329,329,332,332,333,333,334,334,335,335,336,336,337,337,338,338,340,340,341,341,342,342,344,344,346,346,348,348,349,349,353,353,354,354,355,355,357,357,361,361,362,362,363,363,365,365,366,366,367,367,368,368,370,370,371,371,372,372,376,376,378,378,379,379,382,382,383,383,384,384,386,386,387,387,390,390,391,391,392,392,394,394,395,395,396,396,398,398,403,403,406,406,409,409,411,411,412,412,413,413,415,415,416,416,418,418,419,419,424,424,426,426,427,427,428,428,429,429,431,431,433,433,434,434,435,435,437,437,438,438,439,439,440,440,441,441,442,442,443,443,445,445,446,446,447,447,448,448,449,449,452,452,454,454,459,459,463,463,464,464,465,465,466,466,472,472,473,473,475,475,476,476,477,477,479,479,480,480,482,482,485,485,488,488,489,489,491,491,492,492,494,494,496,496,499,499,501,501,502,502,504,504,506,506,507,507,510,510,513,513,516,516,518,518,520,520,521,521,522,522,523,523,525,525,526,526,527,527,528,528,529,529,530,530,531,531,535,535,536,536,541,541,542,542,543,543,547,547,548,548,549,549,550,550,551,551,555,555,556,556,557,557,560,560,562,562,563,563,566,566,567,567,569,569,570,570,574,574,575,575,578,578,579,579,580,580,587,587,588,588,589,589,598,598,600,600,602,602,605,605,606,606,608,608,611,611,613,613,620,620,621,621,624,624,627,627,629,629,631,631,632,632,634,634,635,635,636,636,638,638,639,639,640,640,647,647,648,648,650,650,651,651,652,652,654,654,657,657,660,660,662,662,667,667,668,668,669,669,670,670,675,675,679,679,680,680,683,683,684,684,689,689,690,690,693,693,696,696,699,699,704,704,708,708,711,711,716,716,717,717,721,721,722,722,723,723,724,724,725,725,728,728,729,729,731,731,732,732,733,733,734,734,742,742,743,743,746,746,749,749,753,753,757,757,765,765,769,769,770,770,773,773,774,774,776,776,777,777,778,778,779,779,782,782,785,785,786,786,790,790,792,792,796,796,